-8.126966655254364014e-03,5.445642024278640747e-02,8.557424694299697876e-02,-8.591279387474060059e-03,-7.340805232524871826e-02,5.627682060003280640e-02,-5.924793332815170288e-02,7.896647602319717407e-02,-7.521563023328781128e-02,-3.314699605107307434e-02,6.594400852918624878e-02,4.873368889093399048e-02,-8.495924621820449829e-02,7.714606821537017822e-03,7.417381554841995239e-02,3.928611427545547485e-02,-3.702612593770027161e-02,-1.962214708328247070e-03,-3.891443461179733276e-02,1.649720221757888794e-02,6.302826851606369019e-02,-5.429930612444877625e-02,6.671389192342758179e-02,1.045578718185424805e-02,5.663422495126724243e-02,2.685929089784622192e-02,-4.891374707221984863e-02,-5.086297914385795593e-02,4.190630465745925903e-02,-6.989024579524993896e-03,-6.217278540134429932e-02,1.102282851934432983e-02,8.269499987363815308e-02,-3.192037343978881836e-03,-3.663913533091545105e-02,-6.984613835811614990e-02,-6.274354457855224609e-02,2.487346529960632324e-03,-8.521242439746856689e-02,-4.526173323392868042e-02,5.939576774835586548e-02,-1.804748922586441040e-02,-1.981621980667114258e-02,-6.790831685066223145e-03,-3.226090222597122192e-02,4.581839591264724731e-02,-4.353427886962890625e-02,3.692913800477981567e-02,-4.417444765567779541e-02,4.554142802953720093e-02,-8.398421853780746460e-02,-7.620242983102798462e-02,-5.577483028173446655e-02,-5.431055277585983276e-02,5.005642026662826538e-02,2.537578344345092773e-03,7.620006054639816284e-02,-4.596127197146415710e-02,-7.866531610488891602e-03,7.471060007810592651e-02,6.068632751703262329e-02,7.135459035634994507e-02,4.311392456293106079e-02,2.433467656373977661e-02,-3.178483992815017700e-02,-6.638491153717041016e-02,-7.846877723932266235e-02,-3.781864419579505920e-02,-7.745824009180068970e-02,6.938002258539199829e-02,8.903786540031433105e-03,1.495703309774398804e-02,-3.941057622432708740e-02,1.925721764564514160e-03,-4.470385238528251648e-02,3.042352199554443359e-02,5.248710513114929199e-03,8.570799976587295532e-02,6.583363562822341919e-02,-1.615345478057861328e-02,-7.575249671936035156e-02,-7.081846892833709717e-02,-2.090205252170562744e-02,-5.677778273820877075e-02,-3.266527131199836731e-02,2.600678801536560059e-02,3.126420825719833374e-02,-3.700570017099380493e-02,1.737082004547119141e-02,7.553214579820632935e-02,-8.276706933975219727e-02,-2.885058149695396423e-02,1.563582569360733032e-02,-7.526677846908569336e-02,-7.620539516210556030e-02,-2.667114511132240295e-02,6.572807580232620239e-02,-1.348173618316650391e-02,2.492741495370864868e-02,2.889547497034072876e-02,7.735525816679000854e-02,8.516754955053329468e-02,-1.340805739164352417e-02,4.645913094282150269e-02,8.274600654840469360e-02,4.810955375432968140e-02,-9.015433490276336670e-03,-6.561809033155441284e-02,7.946237176656723022e-02,-1.270853728055953979e-02,1.935123652219772339e-02,-2.641547098755836487e-02,-3.933042287826538086e-03,-7.142261415719985962e-02,2.644801884889602661e-02,-4.765266552567481995e-02,3.056534379720687866e-02,6.354116648435592651e-02,7.420435547828674316e-03,3.739526867866516113e-02,1.637306064367294312e-02,5.831421166658401489e-02,3.468088805675506592e-02,7.943079620599746704e-02,-6.098440289497375488e-02,-5.251366645097732544e-02,6.119981408119201660e-03,1.622447371482849121e-02,5.425445735454559326e-03,6.199298053979873657e-02,-4.697418212890625000e-02,-7.475557178258895874e-02,-1.588583737611770630e-02,-4.113447293639183044e-02,-5.731814354658126831e-02,-7.986546307802200317e-02,3.705963492393493652e-03,1.857499033212661743e-02,-7.864341139793395996e-02,-8.388204127550125122e-02,-2.111548930406570435e-02,-8.196979016065597534e-02,-5.713614821434020996e-02,5.246830731630325317e-02,-6.865528225898742676e-02,-7.907772809267044067e-02,5.109459161758422852e-03,-6.092006713151931763e-02,3.273968398571014404e-02,1.146405935287475586e-02,4.611209779977798462e-02,2.560801804065704346e-03,3.008611500263214111e-03,2.803299576044082642e-02,6.702715903520584106e-02,3.118596971035003662e-02,7.863213866949081421e-02,7.361631840467453003e-02,1.195437461137771606e-02,1.029511541128158569e-02,5.638343840837478638e-02,2.243980765342712402e-02,-8.337592333555221558e-02,-6.408636271953582764e-02,-2.569693699479103088e-02,-5.454102158546447754e-02,5.853966623544692993e-02,-5.345704779028892517e-02,4.028961062431335449e-03,-2.247087657451629639e-03,-8.202578127384185791e-02,-1.687061786651611328e-02,5.994518846273422241e-02,-6.678313016891479492e-03,-7.713690400123596191e-03,-8.490901440382003784e-02,-6.974696367979049683e-02,3.294329345226287842e-02,1.511543989181518555e-02,-3.818038478493690491e-02,-2.661570161581039429e-02,-1.619201153516769409e-02,-2.066664397716522217e-03,-8.447778224945068359e-02,3.788756579160690308e-02,8.066128939390182495e-02,-5.024419352412223816e-02,3.778149932622909546e-02,-7.216725498437881470e-02,2.985315024852752686e-02,-5.521414428949356079e-02,2.726487070322036743e-02,5.434761196374893188e-02,-9.244099259376525879e-03,4.685539752244949341e-02,-6.092002615332603455e-02,7.245085388422012329e-02,-4.606198146939277649e-02,8.347270637750625610e-02,-5.233228579163551331e-02,-6.976861506700515747e-02,5.909476429224014282e-02,1.631996780633926392e-02,-3.494289889931678772e-02,-5.767147988080978394e-02,2.816042304039001465e-02,3.891912102699279785e-02,-2.179994434118270874e-02,-8.384563028812408447e-02,-4.322730749845504761e-02,3.186980634927749634e-02,1.428394764661788940e-02,8.307557553052902222e-02,5.388150364160537720e-02,-7.413916289806365967e-02,4.252525418996810913e-02,-1.306154578924179077e-02,-6.195706129074096680e-02,3.920926153659820557e-02,-6.007063016295433044e-02,-2.021940052509307861e-02,-4.966703429818153381e-02,1.577322930097579956e-02,-3.464940190315246582e-02,3.094658255577087402e-02,8.024521917104721069e-02,2.990399301052093506e-02,-5.683013796806335449e-02,6.625144928693771362e-02,6.083107739686965942e-02,5.806515365839004517e-02,-3.447983786463737488e-02,6.298259645700454712e-02,3.002418577671051025e-02,2.845793962478637695e-03,-3.514419496059417725e-02,2.476570010185241699e-02,4.832110553979873657e-02,-6.563746929168701172e-02,-2.812206745147705078e-03,6.020819395780563354e-02,-6.163677945733070374e-02,8.508950471878051758e-03,-4.898229613900184631e-02,7.603248208761215210e-02,4.076866060495376587e-02,-3.957744315266609192e-02,3.135395795106887817e-02,-4.179606959223747253e-02,3.217315673828125000e-02,-3.705985844135284424e-02,-7.867681980133056641e-02,5.148494988679885864e-02,2.045162022113800049e-03,-8.078798651695251465e-03,2.677085250616073608e-02,-2.279531210660934448e-02,3.175887465476989746e-02,2.726014703512191772e-02,3.685752302408218384e-02,3.416127711534500122e-02,6.250695139169692993e-02,6.257704645395278931e-02,-2.866224944591522217e-02,2.328652143478393555e-02,-1.409731805324554443e-02,4.384719580411911011e-02,-6.905220448970794678e-03,-2.885328233242034912e-02,3.886321932077407837e-02,-6.929559260606765747e-02,8.532886952161788940e-02,-3.230118006467819214e-02,-3.805459290742874146e-02,-8.264146000146865845e-02,-7.161579281091690063e-02,-6.920443475246429443e-02,9.254530072212219238e-03,-3.315903991460800171e-02,-6.178835406899452209e-02,2.758754044771194458e-02,3.718332201242446899e-02,-1.222247630357742310e-02,7.194889336824417114e-02,-3.594452515244483948e-02,3.847586363554000854e-02,-3.484067693352699280e-02,6.906748563051223755e-02,9.056180715560913086e-04,1.569686830043792725e-02,-5.944278836250305176e-02,-4.216099902987480164e-02,3.263801336288452148e-03,-3.125764429569244385e-02,-2.417981252074241638e-02,-7.893379777669906616e-02,-6.682980060577392578e-02,-3.244287893176078796e-02,-1.736162602901458740e-02,-3.920065611600875854e-02,-2.626745402812957764e-02,-1.227293163537979126e-02,6.295873969793319702e-02,3.279568254947662354e-02,7.297345250844955444e-02,-2.974640578031539917e-02,3.622959554195404053e-02,5.075486749410629272e-02,1.997662335634231567e-02,1.468148827552795410e-02,-7.913671433925628662e-03,2.913267165422439575e-02,-8.526917546987533569e-02,6.130055338144302368e-02,-2.650199085474014282e-02,-2.079457044601440430e-05,3.739672154188156128e-02,4.869025200605392456e-02,-5.619158595800399780e-02,9.677685797214508057e-03,-1.817910373210906982e-02,5.210988968610763550e-02,5.714876204729080200e-02,8.142711967229843140e-02,5.921386182308197021e-03,7.982286065816879272e-02,4.913889616727828979e-02,4.671371728181838989e-02,-8.257988095283508301e-02,-6.738276779651641846e-02,3.260604292154312134e-02,1.263978332281112671e-02,2.395447343587875366e-02,-6.986400485038757324e-02,-4.489386081695556641e-02,1.508358865976333618e-02,-7.858850061893463135e-02,-2.700303867459297180e-02,-7.097212225198745728e-02,3.251678496599197388e-02,4.120982438325881958e-02,8.354540914297103882e-02,7.284431904554367065e-02,-8.241534233093261719e-03,9.525045752525329590e-03,-4.963301494717597961e-02,6.200679391622543335e-02,2.937855571508407593e-02,-1.201853156089782715e-03,-3.063315525650978088e-02,-1.636533439159393311e-02,-6.384225934743881226e-02,-6.842800229787826538e-02,6.470132619142532349e-02,1.685575395822525024e-02,8.069723844528198242e-03,2.570466697216033936e-02,-6.465546786785125732e-03,6.902462989091873169e-02,2.965915203094482422e-02,6.304431706666946411e-02,4.549551755189895630e-02,4.743162542581558228e-02,7.456682622432708740e-03,-7.977665215730667114e-02,6.833312660455703735e-02,-1.183822751045227051e-03,5.387320369482040405e-02,9.548537433147430420e-03,3.408996760845184326e-02,6.853781640529632568e-03,-4.707306995987892151e-02,8.188011497259140015e-02,-4.414780810475349426e-02,-6.089400127530097961e-02,2.796957641839981079e-02,5.521786957979202271e-02,6.969436258077621460e-02,7.466599345207214355e-03,-5.442050099372863770e-02,-5.006530880928039551e-02,6.163293868303298950e-02,-1.300420612096786499e-02,-2.458902448415756226e-02,-4.031934216618537903e-02,-5.983807891607284546e-02,-3.012822195887565613e-02,2.779468148946762085e-02,-5.216472595930099487e-02,3.973377496004104614e-02,8.439252525568008423e-02,-3.375907614827156067e-02,1.324632018804550171e-02,8.493638783693313599e-02,2.037675678730010986e-02,6.298477202653884888e-02,2.246090024709701538e-02,4.802366346120834351e-02,7.838816195726394653e-02,7.862108200788497925e-02,-1.100048422813415527e-02,7.657863944768905640e-02,5.690809339284896851e-02,-4.369086027145385742e-02,2.612025290727615356e-02,7.218068093061447144e-02,-8.535627275705337524e-02,2.084307372570037842e-02,5.540930479764938354e-02,2.091670781373977661e-02,-2.749169617891311646e-02,4.864502698183059692e-02,2.704204618930816650e-02,6.970096379518508911e-02,-5.463467538356781006e-02,-5.218966677784919739e-02,1.143766194581985474e-02,1.622065901756286621e-04,-8.568201214075088501e-02,3.873297572135925293e-02,-8.297079801559448242e-02,6.214465945959091187e-02,-1.563373953104019165e-02,-4.435660690069198608e-02,2.128094434738159180e-02,-1.334600895643234253e-02,-8.035025745630264282e-02,-7.724835723638534546e-02,1.814875006675720215e-02,-6.655185669660568237e-02,-1.975609362125396729e-02,4.687983542680740356e-02,-8.284522593021392822e-02,5.368307977914810181e-02,-5.162869766354560852e-02,-5.294032394886016846e-03,2.807789295911788940e-02,6.010831147432327271e-02,-3.984131664037704468e-02,8.342235535383224487e-02,-3.663112223148345947e-02,-5.104366689920425415e-02,-1.010431349277496338e-02,-8.507520705461502075e-02,7.431463152170181274e-02,7.858464866876602173e-02,2.607458084821701050e-02,4.956757277250289917e-02,-1.730605959892272949e-03,7.566799968481063843e-02,-8.557784557342529297e-02,-6.539328396320343018e-02,6.899588555097579956e-02,-5.279913172125816345e-02,-2.867243066430091858e-02,-4.247121885418891907e-02,-6.506831943988800049e-02,3.205043077468872070e-02,6.971067935228347778e-02,3.921999782323837280e-02,1.994507759809494019e-02,7.121235877275466919e-02,-4.703130200505256653e-02,1.830160617828369141e-04,-5.662275105714797974e-02,4.597223550081253052e-02,7.281901687383651733e-02,-2.973606437444686890e-02,-5.169884115457534790e-02,4.024905711412429810e-02,-1.868307590484619141e-02,2.142460644245147705e-02,1.532274484634399414e-02,7.523757964372634888e-02,6.472603231668472290e-02,-4.914002493023872375e-02,-2.803256735205650330e-02,-2.760998532176017761e-02,-4.852557182312011719e-02,-2.021242678165435791e-02,2.193691581487655640e-02,-2.874195575714111328e-03,7.958900183439254761e-02,-3.480207920074462891e-02,-2.123766392469406128e-02,-5.872227251529693604e-02,6.197138875722885132e-02,-6.694342195987701416e-02,-7.678598910570144653e-02,5.207749456167221069e-02,-2.180773019790649414e-02,6.113148480653762817e-02,1.606269925832748413e-02,9.404465556144714355e-03,1.700429618358612061e-02,-1.568995416164398193e-03,-5.527435243129730225e-02,3.292804211378097534e-02,6.752829998731613159e-02,-8.572725206613540649e-02,-1.077592372894287109e-02,7.925463467836380005e-02,4.500434547662734985e-02,2.390393614768981934e-02,-8.009433746337890625e-03,-3.404492884874343872e-02,-4.574299231171607971e-02,2.898862212896347046e-02,7.886291295289993286e-02,3.235179930925369263e-02,8.343467861413955688e-02,-2.484907582402229309e-02,2.246225625276565552e-02,7.708611339330673218e-02,1.843629777431488037e-02,6.343292444944381714e-02,-5.017282441258430481e-02,3.352421522140502930e-02,-7.080850750207901001e-02,3.789740055799484253e-02,-5.173648148775100708e-02,1.275062561035156250e-03,4.716957360506057739e-02,3.347189724445343018e-02,-4.887026175856590271e-02,-5.055893585085868835e-02,-1.143287867307662964e-02,-3.255376592278480530e-02,-5.394443497061729431e-02,1.502162218093872070e-02,-6.454624235630035400e-02,-6.228488311171531677e-02,5.976048856973648071e-02,7.195851951837539673e-02,-7.496062666177749634e-02,-5.900495499372482300e-02,-1.366615295410156250e-03,-8.334292471408843994e-02,-2.654291689395904541e-03,-6.300631910562515259e-02,-5.995587632060050964e-02,7.041505724191665649e-02,1.127036660909652710e-02,1.051622629165649414e-02,1.864631474018096924e-02,3.909559547901153564e-02,-4.233718663454055786e-02,5.686154216527938843e-02,-7.693096995353698730e-03,4.640198498964309692e-02,-5.971287563443183899e-02,-2.329476177692413330e-02,-1.531945168972015381e-02,-3.971135243773460388e-02,-7.119161635637283325e-02,2.825538814067840576e-02,7.189661264419555664e-03,8.081354945898056030e-02,8.322260528802871704e-02,-2.681896090507507324e-03,-5.621998012065887451e-02,4.597841948270797729e-02,4.760349541902542114e-02,-5.405223742127418518e-02,7.708729058504104614e-02,8.784659206867218018e-03,-1.247038692235946655e-02,5.500908941030502319e-02,-1.250293105840682983e-02,3.109270334243774414e-02,-1.041439175605773926e-02,6.694526225328445435e-02,6.908854097127914429e-02,-3.423814475536346436e-02,-4.850012063980102539e-02,-1.816265285015106201e-03,-5.169209465384483337e-02,2.746822685003280640e-02,3.306843340396881104e-02,8.348355442285537720e-02,-7.370903342962265015e-02,6.489872932434082031e-03,-6.283928453922271729e-02,5.554129928350448608e-02,7.373239845037460327e-02,-2.900765463709831238e-02,-1.780740916728973389e-02,7.968904823064804077e-02,7.984671741724014282e-02,-1.791889220476150513e-02,3.542289137840270996e-03,-1.483000814914703369e-03,-7.387432456016540527e-02,2.862962335348129272e-02,5.678293853998184204e-02,-7.137886434793472290e-02,4.089638590812683105e-03,3.271497040987014771e-02,1.022242009639739990e-02,-6.480859965085983276e-02,6.747702509164810181e-02,-2.843049541115760803e-02,-2.946153655648231506e-02,-3.972496837377548218e-02,-6.261806190013885498e-02,-6.190633773803710938e-02,-4.035734757781028748e-02,5.624159425497055054e-02,-5.733253434300422668e-02,-7.782875001430511475e-02,-6.758239120244979858e-02,8.022236078977584839e-02,3.087509423494338989e-02,2.557457983493804932e-02,-7.518633455038070679e-02,8.012359589338302612e-02,-4.609577730298042297e-02,-5.360174924135208130e-02,-8.414797484874725342e-02,-5.870011076331138611e-02,-1.879797130823135376e-02,-4.171981289982795715e-02,-2.129732072353363037e-02,3.774592280387878418e-02,-2.006447315216064453e-02,-2.880638092756271362e-02,3.880094736814498901e-02,-5.373886972665786743e-02,3.964883834123611450e-02,7.633026689291000366e-02,4.978499561548233032e-02,5.240947753190994263e-02,-6.235322728753089905e-02,2.567730844020843506e-02,3.172317892313003540e-02,1.412256062030792236e-02,8.226118236780166626e-02,2.661451697349548340e-03,2.117751538753509521e-02,-1.345483213663101196e-02,-6.950423121452331543e-02,1.646569371223449707e-02,-2.917531877756118774e-02,8.336653560400009155e-02,-4.070547223091125488e-02,-5.776566639542579651e-02,4.597947001457214355e-03,6.295604258775711060e-02,6.464294344186782837e-02,-2.966659143567085266e-02,4.136504977941513062e-02,6.353887170553207397e-02,-5.949007719755172729e-02,-1.776202023029327393e-02,-7.309386879205703735e-02,-8.542624861001968384e-02,-5.652145296335220337e-02,5.800911039113998413e-02,5.199272185564041138e-02,6.125874072313308716e-02,6.035402417182922363e-03,5.116192251443862915e-02,-6.082479655742645264e-02,-2.509501948952674866e-02,-1.183006912469863892e-02,-7.255348563194274902e-02,6.540946662425994873e-03,-4.279945045709609985e-02,-6.955899298191070557e-03,-7.854585349559783936e-02,-8.449558913707733154e-02,2.164337784051895142e-02,-2.924724295735359192e-02,7.209531962871551514e-03,6.607133895158767700e-02,5.965314060449600220e-02,2.465816587209701538e-02,3.030880540609359741e-02,-7.794664800167083740e-02,-5.893568694591522217e-02,2.161118388175964355e-02,-5.189510807394981384e-02,-5.197226256132125854e-02,5.075117200613021851e-02,-2.762442082166671753e-02,-5.004449561238288879e-02,4.893048852682113647e-02,-6.117179989814758301e-03,-1.809479296207427979e-02,2.542478591203689575e-02,8.506713062524795532e-02,-6.421185284852981567e-02,5.678970366716384888e-02,6.411807984113693237e-02,4.484242945909500122e-02,-5.680405348539352417e-02,1.972287148237228394e-02,8.343840390443801880e-02,-2.144233137369155884e-02,-6.712999939918518066e-02,-8.212900906801223755e-02,2.905586361885070801e-02,6.337764114141464233e-02,-9.556919336318969727e-03,7.900967448949813843e-02,5.715716630220413208e-02,9.879998862743377686e-03,-2.902016788721084595e-02,5.408089607954025269e-02,6.181105226278305054e-02,5.886688083410263062e-02,3.260481357574462891e-02,-6.676696985960006714e-02,3.795190155506134033e-02,-4.945326969027519226e-02,-4.257372766733169556e-02,-4.620686918497085571e-02,2.429751306772232056e-02,-2.470833808183670044e-02,5.705238133668899536e-02,-1.356054842472076416e-02,2.825699746608734131e-03,3.063475340604782104e-02,2.332426607608795166e-02,5.544655025005340576e-03,-3.693486377596855164e-02,8.058372884988784790e-02,4.394473880529403687e-02,2.948175370693206787e-02,3.866378962993621826e-02,5.069270730018615723e-03,8.192796260118484497e-02,-6.798101216554641724e-02,5.988150835037231445e-03,6.978638470172882080e-03,-3.589555993676185608e-02,-7.605490833520889282e-02,-5.647483840584754944e-02,2.063443511724472046e-02,-5.078134685754776001e-02,7.039321213960647583e-02,6.341027468442916870e-02,-5.819695815443992615e-02,-1.483815163373947144e-02,-5.103901028633117676e-03,-2.201859652996063232e-02,-3.329705819487571716e-02,-1.799729466438293457e-02,6.608585268259048462e-02,-1.355063915252685547e-02,-6.157771497964859009e-02,7.939862459897994995e-02,6.349679082632064819e-02,6.955162435770034790e-02,5.440881103277206421e-02,-8.311513066291809082e-02,4.952964931726455688e-02,7.638268917798995972e-02,5.402895063161849976e-02,-6.756593286991119385e-02,7.562143355607986450e-02,-5.865899473428726196e-02,-4.794701933860778809e-02,3.364650905132293701e-02,-6.960777938365936279e-02,-1.877965778112411499e-02,8.328367024660110474e-02,-4.088010638952255249e-02,6.055906414985656738e-03,9.845487773418426514e-03,-7.476194947957992554e-02,-2.528228983283042908e-02,-2.257610857486724854e-02,-5.906505882740020752e-02,3.206554055213928223e-02,-7.291741669178009033e-03,-6.255032867193222046e-02,-2.442596107721328735e-02,7.797931879758834839e-02,1.688623428344726562e-02,-8.253521472215652466e-02,-6.660574674606323242e-02,5.460899323225021362e-02,9.019002318382263184e-04
7.165101915597915649e-02,1.260366290807723999e-02,-4.902929812669754028e-02,2.278469502925872803e-03,-1.545401662588119507e-02,6.187620013952255249e-02,-4.420861229300498962e-02,7.462530583143234253e-02,-2.595269680023193359e-02,-7.433626055717468262e-02,-4.611325636506080627e-02,-8.270405977964401245e-02,-6.551578640937805176e-03,7.728359848260879517e-02,1.432955265045166016e-03,4.127415269613265991e-02,-5.822280049324035645e-02,5.184953659772872925e-02,-6.021807342767715454e-02,-2.341575175523757935e-02,-5.333493277430534363e-02,-1.364905387163162231e-02,4.219972342252731323e-02,-8.163047581911087036e-02,-3.778624162077903748e-02,-1.542717218399047852e-02,-6.120920181274414062e-03,-2.027290314435958862e-02,2.474158257246017456e-02,-9.964637458324432373e-03,-1.075077801942825317e-02,-8.421359956264495850e-02,-7.844895124435424805e-03,6.007785350084304810e-02,-8.243820816278457642e-02,-6.460358202457427979e-02,-7.783876359462738037e-02,7.130584865808486938e-02,7.265595346689224243e-02,-8.168295025825500488e-04,-1.592020690441131592e-02,2.239141613245010376e-02,9.182035923004150391e-03,7.941808551549911499e-02,6.208326667547225952e-02,-6.006807461380958557e-02,2.926294505596160889e-02,-6.990943104028701782e-02,-6.654995679855346680e-02,7.737868279218673706e-02,-4.970389604568481445e-02,-3.578708320856094360e-02,8.283924311399459839e-02,-5.748171731829643250e-02,-7.389807701110839844e-02,5.349554866552352905e-02,-6.028608977794647217e-02,8.117366582155227661e-02,3.653632104396820068e-02,-3.615055978298187256e-02,3.780931234359741211e-03,2.512713521718978882e-02,-4.760742187500000000e-03,3.686400502920150757e-02,-2.767244353890419006e-02,-3.668838739395141602e-02,5.213560909032821655e-02,-2.533031255006790161e-02,-4.757642745971679688e-02,4.681870341300964355e-03,3.325279802083969116e-02,-1.891871541738510132e-02,-4.991337656974792480e-03,-3.546494245529174805e-02,4.109904915094375610e-02,8.409589529037475586e-03,8.132616430521011353e-02,6.027198582887649536e-02,6.985189765691757202e-02,2.286563813686370850e-02,3.757329285144805908e-02,1.848268508911132812e-02,-6.638881564140319824e-02,-4.969396069645881653e-02,2.628012746572494507e-02,4.439330846071243286e-02,2.433351427316665649e-02,-8.036667108535766602e-02,-3.248995915055274963e-02,-1.056700944900512695e-02,-3.747843205928802490e-02,-2.637809887528419495e-02,5.791803449392318726e-02,5.408180505037307739e-02,6.961073726415634155e-02,-3.887505829334259033e-02,8.246657997369766235e-02,-4.238741844892501831e-02,-8.021902292966842651e-02,7.294674962759017944e-02,-2.847706526517868042e-02,7.389122992753982544e-02,-5.142883583903312683e-02,-1.158330589532852173e-02,-1.958025246858596802e-02,-6.692834198474884033e-02,-4.300411790609359741e-02,-6.708882749080657959e-02,4.738996177911758423e-02,-7.284810394048690796e-02,5.261821299791336060e-02,-3.281396254897117615e-02,6.691613048315048218e-02,-5.658425390720367432e-02,-8.050601929426193237e-02,-2.111105620861053467e-02,6.944016367197036743e-02,5.184254795312881470e-02,-6.770519912242889404e-02,7.456313818693161011e-02,1.634763181209564209e-02,4.730381816625595093e-02,-4.690970107913017273e-02,6.573014706373214722e-02,-2.235773950815200806e-02,-3.751089796423912048e-02,6.126239150762557983e-02,3.503581881523132324e-02,4.117182642221450806e-02,6.769677251577377319e-02,-8.546133339405059814e-02,3.485433757305145264e-03,5.899665504693984985e-02,-7.132300734519958496e-02,8.287403732538223267e-02,-1.323699951171875000e-03,6.916790455579757690e-02,4.637219011783599854e-03,8.198810368776321411e-02,-6.032047793269157410e-02,-8.394001424312591553e-02,6.329836696386337280e-02,3.163930028676986694e-02,4.594280570745468140e-02,1.881896704435348511e-02,5.061277002096176147e-02,-8.427677303552627563e-02,1.861266791820526123e-02,6.065942347049713135e-03,-5.272350832819938660e-02,2.355710417032241821e-02,7.198079675436019897e-02,7.570759207010269165e-02,-1.375677436590194702e-02,-5.693101137876510620e-02,-1.285884529352188110e-02,1.233614981174468994e-02,-5.604340136051177979e-02,5.189520865678787231e-02,-6.476818025112152100e-02,-6.399910897016525269e-02,-1.713700592517852783e-02,-3.518555313348770142e-02,7.202216237783432007e-02,-5.160823464393615723e-02,4.170899838209152222e-02,-8.657723665237426758e-03,2.739401161670684814e-02,7.257977873086929321e-02,-3.347976878285408020e-02,3.461718559265136719e-03,-2.690255641937255859e-03,-2.443832904100418091e-02,-2.155248820781707764e-02,7.279630750417709351e-02,1.778075098991394043e-02,-1.358242332935333252e-02,3.763516247272491455e-02,-6.552408635616302490e-02,-6.462216377258300781e-02,4.680740088224411011e-02,3.372757136821746826e-02,-7.126222550868988037e-02,-5.225461721420288086e-02,-2.668239176273345947e-02,-8.582301437854766846e-03,2.639512717723846436e-02,-3.656470030546188354e-02,4.969126731157302856e-02,5.394600331783294678e-03,3.652238100767135620e-02,-5.007937550544738770e-02,2.846345305442810059e-03,-3.434674441814422607e-02,-3.803156316280364990e-03,-1.437506824731826782e-02,-3.562038019299507141e-02,1.964988559484481812e-02,4.783846437931060791e-03,-7.810409367084503174e-02,-6.857410073280334473e-02,2.817882597446441650e-02,-8.261527121067047119e-02,5.710538476705551147e-02,7.436084002256393433e-02,-6.770634651184082031e-02,3.527794033288955688e-02,-8.326163887977600098e-02,5.734839290380477905e-02,-7.261776179075241089e-02,2.789919078350067139e-02,-2.664690092206001282e-02,-8.363987505435943604e-02,8.527366071939468384e-02,8.278549462556838989e-02,6.320393830537796021e-02,-6.150080636143684387e-02,3.182987868785858154e-02,2.215966582298278809e-03,-8.177138864994049072e-03,1.435159891843795776e-02,-1.747290045022964478e-02,5.188228935003280640e-02,2.427978813648223877e-02,5.812073498964309692e-02,-3.121282905340194702e-02,2.218770980834960938e-02,-2.027638256549835205e-03,6.456110626459121704e-02,-7.858516275882720947e-02,5.619522184133529663e-02,-7.236842066049575806e-02,-2.569121494889259338e-02,9.339228272438049316e-03,4.409784823656082153e-02,1.548922061920166016e-02,2.903349697589874268e-02,7.881962507963180542e-02,9.497016668319702148e-03,3.365900367498397827e-02,3.459283709526062012e-02,5.290759354829788208e-02,1.876442134380340576e-02,6.989524513483047485e-02,-6.704901903867721558e-02,8.478031307458877563e-02,5.003448575735092163e-02,7.958302646875381470e-02,-7.352031767368316650e-03,5.674058943986892700e-02,5.113644152879714966e-02,-1.921104639768600464e-02,-3.090428560972213745e-02,6.294500082731246948e-02,4.651717841625213623e-03,-3.112087398767471313e-02,2.701976150274276733e-02,-2.207897603511810303e-03,4.352002590894699097e-02,7.738362997770309448e-02,7.449758797883987427e-02,3.988286107778549194e-02,-1.577173918485641479e-02,4.989206045866012573e-02,-7.197644561529159546e-02,7.948818057775497437e-02,-8.316916972398757935e-02,5.476491898298263550e-02,8.464664965867996216e-02,-8.243630081415176392e-02,7.954802364110946655e-02,-1.788536459207534790e-02,3.442294150590896606e-02,6.250794976949691772e-02,-1.454027742147445679e-02,-1.972483098506927490e-02,7.651783525943756104e-03,-6.692887097597122192e-02,5.642446130514144897e-02,-2.005437016487121582e-02,-2.774640917778015137e-02,-4.753153398633003235e-02,-8.209519088268280029e-03,-6.467147916555404663e-02,-3.417262434959411621e-02,-8.228477090597152710e-02,6.643035262823104858e-02,2.088661491870880127e-02,-5.348401144146919250e-02,3.085184842348098755e-02,-5.393466353416442871e-02,-4.923116415739059448e-02,6.168932467699050903e-02,2.458123862743377686e-02,2.057911455631256104e-02,3.834837675094604492e-02,5.988288670778274536e-02,6.899451464414596558e-02,-3.624217212200164795e-02,-1.952793449163436890e-02,8.804470300674438477e-03,6.146488338708877563e-02,8.195107430219650269e-02,8.391045778989791870e-02,-1.091966778039932251e-02,6.180656701326370239e-02,-8.518505096435546875e-02,4.211800545454025269e-02,-6.970435380935668945e-03,8.630096912384033203e-03,2.245192974805831909e-02,4.398152232170104980e-04,-1.913661509752273560e-02,-2.204731851816177368e-02,-3.256423398852348328e-02,-7.344861328601837158e-02,-5.510654672980308533e-02,7.679537683725357056e-02,2.035862207412719727e-02,-3.211227431893348694e-02,8.823275566101074219e-03,8.015804737806320190e-02,-6.348154693841934204e-02,-1.011322438716888428e-02,1.918949931859970093e-02,8.531335741281509399e-02,-1.286694407463073730e-02,1.873508840799331665e-02,1.606997847557067871e-02,-5.552050471305847168e-02,7.863507419824600220e-02,6.015428155660629272e-02,3.777889907360076904e-02,3.949918597936630249e-02,1.450282335281372070e-02,1.679271459579467773e-03,-6.019229441881179810e-02,-6.430134177207946777e-03,-3.909338265657424927e-02,3.200823068618774414e-02,6.739261001348495483e-02,-3.703949600458145142e-02,1.619889587163925171e-02,-3.978127241134643555e-02,-7.632434368133544922e-02,-3.934689238667488098e-02,2.307768911123275757e-02,-3.593624383211135864e-02,4.816512018442153931e-02,4.898480325937271118e-02,-1.987131685018539429e-02,4.374033957719802856e-02,-7.668548822402954102e-02,2.942909300327301025e-02,-5.420894548296928406e-02,-5.151741206645965576e-03,4.628434032201766968e-02,5.045609921216964722e-02,-4.914677143096923828e-02,-4.398940876126289368e-02,-5.017481744289398193e-03,7.794036716222763062e-02,-2.151104807853698730e-02,-2.756414934992790222e-02,6.707841902971267700e-02,2.394061535596847534e-02,9.732097387313842773e-04,-2.484169602394104004e-02,-1.214028894901275635e-02,3.207658231258392334e-02,-5.974223464727401733e-02,6.282665580511093140e-02,8.681662380695343018e-03,-6.075868010520935059e-02,3.075902909040451050e-02,1.919256895780563354e-02,-4.578456282615661621e-04,1.832019537687301636e-02,-8.960738778114318848e-04,-6.403084099292755127e-02,6.408084183931350708e-02,3.489091992378234863e-03,-3.719362616539001465e-02,7.515349239110946655e-02,-7.674701511859893799e-03,4.851847141981124878e-02,-1.224218308925628662e-02,-7.938236743211746216e-02,-2.280449122190475464e-02,-2.769006416201591492e-02,1.813713461160659790e-02,-4.941751435399055481e-02,2.631582319736480713e-02,-3.629252687096595764e-02,1.327018439769744873e-02,9.708739817142486572e-03,2.325679361820220947e-02,2.882476150989532471e-02,4.194945842027664185e-02,-1.583544164896011353e-02,1.226037740707397461e-02,3.481446951627731323e-02,4.599862545728683472e-02,4.282753914594650269e-02,2.212729305028915405e-02,2.697427570819854736e-02,-6.375239044427871704e-02,4.032065719366073608e-02,2.049944549798965454e-02,7.072450965642929077e-02,-7.497712969779968262e-02,8.190279453992843628e-02,5.374207347631454468e-02,1.042439043521881104e-02,5.816923826932907104e-02,7.337085157632827759e-02,-2.801155298948287964e-02,6.803414970636367798e-02,-4.222376272082328796e-02,8.132491260766983032e-02,3.479565680027008057e-02,7.876231521368026733e-02,3.221171349287033081e-02,-3.344963490962982178e-02,-7.938081026077270508e-02,8.409766107797622681e-02,6.647341698408126831e-02,5.048308521509170532e-02,4.961935430765151978e-02,3.401532769203186035e-03,6.331018358469009399e-02,-5.947740003466606140e-02,-4.476479440927505493e-02,1.983005553483963013e-02,-6.962718069553375244e-02,-2.637456357479095459e-02,-2.102170884609222412e-02,-1.696059107780456543e-02,-8.504509180784225464e-02,-4.773852974176406860e-02,9.134583175182342529e-03,9.430386126041412354e-03,5.688890814781188965e-03,4.880227893590927124e-02,-4.239800944924354553e-02,6.461217999458312988e-04,1.934800297021865845e-02,6.113340705633163452e-02,-3.062217682600021362e-02,3.507994115352630615e-02,-6.944195926189422607e-02,-4.071659222245216370e-02,1.159486174583435059e-02,6.874356418848037720e-02,-2.279287576675415039e-02,3.540671616792678833e-02,-2.816801145672798157e-02,8.106692880392074585e-02,-4.506209492683410645e-02,7.304289191961288452e-02,6.746562570333480835e-02,-5.179695412516593933e-02,-3.507122769951820374e-02,-4.377556219696998596e-02,4.810313135385513306e-02,-4.491123929619789124e-02,-1.750227808952331543e-02,-6.085450202226638794e-02,-1.424876600503921509e-02,8.516568690538406372e-02,1.535674184560775757e-02,3.370101749897003174e-02,-5.292886868119239807e-02,-1.462373137474060059e-02,-4.905511811375617981e-02,-7.606895267963409424e-02,7.816436141729354858e-02,-6.590921431779861450e-02,2.734165638685226440e-02,1.843007653951644897e-02,3.215204179286956787e-02,5.639802664518356323e-02,3.680866211652755737e-02,7.276373356580734253e-02,2.174100279808044434e-02,1.971007138490676880e-02,-6.398081779479980469e-03,-3.817864879965782166e-02,1.232645660638809204e-02,6.027808040380477905e-02,-6.114446371793746948e-02,5.497039109468460083e-02,7.523844391107559204e-02,-2.618032321333885193e-02,-3.940348327159881592e-02,4.000044614076614380e-02,3.796069324016571045e-02,5.915292352437973022e-02,7.673802226781845093e-02,-8.740924298763275146e-03,3.211707621812820435e-02,2.491539716720581055e-02,7.515781372785568237e-02,-5.717789381742477417e-02,-7.657647132873535156e-03,-6.338506937026977539e-02,1.575162261724472046e-02,-3.839785233139991760e-02,3.142581880092620850e-02,-6.160991638898849487e-02,-4.492047801613807678e-02,6.363067775964736938e-02,-3.677893429994583130e-02,-6.606048345565795898e-02,2.973111718893051147e-02,-1.996205002069473267e-02,-4.320189729332923889e-02,6.277809292078018188e-02,-2.143546193838119507e-02,-6.322055310010910034e-02,5.551772564649581909e-02,3.195442259311676025e-02,4.148832708597183228e-02,-6.617093831300735474e-02,5.405890196561813354e-02,-1.643782854080200195e-02,-4.307236149907112122e-02,7.283384352922439575e-02,8.559333533048629761e-02,-4.052120819687843323e-02,7.721456140279769897e-02,4.637641459703445435e-02,1.361341774463653564e-02,4.747488349676132202e-02,-8.102636784315109253e-02,8.489733189344406128e-02,-1.324560493230819702e-02,-4.692875593900680542e-02,7.885608822107315063e-02,6.297784298658370972e-02,-8.431911468505859375e-02,-7.440984249114990234e-02,5.285016447305679321e-02,6.104096770286560059e-03,-8.376102894544601440e-02,-3.852501511573791504e-02,7.362449914216995239e-02,-6.854647397994995117e-02,5.289167910814285278e-02,-6.665655225515365601e-02,-3.487647697329521179e-02,-5.409500747919082642e-02,8.125761896371841431e-02,-5.262983217835426331e-02,4.936487227678298950e-02,-4.885703325271606445e-02,1.987022906541824341e-02,-2.883481979370117188e-02,-3.059876710176467896e-02,-7.259758561849594116e-02,-3.739095106720924377e-02,7.099436968564987183e-02,-3.718001022934913635e-02,-5.828730762004852295e-03,1.996867358684539795e-02,7.374332100152969360e-02,-5.178820341825485229e-02,8.251915127038955688e-02,-6.929208338260650635e-02,2.673169970512390137e-02,2.454169094562530518e-03,-7.464782893657684326e-02,5.572942644357681274e-02,-3.508226945996284485e-02,-5.764722824096679688e-03,-8.097035437822341919e-02,-6.119076907634735107e-02,-6.693810969591140747e-02,-9.088091552257537842e-03,3.927182406187057495e-02,-1.490437239408493042e-02,-5.101009830832481384e-02,-1.194343715906143188e-02,6.415460258722305298e-02,1.284181326627731323e-02,-6.390312314033508301e-02,5.671188235282897949e-03,-6.018599867820739746e-02,1.058274507522583008e-02,-2.062341570854187012e-02,-2.433273568749427795e-02,4.565369337797164917e-02,6.071703881025314331e-02,-2.599975839257240295e-02,3.579450398683547974e-02,2.791564911603927612e-02,-6.353120505809783936e-02,-2.498198300600051880e-02,-1.398198306560516357e-03,6.483817845582962036e-02,5.439215153455734253e-02,-2.996460720896720886e-02,-7.096206396818161011e-02,-3.348533064126968384e-02,-5.749177560210227966e-02,6.459427624940872192e-02,1.971377432346343994e-02,-3.490818664431571960e-02,-8.011171221733093262e-02,-6.742339581251144409e-02,3.911085426807403564e-03,5.220904201269149780e-02,6.517296284437179565e-02,-8.309890329837799072e-02,3.131645917892456055e-02,-7.428989559412002563e-02,-1.076108217239379883e-02,-6.906615197658538818e-02,-8.195693045854568481e-02,-5.557202175259590149e-02,-5.338773876428604126e-02,-4.364287853240966797e-02,7.702463120222091675e-02,-7.696531713008880615e-03,-4.617254436016082764e-02,-8.165727555751800537e-02,-2.133097499608993530e-02,-8.430200070142745972e-02,-5.547462403774261475e-02,-2.530343830585479736e-03,5.480990558862686157e-02,-7.174444198608398438e-02,-5.442506074905395508e-02,-3.310643509030342102e-02,3.126580268144607544e-02,1.920840889215469360e-02,4.149434715509414673e-02,5.767136067152023315e-02,-3.218409419059753418e-02,-8.037683367729187012e-02,-1.098856329917907715e-02,2.655845880508422852e-02,-1.145336776971817017e-02,4.878870397806167603e-02,8.061372488737106323e-02,-8.103659003973007202e-02,-7.748121768236160278e-02,4.003223031759262085e-02,7.923292368650436401e-02,3.790955990552902222e-02,-8.388954401016235352e-02,4.608572274446487427e-02,-4.199707880616188049e-02,7.516228407621383667e-02,-7.835117727518081665e-02,2.739755064249038696e-02,2.670899033546447754e-02,-5.621409416198730469e-02,-1.944771409034729004e-02,-4.230894148349761963e-03,-7.965706288814544678e-03,-5.851425230503082275e-02,4.657194018363952637e-03,-3.037435188889503479e-02,2.949907630681991577e-02,-5.523266643285751343e-02,2.349258214235305786e-02,2.708031982183456421e-02,6.083524972200393677e-02,3.238657116889953613e-02,-4.704583808779716492e-02,7.931532710790634155e-02,4.526823014020919800e-02,-1.165814697742462158e-03,6.877235323190689087e-02,-5.112551152706146240e-03,2.333902567625045776e-02,-5.647412315011024475e-02,-1.324350386857986450e-02,7.209502905607223511e-02,1.968283951282501221e-02,3.181603550910949707e-02,-1.527196168899536133e-02,-8.362986147403717041e-02,3.554539382457733154e-02,3.224675357341766357e-02,-6.462553888559341431e-02,-5.166617408394813538e-02,-4.119969159364700317e-02,-7.217416167259216309e-02,3.453053534030914307e-03,-1.824865490198135376e-02,-6.203783303499221802e-02,4.288012534379959106e-02,6.135106086730957031e-04,-6.627450883388519287e-02,1.569531857967376709e-02,6.380070000886917114e-02,3.786642104387283325e-02,-7.882194966077804565e-02,-1.247478276491165161e-02,-1.856997609138488770e-02,-1.875786483287811279e-02,-5.189623311161994934e-02,6.584336608648300171e-02,8.144935220479965210e-02,-8.095794171094894409e-02,-2.660568431019783020e-02,6.202887743711471558e-02,-1.629934459924697876e-02,2.730806916952133179e-02,7.815965265035629272e-02,-4.187263175845146179e-02,3.319291770458221436e-02,2.693177014589309692e-02,-3.860707581043243408e-02,-6.234480440616607666e-02,1.127797365188598633e-02,3.251786530017852783e-02,-3.816433623433113098e-02,7.955800741910934448e-02,6.138447672128677368e-02,-4.017034545540809631e-02,-3.903460502624511719e-02,8.953362703323364258e-04,-6.509467959403991699e-02,1.886276155710220337e-02,4.743295162916183472e-02,-6.487847864627838135e-02,-3.368073329329490662e-02,7.513653486967086792e-02,-4.796476662158966064e-02,2.820092439651489258e-02,5.153604596853256226e-02,3.137679398059844971e-02,4.629901796579360962e-02,5.054292827844619751e-02,-2.239241451025009155e-02,1.520093530416488647e-02,-3.645812347531318665e-02,8.225189894437789917e-02,8.878909051418304443e-03,-2.243322134017944336e-02,-2.450495958328247070e-02,1.136349141597747803e-02,3.719223290681838989e-02,7.655043154954910278e-02,3.039804846048355103e-02,5.512454360723495483e-02,-4.560049250721931458e-02,5.439529567956924438e-02,7.630132138729095459e-03,1.824042201042175293e-02,1.359242200851440430e-02,3.378176689147949219e-02,-3.466743603348731995e-02,-7.617125660181045532e-02,-4.051186516880989075e-02,-3.176343441009521484e-02,-2.548503503203392029e-02,-3.137258067727088928e-02,-2.055830508470535278e-02,2.151883393526077271e-02,-4.704254865646362305e-02,4.507993906736373901e-02,-2.744473516941070557e-02,7.755909115076065063e-02,-7.345019280910491943e-02,1.904504001140594482e-02,-3.485699370503425598e-02,-3.074126318097114563e-02,-3.050085902214050293e-02,-3.028425574302673340e-02,4.416165500879287720e-02,-1.805887371301651001e-02,2.478817105293273926e-02,5.933827906847000122e-02,3.960356116294860840e-03,1.687453687191009521e-02,8.171232789754867554e-02,-5.898700654506683350e-02,-6.722236424684524536e-02,-4.226969927549362183e-02,-4.601704701781272888e-02
-2.691275626420974731e-02,-1.934269070625305176e-02,-8.554538339376449585e-02,-1.829686760902404785e-02,7.310149818658828735e-02,7.441878318786621094e-03,4.168518632650375366e-02,-7.776620984077453613e-02,2.543001621961593628e-02,-5.712913721799850464e-02,-1.945905387401580811e-03,-2.487984299659729004e-02,3.421379625797271729e-02,-5.171417444944381714e-02,4.907584935426712036e-02,3.495684266090393066e-02,-8.478973805904388428e-02,-8.200885355472564697e-02,7.775200158357620239e-02,-2.802817150950431824e-02,6.578194350004196167e-02,3.233652561902999878e-02,-2.601795271039009094e-02,-9.883515536785125732e-03,-1.128566265106201172e-02,1.332983374595642090e-03,-3.890564292669296265e-02,-5.092248320579528809e-04,-4.105737805366516113e-02,-3.996547311544418335e-02,-6.538109481334686279e-02,7.919607311487197876e-02,-1.339552551507949829e-02,-7.962755113840103149e-02,-5.594022199511528015e-02,-7.053744047880172729e-02,-6.549268215894699097e-02,-8.102636784315109253e-02,-2.705964818596839905e-02,-7.911793887615203857e-02,-6.936520338058471680e-02,-6.266753375530242920e-02,-5.546272546052932739e-02,2.747660875320434570e-02,-6.432135403156280518e-02,-5.498175323009490967e-02,-4.869565367698669434e-03,5.096616595983505249e-02,7.175607234239578247e-02,-1.414959132671356201e-02,6.293227523565292358e-02,7.739817351102828979e-02,-5.253494903445243835e-02,-5.200153961777687073e-02,7.340766489505767822e-03,-8.182500302791595459e-02,-6.304898858070373535e-02,1.122238487005233765e-02,-8.564367890357971191e-02,-7.784101366996765137e-02,-5.752798169851303101e-02,-2.474360167980194092e-02,6.119617074728012085e-02,6.053646653890609741e-02,-3.026855364441871643e-02,-7.153624296188354492e-02,-7.255043834447860718e-02,-6.067849695682525635e-02,-8.299377560615539551e-02,7.591382414102554321e-02,1.316054165363311768e-02,-6.634878367185592651e-02,-7.993116974830627441e-03,-5.545884370803833008e-02,1.474566012620925903e-02,4.497342556715011597e-02,-6.155660003423690796e-02,5.375809967517852783e-03,8.262234181165695190e-02,2.971864491701126099e-02,-4.755713045597076416e-03,-5.130455642938613892e-02,-1.433315873146057129e-02,6.145995110273361206e-02,-8.871503174304962158e-03,-5.869961902499198914e-02,-5.311834812164306641e-02,-1.549512147903442383e-03,6.205954402685165405e-02,2.362366765737533569e-02,4.934961348772048950e-02,-6.851115077733993530e-02,5.266509205102920532e-02,-6.231812387704849243e-02,-5.274714156985282898e-02,-2.323342859745025635e-02,8.441656827926635742e-04,-6.333900988101959229e-02,-4.924960434436798096e-02,-6.572198867797851562e-02,-7.458280026912689209e-02,-2.578794956207275391e-03,-5.732028931379318237e-02,-8.238216489553451538e-02,-5.199649184942245483e-02,-7.218080759048461914e-02,-4.352620244026184082e-02,-3.357491642236709595e-02,-5.440545454621315002e-02,8.194770663976669312e-02,6.728632003068923950e-02,4.673365503549575806e-02,3.158593922853469849e-02,6.435798853635787964e-02,7.815650850534439087e-02,-3.681536763906478882e-02,-5.153271183371543884e-02,4.621347039937973022e-02,4.966635257005691528e-02,7.787258177995681763e-02,-7.939923554658889771e-02,8.255823701620101929e-02,-8.148675411939620972e-02,-7.083238661289215088e-02,-1.845696568489074707e-02,-6.407868117094039917e-02,2.742595970630645752e-03,5.152719467878341675e-02,-8.525867015123367310e-02,2.752332389354705811e-02,-1.129265129566192627e-02,-6.331782788038253784e-02,7.178085297346115112e-02,6.399329751729965210e-02,-2.217237651348114014e-02,8.121042698621749878e-02,2.429765462875366211e-02,-4.010398313403129578e-02,7.568059116601943970e-02,5.827850848436355591e-02,-5.335617437958717346e-02,-6.227836012840270996e-02,-6.915871798992156982e-02,5.301340669393539429e-02,-4.563480615615844727e-05,5.358607321977615356e-02,-6.474661082029342651e-02,3.602437674999237061e-03,3.350827097892761230e-02,1.197125762701034546e-02,2.182099968194961548e-02,-2.642113342881202698e-02,-6.959649175405502319e-02,-4.872905462980270386e-02,-6.540188938379287720e-02,7.860267907381057739e-02,4.299772530794143677e-02,-4.066532105207443237e-02,-3.277914598584175110e-02,3.387700021266937256e-02,1.735033839941024780e-02,-7.875849306583404541e-02,-6.930986791849136353e-02,-6.471709161996841431e-02,-5.993766337633132935e-02,-6.456923484802246094e-02,4.017100483179092407e-02,-8.784599602222442627e-03,-6.520472466945648193e-02,7.852748781442642212e-02,-7.085232436656951904e-02,5.660598725080490112e-02,-6.360056996345520020e-02,3.065537661314010620e-02,7.653313130140304565e-02,1.351324468851089478e-02,-4.683282971382141113e-02,-3.090512380003929138e-02,3.522372245788574219e-02,-7.602194696664810181e-02,1.499637216329574585e-02,6.766175478696823120e-02,2.079059183597564697e-02,3.988455981016159058e-02,5.699730664491653442e-02,5.450581759214401245e-02,1.605934649705886841e-02,5.604171007871627808e-02,-5.120550468564033508e-02,2.761260420083999634e-02,6.861592084169387817e-02,-2.430374547839164734e-02,4.491307586431503296e-02,5.503297597169876099e-02,5.381008237600326538e-02,-2.538350597023963928e-02,1.334010064601898193e-02,7.477398961782455444e-02,2.239885181188583374e-02,-7.759100198745727539e-02,7.146707922220230103e-02,-9.534388780593872070e-03,5.075006932020187378e-02,-2.662026137113571167e-02,-2.298258244991302490e-03,-6.099137663841247559e-02,-3.140075504779815674e-02,-8.363157510757446289e-02,-5.468098074197769165e-02,-5.593300610780715942e-02,2.876909077167510986e-02,4.015343636274337769e-02,-5.540822446346282959e-02,-7.041440904140472412e-02,-7.568938285112380981e-02,-1.850610971450805664e-02,7.289845496416091919e-02,-7.987126708030700684e-03,2.485273778438568115e-02,7.054678350687026978e-02,5.092660337686538696e-02,6.582800298929214478e-02,3.172279149293899536e-02,3.711286932229995728e-02,3.969787806272506714e-02,-2.692307904362678528e-02,-7.276773452758789062e-03,-4.787074401974678040e-02,3.127665817737579346e-02,-3.450394049286842346e-02,-4.896158725023269653e-02,5.324616283178329468e-02,-3.803210332989692688e-02,6.519288569688796997e-02,-3.660389035940170288e-02,1.567932963371276855e-02,5.910486727952957153e-02,-4.420662671327590942e-02,7.247168570756912231e-02,-1.492475718259811401e-02,4.501353949308395386e-02,-8.424944430589675903e-02,-1.604837179183959961e-02,6.865667551755905151e-02,-6.641588360071182251e-02,-1.273681223392486572e-02,-7.739771902561187744e-02,2.113818377256393433e-02,4.193296283483505249e-02,-4.608206450939178467e-03,-3.220331296324729919e-02,8.205530792474746704e-02,-3.074062988162040710e-02,-6.466880440711975098e-04,6.975247710943222046e-02,-2.700919285416603088e-02,7.155524939298629761e-02,1.995875686407089233e-02,3.839850425720214844e-02,5.163089185953140259e-02,4.905220121145248413e-02,-7.941257953643798828e-02,-4.928503558039665222e-02,7.217857986688613892e-02,1.182773709297180176e-02,6.862107664346694946e-02,5.985341221094131470e-02,-1.978006958961486816e-02,-6.415518373250961304e-02,1.154728233814239502e-03,2.411887049674987793e-02,-8.846811950206756592e-03,7.156204432249069214e-02,1.707714051008224487e-02,-5.255226790904998779e-02,2.958377450704574585e-02,-2.552815154194831848e-02,5.683659762144088745e-02,6.824608892202377319e-02,5.056602507829666138e-02,-4.604382812976837158e-02,-6.828949600458145142e-02,-6.073355674743652344e-02,-5.169413983821868896e-02,-9.639672935009002686e-03,3.739526867866516113e-02,5.740872770547866821e-02,-7.378935813903808594e-02,-5.611493811011314392e-02,-8.460124582052230835e-02,-6.452679634094238281e-02,8.439915627241134644e-02,7.822909206151962280e-02,3.870559483766555786e-02,3.316707909107208252e-03,-5.984647944569587708e-02,1.747228205204010010e-03,2.914756536483764648e-03,6.561727076768875122e-02,-2.156857401132583618e-02,-5.549316853284835815e-02,-6.009455025196075439e-02,-1.178085803985595703e-02,-2.170630544424057007e-02,-4.029771313071250916e-02,-5.230327695608139038e-02,-1.684894412755966187e-02,-6.831970810890197754e-02,5.139381438493728638e-02,6.232257932424545288e-02,7.947463542222976685e-02,3.714933991432189941e-04,6.534891575574874878e-02,-6.365536153316497803e-02,2.935118973255157471e-03,2.898109704256057739e-02,5.362786352634429932e-03,-6.277227401733398438e-02,-2.505151554942131042e-02,1.373267173767089844e-02,6.216561049222946167e-02,-1.276657730340957642e-02,-5.731924623250961304e-02,1.662626862525939941e-03,8.551120012998580933e-02,8.461122959852218628e-02,7.768336683511734009e-02,6.860809773206710815e-02,-1.059839129447937012e-02,-6.405793130397796631e-02,6.666731089353561401e-02,-3.794812038540840149e-02,-3.981369361281394958e-02,-5.153905227780342102e-02,3.242330998182296753e-02,6.229076534509658813e-02,-2.469218522310256958e-02,-2.922119572758674622e-02,-7.418630272150039673e-02,-6.060518324375152588e-02,-9.541288018226623535e-04,-4.301197081804275513e-02,6.597685068845748901e-02,-2.907924354076385498e-03,3.273780643939971924e-02,-6.637092679738998413e-02,-4.106571897864341736e-02,-3.623990342020988464e-02,5.489917844533920288e-02,6.323205679655075073e-02,7.506971806287765503e-02,7.234626263380050659e-02,-5.866809561848640442e-02,-5.732067674398422241e-02,8.534631878137588501e-02,3.958109766244888306e-02,-8.135654032230377197e-03,7.092072814702987671e-02,8.267309516668319702e-02,2.312128990888595581e-02,2.074726670980453491e-02,5.144884437322616577e-02,3.093340247869491577e-02,-5.459114909172058105e-02,2.339974045753479004e-02,5.549592524766921997e-02,5.306022614240646362e-02,2.254695445299148560e-02,3.228733688592910767e-02,-2.062655985355377197e-03,-6.084791943430900574e-02,-7.538883388042449951e-02,-7.448662817478179932e-02,4.000491648912429810e-02,4.605613648891448975e-03,-8.067518472671508789e-03,-7.506941258907318115e-02,3.610403090715408325e-02,-2.035535126924514771e-02,-5.256794765591621399e-02,3.005672991275787354e-02,-7.154644280672073364e-02,-5.766987800598144531e-03,4.514911025762557983e-02,-7.384010404348373413e-02,4.181263595819473267e-02,1.613557338714599609e-03,5.211739987134933472e-02,2.453891932964324951e-02,3.779834508895874023e-02,-4.597574844956398010e-02,2.056311070919036865e-02,-5.699716880917549133e-02,-1.732975244522094727e-03,6.126879900693893433e-02,-3.982383385300636292e-02,4.483168572187423706e-02,-4.526471719145774841e-02,2.850642800331115723e-02,-4.013147950172424316e-02,-7.244282215833663940e-02,-2.198529243469238281e-02,5.187124758958816528e-02,7.049996405839920044e-02,-1.097720116376876831e-02,6.231977790594100952e-02,1.282372325658798218e-02,5.422493070363998413e-02,-3.359049558639526367e-02,6.214138120412826538e-02,4.573678225278854370e-02,4.801819473505020142e-02,3.735496848821640015e-02,-6.388249993324279785e-02,-2.028577774763107300e-02,2.704836428165435791e-02,5.312437564134597778e-02,3.858759254217147827e-02,2.347164601087570190e-02,-1.758896559476852417e-02,-1.430007815361022949e-02,6.269032508134841919e-02,-4.968024790287017822e-03,-7.523682713508605957e-02,-8.332535624504089355e-03,2.927232533693313599e-02,4.825609177350997925e-02,7.541073113679885864e-02,1.238957047462463379e-02,-3.666755557060241699e-02,7.025680691003799438e-02,-8.410520851612091064e-02,-6.472044438123703003e-02,-1.587931811809539795e-02,8.110552281141281128e-02,-7.322348654270172119e-02,4.978140443563461304e-02,2.400271594524383545e-03,-3.789623081684112549e-02,-6.331126391887664795e-02,7.547108083963394165e-02,6.304540485143661499e-02,-6.045872345566749573e-02,-8.536040037870407104e-02,-9.807951748371124268e-03,-6.229610741138458252e-02,6.158000975847244263e-02,-4.097862914204597473e-02,4.193175584077835083e-02,5.352485924959182739e-02,-4.577668383717536926e-02,2.479799091815948486e-03,-5.959475040435791016e-02,8.157166093587875366e-02,-5.143427476286888123e-02,8.419778198003768921e-02,-7.979199290275573730e-04,3.550133109092712402e-02,4.981290549039840698e-02,-4.177824035286903381e-02,4.738394170999526978e-02,7.109006494283676147e-02,4.302201420068740845e-02,-1.270068436861038208e-02,7.442819327116012573e-02,1.704030483961105347e-02,8.146781474351882935e-02,-2.242678403854370117e-02,-1.940269023180007935e-02,1.802526414394378662e-03,-4.046799242496490479e-02,-3.176830708980560303e-03,-1.187557727098464966e-02,-2.879323810338973999e-02,3.563180565834045410e-02,-6.557513773441314697e-02,3.029102087020874023e-02,8.500493317842483521e-02,5.300357192754745483e-02,7.137414067983627319e-02,7.472658902406692505e-02,-7.433928549289703369e-02,-8.444603532552719116e-02,-2.653602883219718933e-02,1.225446909666061401e-02,1.388021558523178101e-02,1.345407962799072266e-02,-4.878255724906921387e-02,2.008054405450820923e-02,-5.662144348025321960e-02,3.611989319324493408e-02,-2.375287562608718872e-02,-3.788046911358833313e-02,-8.532554656267166138e-02,-5.145296454429626465e-03,-6.811632961034774780e-02,1.404135674238204956e-02,-5.401343479752540588e-02,4.406347870826721191e-04,-6.686698645353317261e-02,-3.551634028553962708e-02,-3.866656869649887085e-02,-8.466233313083648682e-02,-5.057312175631523132e-02,-2.834014967083930969e-02,4.206760972738265991e-02,-1.995405554771423340e-02,-3.411546349525451660e-03,7.492142170667648315e-02,-2.941265702247619629e-02,-8.648768067359924316e-03,4.976233094930648804e-02,2.508819103240966797e-02,-3.347578272223472595e-02,7.096446305513381958e-02,-2.862953767180442810e-02,9.943887591361999512e-03,8.574565500020980835e-02,5.962886661291122437e-02,1.775887608528137207e-02,-8.124367147684097290e-02,3.995106369256973267e-02,-5.242837592959403992e-02,-1.546265929937362671e-02,-2.713925763964653015e-02,4.370977729558944702e-02,-3.256545960903167725e-02,2.836192399263381958e-02,-8.217433094978332520e-02,-5.062451958656311035e-02,-7.186455279588699341e-02,-2.996098995208740234e-02,-2.220481634140014648e-02,-2.113397419452667236e-02,-2.879321575164794922e-02,-6.330136954784393311e-02,1.522325724363327026e-02,5.240797251462936401e-02,2.421098947525024414e-02,3.038177639245986938e-02,4.592410475015640259e-02,-6.936208158731460571e-02,-1.435466855764389038e-02,2.986439317464828491e-02,-6.850066035985946655e-02,1.933790743350982666e-02,-3.304434567689895630e-02,8.318913727998733521e-02,-1.674702763557434082e-02,-2.231217175722122192e-02,1.178231090307235718e-02,-3.765597939491271973e-04,2.648165076971054077e-02,5.735661834478378296e-02,-7.778937369585037231e-02,2.399518340826034546e-02,-6.644476950168609619e-02,-1.118217408657073975e-02,-7.153736799955368042e-02,1.566962152719497681e-02,-4.864120483398437500e-02,1.177088171243667603e-02,4.481055587530136108e-02,7.078876346349716187e-02,-8.562758564949035645e-02,-3.848009929060935974e-02,6.819143891334533691e-04,1.594381779432296753e-02,3.920684754848480225e-02,-6.269162148237228394e-02,7.574991136789321899e-02,-3.567359596490859985e-02,6.451676040887832642e-02,5.349621921777725220e-02,3.652798384428024292e-02,-7.923141121864318848e-03,6.257092207670211792e-02,9.434193372726440430e-03,4.720170050859451294e-02,-4.681394249200820923e-02,5.136675387620925903e-02,-8.141376823186874390e-02,-7.962875813245773315e-02,6.486915796995162964e-02,-5.433083325624465942e-02,8.145629614591598511e-02,-7.633799314498901367e-02,1.884102821350097656e-04,-8.395663648843765259e-02,-2.280890196561813354e-02,-7.101017236709594727e-02,-5.185869708657264709e-02,-3.113894537091255188e-02,-4.755647480487823486e-02,4.730384796857833862e-02,2.096548676490783691e-02,3.278128802776336670e-02,5.130774527788162231e-02,1.995953172445297241e-02,7.577449828386306763e-02,-8.414789289236068726e-02,7.862096279859542847e-02,-7.682973891496658325e-02,4.089966416358947754e-03,7.650173455476760864e-02,7.143469899892807007e-02,4.846680909395217896e-02,-2.056910097599029541e-02,3.579203039407730103e-02,8.329347521066665649e-02,3.473433107137680054e-02,6.714936345815658569e-02,7.128605991601943970e-02,1.648963987827301025e-02,8.197858184576034546e-02,-4.644124209880828857e-02,7.458949834108352661e-02,-2.900548651814460754e-02,8.190434426069259644e-02,1.451820135116577148e-02,-5.679004639387130737e-02,-5.932193994522094727e-02,2.984914183616638184e-02,-4.047373682260513306e-02,-1.658841967582702637e-02,7.791326195001602173e-02,8.053710311651229858e-02,-2.706363797187805176e-03,-3.544997796416282654e-02,-1.747845858335494995e-02,7.092121988534927368e-02,-3.104645386338233948e-02,5.957076698541641235e-02,6.783788651227951050e-02,-2.656203508377075195e-02,-2.472602203488349915e-02,5.470445007085800171e-02,3.356406092643737793e-02,5.815557390451431274e-02,6.604999303817749023e-03,7.001165300607681274e-02,-1.728763431310653687e-02,6.581265479326248169e-02,-5.591284483671188354e-02,-1.978427171707153320e-03,1.234414428472518921e-02,-2.880609408020973206e-02,-3.375850617885589600e-03,-5.454890429973602295e-03,-6.933063268661499023e-04,7.287018746137619019e-02,-3.437859937548637390e-02,6.760367006063461304e-02,5.591360479593276978e-02,6.371673196554183960e-02,-4.991927370429039001e-02,4.479699581861495972e-02,-4.491825029253959656e-02,5.646320432424545288e-02,-5.645455792546272278e-02,-6.297926604747772217e-02,1.370368152856826782e-02,-3.472042456269264221e-02,-4.880804941058158875e-02,5.934076756238937378e-02,6.810540705919265747e-02,-4.248164594173431396e-03,-1.558773219585418701e-03,-1.181390136480331421e-02,-5.677876248955726624e-02,5.663544684648513794e-02,7.967130094766616821e-02,-3.388039767742156982e-03,-1.104740798473358154e-02,5.343914031982421875e-03,-7.400324940681457520e-02,-2.956741675734519958e-02,-4.787536337971687317e-02,7.676500827074050903e-02,-6.714232265949249268e-03,8.014521747827529907e-02,-6.922009587287902832e-02,8.262195438146591187e-02,4.172552376985549927e-02,-1.076641678810119629e-02,5.958758294582366943e-03,1.152297854423522949e-02,-4.131756722927093506e-03,-1.777151226997375488e-02,3.250235319137573242e-02,-8.010707050561904907e-02,-1.540552079677581787e-02,-7.017166912555694580e-02,2.823469787836074829e-02,8.482083678245544434e-03,-1.083715260028839111e-02,4.982268065214157104e-02,-6.482186913490295410e-02,-7.025876641273498535e-02,1.072328537702560425e-02,7.023539394140243530e-02,5.049764364957809448e-02,-2.857497334480285645e-02,2.483010292053222656e-03,-3.980778530240058899e-02,-2.799728140234947205e-02,-9.616516530513763428e-03,-1.962506771087646484e-02,3.640975058078765869e-02,-6.478933990001678467e-02,4.476792365312576294e-02,3.080595284700393677e-02,-8.116450905799865723e-02,-5.615883320569992065e-02,-1.733577996492385864e-02,1.770199835300445557e-02,-6.993967294692993164e-02,-7.520205527544021606e-02,4.665352404117584229e-03,7.318727672100067139e-03,6.150373071432113647e-02,-5.888057127594947815e-02,-7.877001911401748657e-02,1.450169831514358521e-02,-2.363987267017364502e-03,5.960644036531448364e-02,1.766370981931686401e-02,7.762085646390914917e-02,-5.892051756381988525e-02,-5.246035009622573853e-02,-1.513771712779998779e-03,-1.100379973649978638e-02,8.231862634420394897e-02,-4.599989205598831177e-02,6.000088900327682495e-02,-6.547500193119049072e-02,-7.038050889968872070e-02,-6.706723570823669434e-02,2.082248032093048096e-02,-7.333776354789733887e-02,2.738472819328308105e-02,1.231486350297927856e-02,-4.238884896039962769e-02,-3.208647295832633972e-02,-3.714364022016525269e-02,7.221827656030654907e-02,2.204220741987228394e-02,-5.581234395503997803e-02,-3.311040252447128296e-02,6.375085562467575073e-02,5.957324057817459106e-02,1.831372827291488647e-02,-4.889520257711410522e-02,6.532710045576095581e-02,5.829026550054550171e-02,7.699920982122421265e-02,2.641594409942626953e-02,1.650808006525039673e-02,-6.557360291481018066e-02,-6.190770864486694336e-02,6.974146515130996704e-02,7.973822206258773804e-02,-3.793184459209442139e-02,2.190411090850830078e-03,-3.736462071537971497e-02,-6.046591699123382568e-02,1.644150912761688232e-02,7.337080687284469604e-02,-3.662517294287681580e-02,-4.405223205685615540e-02,7.740356773138046265e-02,-1.239889115095138550e-02,-1.365803182125091553e-02,-1.477340608835220337e-02,8.369750529527664185e-02,-6.600908935070037842e-03,-3.116617724299430847e-02,4.065816849470138550e-02,-7.016797363758087158e-02,-5.229822546243667603e-02,1.042739301919937134e-02,1.292608678340911865e-02,6.968640536069869995e-02,5.810081958770751953e-03
-5.194345861673355103e-02,-1.932107657194137573e-02,6.989700347185134888e-02,-7.455677539110183716e-02,-4.527134075760841370e-02,-2.013032138347625732e-02,4.402520507574081421e-02,7.103382796049118042e-02,1.287350058555603027e-02,-6.813265383243560791e-03,5.873548239469528198e-02,-1.247512549161911011e-02,-2.123115956783294678e-02,-7.667150348424911499e-02,-7.357905060052871704e-02,8.262602239847183228e-02,1.521502435207366943e-02,-6.664755940437316895e-02,-4.952272027730941772e-02,1.750816404819488525e-02,4.699527472257614136e-02,-7.989071309566497803e-03,6.991655379533767700e-02,8.447841554880142212e-02,-5.062464252114295959e-02,-7.667504251003265381e-03,-6.153498589992523193e-02,3.439646959304809570e-02,-5.908695608377456665e-02,3.585930913686752319e-02,4.186969250440597534e-02,-3.741797804832458496e-02,-7.320359349250793457e-02,7.064393907785415649e-02,1.703028380870819092e-02,-2.240969240665435791e-02,-3.006916120648384094e-02,-5.746668949723243713e-02,6.991244107484817505e-02,-2.153340727090835571e-02,6.120697408914566040e-02,7.061586529016494751e-02,7.095908373594284058e-02,-4.497040435671806335e-02,-4.265531897544860840e-02,5.269739776849746704e-02,6.057139486074447632e-02,-3.492198511958122253e-02,-1.142682880163192749e-02,4.914752393960952759e-02,8.451939374208450317e-02,3.941408544778823853e-02,4.573164135217666626e-02,-3.339713066816329956e-02,-5.004198104143142700e-02,-1.308861374855041504e-02,4.137337952852249146e-02,6.773579865694046021e-02,1.158670336008071899e-02,6.981546431779861450e-02,-4.452856257557868958e-02,-4.317746683955192566e-02,-7.185431569814682007e-02,6.450659781694412231e-02,-7.386438548564910889e-02,1.842198520898818970e-02,-1.864135265350341797e-04,-2.636971697211265564e-02,6.641263514757156372e-02,1.098386943340301514e-03,2.468977123498916626e-02,3.555510193109512329e-02,2.722101658582687378e-02,-6.029185652732849121e-02,3.761679679155349731e-02,3.210411965847015381e-02,9.802803397178649902e-03,7.656972855329513550e-02,6.315229088068008423e-02,8.474545925855636597e-02,9.908579289913177490e-03,-5.089798197150230408e-02,-4.041310027241706848e-02,-4.084328562021255493e-02,-1.522651314735412598e-02,-7.176451385021209717e-03,7.921681553125381470e-02,-5.860970541834831238e-02,-3.890480473637580872e-02,5.251207202672958374e-02,2.872151881456375122e-02,-5.668550729751586914e-04,6.865326315164566040e-02,1.370697468519210815e-02,8.150856941938400269e-02,4.047141224145889282e-02,-3.054293617606163025e-02,-2.054646611213684082e-03,8.070052415132522583e-02,-7.260142266750335693e-02,-3.359043225646018982e-02,-2.796630933880805969e-02,-3.854744136333465576e-02,-1.634912192821502686e-02,7.066982239484786987e-02,7.383785396814346313e-02,-6.667774915695190430e-02,6.905388087034225464e-02,4.419795423746109009e-02,4.037208110094070435e-02,-7.788969576358795166e-02,5.431615561246871948e-02,5.521105974912643433e-02,4.212421923875808716e-02,3.857264667749404907e-02,-3.682449460029602051e-04,-1.865345239639282227e-02,-4.235233739018440247e-02,6.392291933298110962e-02,-5.087551474571228027e-02,-4.018739610910415649e-02,8.140117675065994263e-02,2.900900691747665405e-02,-4.553347826004028320e-02,9.400397539138793945e-03,-1.001057773828506470e-02,4.469306021928787231e-02,-7.180824875831604004e-02,-3.325788676738739014e-02,-5.924269556999206543e-03,-5.969884991645812988e-02,6.067351251840591431e-02,4.531607776880264282e-02,-7.316916435956954956e-02,7.554275542497634888e-02,2.080950140953063965e-02,-2.885802462697029114e-02,-5.837901309132575989e-02,-1.783393323421478271e-03,1.306089758872985840e-02,-8.446030318737030029e-02,4.108465462923049927e-02,-6.371577084064483643e-02,-4.872696846723556519e-02,-1.776912063360214233e-02,-4.028137773275375366e-02,5.311089009046554565e-02,-7.505133748054504395e-02,4.311134666204452515e-02,-1.833701878786087036e-02,-6.683322787284851074e-02,-3.572315350174903870e-02,-3.289567679166793823e-02,-2.850004658102989197e-02,-7.422491908073425293e-02,-7.504628598690032959e-02,3.756350278854370117e-02,-7.991757988929748535e-02,-6.906424462795257568e-02,3.950615972280502319e-02,-7.933313399553298950e-02,-5.514690279960632324e-02,-2.635098993778228760e-03,4.061181098222732544e-02,4.183986037969589233e-02,-7.287500798702239990e-02,-8.243838697671890259e-02,-3.149960190057754517e-02,4.933486133813858032e-02,-5.403451621532440186e-03,7.619231939315795898e-03,6.724891811609268188e-02,3.071852773427963257e-02,5.271991342306137085e-02,-4.399695247411727905e-02,5.344286561012268066e-03,2.784374356269836426e-02,1.692346483469009399e-02,6.946089118719100952e-02,-3.329456225037574768e-02,1.957088708877563477e-02,5.773802846670150757e-02,-8.232643455266952515e-02,-5.572400242090225220e-02,-2.567111700773239136e-02,3.766474127769470215e-02,-4.790879040956497192e-02,-3.631793707609176636e-02,-6.653574854135513306e-02,-5.922161042690277100e-03,5.580345541238784790e-02,-1.087986677885055542e-02,-2.364009618759155273e-03,3.044158965349197388e-02,5.496028810739517212e-02,-7.935255765914916992e-02,-3.647067770361900330e-02,3.856539726257324219e-03,-1.069012284278869629e-02,-1.326971501111984253e-02,8.121527731418609619e-03,3.920795023441314697e-02,3.678727895021438599e-02,-3.485701978206634521e-03,-2.359641715884208679e-02,-1.322025805711746216e-02,4.107772558927536011e-02,-8.129948377609252930e-02,2.040247619152069092e-02,5.734761804342269897e-02,5.862150341272354126e-02,-6.326761841773986816e-02,8.510284870862960815e-02,-8.454727381467819214e-02,2.813117206096649170e-02,-6.269223242998123169e-02,-2.942876517772674561e-02,5.205921083688735962e-02,1.898802071809768677e-02,-1.423233002424240112e-02,-5.414740741252899170e-02,-6.713046878576278687e-02,-6.885807216167449951e-02,6.887090951204299927e-02,-5.811914801597595215e-02,-6.991669535636901855e-02,-8.706972002983093262e-04,-3.565942868590354919e-02,6.435360759496688843e-02,1.827429234981536865e-02,-1.203611493110656738e-03,-1.807841658592224121e-02,4.910513013601303101e-02,-4.770267009735107422e-02,6.184981018304824829e-02,1.339280605316162109e-02,-6.601235270500183105e-02,-4.003367573022842407e-02,7.043369859457015991e-02,8.437409996986389160e-03,6.398022174835205078e-03,4.325335472822189331e-02,6.312779337167739868e-02,-1.911768317222595215e-02,2.983474731445312500e-02,5.355864018201828003e-02,-8.416707068681716919e-02,-4.475635290145874023e-02,1.243326067924499512e-02,3.337991982698440552e-02,-5.405718460679054260e-02,-1.290157437324523926e-02,-2.823083475232124329e-02,-5.661768466234207153e-02,-3.322194516658782959e-02,-6.329051405191421509e-02,-2.347473427653312683e-02,-6.703274697065353394e-02,5.080633610486984253e-02,-1.099622994661331177e-02,8.153478056192398071e-02,1.989901810884475708e-02,-4.883565008640289307e-02,-4.275349155068397522e-02,2.806076407432556152e-02,-5.412702262401580811e-02,-6.074729189276695251e-02,-1.428290456533432007e-02,5.994810909032821655e-02,9.989991784095764160e-03,4.458124190568923950e-02,-6.047137826681137085e-02,1.686685532331466675e-02,2.800055593252182007e-02,-3.335585445165634155e-02,3.966084867715835571e-02,-4.462573304772377014e-02,-4.882037639617919922e-02,-4.889845848083496094e-03,8.347407728433609009e-02,-9.924910962581634521e-03,-4.612372443079948425e-02,-3.087273985147476196e-02,-5.566432699561119080e-02,-1.159042119979858398e-03,-1.160559058189392090e-02,-4.748179391026496887e-02,7.566147297620773315e-02,-6.774540990591049194e-02,6.431552022695541382e-02,-1.102878153324127197e-02,4.706049710512161255e-02,-5.948792770504951477e-02,-2.556566521525382996e-02,8.463250845670700073e-02,5.234120041131973267e-02,-4.087663069367408752e-02,-7.229032367467880249e-02,-5.470447242259979248e-02,5.638795346021652222e-02,-8.391577005386352539e-02,4.634683579206466675e-02,6.951291114091873169e-02,6.937681883573532104e-02,-4.440526291728019714e-02,-8.056038618087768555e-02,2.122570574283599854e-02,6.251104176044464111e-03,-1.634182780981063843e-02,3.115086257457733154e-02,3.053085505962371826e-02,-2.376409992575645447e-02,2.353833615779876709e-02,7.622490078210830688e-02,6.954190880060195923e-02,5.418518930673599243e-02,7.927328348159790039e-03,5.560659617185592651e-02,1.443717628717422485e-02,4.582617431879043579e-02,5.864372104406356812e-02,-7.683916389942169189e-02,9.029515087604522705e-03,-5.761979520320892334e-02,-5.058206617832183838e-03,8.804410696029663086e-03,2.568170428276062012e-02,7.650876790285110474e-02,-5.639456212520599365e-03,8.313258737325668335e-02,-5.634084716439247131e-02,-5.868692323565483093e-02,-5.315905064344406128e-02,-6.395748257637023926e-02,-5.128247663378715515e-02,3.021960705518722534e-02,-8.214963227510452271e-02,-7.312964648008346558e-02,-3.902904689311981201e-03,-8.095526695251464844e-02,-5.914201214909553528e-02,-2.574947848916053772e-02,5.647615343332290649e-02,-7.025412470102310181e-02,2.056427299976348877e-02,4.464853554964065552e-02,5.304425209760665894e-02,1.075899600982666016e-02,6.341674178838729858e-02,-1.194273680448532104e-02,-3.062401711940765381e-02,-4.779432341456413269e-02,-9.263031184673309326e-03,4.513246566057205200e-02,2.087349444627761841e-02,-1.243908703327178955e-02,-1.380413770675659180e-03,-7.124268263578414917e-02,3.492298722267150879e-02,-4.774307087063789368e-02,-2.097865939140319824e-02,1.928546279668807983e-02,-3.026475012302398682e-02,6.846395879983901978e-02,-7.652869820594787598e-02,-6.495745480060577393e-02,2.803966403007507324e-03,-3.396204859018325806e-02,2.294095605611801147e-02,7.591988891363143921e-02,-5.446108058094978333e-02,5.303468555212020874e-02,-4.783416911959648132e-02,-3.795089945197105408e-02,1.729240268468856812e-02,-1.557847857475280762e-02,-1.073303073644638062e-02,3.796473890542984009e-02,6.906051188707351685e-02,9.636506438255310059e-03,-2.082422375679016113e-02,7.906485348939895630e-02,-2.164515852928161621e-02,-3.222719207406044006e-02,-7.861374318599700928e-02,-6.475407630205154419e-02,-1.115328818559646606e-02,4.779531806707382202e-02,-7.684411108493804932e-02,5.750187486410140991e-02,-2.721365541219711304e-02,1.687173545360565186e-02,-4.598367959260940552e-02,6.485238671302795410e-03,-5.894470587372779846e-02,4.235348850488662720e-02,-4.783609136939048767e-02,-1.812501251697540283e-02,3.554573655128479004e-02,-6.488260626792907715e-02,-6.689810007810592651e-02,1.008137315511703491e-02,-8.273562788963317871e-02,3.201387822628021240e-02,-6.843796372413635254e-02,5.727101117372512817e-02,-8.058168739080429077e-02,4.483724385499954224e-02,1.847019046545028687e-02,-5.913835018873214722e-02,8.263220638036727905e-02,6.345496326684951782e-02,-4.363445565104484558e-02,6.142053753137588501e-02,-4.885445907711982727e-02,-2.379180118441581726e-02,-1.117336004972457886e-02,-2.267262339591979980e-02,-5.496308207511901855e-03,-8.429474383592605591e-02,1.463117450475692749e-02,-2.893649041652679443e-02,-4.943881556391716003e-02,-1.218968629837036133e-02,-7.042182981967926025e-02,3.754273056983947754e-03,-3.331795334815979004e-03,-7.985724508762359619e-02,-3.448750451207160950e-02,-5.099505186080932617e-02,4.724840074777603149e-02,3.691531717777252197e-02,5.266577750444412231e-02,4.135001450777053833e-02,6.708065420389175415e-02,6.529884785413742065e-02,2.056621760129928589e-02,2.524614334106445312e-03,3.502833843231201172e-02,-1.079444587230682373e-02,-7.805529236793518066e-02,4.136072844266891479e-02,6.779100745916366577e-02,5.655959993600845337e-02,-1.367174834012985229e-02,8.525057882070541382e-02,-2.085690945386886597e-02,-1.433048397302627563e-02,3.733512014150619507e-02,-2.467836439609527588e-02,-3.966130316257476807e-02,7.924332469701766968e-02,1.739999651908874512e-02,1.984543353319168091e-02,-1.709073781967163086e-02,6.265854090452194214e-02,6.004223972558975220e-02,2.750150859355926514e-02,2.226175367832183838e-02,1.929548382759094238e-02,-5.250095203518867493e-02,-3.390650078654289246e-02,-3.248100727796554565e-02,8.749902248382568359e-03,-3.531420603394508362e-02,6.681687384843826294e-02,-4.828486219048500061e-02,4.026291519403457642e-02,-8.013994991779327393e-02,4.878131300210952759e-02,1.102632284164428711e-02,4.758322983980178833e-02,4.333760589361190796e-02,-2.605381235480308533e-02,-8.446498215198516846e-02,3.590964525938034058e-02,-8.110888302326202393e-02,-3.331232815980911255e-02,1.508191227912902832e-02,2.839294075965881348e-02,4.422295838594436646e-02,-2.303354442119598389e-02,-7.159499824047088623e-02,4.632387310266494751e-02,-2.681992948055267334e-03,-5.710155516862869263e-02,-4.144919291138648987e-02,-7.128121703863143921e-02,-1.791813224554061890e-02,-4.656644165515899658e-02,-2.335642278194427490e-02,-3.696461021900177002e-02,6.969600915908813477e-03,4.663616418838500977e-03,4.537922888994216919e-02,-2.760415896773338318e-02,-3.097007423639297485e-02,7.764983922243118286e-02,-2.956349402666091919e-02,-2.098970115184783936e-03,4.250014573335647583e-02,4.537364095449447632e-02,8.300741761922836304e-02,-2.483325079083442688e-02,-4.029523953795433044e-02,2.482239902019500732e-02,9.803436696529388428e-03,-1.250135898590087891e-02,4.449933767318725586e-03,-5.062603205442428589e-02,2.789411693811416626e-02,-8.316943049430847168e-02,-3.136247396469116211e-03,-3.760451450943946838e-02,5.871601402759552002e-03,-3.540959954261779785e-02,2.153790742158889771e-02,-4.153571277856826782e-02,-9.121760725975036621e-03,7.969514280557632446e-02,3.489060699939727783e-02,5.402461439371109009e-02,3.736482560634613037e-02,-6.073619425296783447e-02,-6.178408116102218628e-02,4.374002665281295776e-02,8.489177376031875610e-02,7.354425638914108276e-02,2.206481993198394775e-03,8.522150665521621704e-02,-1.155257970094680786e-02,4.585247486829757690e-02,5.148313194513320923e-02,-7.272166013717651367e-02,3.475274890661239624e-02,6.081514805555343628e-02,-6.366223096847534180e-02,-1.271577924489974976e-02,-8.416942507028579712e-02,-4.421676695346832275e-02,-7.083109766244888306e-02,7.651878148317337036e-02,-6.878933310508728027e-02,-6.814844906330108643e-02,-1.973255723714828491e-02,-5.415689200162887573e-02,8.811704814434051514e-03,-1.377495378255844116e-02,3.413937985897064209e-02,5.121237784624099731e-02,1.021244376897811890e-02,2.879540622234344482e-02,-2.416368201375007629e-02,8.052083104848861694e-02,7.002831250429153442e-02,7.362641394138336182e-03,-8.248715102672576904e-02,-2.659556269645690918e-02,-5.305609479546546936e-02,-7.603975385427474976e-02,-8.386668562889099121e-02,-7.469830662012100220e-02,-8.044659346342086792e-02,3.693148493766784668e-03,5.508407950401306152e-03,-7.844825088977813721e-02,8.084297180175781250e-03,-6.079237163066864014e-02,3.337889909744262695e-03,1.403109729290008545e-02,-4.639473184943199158e-02,6.711832433938980103e-02,-4.514835029840469360e-02,-7.115349173545837402e-03,-4.733635112643241882e-02,1.669456809759140015e-02,-7.652285695075988770e-02,-4.012778028845787048e-02,7.102876156568527222e-02,2.256850153207778931e-02,3.779869526624679565e-02,3.795369714498519897e-02,-4.656970500946044922e-03,8.256160467863082886e-02,-4.775360226631164551e-03,4.293442517518997192e-02,1.538997888565063477e-02,-2.013482153415679932e-02,-7.918699830770492554e-02,-5.299559980630874634e-02,-6.397788971662521362e-02,-1.492463052272796631e-02,6.776595860719680786e-02,-7.300121337175369263e-02,2.402294427156448364e-02,5.722977966070175171e-02,4.112157970666885376e-02,2.973857522010803223e-02,-5.883111804723739624e-02,-7.019145786762237549e-02,6.684171408414840698e-02,7.670911401510238647e-02,4.032776504755020142e-02,4.351874440908432007e-02,-7.423716783523559570e-02,-3.950142860412597656e-02,-2.332299575209617615e-02,8.487828820943832397e-02,7.792726159095764160e-03,-7.473371922969818115e-02,-5.600568652153015137e-02,-2.445499226450920105e-02,-8.086351305246353149e-02,5.521946400403976440e-02,7.620704919099807739e-02,-6.992108374834060669e-02,4.474908858537673950e-02,-5.648262798786163330e-02,2.080179750919342041e-03,3.120139986276626587e-02,6.445594131946563721e-03,3.777493536472320557e-02,-4.542342573404312134e-02,-5.949115753173828125e-02,-1.096662878990173340e-02,4.212126880884170532e-02,-5.005152896046638489e-02,-6.657034158706665039e-02,-8.307753503322601318e-02,6.870960444211959839e-02,-3.003272786736488342e-02,-7.842956483364105225e-02,-3.674840927124023438e-02,-5.270801112055778503e-02,-1.441806554794311523e-03,1.431120187044143677e-02,4.884792119264602661e-02,-4.155946895480155945e-02,2.376976609230041504e-02,6.831889599561691284e-02,-7.139746844768524170e-02,-1.876663416624069214e-02,3.812467306852340698e-02,-3.982420265674591064e-02,8.418665081262588501e-02,-3.997841477394104004e-02,5.988379567861557007e-02,6.478629261255264282e-02,-2.534928545355796814e-02,-5.108966678380966187e-02,-6.544686853885650635e-02,5.921691656112670898e-03,1.120163500308990479e-02,1.374493539333343506e-02,-4.877857118844985962e-02,1.752863079309463501e-02,3.659491240978240967e-02,-2.471812069416046143e-03,6.583534926176071167e-02,-7.311408221721649170e-02,-7.279291003942489624e-02,6.089810281991958618e-02,1.725718379020690918e-03,2.198416739702224731e-02,-1.436354219913482666e-02,-4.100358858704566956e-02,-2.778960764408111572e-02,-7.408077269792556763e-02,-5.288540571928024292e-02,2.944039553403854370e-02,5.592003464698791504e-03,-2.712455764412879944e-02,3.262184560298919678e-03,7.260978966951370239e-02,-4.142474010586738586e-02,-8.473466336727142334e-02,-8.127491176128387451e-02,7.921426743268966675e-02,-5.700007081031799316e-02,6.188932806253433228e-02,8.162642270326614380e-02,2.419009804725646973e-02,-4.940786212682723999e-02,7.789693027734756470e-02,-2.618375420570373535e-02,-3.252308070659637451e-02,5.785021930932998657e-02,-5.361372977495193481e-02,-4.729382693767547607e-03,-8.069477975368499756e-03,-5.720375478267669678e-02,-5.361336097121238708e-02,6.185278296470642090e-03,5.997542291879653931e-02,5.339851230382919312e-02,-4.013650119304656982e-03,-6.901837140321731567e-02,-3.301349654793739319e-02,-7.916958630084991455e-02,3.731571882963180542e-02,4.901029914617538452e-02,5.580980330705642700e-02,-1.202324777841567993e-02,-1.569149643182754517e-02,3.776004910469055176e-02,2.593063563108444214e-02,5.825179070234298706e-02,1.646792143583297729e-02,-6.308659911155700684e-03,2.432718873023986816e-03,-3.379324078559875488e-02,8.308260887861251831e-02,-6.789140403270721436e-03,-8.118808269500732422e-02,-1.043804734945297241e-02,-4.402569681406021118e-02,1.738639920949935913e-02,8.436091989278793335e-02,-8.368007838726043701e-03,4.009928554296493530e-02,8.240468055009841919e-02,-3.339271619915962219e-02,5.214259028434753418e-03,1.592241227626800537e-02,-4.711132124066352844e-02,7.138795405626296997e-02,-5.459065735340118408e-02,-6.817498803138732910e-02,1.381821185350418091e-02,7.172619551420211792e-02,3.260273486375808716e-02,7.876814156770706177e-02,5.000453442335128784e-02,-4.566777497529983521e-02,4.464677721261978149e-02,4.835655540227890015e-02,-5.599924176931381226e-02,-4.370521381497383118e-02,-7.592148333787918091e-02,2.273216098546981812e-02,4.939685016870498657e-02,6.172198802232742310e-02,2.858736366033554077e-02,7.251948118209838867e-04,1.964000612497329712e-02,6.592657417058944702e-02,-5.586007982492446899e-02,-3.158409893512725830e-02,1.414948701858520508e-02,-5.611293390393257141e-02,-2.896404638886451721e-02,-1.276903599500656128e-02,2.915372699499130249e-02,-2.964582294225692749e-02,-2.664187178015708923e-02,-8.330062031745910645e-03,-6.357505917549133301e-02,-4.125930368900299072e-03,6.827986985445022583e-02,-5.305087938904762268e-02,4.740966111421585083e-02,4.308221489191055298e-02,5.633894354104995728e-02,-7.508078217506408691e-02,5.230719596147537231e-02,2.660280466079711914e-02,-2.429379150271415710e-02,5.979796499013900757e-02,8.098087459802627563e-02,-2.085361629724502563e-02,-1.915374398231506348e-02,7.623601704835891724e-02,-6.523931771516799927e-02,5.284930020570755005e-02,-3.730402514338493347e-02,5.871393531560897827e-02,2.295336127281188965e-02,-2.437643706798553467e-03,-7.145753502845764160e-02,-4.635815694928169250e-02,7.443664222955703735e-02,-7.829283177852630615e-02,-3.320424258708953857e-02,-6.145059317350387573e-02
-1.136741787195205688e-02,-6.725802272558212280e-02,1.781979948282241821e-02,-5.350253358483314514e-02,-8.290216326713562012e-02,-5.358040332794189453e-03,-1.162037253379821777e-02,-3.974667936563491821e-02,5.103323608636856079e-02,-4.462812468409538269e-02,-1.493520289659500122e-02,-7.604112476110458374e-02,1.206990331411361694e-02,-3.757037222385406494e-02,-6.164579838514328003e-02,6.734050065279006958e-02,5.788385123014450073e-02,1.982059329748153687e-02,6.141366809606552124e-02,-8.267198503017425537e-02,-1.864081621170043945e-02,5.586273223161697388e-02,1.743278652429580688e-02,1.764418184757232666e-02,4.290891438722610474e-02,-2.886971831321716309e-02,-4.397564753890037537e-02,-5.648143589496612549e-03,-1.768302917480468750e-02,1.261103898286819458e-02,-6.036126613616943359e-02,-4.435020685195922852e-02,-4.298911243677139282e-02,-7.802145928144454956e-02,-1.044803857803344727e-02,1.239741593599319458e-02,-2.094022929668426514e-03,6.364814192056655884e-02,-1.393835991621017456e-02,-5.815016105771064758e-02,1.907881349325180054e-02,6.847607344388961792e-02,-5.572185665369033813e-02,-1.056125760078430176e-02,8.568318933248519897e-02,-1.956140249967575073e-02,1.294875890016555786e-02,-8.574037998914718628e-02,-8.144672214984893799e-02,-3.613725304603576660e-02,6.847684830427169800e-02,8.339787274599075317e-02,7.251240313053131104e-03,-4.971524327993392944e-02,3.030124306678771973e-02,3.061994910240173340e-02,-7.798472046852111816e-02,1.633317768573760986e-02,1.865275949239730835e-02,5.754876881837844849e-02,-4.839826747775077820e-02,-8.528502285480499268e-02,-6.480236351490020752e-02,-7.182381302118301392e-02,-7.063011080026626587e-02,4.589652270078659058e-02,-8.607342839241027832e-03,-6.679052114486694336e-02,6.430233269929885864e-02,-7.142063230276107788e-02,-8.295550942420959473e-02,-5.897097289562225342e-03,2.523364871740341187e-02,-8.536512404680252075e-02,7.682555168867111206e-02,-4.437170922756195068e-03,9.254671633243560791e-03,1.218514889478683472e-02,1.214331388473510742e-02,-1.091707497835159302e-02,4.314161837100982666e-03,-6.365010887384414673e-02,-7.017661631107330322e-02,-5.678317695856094360e-02,-7.986331731081008911e-02,2.263923734426498413e-02,-5.144249275326728821e-02,-5.775352194905281067e-02,-3.637015074491500854e-02,-8.049905300140380859e-04,-3.078620135784149170e-02,-2.013471722602844238e-02,6.175708025693893433e-02,-6.393505632877349854e-02,6.193984299898147583e-02,2.324111759662628174e-02,-6.581272184848785400e-02,-2.403216436505317688e-02,-1.423738896846771240e-03,-4.711087420582771301e-02,8.142895996570587158e-03,-1.983480155467987061e-02,-4.391362145543098450e-02,2.781581878662109375e-02,6.634508818387985229e-02,1.623535156250000000e-02,3.203356266021728516e-02,1.034424453973770142e-02,2.283570915460586548e-02,7.561116665601730347e-02,-2.283371984958648682e-03,6.381421536207199097e-02,1.054437458515167236e-02,-4.274607077240943909e-02,-1.040136814117431641e-02,6.246671825647354126e-02,-6.454691290855407715e-03,2.865427732467651367e-02,4.507481306791305542e-02,6.906477361917495728e-02,-3.558730334043502808e-02,-3.331613168120384216e-02,1.663859188556671143e-02,-1.865374296903610229e-02,5.768861621618270874e-02,6.558562070131301880e-02,-4.228531941771507263e-02,-6.376719474792480469e-02,-2.713484317064285278e-02,-4.862155765295028687e-02,5.354844778776168823e-02,8.372183889150619507e-02,-5.608997493982315063e-02,-3.022093698382377625e-02,1.007679104804992676e-02,-3.250911831855773926e-02,3.656872361898422241e-02,-1.736100763082504272e-02,1.048778742551803589e-02,7.740939408540725708e-02,-1.769496500492095947e-02,-6.820821017026901245e-02,2.665734291076660156e-02,2.588547766208648682e-03,4.333849996328353882e-02,5.137756466865539551e-03,-5.159985274076461792e-02,1.726657152175903320e-03,4.020567983388900757e-02,-1.767171919345855713e-02,2.827262133359909058e-02,-1.987032592296600342e-03,1.889013499021530151e-02,7.561191916465759277e-03,-6.445167958736419678e-02,7.576369494199752808e-02,-5.582299456000328064e-02,-8.275834470987319946e-02,4.734282940626144409e-02,-1.369372010231018066e-03,7.881497591733932495e-02,-4.546321928501129150e-03,3.779368102550506592e-02,5.396788567304611206e-02,8.168517798185348511e-02,7.776371389627456665e-02,8.501329272985458374e-02,7.890448719263076782e-02,5.970738828182220459e-03,8.216486126184463501e-02,7.978390902280807495e-02,1.884276419878005981e-02,6.692638248205184937e-02,-1.876319944858551025e-02,-8.169033378362655640e-02,6.993510574102401733e-02,-6.250694394111633301e-02,-6.839635968208312988e-02,-3.706384450197219849e-02,-4.834206402301788330e-02,-8.570846170186996460e-02,-1.799023896455764771e-02,-4.801671579480171204e-02,2.543173730373382568e-02,-5.988831073045730591e-02,-2.481012791395187378e-02,5.726603418588638306e-02,-2.197887003421783447e-02,-4.645908996462821960e-02,-4.491005092859268188e-02,-6.278897821903228760e-02,9.287424385547637939e-03,7.536988705396652222e-02,7.651596516370773315e-02,-2.264690399169921875e-02,-6.200434640049934387e-02,6.985057145357131958e-02,6.192696839570999146e-02,5.916257947683334351e-02,3.884956985712051392e-02,-3.739446401596069336e-04,-3.529554232954978943e-02,-8.244646340608596802e-02,4.980028420686721802e-02,7.631458342075347900e-03,-3.614587709307670593e-02,-6.222324073314666748e-02,1.058561354875564575e-02,8.077441900968551636e-02,-7.030578702688217163e-02,7.151567190885543823e-02,-1.596987992525100708e-02,5.093359202146530151e-02,-8.217110484838485718e-02,1.425808668136596680e-02,-2.056061476469039917e-02,-5.424463748931884766e-02,-1.112658530473709106e-02,-2.882210537791252136e-02,7.292988151311874390e-02,-7.526191323995590210e-02,3.139965236186981201e-03,1.776836067438125610e-02,6.926537305116653442e-02,-5.470219999551773071e-02,-6.596936285495758057e-02,3.461982309818267822e-02,-3.689736127853393555e-03,-1.467511057853698730e-02,2.881877124309539795e-03,2.961039543151855469e-02,-3.017485514283180237e-02,8.343527466058731079e-02,8.065279573202133179e-02,2.845850586891174316e-02,1.679084450006484985e-02,-6.626136600971221924e-03,-7.831388711929321289e-02,-3.335348516702651978e-02,-2.137880772352218628e-02,3.385469317436218262e-02,-2.344390377402305603e-02,7.700147479772567749e-02,6.120406091213226318e-03,4.556698352098464966e-02,-7.567231357097625732e-02,-4.238128662109375000e-02,-3.154854476451873779e-02,5.374390631914138794e-02,2.892579883337020874e-02,7.072100788354873657e-02,-5.910161510109901428e-02,6.823908537626266479e-02,-3.076884523034095764e-02,4.421190172433853149e-02,-6.265890598297119141e-02,-8.311004191637039185e-02,2.939151972532272339e-02,-3.763372823596000671e-02,1.433739066123962402e-02,-7.470440119504928589e-02,-3.439217433333396912e-02,-5.491590499877929688e-02,5.185277014970779419e-02,-7.130444794893264771e-02,-1.711549609899520874e-02,-3.628616780042648315e-02,6.982191652059555054e-02,-2.792102470993995667e-02,6.833716481924057007e-02,1.060781627893447876e-02,-6.034947931766510010e-03,3.912657499313354492e-03,-3.179998695850372314e-02,6.529975682497024536e-02,3.408826887607574463e-02,6.228350102901458740e-03,-6.299411505460739136e-02,4.254964739084243774e-02,-4.119740054011344910e-02,-5.517509579658508301e-02,-5.706943571567535400e-03,5.485981702804565430e-03,1.534455269575119019e-02,3.284810483455657959e-02,6.464824825525283813e-02,-3.376984968781471252e-02,3.449196368455886841e-02,6.436506658792495728e-02,-1.490794867277145386e-02,-5.165264010429382324e-04,7.615218311548233032e-02,-3.164947032928466797e-03,-4.338932782411575317e-02,1.287468522787094116e-02,-6.621677428483963013e-02,5.294398218393325806e-02,5.749099701642990112e-02,2.837236970663070679e-02,-3.175317123532295227e-02,-6.817124783992767334e-02,-7.530967146158218384e-02,-2.472526580095291138e-02,-5.111581459641456604e-02,-7.913658767938613892e-02,2.224836498498916626e-02,8.497511595487594604e-02,-8.381121605634689331e-02,8.039077371358871460e-02,-7.631634920835494995e-02,8.141206949949264526e-02,-1.458108425140380859e-02,4.722476005554199219e-03,6.481608003377914429e-02,6.157435476779937744e-03,1.398581266403198242e-02,-3.848345205187797546e-02,5.708184093236923218e-02,3.067900985479354858e-02,1.462091505527496338e-02,-7.130280882120132446e-02,-3.652331978082656860e-02,4.606985300779342651e-02,6.820333749055862427e-02,3.079004585742950439e-02,3.443177044391632080e-02,6.613240391016006470e-02,-3.328137099742889404e-03,-7.402391731739044189e-02,-3.168572485446929932e-02,-7.390108704566955566e-02,-1.551806926727294922e-02,2.800410985946655273e-02,2.849587798118591309e-02,1.748755574226379395e-03,6.149924546480178833e-02,-5.589074641466140747e-02,-4.231553524732589722e-02,-1.706238090991973877e-02,5.977702885866165161e-02,1.144226640462875366e-02,8.206434547901153564e-03,-2.797753363847732544e-02,7.547449320554733276e-02,6.189569085836410522e-02,1.243679225444793701e-02,-8.045362681150436401e-02,-7.464119046926498413e-02,7.798451930284500122e-02,-5.815970897674560547e-02,2.749461680650711060e-02,2.409038692712783813e-02,-3.118422999978065491e-02,-3.105256706476211548e-02,9.685471653938293457e-03,-3.616100922226905823e-02,3.119809180498123169e-02,7.022649049758911133e-03,-3.274036198854446411e-02,-8.566841483116149902e-02,-2.697441726922988892e-02,-2.981800213456153870e-02,6.664104759693145752e-03,8.030418306589126587e-02,3.309721499681472778e-02,4.809708148241043091e-02,-9.455107152462005615e-03,-4.668921232223510742e-02,-4.643596708774566650e-02,2.552747726440429688e-02,-8.006628602743148804e-02,5.116953700780868530e-02,-4.962316155433654785e-02,2.391876280307769775e-02,-7.815334200859069824e-02,-7.960753887891769409e-02,-1.498393714427947998e-02,1.727066934108734131e-03,-6.056375801563262939e-03,5.574851483106613159e-02,-4.839693754911422729e-02,4.176705330610275269e-02,1.915866881608963013e-02,-2.189602702856063843e-02,1.682023704051971436e-02,1.315117627382278442e-02,-5.863131582736968994e-02,7.657352834939956665e-02,2.556852996349334717e-02,5.994649976491928101e-02,-3.843011334538459778e-02,2.586296200752258301e-02,1.961803436279296875e-02,-5.513288080692291260e-02,5.229113250970840454e-02,2.391072362661361694e-02,8.324100822210311890e-02,-5.464951694011688232e-02,3.067900985479354858e-02,8.382972329854965210e-02,4.207650572061538696e-02,-5.813239514827728271e-02,2.744109928607940674e-02,7.937680929899215698e-02,-6.461092829704284668e-02,5.789207667112350464e-02,3.290857374668121338e-02,6.531767547130584717e-03,3.358321636915206909e-02,7.723351567983627319e-02,-1.168806850910186768e-02,2.268638461828231812e-02,1.571422815322875977e-02,-4.365960136055946350e-02,-4.477965831756591797e-02,-2.701499685645103455e-02,6.600678712129592896e-02,4.417046159505844116e-02,-6.119017675518989563e-02,5.152802914381027222e-02,-3.142160549759864807e-02,-7.388010621070861816e-02,-8.464141935110092163e-02,2.466483414173126221e-02,-6.806701421737670898e-03,-6.673679500818252563e-02,-4.449411481618881226e-02,-8.253603428602218628e-02,4.452707618474960327e-02,1.105476170778274536e-02,2.204022556543350220e-02,5.995465070009231567e-02,-4.625971987843513489e-02,1.156868785619735718e-02,-2.823470160365104675e-02,-7.870763540267944336e-03,-7.808013260364532471e-02,-4.386306181550025940e-02,-7.499239593744277954e-02,-2.033632248640060425e-02,3.854304552078247070e-02,4.407639056444168091e-02,-2.598460763692855835e-02,-3.918650746345520020e-02,1.561024785041809082e-02,2.790669351816177368e-02,7.330100983381271362e-02,-8.569309115409851074e-02,5.322543531656265259e-02,-5.604397505521774292e-02,-2.969266101717948914e-02,1.136872917413711548e-02,5.439586192369461060e-02,5.416748672723770142e-02,1.559851318597793579e-02,4.757577925920486450e-02,-6.440568715333938599e-02,-1.282259821891784668e-03,9.846016764640808105e-03,2.789914608001708984e-02,1.085631549358367920e-02,8.390918374061584473e-04,-7.367241382598876953e-02,-5.476549640297889709e-02,5.341104418039321899e-02,-5.240040645003318787e-02,-3.773257508873939514e-02,4.992216825485229492e-03,-2.645973116159439087e-02,1.426777988672256470e-02,7.017786055803298950e-02,8.302154392004013062e-02,8.973687887191772461e-03,1.097673177719116211e-02,6.168515235185623169e-02,-8.409359306097030640e-02,1.640250533819198608e-02,-3.051415085792541504e-02,2.196537703275680542e-02,2.551458775997161865e-03,-6.984724104404449463e-02,3.041552752256393433e-02,1.952821761369705200e-02,-4.220501706004142761e-02,1.097676903009414673e-02,1.276966929435729980e-02,6.965447217226028442e-02,-4.278614372014999390e-02,4.300654679536819458e-02,2.759471535682678223e-02,-3.481816872954368591e-02,-2.985402569174766541e-02,1.272084563970565796e-02,7.175944745540618896e-03,-6.173405423760414124e-02,3.715038299560546875e-02,4.161342233419418335e-02,-5.557234585285186768e-02,-4.701893404126167297e-02,-4.538932442665100098e-02,-2.622611820697784424e-02,1.192822307348251343e-02,6.131552159786224365e-03,-7.927992194890975952e-02,6.180431693792343140e-02,-4.579238221049308777e-02,2.647731453180313110e-02,-7.558154314756393433e-02,-2.442714571952819824e-02,8.262728899717330933e-02,2.255596965551376343e-02,5.260565131902694702e-02,8.343837410211563110e-02,6.770799309015274048e-02,3.938504308462142944e-02,-1.076218485832214355e-02,1.229922473430633545e-02,6.440449506044387817e-02,6.503113359212875366e-02,5.073250085115432739e-02,4.454087466001510620e-02,-3.847308456897735596e-02,-5.922938883304595947e-02,5.756480246782302856e-02,2.995062619447708130e-02,7.011393457651138306e-02,8.166717737913131714e-02,-3.509322553873062134e-02,4.288882762193679810e-02,3.757474571466445923e-02,7.125995308160781860e-02,-5.065506324172019958e-02,7.820075005292892456e-02,-6.260140240192413330e-02,-1.451433449983596802e-02,3.180199116468429565e-02,1.697923243045806885e-02,-6.625901162624359131e-02,1.390106976032257080e-02,2.781403809785842896e-02,7.169153541326522827e-02,3.578671813011169434e-02,3.097668290138244629e-02,4.012868553400039673e-02,-7.869245857000350952e-02,-2.020770311355590820e-02,3.402221202850341797e-02,-1.346024870872497559e-02,3.477334976196289062e-03,-2.755266055464744568e-02,-3.832249343395233154e-02,1.441025733947753906e-02,7.043384015560150146e-03,1.636296510696411133e-03,1.432541012763977051e-02,7.616661489009857178e-03,1.437509059906005859e-02,3.694986552000045776e-02,6.061150878667831421e-02,1.647062599658966064e-02,-7.471241056919097900e-03,-8.137003332376480103e-02,-2.620452642440795898e-02,-3.432063758373260498e-02,-5.534537136554718018e-03,7.428456097841262817e-02,-7.654705643653869629e-02,-4.473754391074180603e-02,1.642051339149475098e-02,5.245160311460494995e-02,5.551191419363021851e-02,7.568711787462234497e-02,7.284123450517654419e-02,-5.924269556999206543e-03,2.116970717906951904e-02,-2.361236512660980225e-02,-6.116306781768798828e-02,-4.555678367614746094e-02,1.531049609184265137e-03,-5.796250328421592712e-02,3.651808947324752808e-02,-5.927725136280059814e-02,-3.932037577033042908e-02,-5.786608904600143433e-02,3.635786473751068115e-02,5.627398937940597534e-02,-7.864289730787277222e-02,7.549052685499191284e-02,6.766341626644134521e-03,2.872102707624435425e-02,8.104736357927322388e-02,-7.718637585639953613e-03,-8.046020567417144775e-02,-3.861263394355773926e-04,-6.170408427715301514e-02,4.688616842031478882e-02,7.560610026121139526e-02,7.249718159437179565e-02,1.723895967006683350e-02,1.227616518735885620e-02,-4.510343447327613831e-02,-3.606508299708366394e-02,1.411434262990951538e-02,6.609149277210235596e-03,-7.614459097385406494e-02,8.180827647447586060e-02,4.084760695695877075e-02,1.300303637981414795e-02,2.446949481964111328e-03,7.623528689146041870e-02,-2.358245477080345154e-02,-3.661677241325378418e-02,-6.864579766988754272e-02,5.836803466081619263e-02,-4.756336286664009094e-02,7.801613956689834595e-02,2.876416593790054321e-02,5.857787281274795532e-02,-6.897456198930740356e-02,1.572024077177047729e-02,-6.942741572856903076e-02,6.370901316404342651e-02,-8.801177144050598145e-03,2.077603340148925781e-02,-1.597635447978973389e-03,7.167427986860275269e-02,5.253247171640396118e-02,8.788339793682098389e-03,-2.801259234547615051e-02,5.936004966497421265e-02,6.902930885553359985e-02,-5.672559142112731934e-03,-2.145815640687942505e-02,4.251965135335922241e-02,-4.011297971010208130e-02,4.501258581876754761e-02,5.168449133634567261e-02,-1.460870355367660522e-02,-1.015440374612808228e-02,1.643715798854827881e-02,-8.218907564878463745e-02,-5.250317975878715515e-02,7.038556039333343506e-03,3.314107656478881836e-03,-7.323930412530899048e-02,-8.229906111955642700e-02,-7.070215791463851929e-02,-2.772308513522148132e-02,-4.483980685472488403e-02,4.803601652383804321e-02,-3.536517545580863953e-02,8.212419599294662476e-02,3.044743835926055908e-02,-3.018140792846679688e-03,-1.552041620016098022e-02,-8.341027051210403442e-02,3.165104985237121582e-02,6.006983667612075806e-02,-1.932395994663238525e-02,5.376767367124557495e-02,-6.741421669721603394e-02,3.715573996305465698e-02,-6.947654485702514648e-02,2.880220860242843628e-02,-4.226258769631385803e-02,3.928292542695999146e-02,-4.252466186881065369e-02,-2.425099909305572510e-02,4.891035705804824829e-02,-2.499856427311897278e-02,3.766413033008575439e-02,3.249955177307128906e-02,-3.129626438021659851e-02,3.956667333841323853e-02,7.748950272798538208e-02,-8.501014858484268188e-02,-2.695508301258087158e-03,-6.115554273128509521e-02,3.970772773027420044e-02,7.270641624927520752e-03,5.854407697916030884e-02,6.445109099149703979e-02,3.156071156263351440e-02,-4.873790591955184937e-02,-2.579682692885398865e-02,1.792281866073608398e-02,4.100516438484191895e-03,3.908018022775650024e-02,-4.486264288425445557e-02,-6.063198670744895935e-02,6.440549343824386597e-02,-2.993617206811904907e-02,6.742159277200698853e-02,5.818311125040054321e-02,-3.724463284015655518e-02,6.765674799680709839e-02,-6.369687616825103760e-03,5.972638726234436035e-03,-4.866285622119903564e-02,3.523831814527511597e-02,7.670106738805770874e-02,5.132649093866348267e-02,2.757880836725234985e-02,6.085383147001266479e-02,7.234556227922439575e-02,-3.487246856093406677e-02,4.350201040506362915e-02,1.849666982889175415e-02,2.419222146272659302e-02,-4.605623707175254822e-02,7.854513078927993774e-02,-7.229650020599365234e-02,3.526967763900756836e-02,4.512680321931838989e-02,4.449640959501266479e-02,6.635240465402603149e-02,-3.552008047699928284e-02,-2.604782208800315857e-02,-4.775055125355720520e-02,2.073124051094055176e-03,1.366125792264938354e-02,6.552097946405410767e-02,-3.799227997660636902e-02,6.359615176916122437e-02,-7.876808196306228638e-02,-4.546754062175750732e-03,7.192447036504745483e-02,-5.936516076326370239e-02,-7.081498950719833374e-02,-6.073184311389923096e-03,-1.230829954147338867e-02,-6.688820570707321167e-02,-4.718452692031860352e-05,2.059862017631530762e-02,-4.472705721855163574e-02,-5.043340846896171570e-02,-3.533720970153808594e-03,6.021069735288619995e-02,-6.150826811790466309e-03,7.502459734678268433e-02,-5.426575988531112671e-02,-3.631673008203506470e-02,8.375916630029678345e-02,-4.934771731495857239e-02,-5.301416292786598206e-02,-7.946359366178512573e-02,-4.807271063327789307e-02,-8.253084123134613037e-02,-4.388219863176345825e-02,-1.699763536453247070e-02,1.671415567398071289e-02,7.053152471780776978e-02,6.224258989095687866e-02,2.113094925880432129e-02,-2.632741630077362061e-02,-4.852142184972763062e-02,2.348626405000686646e-02,4.156980663537979126e-02,5.281152576208114624e-02,-1.005342602729797363e-02,-5.771488323807716370e-02,-3.808094561100006104e-02,7.191137224435806274e-02,1.686207205057144165e-02,6.455195695161819458e-02,6.900087743997573853e-02,3.158140182495117188e-02,-1.931222528219223022e-02,2.259095013141632080e-02,6.750633567571640015e-02,7.732547074556350708e-02,-2.588830888271331787e-03,-7.439377158880233765e-02,4.528271406888961792e-02,3.100290894508361816e-02,4.306562989950180054e-02,6.628727167844772339e-02,-7.612502574920654297e-02,-8.366629481315612793e-04,-7.009013742208480835e-02,4.992779344320297241e-02,7.999072223901748657e-02,-4.053376615047454834e-03,6.447944790124893188e-02
