-4.299497976899147034e-02,1.571825891733169556e-02,-2.850271761417388916e-03,-3.765834122896194458e-02,3.534581512212753296e-02,5.269110202789306641e-03,-4.652711004018783569e-02,8.457501977682113647e-02,-1.888666301965713501e-02,-5.208648741245269775e-02,2.920395880937576294e-02,-3.890721872448921204e-02,4.133697599172592163e-02,6.213957816362380981e-02,5.616494268178939819e-02,-4.085594043135643005e-02,9.800061583518981934e-03,-2.223953604698181152e-02,-5.552062392234802246e-02,-7.135281711816787720e-02,-4.607987031340599060e-02,-3.102331236004829407e-02,8.021267503499984741e-02,-7.951347529888153076e-02,-6.515510380268096924e-03,-4.755310341715812683e-02,-6.111475825309753418e-02,-4.473758488893508911e-02,-4.443856701254844666e-02,-4.651711136102676392e-02,-2.978269755840301514e-02,2.693548798561096191e-03
-4.942657053470611572e-02,-3.904388844966888428e-02,2.108746021986007690e-02,-3.520828485488891602e-02,-6.028521060943603516e-02,-4.770117998123168945e-02,-7.014020532369613647e-02,-7.782030105590820312e-02,3.494870662689208984e-02,-5.962163209915161133e-02,1.338742673397064209e-02,-2.815719693899154663e-02,2.814181894063949585e-02,3.588899970054626465e-02,-8.525877445936203003e-02,3.176540136337280273e-03,2.898260951042175293e-02,1.143557578325271606e-02,1.233874261379241943e-02,4.964769631624221802e-02,-3.222175315022468567e-02,-1.976773142814636230e-03,4.106379300355911255e-02,2.652110904455184937e-02,-6.251954287290573120e-02,4.066898673772811890e-02,5.165823549032211304e-02,3.662204742431640625e-02,7.779903709888458252e-03,-1.202128827571868896e-02,-3.403908014297485352e-02,-3.668495267629623413e-02
4.370635002851486206e-02,-5.023844540119171143e-03,7.266586273908615112e-02,1.824759691953659058e-02,2.880474925041198730e-02,-8.346012979745864868e-02,-2.213197946548461914e-02,1.040897518396377563e-02,7.029540091753005981e-02,-3.137466683983802795e-02,-7.539202272891998291e-02,-5.634650588035583496e-03,7.481057196855545044e-02,8.195150643587112427e-02,-6.467311084270477295e-02,-4.230149090290069580e-02,-5.563591048121452332e-02,5.828093737363815308e-02,-7.670867443084716797e-02,-4.884073883295059204e-02,5.865447968244552612e-02,-3.057697415351867676e-02,-5.229945480823516846e-02,6.835506111383438110e-02,-3.333872184157371521e-02,-2.380527555942535400e-03,7.445593923330307007e-02,-4.742428287863731384e-02,-1.662387698888778687e-02,-5.046894028782844543e-02,8.027673512697219849e-02,-5.230797827243804932e-02
-6.450604647397994995e-02,-5.798473954200744629e-03,3.815820068120956421e-02,-7.410138100385665894e-02,7.535321265459060669e-02,-3.560528159141540527e-03,6.848297268152236938e-02,1.994977891445159912e-02,3.136115521192550659e-02,1.846395432949066162e-02,6.271483749151229858e-02,-5.127466470003128052e-02,1.953073590993881226e-02,-4.769435152411460876e-02,3.209093213081359863e-02,-4.916987195611000061e-02,1.572733372449874878e-02,-7.144802808761596680e-02,-5.460008978843688965e-04,6.108028441667556763e-02,3.685361891984939575e-02,-6.849784404039382935e-02,-2.089620381593704224e-02,-2.685113623738288879e-02,-5.897134542465209961e-02,-6.164710223674774170e-02,5.016200989484786987e-02,-4.590513184666633606e-02,2.146725356578826904e-02,-4.343144223093986511e-02,7.625233381986618042e-02,2.954049408435821533e-02
-6.753221899271011353e-02,5.409374088048934937e-02,-5.196533352136611938e-02,-6.265714764595031738e-02,6.426208466291427612e-02,-4.945940151810646057e-02,-3.684682771563529968e-02,-7.493239641189575195e-02,-1.647994667291641235e-02,7.442394644021987915e-02,-2.292660623788833618e-02,4.609107226133346558e-02,5.159664899110794067e-02,-4.663840681314468384e-02,3.301960974931716919e-02,3.404818475246429443e-03,5.568442493677139282e-02,7.921957224607467651e-02,2.704221010208129883e-02,4.449681192636489868e-02,-5.010568723082542419e-02,-7.854221016168594360e-02,7.246469706296920776e-02,-2.955022454261779785e-02,-2.428875863552093506e-02,-6.287361681461334229e-02,-4.314549267292022705e-03,-4.053860902786254883e-05,3.848629444837570190e-02,1.404313743114471436e-02,-8.899413049221038818e-03,-8.289566636085510254e-02
5.170295387506484985e-02,7.388066500425338745e-02,-3.980870544910430908e-02,7.531918585300445557e-03,-5.062552168965339661e-02,-9.524554014205932617e-03,8.923470973968505859e-03,-3.687992691993713379e-02,3.762374818325042725e-02,7.151969522237777710e-02,-1.886302977800369263e-02,7.122420519590377808e-02,-5.226527154445648193e-02,2.481576800346374512e-02,6.551988422870635986e-03,-1.545660942792892456e-02,3.853233158588409424e-02,5.812806636095046997e-02,-1.821742206811904907e-02,-6.170332431793212891e-02,-5.898463353514671326e-02,5.968625098466873169e-02,7.563365250825881958e-02,2.597823739051818848e-03,-4.346251860260963440e-02,-2.869381755590438843e-02,7.904268056154251099e-02,-4.913728311657905579e-02,4.159947484731674194e-02,4.219353944063186646e-02,3.328360617160797119e-03,-2.521938085556030273e-02
-1.197277009487152100e-02,-3.228241205215454102e-02,1.024726033210754395e-02,-2.919545769691467285e-02,-1.392736285924911499e-02,-8.563854545354843140e-02,1.236585527658462524e-02,-5.753924697637557983e-02,-1.422092318534851074e-04,3.386773169040679932e-03,-4.699534177780151367e-02,5.572763830423355103e-02,4.354491084814071655e-02,-4.478579014539718628e-02,-2.564219012856483459e-02,-4.310736060142517090e-02,-8.397798240184783936e-02,-4.927759245038032532e-02,1.127292215824127197e-02,8.200287073850631714e-02,-7.993801683187484741e-02,1.978953927755355835e-02,8.082164078950881958e-02,-4.941689968109130859e-02,5.435775965452194214e-02,1.657104492187500000e-02,4.184051603078842163e-02,4.119259864091873169e-02,-2.265579998493194580e-02,3.325318545103073120e-02,3.519575297832489014e-02,-5.175426602363586426e-02
-1.251059770584106445e-02,6.880500167608261108e-02,-5.383211746811866760e-02,2.966748923063278198e-02,-1.101281493902206421e-02,6.321982294321060181e-02,-5.094293877482414246e-02,-4.669111222028732300e-02,8.023389428853988647e-02,-6.296142935752868652e-03,6.691993027925491333e-02,4.407962411642074585e-02,6.079048663377761841e-02,-7.400034368038177490e-02,-4.788836836814880371e-02,3.644373267889022827e-02,6.758063286542892456e-02,7.424824684858322144e-02,4.838753491640090942e-02,4.245816916227340698e-02,4.193616658449172974e-02,4.037078469991683960e-02,-7.744506001472473145e-04,1.898977905511856079e-02,-7.832421362400054932e-02,1.307293772697448730e-02,2.393049746751785278e-02,-3.662562370300292969e-02,-3.405267745256423950e-02,4.865249246358871460e-02,3.243613243103027344e-02,-2.409741282463073730e-04
-1.562312245368957520e-04,-4.399909824132919312e-02,3.649860620498657227e-02,-2.262631803750991821e-02,4.815604537725448608e-02,-5.688083916902542114e-02,4.193005710840225220e-02,8.125367015600204468e-02,-2.062223106622695923e-02,1.185644418001174927e-02,-4.700219258666038513e-02,-2.381786704063415527e-02,1.277989149093627930e-02,-1.015295088291168213e-02,5.665167421102523804e-02,4.031561315059661865e-03,2.539573609828948975e-02,3.449938446283340454e-02,-2.162636816501617432e-02,-1.881976425647735596e-02,-7.735769450664520264e-02,-7.936358451843261719e-05,-5.586531385779380798e-02,6.868059188127517700e-02,8.678123354911804199e-03,2.392835170030593872e-02,6.431908160448074341e-02,1.793438941240310669e-02,6.719812750816345215e-03,4.205154627561569214e-02,-6.901703774929046631e-03,3.843513876199722290e-02
1.551571488380432129e-02,6.294158846139907837e-02,8.458922058343887329e-02,7.874497026205062866e-02,-4.826660454273223877e-02,-7.600165158510208130e-02,-5.160647630691528320e-02,9.848572313785552979e-03,-1.271013170480728149e-02,-5.371122807264328003e-02,-6.094098091125488281e-02,-6.413177400827407837e-02,-4.167356714606285095e-02,-8.568070828914642334e-03,-8.716724812984466553e-03,-6.020672619342803955e-02,-6.766745448112487793e-02,-5.232752487063407898e-02,-8.506353199481964111e-02,4.098647087812423706e-02,6.096965819597244263e-02,-7.585144788026809692e-02,1.934945583343505859e-03,8.153913170099258423e-02,-5.977964773774147034e-02,-5.096209421753883362e-02,3.379123657941818237e-02,-1.214456558227539062e-02,-7.870192080736160278e-02,6.288745254278182983e-02,5.899813026189804077e-02,3.024823963642120361e-03
4.913850873708724976e-02,1.143048703670501709e-02,-2.116553485393524170e-02,-1.472823321819305420e-03,1.723527908325195312e-02,7.541956752538681030e-02,7.925052195787429810e-02,5.963694304227828979e-02,-6.131926178932189941e-02,-3.588223084807395935e-02,-2.552643418312072754e-03,4.727082699537277222e-02,-5.455972626805305481e-02,-8.209263533353805542e-02,-1.510885357856750488e-02,2.417024224996566772e-02,7.367085665464401245e-02,3.451680392026901245e-02,1.442906260490417480e-02,7.294472306966781616e-02,-4.715372249484062195e-02,-4.775437340140342712e-02,-1.273217052221298218e-02,2.801735699176788330e-02,-8.279133588075637817e-02,1.559428125619888306e-02,-4.889745265245437622e-02,-8.392893522977828979e-02,7.895090430974960327e-02,8.216848224401473999e-02,6.478068977594375610e-02,-3.272850438952445984e-02
6.533671170473098755e-02,-5.185215547680854797e-02,6.197155267000198364e-02,-4.026878252625465393e-02,-5.875252932310104370e-02,-1.765319705009460449e-02,-7.476411759853363037e-03,-7.397145777940750122e-02,-4.127331078052520752e-02,-3.813798353075981140e-02,-7.383345812559127808e-02,-2.007886767387390137e-03,4.338689893484115601e-02,5.226316303014755249e-02,3.895362466573715210e-02,8.209476619958877563e-02,4.061108082532882690e-02,5.896791070699691772e-02,6.874292343854904175e-02,1.390381157398223877e-02,6.866667419672012329e-02,-1.251117140054702759e-02,8.403740823268890381e-03,-4.652479663491249084e-02,-1.429656147956848145e-02,5.292996019124984741e-02,-4.959791898727416992e-03,-1.264481246471405029e-02,-5.291784927248954773e-02,-4.057727754116058350e-03,6.703325361013412476e-02,1.140650361776351929e-02
-8.155450224876403809e-02,3.995677083730697632e-02,7.662356644868850708e-02,-2.586849033832550049e-03,6.043251603841781616e-02,-1.790831983089447021e-02,-8.010255545377731323e-02,2.485018223524093628e-02,-4.863989725708961487e-02,-3.860223293304443359e-02,8.424916118383407593e-02,7.434309273958206177e-02,-8.606649935245513916e-03,-3.560506924986839294e-02,-4.541578143835067749e-02,-2.040351927280426025e-02,-6.741125136613845825e-02,7.230890542268753052e-02,-6.971496343612670898e-02,6.960399448871612549e-03,-7.189515978097915649e-02,-1.967445760965347290e-02,-7.472337037324905396e-02,-6.170823425054550171e-02,1.399760693311691284e-02,-5.950272083282470703e-03,-2.419023960828781128e-02,-3.155189752578735352e-02,-3.241615742444992065e-02,3.507699072360992432e-02,7.348039001226425171e-02,1.997967064380645752e-02
6.860864907503128052e-02,-3.968749195337295532e-02,-7.883813977241516113e-02,-8.315146714448928833e-02,-1.860140264034271240e-02,7.559981197118759155e-02,-7.847570627927780151e-02,-1.279176771640777588e-02,-3.794439882040023804e-02,-5.375117808580398560e-02,4.871366173028945923e-02,4.906166344881057739e-02,7.243473082780838013e-02,9.446747601032257080e-03,-2.818737179040908813e-02,2.277036756277084351e-02,5.499052256345748901e-02,-7.340345531702041626e-02,7.494933903217315674e-03,4.699394851922988892e-02,-7.308526337146759033e-02,-4.894613102078437805e-02,-3.344707936048507690e-02,-2.701158449053764343e-02,3.963903337717056274e-02,4.050540179014205933e-02,6.590030342340469360e-02,-1.700129359960556030e-02,5.115447193384170532e-02,-3.148561716079711914e-02,2.250463515520095825e-02,-7.803723961114883423e-02
5.355114489793777466e-02,3.797970712184906006e-02,-3.349205479025840759e-02,-3.241864964365959167e-02,5.352201312780380249e-02,-5.796499550342559814e-02,6.630820780992507935e-02,-5.235365033149719238e-02,-5.942389741539955139e-02,-2.938227355480194092e-02,-1.037947088479995728e-02,-2.875619009137153625e-02,-1.139340549707412720e-02,1.472659409046173096e-03,-1.088982075452804565e-02,5.669292062520980835e-02,3.402487188577651978e-02,7.355958223342895508e-05,2.215965837240219116e-02,2.796495705842971802e-02,-6.809197366237640381e-03,9.185597300529479980e-04,-6.803247332572937012e-02,2.944885939359664917e-02,-8.041426539421081543e-03,-5.614627897739410400e-02,-6.277697533369064331e-02,-8.443930745124816895e-02,2.579406648874282837e-02,7.711226493120193481e-02,3.830888122320175171e-02,-4.619470611214637756e-02
-7.529196888208389282e-02,-8.570574223995208740e-02,4.815848916769027710e-02,-5.663487315177917480e-02,-2.485414594411849976e-02,-6.056435406208038330e-03,-1.972573250532150269e-02,-7.561776787042617798e-02,-2.929878234863281250e-02,-2.376534789800643921e-02,-4.723662510514259338e-02,2.167733758687973022e-02,-4.114244878292083740e-02,-7.554574310779571533e-02,-4.420472681522369385e-02,-7.226219773292541504e-02,4.111836105585098267e-02,-2.253212779760360718e-02,-5.966446548700332642e-02,-2.191007137298583984e-03,-3.365150094032287598e-02,-1.563443243503570557e-02,-1.848462224006652832e-02,2.854026108980178833e-02,4.865591973066329956e-02,-7.883979380130767822e-02,8.398515731096267700e-02,-8.306218683719635010e-02,4.453285783529281616e-02,1.507002860307693481e-02,5.715740472078323364e-02,-5.563609302043914795e-03
-1.192640513181686401e-02,-9.439609944820404053e-03,-4.910479858517646790e-02,-2.763372287154197693e-02,6.783575564622879028e-02,5.710402876138687134e-02,-6.626361608505249023e-02,-1.036076247692108154e-02,-7.969117909669876099e-02,4.059924930334091187e-02,-2.182639390230178833e-02,-8.619181811809539795e-03,1.940815150737762451e-02,-1.753323525190353394e-02,-6.075835227966308594e-02,6.208112090826034546e-02,1.168906688690185547e-02,-3.686234727501869202e-02,-5.773174762725830078e-02,-4.912589490413665771e-02,-3.058353811502456665e-02,-1.839995384216308594e-04,-2.280920743942260742e-03,-6.278854608535766602e-02,4.946496337652206421e-02,-5.659863352775573730e-03,6.378606706857681274e-02,7.124503701925277710e-02,8.314295858144760132e-02,8.965484797954559326e-03,-1.558645069599151611e-02,3.730195760726928711e-02
-6.811708211898803711e-03,-2.455138787627220154e-02,6.177128106355667114e-02,8.371930569410324097e-02,-6.092080473899841309e-02,-6.742028892040252686e-02,-5.409402772784233093e-02,-7.153278589248657227e-02,8.484862744808197021e-03,6.665015965700149536e-02,2.957614511251449585e-02,2.196527272462844849e-02,-7.463750988245010376e-02,-4.131712391972541809e-02,-3.405465930700302124e-02,2.649800479412078857e-02,-8.480147272348403931e-02,5.295623093843460083e-02,6.521879881620407104e-02,4.576102644205093384e-02,-4.071154445409774780e-02,-3.650469705462455750e-02,6.870725005865097046e-02,-7.230386137962341309e-02,-2.924400940537452698e-02,-3.628194332122802734e-03,-2.719429507851600647e-02,-8.286248147487640381e-02,6.459663063287734985e-02,-4.422030597925186157e-02,6.757474690675735474e-02,5.766684561967849731e-02
-6.017312407493591309e-04,-8.664652705192565918e-04,5.124784260988235474e-02,-2.880652621388435364e-02,5.073764175176620483e-02,-4.499348625540733337e-02,5.035217851400375366e-02,3.419349342584609985e-02,-2.323111891746520996e-02,-3.883811831474304199e-02,-2.103117853403091431e-02,3.793601691722869873e-02,3.755315393209457397e-02,-8.553180843591690063e-02,1.949787139892578125e-03,3.115916252136230469e-02,7.639070600271224976e-02,3.614657372236251831e-02,-2.145228534936904907e-02,-5.670663714408874512e-02,7.447976619005203247e-02,-3.274778276681900024e-02,3.584641218185424805e-02,2.365536987781524658e-03,-9.035572409629821777e-03,5.655574053525924683e-02,-2.374479919672012329e-02,6.966357678174972534e-02,-5.997592955827713013e-02,5.008473247289657593e-02,-5.581577867269515991e-02,5.609739571809768677e-02
-8.215442299842834473e-02,7.611032575368881226e-02,4.214274138212203979e-02,-5.233312398195266724e-02,2.591295540332794189e-02,-2.774219959974288940e-02,5.856434255838394165e-02,7.361664623022079468e-02,-5.806740373373031616e-02,-5.988113209605216980e-02,-5.533406883478164673e-02,-7.483888417482376099e-02,2.567471563816070557e-02,-5.213581025600433350e-03,6.879914551973342896e-02,8.569213002920150757e-02,-4.917156696319580078e-02,-5.399454385042190552e-02,2.496047317981719971e-02,-1.395473629236221313e-02,-6.240534037351608276e-02,-8.535418659448623657e-02,3.577291965484619141e-03,-3.291293978691101074e-03,3.324893116950988770e-02,6.358432024717330933e-02,7.975447922945022583e-02,-2.726887539029121399e-02,5.655559152364730835e-02,-7.732357084751129150e-02,2.430389076471328735e-02,-2.471238374710083008e-03
1.631207764148712158e-02,-5.958011001348495483e-02,-6.863722950220108032e-02,-3.186035901308059692e-02,-3.468401357531547546e-02,6.544502824544906616e-02,-3.319483622908592224e-02,7.581452280282974243e-02,7.184685021638870239e-02,-5.707132071256637573e-02,6.712322682142257690e-02,4.664879292249679565e-02,7.775958627462387085e-02,1.481024920940399170e-02,-6.717039644718170166e-02,-1.386690884828567505e-02,6.922868639230728149e-02,-7.458686828613281250e-02,3.254129737615585327e-02,-2.401255071163177490e-03,-4.876840859651565552e-02,6.472850590944290161e-02,2.106589078903198242e-02,5.788677185773849487e-02,6.909879297018051147e-02,3.276675939559936523e-03,1.617712527513504028e-02,8.344040066003799438e-02,2.163213491439819336e-02,1.803295314311981201e-02,-2.157489210367202759e-02,6.064064800739288330e-03
1.889508217573165894e-02,2.901335805654525757e-02,4.765517264604568481e-02,-2.726670727133750916e-02,-3.138875216245651245e-02,-4.204826802015304565e-02,-1.284290105104446411e-02,2.898287773132324219e-02,1.197790354490280151e-02,-3.237351030111312866e-02,-8.321279287338256836e-02,3.473912924528121948e-02,1.611606031656265259e-02,-1.547298580408096313e-02,5.878587812185287476e-02,-7.624834775924682617e-03,-6.711350381374359131e-02,-1.422403007745742798e-02,-3.657688573002815247e-02,-4.441251978278160095e-02,-6.951078772544860840e-02,-2.702358365058898926e-02,7.941722124814987183e-02,5.023670941591262817e-02,-8.306353539228439331e-02,2.578605711460113525e-02,-8.098419010639190674e-02,-5.460617691278457642e-02,6.984753161668777466e-02,-6.171534955501556396e-02,-4.649666696786880493e-02,8.263935893774032593e-02
-5.184812471270561218e-02,6.094468384981155396e-02,8.913479745388031006e-03,-6.817933917045593262e-02,-7.212860882282257080e-02,5.280395597219467163e-02,-6.000179424881935120e-02,5.741288512945175171e-02,-2.427641302347183228e-02,-7.711205631494522095e-02,5.133368819952011108e-02,1.261721551418304443e-02,1.899842917919158936e-02,-2.016067504882812500e-03,1.203566044569015503e-02,-3.973504528403282166e-02,-2.237663418054580688e-02,1.168528199195861816e-02,-2.011527866125106812e-02,-4.752564430236816406e-02,6.571426987648010254e-03,2.451530098915100098e-02,-2.066941559314727783e-02,-4.275850951671600342e-03,1.018261164426803589e-02,5.289172381162643433e-02,3.165225684642791748e-02,4.385390132665634155e-02,-2.462153136730194092e-02,4.808541387319564819e-02,-7.966010272502899170e-02,1.294843107461929321e-02
6.650919467210769653e-02,7.520089298486709595e-02,5.682138353586196899e-02,-3.084540367126464844e-06,-6.906234472990036011e-02,-6.059756129980087280e-02,2.859071642160415649e-02,-3.019487112760543823e-02,5.393441766500473022e-02,4.333289712667465210e-02,1.702247560024261475e-02,-5.701444298028945923e-02,5.512144416570663452e-02,-6.122135370969772339e-02,3.017142415046691895e-02,8.007229119539260864e-02,-2.671763673424720764e-02,-1.771017909049987793e-02,1.452885568141937256e-03,5.146355181932449341e-02,2.467360347509384155e-02,5.984776467084884644e-02,4.096896201372146606e-02,1.406004279851913452e-02,-8.169301599264144897e-02,6.674096733331680298e-02,1.994853466749191284e-02,2.628275007009506226e-02,-8.094714581966400146e-02,1.995460689067840576e-02,7.508585602045059204e-02,-8.237265050411224365e-03
-1.937779039144515991e-02,-5.368446931242942810e-02,-3.235496953129768372e-02,-6.912284344434738159e-02,-8.259748667478561401e-02,2.290306985378265381e-02,7.196585088968276978e-02,5.737248808145523071e-02,-2.443812415003776550e-02,1.042937487363815308e-02,-3.649428859353065491e-02,-3.014365956187248230e-02,5.860578268766403198e-02,4.262087494134902954e-02,-2.907133847475051880e-02,3.024140000343322754e-02,2.027092128992080688e-02,-6.643612682819366455e-02,3.516521304845809937e-02,-7.957500964403152466e-02,6.480433046817779541e-03,6.075178831815719604e-02,-8.215744793415069580e-02,-6.670592725276947021e-02,-3.478899598121643066e-02,-1.084032654762268066e-02,3.140987455844879150e-02,-3.749560564756393433e-02,3.722118586301803589e-02,1.484612375497817993e-02,4.710257053375244141e-05,-6.193223968148231506e-02
-1.264667510986328125e-02,-8.113496750593185425e-02,-4.667862132191658020e-02,5.947879701852798462e-02,1.397029310464859009e-02,-5.176540836691856384e-02,3.578192740678787231e-02,7.979054003953933716e-02,4.337564855813980103e-02,-7.315963506698608398e-03,-3.466205671429634094e-02,5.816067010164260864e-02,-2.818042039871215820e-02,5.634365230798721313e-02,-6.515298038721084595e-02,3.979756683111190796e-02,5.160052329301834106e-02,-1.532308757305145264e-02,7.755892723798751831e-02,6.945272535085678101e-02,4.337368160486221313e-02,-4.599253088235855103e-02,6.545305997133255005e-02,-4.293967783451080322e-02,-1.065558940172195435e-02,5.589900165796279907e-02,7.535722106695175171e-02,7.262694090604782104e-02,-6.053708493709564209e-02,-3.518624603748321533e-02,-1.094984263181686401e-02,5.163518339395523071e-02
5.307600647211074829e-02,-2.364738285541534424e-02,8.154743164777755737e-02,7.111414521932601929e-02,1.424739509820938110e-02,6.348822265863418579e-02,-1.392879337072372437e-02,-3.471789136528968811e-02,6.935604661703109741e-02,-5.386073887348175049e-02,-8.983679115772247314e-03,8.542694896459579468e-02,7.052325457334518433e-02,-4.240769892930984497e-02,3.439240157604217529e-02,1.708440482616424561e-03,-6.777239590883255005e-02,-7.038020342588424683e-02,7.778679579496383667e-02,-8.188633620738983154e-02,9.952083230018615723e-03,1.160582154989242554e-02,-7.671889662742614746e-02,-8.432144671678543091e-02,1.522131264209747314e-03,3.042952716350555420e-02,-6.830932199954986572e-02,1.855468750000000000e-02,9.732410311698913574e-03,-2.726850658655166626e-02,4.614142328500747681e-02,7.668808102607727051e-04
4.679597169160842896e-02,-5.602647364139556885e-02,-1.690588146448135376e-02,3.669294714927673340e-02,8.173192292451858521e-02,-5.883639305830001831e-02,-2.280642837285995483e-02,-1.794068515300750732e-02,-6.159184128046035767e-02,-1.609867811203002930e-02,8.527897298336029053e-03,-2.775158360600471497e-02,2.886530011892318726e-02,4.421306401491165161e-02,-6.211102753877639771e-02,-6.723563373088836670e-02,6.381242722272872925e-02,-7.116203010082244873e-02,-1.553769409656524658e-02,-8.914694190025329590e-04,2.578519284725189209e-02,3.930688649415969849e-02,5.564091354608535767e-02,-6.151014938950538635e-02,1.149173825979232788e-02,4.748762398958206177e-02,-1.817616075277328491e-02,6.734075397253036499e-02,6.697455793619155884e-02,-1.047760248184204102e-02,-6.538242846727371216e-02,1.134300976991653442e-02
8.212339133024215698e-02,-3.905564546585083008e-03,-5.913657695055007935e-02,-2.158313244581222534e-02,-1.600899547338485718e-02,8.006282150745391846e-03,-3.873685747385025024e-02,2.315275371074676514e-02,-2.271287888288497925e-02,-4.566926881670951843e-02,-6.444863975048065186e-02,5.115162581205368042e-02,-6.100830435752868652e-02,-2.717380970716476440e-02,-3.329405188560485840e-02,4.023835808038711548e-02,1.066323369741439819e-02,2.224154025316238403e-02,-1.105906069278717041e-02,2.859967201948165894e-02,6.843625754117965698e-02,-4.093945771455764771e-02,6.453634053468704224e-02,7.747507840394973755e-02,-4.460293799638748169e-02,-4.720667377114295959e-02,8.308254927396774292e-02,-5.060483142733573914e-02,-1.407018303871154785e-02,-3.549971804022789001e-02,-2.594519406557083130e-02,2.268413454294204712e-02
-7.030782848596572876e-02,-8.092676103115081787e-02,1.890659332275390625e-04,-6.119839474558830261e-02,-5.820205062627792358e-02,-5.182093754410743713e-02,1.424549520015716553e-02,-8.310531824827194214e-02,2.858448028564453125e-02,3.823601454496383667e-02,4.005857557058334351e-02,-7.171936333179473877e-03,4.220458120107650757e-02,5.779013782739639282e-02,-1.468641310930252075e-02,-6.409548223018646240e-03,6.396757811307907104e-02,8.357597142457962036e-02,8.231438696384429932e-03,7.413118332624435425e-02,6.980740278959274292e-02,4.787879437208175659e-02,-4.185282438993453979e-02,5.380829423666000366e-02,8.262524753808975220e-02,-1.597875356674194336e-02,3.109468519687652588e-02,1.100694388151168823e-02,-2.656236290931701660e-02,1.483760774135589600e-03,-3.609217330813407898e-02,-7.776702940464019775e-02
4.960010200738906860e-02,6.571941077709197998e-03,-7.951803505420684814e-03,-3.399059176445007324e-03,-2.928205952048301697e-02,-8.010967075824737549e-02,1.480437815189361572e-02,-1.312756538391113281e-02,4.016239196062088013e-02,-4.710077494382858276e-02,5.822683125734329224e-02,5.967583507299423218e-02,-7.834547758102416992e-02,-1.760031282901763916e-02,-4.353691637516021729e-02,7.435091584920883179e-02,-4.064311832189559937e-02,7.559096068143844604e-02,6.184827536344528198e-02,4.042791575193405151e-02,-7.784845679998397827e-02,1.920036971569061279e-03,5.944512039422988892e-02,2.115114778280258179e-02,-6.365505605936050415e-02,-7.765497267246246338e-02,-8.078382164239883423e-02,-4.319075495004653931e-02,5.451828986406326294e-02,3.970883041620254517e-02,2.387621998786926270e-02,7.888882607221603394e-02
5.799727886915206909e-02,-1.289396733045578003e-02,-1.339793950319290161e-02,4.866207391023635864e-02,-6.180487200617790222e-02,6.034963577985763550e-02,1.802714169025421143e-02,-6.601666659116744995e-02,4.693987220525741577e-02,-3.554929420351982117e-02,-7.494127005338668823e-02,6.664483994245529175e-02,-4.042632877826690674e-02,2.174388617277145386e-02,4.624221473932266235e-02,1.184505969285964966e-02,2.756232768297195435e-02,-2.611539140343666077e-02,6.108581274747848511e-02,-7.958940416574478149e-02,4.360086470842361450e-02,8.678779006004333496e-03,-1.772395521402359009e-02,-6.383800506591796875e-02,-2.743140608072280884e-02,6.714947521686553955e-03,8.272772282361984253e-02,2.386345714330673218e-02,4.069434851408004761e-02,-8.286653459072113037e-02,6.732381135225296021e-02,6.172537058591842651e-02
6.953460723161697388e-02,4.219708591699600220e-02,-8.837789297103881836e-03,-5.358062684535980225e-03,1.880794763565063477e-02,-3.415725007653236389e-02,-6.050653755664825439e-03,7.672872394323348999e-02,7.440499216318130493e-02,1.592332869768142700e-02,-8.821263909339904785e-04,-3.605054691433906555e-02,-4.146720468997955322e-02,1.831369102001190186e-02,3.660325706005096436e-02,-4.989065229892730713e-03,-1.343168318271636963e-03,-6.912104040384292603e-02,-8.358467370271682739e-02,5.492237955331802368e-02,-7.275719195604324341e-02,-1.230433583259582520e-02,7.477176934480667114e-02,5.558318644762039185e-02,-7.364064455032348633e-02,-1.149370521306991577e-02,1.356764882802963257e-02,4.115859419107437134e-02,-6.725987792015075684e-02,5.059853941202163696e-02,3.984180837869644165e-02,-4.237877205014228821e-02
5.837731808423995972e-02,-8.053102344274520874e-02,3.274381160736083984e-04,8.040014654397964478e-02,-2.786598727107048035e-02,-3.692940250039100647e-02,-2.767362818121910095e-02,-8.391834795475006104e-02,5.694381147623062134e-02,2.825453877449035645e-03,7.074507325887680054e-02,-7.803392410278320312e-02,-4.111245647072792053e-02,7.521607726812362671e-02,2.184587717056274414e-02,6.057541817426681519e-02,3.600569069385528564e-02,-2.913853898644447327e-02,-4.981197416782379150e-03,-7.532024383544921875e-02,-5.165607482194900513e-02,2.953865379095077515e-02,7.968694716691970825e-02,-3.471418842673301697e-02,-3.063607960939407349e-02,-6.799773871898651123e-02,-6.313385069370269775e-02,-6.252377480268478394e-02,3.148643672466278076e-02,-3.218129277229309082e-02,5.615394562482833862e-02,-3.273050859570503235e-02
-1.396132260560989380e-02,7.732904702425003052e-02,8.355394005775451660e-03,5.793837457895278931e-02,-6.206191703677177429e-02,3.190629929304122925e-02,-3.195661306381225586e-02,-6.816936284303665161e-02,-6.364475190639495850e-02,-2.818859741091728210e-02,4.657904058694839478e-02,-1.941735297441482544e-02,3.174734860658645630e-02,3.712967783212661743e-02,6.422101706266403198e-02,4.768633097410202026e-02,7.528520375490188599e-02,-8.130240440368652344e-02,8.057978004217147827e-02,3.305159509181976318e-03,-4.096448421478271484e-03,7.536461204290390015e-02,-2.230497449636459351e-02,5.945099145174026489e-02,-3.221692889928817749e-02,2.648072689771652222e-02,-4.349069297313690186e-02,7.829342037439346313e-02,7.475005835294723511e-02,-2.816030383110046387e-02,3.930699080228805542e-02,6.847626715898513794e-02
-1.983682811260223389e-02,-7.082343101501464844e-02,1.681189984083175659e-02,6.379406899213790894e-02,1.718216389417648315e-02,-3.912247717380523682e-03,-9.242385625839233398e-03,1.903612911701202393e-02,-8.533257991075515747e-02,3.061808645725250244e-02,-4.907451942563056946e-02,1.987924426794052124e-02,-5.134155973792076111e-02,-2.297712117433547974e-02,2.627935260534286499e-02,-7.484704256057739258e-02,7.791120558977127075e-02,7.190047949552536011e-02,3.768103569746017456e-02,-2.644327655434608459e-02,1.781274378299713135e-02,-2.237841486930847168e-02,-2.245714515447616577e-02,-8.083192259073257446e-02,2.189318835735321045e-02,4.186318069696426392e-02,2.578055858612060547e-02,-1.724723726511001587e-02,2.833548933267593384e-02,5.229579657316207886e-02,-4.518261551856994629e-02,-8.135235309600830078e-02
-2.737440541386604309e-02,-6.020838394761085510e-02,-3.320426121354103088e-02,-6.810712814331054688e-02,-6.563313305377960205e-02,3.418147563934326172e-02,2.764001488685607910e-03,1.663403213024139404e-02,1.667208969593048096e-03,-5.667782947421073914e-02,6.763885170221328735e-02,1.616933941841125488e-02,3.759249299764633179e-02,-1.138401776552200317e-02,-5.387034639716148376e-02,8.230149745941162109e-03,4.756463319063186646e-02,5.114639550447463989e-02,5.394423753023147583e-02,5.998618155717849731e-02,2.297203242778778076e-02,-5.935179069638252258e-02,-3.277102857828140259e-02,-6.509669870138168335e-02,8.808985352516174316e-03,6.102081388235092163e-02,-4.194933921098709106e-02,-2.431509271264076233e-02,8.219023793935775757e-02,5.240549892187118530e-02,-6.521262228488922119e-02,7.075927406549453735e-02
8.269793540239334106e-02,7.542905956506729126e-02,7.477266341447830200e-02,7.362773269414901733e-02,5.208574980497360229e-02,8.053512126207351685e-02,3.646341711282730103e-02,-3.570587933063507080e-02,1.574509590864181519e-02,5.946931988000869751e-02,-7.370453327894210815e-02,7.377777248620986938e-02,3.349579870700836182e-02,-7.099221646785736084e-02,5.485051125288009644e-02,6.306382268667221069e-02,3.547023981809616089e-02,7.477282732725143433e-02,5.413738638162612915e-02,5.193992704153060913e-02,4.615169018507003784e-02,7.170648127794265747e-02,6.376598030328750610e-02,-2.432461827993392944e-02,8.384714275598526001e-02,4.192455857992172241e-02,-2.403283864259719849e-02,3.580731898546218872e-02,-3.465676307678222656e-02,4.460930079221725464e-02,3.812651336193084717e-02,-2.793921902775764465e-02
-3.682225942611694336e-04,4.409883171319961548e-02,-1.327940076589584351e-02,-6.312252581119537354e-02,4.550024867057800293e-03,4.302773624658584595e-02,4.281932860612869263e-02,8.542212098836898804e-02,-1.280573010444641113e-02,-5.000839009881019592e-02,-1.608102023601531982e-02,5.772797018289566040e-02,-4.932706803083419800e-02,1.388743519783020020e-02,1.469516754150390625e-02,-5.730350315570831299e-02,2.691220492124557495e-02,7.797249406576156616e-02,6.047315150499343872e-02,-6.618224084377288818e-03,6.662891060113906860e-02,5.676587671041488647e-02,1.427292823791503906e-03,-4.099420458078384399e-02,3.690384328365325928e-03,-6.337069720029830933e-02,6.315543502569198608e-02,-1.033984869718551636e-02,-3.950968384742736816e-03,-7.336185127496719360e-02,-7.560384273529052734e-02,-1.318077743053436279e-02
-1.565124094486236572e-02,6.270974129438400269e-02,-4.102861508727073669e-02,-7.570891082286834717e-02,6.397078186273574829e-02,-8.735820651054382324e-03,-5.615766718983650208e-02,-8.517286926507949829e-02,-3.271715715527534485e-02,6.377675384283065796e-02,-5.703098326921463013e-02,-5.051419138908386230e-03,1.815250515937805176e-02,6.770902127027511597e-02,-7.963740825653076172e-02,4.975747317075729370e-02,-2.834180742502212524e-02,4.436068981885910034e-02,-1.782787591218948364e-02,-4.384079948067665100e-02,7.026766985654830933e-02,-2.510090544819831848e-02,5.558017641305923462e-02,-6.686590611934661865e-02,7.850579917430877686e-03,-4.534208029508590698e-02,8.505591005086898804e-02,6.055600941181182861e-03,-5.223828554153442383e-02,-2.265872061252593994e-02,-7.453210651874542236e-03,-7.392915338277816772e-02
-8.296427875757217407e-02,-3.095349669456481934e-02,-4.361791536211967468e-02,-3.270744532346725464e-02,7.131902128458023071e-02,6.550965458154678345e-02,-4.532568156719207764e-02,2.010863274335861206e-02,3.987435251474380493e-02,8.347704261541366577e-02,4.329708963632583618e-02,2.528378367424011230e-02,-6.475877761840820312e-02,-8.446571975946426392e-02,3.874465823173522949e-03,6.467730551958084106e-02,-5.564351379871368408e-02,-6.459288299083709717e-03,-5.726995319128036499e-02,-3.927343711256980896e-02,2.976339310407638550e-02,-6.061808764934539795e-02,6.869984418153762817e-02,-4.793146252632141113e-02,8.340582996606826782e-02,-6.427571922540664673e-02,7.817196100950241089e-02,3.978631645441055298e-02,8.172396570444107056e-02,-1.945028454065322876e-02,2.840916812419891357e-02,-1.114457845687866211e-02
-3.908310085535049438e-02,8.385030180215835571e-02,3.753864020109176636e-02,6.127055734395980835e-02,8.601762354373931885e-03,8.527603000402450562e-02,4.855308681726455688e-02,7.025634497404098511e-02,-1.307851821184158325e-02,2.910915762186050415e-02,-1.266834884881973267e-02,-5.395359545946121216e-02,-8.025325089693069458e-02,2.627563476562500000e-02,2.200399339199066162e-02,1.664444804191589355e-03,6.383398920297622681e-02,-6.664502620697021484e-02,-3.874342143535614014e-02,-8.156542479991912842e-02,4.028289765119552612e-02,4.201937466859817505e-02,7.411249727010726929e-02,6.005255132913589478e-02,8.473714441061019897e-02,5.271377414464950562e-02,-4.486560449004173279e-02,2.516060322523117065e-02,2.764445543289184570e-02,-8.151995390653610229e-02,-3.239581361413002014e-02,9.700290858745574951e-03
-1.203630864620208740e-02,-1.960527151823043823e-02,-6.938874721527099609e-03,3.676558285951614380e-02,-4.405820369720458984e-02,-4.120409488677978516e-03,3.090091049671173096e-02,2.828866243362426758e-03,1.466603577136993408e-02,-3.647910058498382568e-02,-6.805232167243957520e-02,2.486892789602279663e-02,1.083664596080780029e-03,-3.044776618480682373e-02,-4.826723784208297729e-02,3.465837985277175903e-02,-1.299228519201278687e-02,3.322842717170715332e-02,7.455859333276748657e-02,-1.052711904048919678e-02,-1.460676640272140503e-02,8.127308636903762817e-02,-7.453019917011260986e-02,-5.571553856134414673e-02,4.330232739448547363e-03,6.786432117223739624e-02,6.157780438661575317e-02,-4.777073115110397339e-02,-7.427049428224563599e-02,-8.507606387138366699e-02,3.143332153558731079e-02,6.655689328908920288e-02
5.907490104436874390e-02,4.226557910442352295e-03,-3.003197163343429565e-02,7.963555306196212769e-02,4.756105691194534302e-02,4.587904363870620728e-02,-2.645155414938926697e-02,6.582770496606826782e-02,4.164893180131912231e-02,2.365513145923614502e-02,2.530176937580108643e-02,-1.077982783317565918e-02,-7.578641176223754883e-02,-7.378309965133666992e-04,4.316779226064682007e-02,7.782090455293655396e-02,-7.890164852142333984e-06,-4.253929853439331055e-02,-1.892595738172531128e-02,-3.079599514603614807e-02,-6.919799745082855225e-02,7.703819125890731812e-02,-6.741018593311309814e-02,2.131359279155731201e-02,1.369909942150115967e-02,-4.519289731979370117e-02,2.207516133785247803e-02,8.500254899263381958e-02,6.825191527605056763e-02,-5.360467359423637390e-02,-2.718096226453781128e-02,3.242734074592590332e-02
1.213830709457397461e-02,4.861392080783843994e-03,-1.776830106973648071e-02,-1.076607406139373779e-02,-5.734245106577873230e-02,6.746345013380050659e-02,-6.540514528751373291e-03,4.883963614702224731e-02,-3.363191336393356323e-02,4.912421852350234985e-02,-1.104018837213516235e-02,-4.947436973452568054e-02,-3.949415311217308044e-02,5.367905646562576294e-02,-6.066063046455383301e-02,-2.687963470816612244e-02,-5.854086950421333313e-02,-7.877819985151290894e-02,-5.772379785776138306e-02,1.461361348628997803e-02,3.857956081628799438e-02,-2.643996477127075195e-02,8.126554638147354126e-02,-3.137560933828353882e-02,6.941349059343338013e-02,-6.963783502578735352e-02,-1.440040022134780884e-02,-1.298759877681732178e-02,-5.214264616370201111e-02,-4.672983288764953613e-02,4.296130686998367310e-02,-6.667882204055786133e-03
4.062805324792861938e-02,2.719063311815261841e-02,-6.537336856126785278e-02,-8.625313639640808105e-03,3.774758428335189819e-02,2.787742018699645996e-02,-2.919106185436248779e-02,5.640710145235061646e-02,-4.214517399668693542e-02,-3.278074041008949280e-02,5.518303066492080688e-02,7.699099928140640259e-02,3.748326003551483154e-02,-7.792377471923828125e-02,-4.944844543933868408e-02,-7.480737566947937012e-02,2.356389164924621582e-02,-1.577547937631607056e-02,-6.783201545476913452e-02,6.843512505292892456e-02,-6.052396073937416077e-02,-1.607728004455566406e-02,3.385839611291885376e-02,2.130918204784393311e-02,4.180655628442764282e-02,-8.164727687835693359e-02,-7.651700824499130249e-02,8.213751763105392456e-02,1.457826793193817139e-02,-6.749458611011505127e-02,-4.572688043117523193e-02,6.675004214048385620e-02
-6.578162312507629395e-02,4.090043157339096069e-02,-4.382986202836036682e-02,1.712465286254882812e-02,-4.948344454169273376e-02,-1.028840988874435425e-02,4.536215215921401978e-02,4.167512059211730957e-03,-3.356281295418739319e-02,6.143774837255477905e-02,1.114044338464736938e-02,3.811901062726974487e-02,-2.156884223222732544e-02,6.804645806550979614e-02,6.241969764232635498e-03,-6.305638700723648071e-02,7.466462999582290649e-02,-1.799970865249633789e-02,1.735278964042663574e-02,4.779500514268875122e-02,-9.220607578754425049e-03,-2.709955349564552307e-02,-7.802482694387435913e-02,8.479454368352890015e-02,2.065085619688034058e-02,-5.552858114242553711e-03,-3.858004882931709290e-02,-4.897922277450561523e-03,1.159001141786575317e-02,7.508354634046554565e-02,6.754975765943527222e-02,-3.044623509049415588e-02
5.266069620847702026e-02,-8.452188223600387573e-02,-4.619468376040458679e-02,1.377981901168823242e-02,-7.620582729578018188e-02,4.279413074254989624e-02,-2.418206259608268738e-02,4.265842586755752563e-02,-3.024285286664962769e-02,2.736046165227890015e-02,3.965153545141220093e-02,1.963324099779129028e-02,-7.271092385053634644e-02,-4.111032932996749878e-02,-1.196874678134918213e-02,8.733712136745452881e-03,-6.285358220338821411e-02,7.075581699609756470e-02,6.841868162155151367e-04,3.111570328474044800e-02,6.007397919893264771e-02,-4.592621326446533203e-02,5.888823419809341431e-02,2.144005894660949707e-02,-8.766524493694305420e-03,6.501581519842147827e-02,-2.387511357665061951e-02,-1.654817163944244385e-02,-6.282949447631835938e-02,-3.171021863818168640e-02,1.376922428607940674e-02,-2.570916339755058289e-02
-1.546721905469894409e-02,2.617780864238739014e-02,3.861831873655319214e-02,1.811495423316955566e-02,1.304727792739868164e-02,8.497112244367599487e-02,-8.508303761482238770e-02,2.871252596378326416e-02,-2.943970263004302979e-03,-4.595634713768959045e-02,1.063945889472961426e-02,-7.278794050216674805e-02,-5.604567378759384155e-02,-2.683106064796447754e-02,7.906656712293624878e-02,-4.874226078391075134e-02,-4.924890771508216858e-02,8.522554486989974976e-02,1.283290237188339233e-02,-1.954351365566253662e-02,2.400717884302139282e-02,-3.670954704284667969e-02,-6.820344179868698120e-02,7.102854549884796143e-03,1.774370670318603516e-02,5.886014550924301147e-02,-6.304992735385894775e-02,-5.763739347457885742e-03,1.311273872852325439e-02,-6.511469185352325439e-02,-8.390322327613830566e-04,-4.160325974225997925e-02
5.408493429422378540e-02,-4.192756861448287964e-02,9.199939668178558350e-03,7.162723690271377563e-02,8.402927964925765991e-02,-7.020939141511917114e-02,5.414349585771560669e-02,-3.065120801329612732e-02,5.200160294771194458e-02,2.055566757917404175e-02,7.006468623876571655e-02,6.308931857347488403e-02,-7.813608646392822266e-02,-4.305817186832427979e-03,5.256361514329910278e-02,-6.631822139024734497e-02,-1.802066713571548462e-02,-8.252637833356857300e-02,6.855357438325881958e-02,1.388275623321533203e-02,-8.481992036104202271e-02,-6.726901978254318237e-02,-4.147313535213470459e-03,3.919713944196701050e-02,-6.528018414974212646e-02,-4.517100378870964050e-02,1.397806406021118164e-02,4.984728991985321045e-03,4.576203972101211548e-02,-4.323830828070640564e-02,1.675177365541458130e-02,2.668269723653793335e-02
5.412156134843826294e-02,-9.694844484329223633e-04,9.331032633781433105e-03,3.370794653892517090e-02,-8.065757155418395996e-02,-2.490110695362091064e-02,-7.009048759937286377e-02,2.688321471214294434e-02,-5.189279839396476746e-02,5.711840838193893433e-02,6.718305498361587524e-02,1.551914960145950317e-02,-4.661884158849716187e-02,-6.768216192722320557e-02,-3.624080121517181396e-02,-8.150862902402877808e-02,6.572472304105758667e-02,-5.275300890207290649e-02,-6.814039498567581177e-02,6.926628202199935913e-02,6.647831946611404419e-02,-3.617871180176734924e-02,6.330097466707229614e-02,7.779590040445327759e-02,7.371550053358078003e-02,-1.251897960901260376e-02,-5.564406514167785645e-02,5.984867364168167114e-02,-7.084305584430694580e-02,-2.646956592798233032e-02,7.139832526445388794e-02,-4.966744408011436462e-02
-1.098997890949249268e-03,4.602812230587005615e-03,-6.821411848068237305e-02,2.251181006431579590e-02,-4.253394156694412231e-02,-1.420170068740844727e-02,-1.524381339550018311e-03,-3.924493864178657532e-02,-7.428805530071258545e-02,-7.387853413820266724e-02,-3.880859538912773132e-02,6.616733968257904053e-03,3.676891326904296875e-03,6.720801442861557007e-02,-2.023039758205413818e-02,5.578049272298812866e-02,-2.384291216731071472e-02,-8.034031838178634644e-02,2.974367141723632812e-02,3.867460787296295166e-02,-4.836551845073699951e-03,3.468397259712219238e-02,3.475325554609298706e-02,4.144831746816635132e-02,3.377772867679595947e-03,6.561998277902603149e-02,6.899469345808029175e-02,6.925270706415176392e-02,1.284591853618621826e-03,-5.543727427721023560e-02,3.964362293481826782e-02,-4.345607757568359375e-02
3.021104633808135986e-02,3.148747980594635010e-02,-6.927521526813507080e-02,2.735495567321777344e-03,-8.557017892599105835e-02,-4.382867366075515747e-02,-3.960303962230682373e-02,4.561763256788253784e-02,5.801942199468612671e-02,1.956087350845336914e-02,4.164750128984451294e-02,6.188280135393142700e-02,-1.801089197397232056e-02,-7.928090542554855347e-02,-8.109888434410095215e-02,-1.593224704265594482e-02,1.975931227207183838e-03,5.431687086820602417e-02,6.624997407197952271e-02,8.903890848159790039e-04,-5.089329928159713745e-02,-3.248838707804679871e-02,-2.347722649574279785e-02,-6.195789575576782227e-02,5.433999747037887573e-02,1.693985611200332642e-02,-1.566635072231292725e-02,-3.851009160280227661e-02,-8.117745071649551392e-02,9.777508676052093506e-03,7.451523095369338989e-02,-1.792944222688674927e-02
-3.644910827279090881e-02,-4.101317748427391052e-02,-2.069944888353347778e-02,4.435842484235763550e-02,-7.807686924934387207e-03,-7.222601026296615601e-02,-7.421623170375823975e-02,-4.694846272468566895e-02,-3.878575935959815979e-02,-2.841336280107498169e-02,7.968334108591079712e-02,-7.502893358469009399e-02,7.924491912126541138e-02,8.140183240175247192e-02,4.993256181478500366e-02,1.240763813257217407e-02,7.376544177532196045e-03,-3.822334110736846924e-03,-6.251103430986404419e-02,1.759082078933715820e-02,-1.361734420061111450e-02,-6.932209432125091553e-02,2.103054523468017578e-02,6.428234279155731201e-03,6.763562560081481934e-04,-6.154314428567886353e-02,6.583029776811599731e-02,-7.662636041641235352e-02,-2.951256558299064636e-02,-3.580394759774208069e-02,2.125992625951766968e-02,7.207546383142471313e-02
3.527104854583740234e-02,4.314430803060531616e-02,6.316490471363067627e-03,4.184681922197341919e-02,-6.792523711919784546e-02,-4.881659522652626038e-02,7.819562405347824097e-02,-6.112438440322875977e-02,-4.106870666146278381e-02,-2.244450896978378296e-02,2.706281840801239014e-02,6.148964911699295044e-02,5.930565297603607178e-03,-7.259020209312438965e-02,5.598311871290206909e-02,4.121474921703338623e-03,7.717580348253250122e-02,9.087108075618743896e-03,-2.885992452502250671e-02,4.204141348600387573e-02,7.857992500066757202e-02,-8.399487286806106567e-02,-1.102109253406524658e-02,-4.804817959666252136e-02,2.611996978521347046e-02,7.828995585441589355e-03,-5.421624332666397095e-02,-2.310243993997573853e-02,6.183498352766036987e-02,3.892190009355545044e-02,-7.889160513877868652e-02,-8.038023114204406738e-02
6.000944226980209351e-02,-8.492160588502883911e-02,7.685501128435134888e-02,-6.689521670341491699e-02,8.267327398061752319e-02,-7.989250868558883667e-02,2.150861173868179321e-02,-7.206963002681732178e-02,-4.628212377429008484e-02,3.570107370615005493e-02,-6.988236308097839355e-02,5.861051380634307861e-03,6.747738271951675415e-02,-4.901535436511039734e-02,-5.886787548661231995e-02,4.607338458299636841e-02,-3.730668127536773682e-02,3.316308557987213135e-02,1.295769214630126953e-02,8.313298225402832031e-03,-3.286997973918914795e-02,-1.795362681150436401e-02,-8.455959707498550415e-02,-7.676887512207031250e-02,3.172730654478073120e-02,-1.572810858488082886e-02,1.846358925104141235e-02,-2.448849380016326904e-03,-8.222106844186782837e-02,5.754046142101287842e-03,-1.696608960628509521e-02,-1.625000685453414917e-02
-1.324155926704406738e-02,4.850619286298751831e-02,8.079553395509719849e-02,-7.507605850696563721e-02,1.960276067256927490e-02,3.309672325849533081e-02,-4.603745043277740479e-02,6.410717219114303589e-02,-6.931223720312118530e-02,-4.386792704463005066e-02,-2.457072585821151733e-02,-8.180887252092361450e-02,-2.137498557567596436e-02,5.404574424028396606e-02,4.294536262750625610e-02,2.038000524044036865e-02,5.316054075956344604e-02,2.154680341482162476e-02,-4.665112122893333435e-02,3.721245378255844116e-02,-2.828014642000198364e-02,4.269740730524063110e-02,-1.342490315437316895e-02,4.942671209573745728e-02,-1.513630896806716919e-02,-6.614761054515838623e-02,-2.287512272596359253e-02,7.910335808992385864e-02,-8.189109712839126587e-02,6.135682016611099243e-02,-5.573759973049163818e-02,-6.380352377891540527e-02
2.770791202783584595e-02,3.420496731996536255e-02,3.245594352483749390e-02,-7.958241552114486694e-02,-4.939477890729904175e-02,-5.606623739004135132e-02,-7.687155157327651978e-02,5.806423723697662354e-03,1.435358077287673950e-02,3.567053377628326416e-02,-4.636715352535247803e-02,7.716784626245498657e-02,6.755948811769485474e-02,7.737646251916885376e-02,3.991567343473434448e-02,-4.527610540390014648e-02,-6.706181913614273071e-02,2.744882553815841675e-02,3.182247281074523926e-03,1.851680129766464233e-02,6.037961691617965698e-02,6.441696733236312866e-02,-4.127684608101844788e-02,3.084689378738403320e-03,-4.080209136009216309e-02,-6.217258423566818237e-02,8.057496696710586548e-02,-6.194457411766052246e-03,8.233874291181564331e-02,-2.823044732213020325e-02,7.677679508924484253e-02,-3.071521967649459839e-02
3.996389359235763550e-02,-2.373553812503814697e-03,-5.489818006753921509e-02,-2.206210047006607056e-02,-6.431534141302108765e-02,1.302965730428695679e-02,-8.480844646692276001e-02,6.574866920709609985e-02,-8.273407816886901855e-02,-8.368401229381561279e-02,-6.121196970343589783e-02,7.022880017757415771e-03,-6.041153520345687866e-02,-4.396209493279457092e-02,5.007620900869369507e-02,-2.969631925225257874e-02,5.476387590169906616e-02,7.074113935232162476e-02,-3.111527115106582642e-02,-4.661644995212554932e-02,-4.023830220103263855e-02,-5.989677459001541138e-02,2.223434299230575562e-02,7.439074665307998657e-02,7.582446187734603882e-02,-6.618441641330718994e-02,-7.027393579483032227e-02,6.099105626344680786e-02,-3.661744669079780579e-02,5.487992614507675171e-02,-1.683671772480010986e-02,-3.093632310628890991e-02
6.075183302164077759e-02,-7.036775350570678711e-02,5.002433806657791138e-02,-3.441202640533447266e-02,-3.149790316820144653e-02,-5.815167352557182312e-02,1.268061250448226929e-02,-7.353866845369338989e-02,-2.870058268308639526e-02,3.441124409437179565e-02,3.581582754850387573e-02,-4.951832443475723267e-02,-2.202676981687545776e-02,5.211075395345687866e-02,2.427306026220321655e-02,5.332336574792861938e-02,8.599027991294860840e-03,5.772238224744796753e-02,-5.854657292366027832e-02,-2.645825967192649841e-02,-5.756101757287979126e-02,6.723731011152267456e-02,5.104397982358932495e-02,-6.085423380136489868e-02,-3.889689594507217407e-02,-8.255656063556671143e-02,1.768536120653152466e-02,5.533862859010696411e-02,5.366251617670059204e-02,-6.283084303140640259e-02,5.813791602849960327e-02,3.151889890432357788e-02
3.849405795335769653e-02,5.890365689992904663e-02,-7.793875783681869507e-02,5.742672830820083618e-02,-6.703814864158630371e-02,-5.849552527070045471e-02,1.788278669118881226e-02,-7.002244889736175537e-02,2.506441622972488403e-02,1.881785690784454346e-03,1.065649092197418213e-02,-2.954221144318580627e-02,-4.310118779540061951e-02,8.781895041465759277e-03,3.332711756229400635e-03,3.474377095699310303e-02,5.493544787168502808e-02,-4.713579267263412476e-02,-8.949257433414459229e-03,-5.294328182935714722e-02,8.527835458517074585e-02,-4.970653355121612549e-02,-7.788907736539840698e-02,-2.041953057050704956e-02,6.591630727052688599e-02,-8.486992120742797852e-02,-4.514877870678901672e-02,-6.705437600612640381e-02,-5.998478457331657410e-02,-4.278771579265594482e-03,1.889720559120178223e-03,3.715740144252777100e-02
4.129571467638015747e-02,8.128962665796279907e-02,-5.868424475193023682e-02,-4.010029137134552002e-03,-1.868184655904769897e-02,-4.672883078455924988e-02,1.510233432054519653e-02,-4.672543704509735107e-02,1.485569030046463013e-02,1.632048189640045166e-02,-5.174643546342849731e-02,-6.368285417556762695e-02,-1.726009696722030640e-02,-2.156411856412887573e-02,4.382006078958511353e-02,-4.399433359503746033e-02,3.256480395793914795e-02,-6.596065312623977661e-02,1.646254956722259521e-02,8.119366317987442017e-02,-8.710220456123352051e-03,-2.271387726068496704e-02,7.324884086847305298e-02,-2.890827506780624390e-02,3.197915852069854736e-02,6.988520175218582153e-02,-7.109470665454864502e-02,-2.365243434906005859e-02,-3.411130979657173157e-02,-8.517183363437652588e-03,-1.201275736093521118e-02,7.165262848138809204e-02
2.128701657056808472e-02,7.998868077993392944e-02,4.324570298194885254e-03,-4.574008658528327942e-02,8.399244397878646851e-02,7.389815896749496460e-02,4.049292951822280884e-02,-5.394187942147254944e-02,-8.048701286315917969e-02,-8.928321301937103271e-03,5.659253150224685669e-02,4.892043024301528931e-02,-6.778986006975173950e-02,3.223445266485214233e-02,-1.361258327960968018e-03,-7.711330056190490723e-02,-4.095859825611114502e-03,-8.250487595796585083e-02,3.486137092113494873e-02,-6.326954066753387451e-02,-2.060630917549133301e-02,4.287362098693847656e-04,7.468523830175399780e-02,2.024845033884048462e-02,-4.309282451868057251e-02,5.694182962179183960e-02,-8.346945047378540039e-03,2.560359239578247070e-02,-4.442482814192771912e-02,-3.888953477144241333e-02,5.434045940637588501e-02,-1.314473897218704224e-02
2.416446805000305176e-03,-5.800664424896240234e-02,-3.342107310891151428e-02,-5.850159749388694763e-02,3.021124750375747681e-02,8.227879554033279419e-02,-6.268593668937683105e-02,-5.589367076754570007e-02,2.201376855373382568e-02,-1.955810934305191040e-02,-3.136810287833213806e-02,1.640368998050689697e-02,-4.426948726177215576e-03,-6.206193566322326660e-02,-1.133543998003005981e-02,5.831814557313919067e-02,-2.417797222733497620e-02,-7.515045255422592163e-02,7.877156883478164673e-02,-7.851821184158325195e-02,-3.369097784161567688e-02,-3.290742635726928711e-03,2.803333103656768799e-03,-7.289330661296844482e-02,-2.898488193750381470e-02,1.782924681901931763e-02,-1.677178591489791870e-02,-3.312029689550399780e-02,-4.273723810911178589e-02,6.576570123434066772e-02,-1.975978910923004150e-02,-4.318727925419807434e-02
-8.231592923402786255e-02,3.029713034629821777e-02,1.034614443778991699e-02,7.444784790277481079e-02,8.138766139745712280e-02,1.025030761957168579e-02,-7.432641088962554932e-02,5.765422433614730835e-02,5.358707159757614136e-02,-6.360318511724472046e-02,-5.885172635316848755e-02,4.880159348249435425e-02,7.726997137069702148e-03,-8.005125820636749268e-02,5.013885349035263062e-02,7.677262276411056519e-02,1.710478216409683228e-02,-4.710508510470390320e-02,-6.575672328472137451e-02,-8.348030596971511841e-02,-7.893809676170349121e-02,-4.471820220351219177e-02,-3.730758279561996460e-02,8.215554803609848022e-02,-3.954239189624786377e-03,7.462579756975173950e-02,-6.207937747240066528e-02,-1.987689733505249023e-02,-1.059527695178985596e-02,2.190706878900527954e-02,-6.277041137218475342e-02,-3.508684784173965454e-02
-1.543536782264709473e-03,-8.549635857343673706e-02,-4.515393078327178955e-02,5.910202115774154663e-02,7.250536233186721802e-02,6.069044023752212524e-02,6.272723525762557983e-02,4.611476510763168335e-02,-2.856407687067985535e-02,7.622217386960983276e-02,-6.256928294897079468e-02,-1.829937100410461426e-04,3.995481878519058228e-02,4.919082671403884888e-02,3.000655770301818848e-02,-8.386231213808059692e-02,7.032277435064315796e-02,-8.419779688119888306e-02,-7.682121545076370239e-02,2.865705639123916626e-02,-3.222418576478958130e-02,-8.465135097503662109e-02,6.059438735246658325e-02,1.777273416519165039e-02,-5.610769987106323242e-02,4.995695501565933228e-02,1.822292804718017578e-03,3.791408240795135498e-02,7.722789794206619263e-02,7.721178978681564331e-02,5.373501032590866089e-02,-2.760622277855873108e-02
7.905030995607376099e-02,-7.469446212053298950e-02,5.933972448110580444e-02,2.655073255300521851e-02,-3.862294182181358337e-02,8.175052702426910400e-03,4.841722548007965088e-03,-3.802791237831115723e-03,8.272563666105270386e-02,1.481392234563827515e-02,-5.506365746259689331e-02,-1.385202258825302124e-02,5.136308819055557251e-02,1.705661416053771973e-03,5.404730886220932007e-02,2.151814103126525879e-02,-6.041879579424858093e-02,5.516555160284042358e-02,6.885119527578353882e-02,4.954250901937484741e-02,2.720881253480911255e-02,-6.077662110328674316e-03,-7.236830145120620728e-02,-1.914100348949432373e-02,6.388365477323532104e-02,3.081717342138290405e-02,-2.016589790582656860e-02,-7.993979752063751221e-02,6.869405508041381836e-03,2.035437524318695068e-02,3.242515027523040771e-03,6.036625057458877563e-02
6.475939601659774780e-02,-7.230641692876815796e-02,-2.461425960063934326e-03,-5.486448854207992554e-02,3.698930144309997559e-03,1.974435895681381226e-02,1.991380006074905396e-02,-3.710532560944557190e-02,8.425434678792953491e-02,6.568496674299240112e-02,-6.729756295680999756e-02,4.985087364912033081e-02,-1.550363004207611084e-02,3.881047666072845459e-02,5.585721880197525024e-02,-7.346609234809875488e-02,-1.075424253940582275e-03,7.158035784959793091e-02,-3.544830158352851868e-02,-5.028913170099258423e-02,-1.812279969453811646e-02,-6.207890808582305908e-03,-8.792117238044738770e-03,1.300651580095291138e-02,-3.399962559342384338e-02,-5.502779781818389893e-02,7.004448026418685913e-02,4.798017442226409912e-03,-2.460286393761634827e-02,-6.229866296052932739e-02,8.377351611852645874e-02,-7.088893651962280273e-02
6.093239039182662964e-02,5.248882621526718140e-02,-4.669575393199920654e-02,4.908024519681930542e-02,6.923062354326248169e-02,5.324136465787887573e-02,-5.211958661675453186e-02,-6.587266176939010620e-02,3.287985175848007202e-02,5.705709010362625122e-02,4.723591357469558716e-02,4.289814084768295288e-02,7.624069601297378540e-02,9.393587708473205566e-03,-3.554796800017356873e-02,1.311668753623962402e-02,-5.232457816600799561e-02,3.878802061080932617e-03,3.598459064960479736e-02,-2.425976097583770752e-03,-4.182839021086692810e-02,1.753425598144531250e-02,-1.026114076375961304e-02,3.747287392616271973e-02,-9.465835988521575928e-03,-1.966577023267745972e-02,7.620925456285476685e-02,-6.040409207344055176e-03,-1.461062580347061157e-02,5.326807498931884766e-03,-6.015136465430259705e-02,7.975404709577560425e-02
-6.983429938554763794e-02,3.714930266141891479e-02,-6.712742149829864502e-02,-2.938158065080642700e-02,2.632337063550949097e-02,-2.580899372696876526e-02,1.266484707593917847e-02,8.358802646398544312e-02,3.293024748563766479e-02,-2.527329325675964355e-02,1.898193359375000000e-02,-1.559534668922424316e-02,-7.187424600124359131e-02,-8.337602019309997559e-02,8.719235658645629883e-03,4.085205495357513428e-03,-8.033915609121322632e-02,2.709972113370895386e-02,5.376219004392623901e-02,-8.204334974288940430e-02,7.702361792325973511e-02,-4.513683915138244629e-02,1.533374190330505371e-02,-4.235897958278656006e-02,8.821398019790649414e-03,8.511541038751602173e-02,7.973162084817886353e-02,2.218931913375854492e-02,-7.007809728384017944e-02,5.459996312856674194e-02,1.364418864250183105e-02,8.082389086484909058e-02
3.066525608301162720e-02,2.559441328048706055e-02,-3.567345440387725830e-02,-4.206270352005958557e-02,7.632867246866226196e-02,-4.223809391260147095e-02,1.036360859870910645e-03,3.163504600524902344e-02,-7.994971424341201782e-02,3.626817464828491211e-02,8.329607546329498291e-03,-4.853880032896995544e-02,-3.829806298017501831e-02,7.824174314737319946e-02,-7.389605790376663208e-02,6.430483609437942505e-02,-4.192515462636947632e-02,-2.577260136604309082e-02,6.633350998163223267e-02,7.156600803136825562e-02,6.703203171491622925e-02,6.258264929056167603e-02,-2.203834056854248047e-02,5.548030883073806763e-02,-4.174015298485755920e-02,-8.153301477432250977e-02,-7.796648144721984863e-02,-5.942642688751220703e-03,-2.958931028842926025e-03,7.758686691522598267e-02,7.607728987932205200e-02,-5.741408467292785645e-02
6.384796649217605591e-02,5.241537839174270630e-02,4.066082090139389038e-02,2.881206572055816650e-02,6.133347749710083008e-03,2.069973945617675781e-02,-7.089629769325256348e-03,1.193773001432418823e-02,7.169146090745925903e-02,7.052672654390335083e-02,-4.890738800168037415e-02,-1.506410539150238037e-03,1.499726623296737671e-02,7.922343164682388306e-02,1.178593188524246216e-02,-3.551030904054641724e-02,1.119464635848999023e-02,2.180607616901397705e-02,-2.823572233319282532e-02,-5.667482316493988037e-02,6.201731413602828979e-02,-4.383536055684089661e-02,-6.472849845886230469e-02,4.969727247953414917e-02,2.021475881338119507e-02,4.001983255147933960e-02,-4.410675913095474243e-02,6.376359611749649048e-02,-3.488361835479736328e-04,-3.668732196092605591e-02,-5.869301408529281616e-02,-9.808093309402465820e-03
1.122919470071792603e-02,-5.003952980041503906e-02,8.230202645063400269e-02,2.080696821212768555e-02,6.365249305963516235e-02,6.047006696462631226e-02,-4.963794350624084473e-02,7.118562608957290649e-02,5.262628197669982910e-03,2.161896973848342896e-02,6.974671036005020142e-02,6.745719164609909058e-02,-7.023010402917861938e-02,-4.273529723286628723e-02,2.980311959981918335e-02,-3.387194871902465820e-02,2.033856511116027832e-02,1.061486452817916870e-02,-1.047314703464508057e-02,3.994249552488327026e-02,6.968385726213455200e-02,7.983198016881942749e-02,2.307988703250885010e-03,9.067013859748840332e-03,-2.705611288547515869e-02,-9.719446301460266113e-03,4.707565158605575562e-02,4.902250319719314575e-02,-1.682518422603607178e-02,8.465034514665603638e-02,3.695379197597503662e-02,-2.907823026180267334e-02
5.942173302173614502e-03,4.668601602315902710e-02,5.933872610330581665e-02,1.423513144254684448e-02,-1.991369575262069702e-02,-5.858155339956283569e-02,-2.388586476445198059e-02,6.573132425546646118e-02,-7.956908643245697021e-02,-7.837370783090591431e-02,3.021224588155746460e-02,-4.512443020939826965e-02,8.443670719861984253e-02,-5.054619908332824707e-02,3.594861179590225220e-02,-6.188736483454704285e-02,-3.836252167820930481e-02,7.903226464986801147e-02,-2.223299443721771240e-02,-4.319686815142631531e-02,-7.425945252180099487e-02,-4.555537551641464233e-02,-5.995994433760643005e-02,6.816288083791732788e-02,1.766104996204376221e-02,-1.087307929992675781e-03,7.473326474428176880e-02,-6.174229085445404053e-02,-1.932467520236968994e-02,-2.670422568917274475e-02,4.013567417860031128e-02,7.876489311456680298e-02
-8.249314129352569580e-02,2.158167958259582520e-02,-2.654361352324485779e-02,-5.704269558191299438e-02,2.437525987625122070e-02,-6.404227018356323242e-02,6.977631896734237671e-02,-8.223126828670501709e-02,-8.476772159337997437e-02,3.390915691852569580e-02,5.930266529321670532e-02,1.424022018909454346e-03,4.774826020002365112e-02,8.226332813501358032e-02,-6.892038136720657349e-02,6.490448862314224243e-02,8.490138500928878784e-02,2.654394507408142090e-02,-6.788612902164459229e-02,2.677661925554275513e-02,-2.915986254811286926e-02,-3.871545195579528809e-03,-2.402913942933082581e-02,-5.026811361312866211e-02,5.203033238649368286e-02,3.097796440124511719e-02,-1.983637362718582153e-02,5.883952230215072632e-02,-7.084933668375015259e-02,-2.498787268996238708e-02,-3.324232995510101318e-02,1.113016158342361450e-02
-2.581203728914260864e-02,-5.744526535272598267e-02,7.732265442609786987e-02,-1.817914843559265137e-02,5.874203890562057495e-02,-5.729166418313980103e-02,3.752594441175460815e-02,7.556522637605667114e-02,6.970398873090744019e-02,-1.669632643461227417e-02,-5.544107407331466675e-02,-2.324941754341125488e-02,7.115682214498519897e-02,7.912448793649673462e-02,-7.726113498210906982e-02,5.299367010593414307e-03,-3.376916050910949707e-03,-8.436462283134460449e-02,3.577993065118789673e-02,7.466638833284378052e-02,6.969765573740005493e-02,4.702607542276382446e-02,5.269617587327957153e-02,1.840626448392868042e-02,-7.327684015035629272e-02,-8.464004844427108765e-02,6.948163360357284546e-02,-3.498516976833343506e-03,8.263305574655532837e-02,5.587920546531677246e-03,-4.070510342717170715e-02,2.739299088716506958e-02
-2.645695209503173828e-02,-8.327540010213851929e-02,-6.601636111736297607e-02,1.370349526405334473e-02,1.017807424068450928e-02,-6.108987703919410706e-02,1.817013323307037354e-02,-7.503038644790649414e-02,4.695580154657363892e-02,-2.302445471286773682e-03,1.895941793918609619e-02,4.032868891954421997e-02,-6.725346297025680542e-02,-6.333103775978088379e-02,-9.395450353622436523e-03,-3.164604306221008301e-03,-6.856317818164825439e-02,5.866120010614395142e-02,-1.884581148624420166e-02,-3.681512176990509033e-02,2.461592853069305420e-02,-8.112400770187377930e-02,8.351669460535049438e-02,8.374401181936264038e-02,-7.260154932737350464e-02,1.332202553749084473e-02,-8.570452034473419189e-02,6.818629056215286255e-02,4.130527377128601074e-04,-4.712150245904922485e-02,-4.674357175827026367e-02,-1.959703862667083740e-02
-8.441559225320816040e-02,4.594723135232925415e-02,7.586321979761123657e-02,-4.006182774901390076e-02,-6.770342588424682617e-04,1.329547166824340820e-02,7.587521523237228394e-02,-1.043786108493804932e-02,-6.668163836002349854e-02,-3.692369908094406128e-02,1.854908466339111328e-02,3.269714117050170898e-02,-5.657814443111419678e-03,-4.770469665527343750e-02,-6.110668182373046875e-02,4.731749743223190308e-02,-5.010503157973289490e-02,-5.201581120491027832e-02,3.063759207725524902e-02,7.708261162042617798e-02,-1.823805272579193115e-03,8.069384843111038208e-02,-7.689283043146133423e-02,-2.107679098844528198e-02,8.163012564182281494e-03,-3.138243779540061951e-02,-8.197954297065734863e-02,-4.039038717746734619e-02,2.307426929473876953e-02,-5.192689597606658936e-03,7.578914612531661987e-02,4.876051098108291626e-02
4.155559092760086060e-02,-3.613375499844551086e-02,5.136974900960922241e-02,-6.397472321987152100e-02,-4.380855709314346313e-02,-2.963799238204956055e-02,3.672557324171066284e-02,7.405971735715866089e-02,7.761552184820175171e-02,-2.420544996857643127e-02,3.563152253627777100e-02,1.595385372638702393e-02,1.840231567621231079e-02,1.913628727197647095e-02,6.898527592420578003e-02,-5.811082571744918823e-02,-2.413567528128623962e-02,-2.013772726058959961e-02,3.192549943923950195e-02,1.565976440906524658e-02,1.753214746713638306e-02,-3.444895148277282715e-03,5.620745569467544556e-02,-3.467626497149467468e-02,-4.766122996807098389e-02,-5.320386588573455811e-02,4.926855117082595825e-02,8.397757261991500854e-02,-6.799029558897018433e-02,4.385361820459365845e-02,4.801700264215469360e-02,-1.101730763912200928e-02
-6.725876033306121826e-02,-6.788119673728942871e-03,6.238842755556106567e-02,7.681681960821151733e-02,-3.729860484600067139e-02,2.869679778814315796e-02,7.043419033288955688e-02,1.809783279895782471e-03,7.183875888586044312e-02,-1.820921897888183594e-02,4.992326349020004272e-02,3.906155377626419067e-02,-4.821306094527244568e-02,2.638844400644302368e-02,-7.346384227275848389e-02,-3.650383651256561279e-02,-6.348319351673126221e-03,-5.994714796543121338e-02,-2.077977359294891357e-02,2.875177562236785889e-02,2.868563681840896606e-02,-2.797649055719375610e-02,9.631335735321044922e-03,-1.271969825029373169e-02,5.303164571523666382e-02,7.490027695894241333e-02,4.509145766496658325e-02,4.618637263774871826e-03,-1.120363920927047729e-02,5.459242314100265503e-02,3.681297600269317627e-02,-2.263817191123962402e-02
5.320899933576583862e-02,-8.462526649236679077e-02,-5.592576786875724792e-02,8.164758235216140747e-02,-3.626566007733345032e-02,-3.129975870251655579e-02,2.566676586866378784e-02,-4.376235231757164001e-02,-6.172677502036094666e-02,-3.069713711738586426e-04,2.125246822834014893e-02,4.917988926172256470e-02,-4.364954307675361633e-02,-6.666677445173263550e-02,-5.454829707741737366e-02,-4.955679178237915039e-03,7.346508651971817017e-02,-2.623870968818664551e-03,5.122859030961990356e-02,7.978793233633041382e-02,-3.739352896809577942e-02,-3.514216840267181396e-02,1.785758137702941895e-02,-5.589757487177848816e-02,3.186959773302078247e-02,-6.372859328985214233e-02,-5.980039760470390320e-02,-1.557551324367523193e-02,-1.112632453441619873e-03,1.122892647981643677e-02,-5.080479755997657776e-02,7.714822143316268921e-02
-5.955895036458969116e-02,4.974471777677536011e-02,2.483660727739334106e-02,5.363806337118148804e-02,4.697244614362716675e-02,5.114480108022689819e-02,-2.337600663304328918e-02,4.401027411222457886e-02,-9.157925844192504883e-03,-5.624201893806457520e-02,-7.269559055566787720e-02,1.230644434690475464e-02,3.298309445381164551e-02,-5.136946588754653931e-02,2.153361588716506958e-02,-5.589962005615234375e-03,5.188756436109542847e-02,6.095706671476364136e-02,7.564564794301986694e-02,7.712205499410629272e-02,5.706084519624710083e-02,5.442045629024505615e-03,-4.299191385507583618e-02,4.409127682447433472e-02,-6.162843853235244751e-02,7.241255789995193481e-02,8.388506621122360229e-02,-5.092740058898925781e-02,4.834180325269699097e-02,6.345286220312118530e-02,1.486031711101531982e-02,-7.668188959360122681e-02
1.216128468513488770e-02,-3.514036908745765686e-02,-2.189825475215911865e-02,8.026578277349472046e-02,8.201178163290023804e-02,1.667851954698562622e-02,8.009449392557144165e-02,-5.335107445716857910e-03,2.128225564956665039e-02,-7.380526512861251831e-02,7.937061041593551636e-02,-8.732400834560394287e-03,5.124591290950775146e-03,-1.511745154857635498e-03,4.863023757934570312e-03,6.997332721948623657e-02,-6.288886815309524536e-02,2.769460529088973999e-02,-8.364660292863845825e-02,-3.135344758629798889e-02,-6.974974274635314941e-02,1.683463156223297119e-02,-7.666622847318649292e-02,-4.011994972825050354e-02,-5.327272042632102966e-02,4.554460197687149048e-02,6.811771541833877563e-02,1.759047806262969971e-02,-4.160948097705841064e-03,-6.772625446319580078e-02,3.384006023406982422e-02,-5.193474888801574707e-02
-1.883448660373687744e-02,-6.038083136081695557e-02,7.306792587041854858e-02,5.776398628950119019e-02,6.601646542549133301e-03,6.818871945142745972e-02,-4.296749830245971680e-04,1.597893983125686646e-02,6.677656620740890503e-02,7.834304124116897583e-02,-4.176072031259536743e-02,9.317658841609954834e-03,-7.317691296339035034e-02,-1.926919072866439819e-02,7.648938149213790894e-02,6.985329836606979370e-02,-6.778016686439514160e-02,6.447946280241012573e-02,-6.454726308584213257e-02,-2.162914723157882690e-02,-3.834870457649230957e-02,7.066158205270767212e-02,-1.740179955959320068e-02,2.873355895280838013e-02,-6.981134414672851562e-02,-2.901665121316909790e-02,2.734944224357604980e-02,7.702708244323730469e-03,3.707563877105712891e-02,5.330694466829299927e-02,6.245518475770950317e-02,-7.524778693914413452e-02
-5.019976943731307983e-02,7.516039162874221802e-02,-1.739488542079925537e-02,-2.282039821147918701e-02,5.288265645503997803e-03,8.534707129001617432e-03,-3.164101392030715942e-02,-1.684769988059997559e-03,-3.091144189238548279e-02,-4.391466453671455383e-02,-6.385953724384307861e-02,-7.789909839630126953e-02,-4.223264753818511963e-03,-1.475927978754043579e-02,2.887726575136184692e-02,-5.627977848052978516e-02,2.945838868618011475e-02,-8.216676861047744751e-02,-4.179312661290168762e-02,8.538492769002914429e-02,7.826653867959976196e-02,6.337598711252212524e-02,-7.154562324285507202e-02,1.904068887233734131e-02,-8.567419648170471191e-02,1.999694854021072388e-02,4.392681270837783813e-02,-4.442642256617546082e-02,-1.560182869434356689e-02,-6.325037777423858643e-02,-2.511468529701232910e-02,5.299512296915054321e-02
1.804977655410766602e-02,1.318981498479843140e-02,-1.299621164798736572e-02,5.680681020021438599e-02,-2.050692588090896606e-02,-7.970305532217025757e-02,4.312574118375778198e-02,-7.541013509035110474e-02,9.760439395904541016e-03,6.530925631523132324e-03,-4.953191801905632019e-02,3.300104290246963501e-02,2.015737444162368774e-02,1.244450360536575317e-02,-2.079905569553375244e-02,-2.748740091919898987e-02,1.149807870388031006e-02,2.588326483964920044e-02,6.416871398687362671e-02,-6.547549366950988770e-02,-8.221687376499176025e-02,-4.345881938934326172e-02,-6.501937657594680786e-02,2.945808321237564087e-02,-3.857467323541641235e-02,-7.396039366722106934e-02,-3.798817098140716553e-02,2.601045370101928711e-02,5.346409976482391357e-03,2.469325065612792969e-02,-3.869093954563140869e-02,8.457479625940322876e-02
6.760235875844955444e-02,-6.989700347185134888e-02,-4.297138750553131104e-02,7.134457677602767944e-02,-2.706915140151977539e-03,4.417017102241516113e-03,3.533935546875000000e-02,-7.833428680896759033e-03,-2.266692370176315308e-02,-4.893224686384201050e-02,-3.903949260711669922e-02,-8.382557332515716553e-02,3.076735138893127441e-02,-5.168878287076950073e-02,-4.495128616690635681e-02,-1.495636999607086182e-03,4.707214981317520142e-02,-6.287960708141326904e-02,4.896479099988937378e-02,-2.928692474961280823e-02,6.358321756124496460e-02,9.084023535251617432e-03,1.617681980133056641e-02,-2.168790996074676514e-02,-1.962328702211380005e-02,-2.227079123258590698e-02,7.859940081834793091e-02,2.409911900758743286e-02,-5.274652689695358276e-02,3.198556602001190186e-03,1.351982355117797852e-04,5.967669188976287842e-03
2.422548830509185791e-02,1.718672364950180054e-02,-2.135396003723144531e-03,-5.211441218852996826e-02,-8.445210754871368408e-02,-6.894733011722564697e-02,-3.497959673404693604e-02,2.711319178342819214e-02,-1.429270207881927490e-02,-6.738558411598205566e-03,-8.038196712732315063e-02,-3.324605152010917664e-02,-8.229444175958633423e-02,1.792179793119430542e-02,2.332171052694320679e-02,5.974525958299636841e-02,2.669731527566909790e-02,-2.907833084464073181e-02,8.443879336118698120e-02,-4.164576530456542969e-02,2.277437597513198853e-02,-2.384377270936965942e-02,-3.049513697624206543e-02,-6.231270730495452881e-02,4.078292101621627808e-02,5.938170105218887329e-02,3.095758706331253052e-02,-6.671945750713348389e-02,3.844977915287017822e-02,1.503155380487442017e-02,8.747875690460205078e-04,-6.782720983028411865e-02
-7.641106843948364258e-02,4.081427305936813354e-02,6.164065748453140259e-02,-3.653010725975036621e-02,5.449088662862777710e-02,3.397302329540252686e-02,-8.066932857036590576e-02,9.085372090339660645e-03,-5.527126789093017578e-02,3.732982277870178223e-02,3.545267879962921143e-02,4.904023557901382446e-02,-5.155996605753898621e-02,3.628879785537719727e-04,3.061939775943756104e-02,7.950031012296676636e-02,2.086398750543594360e-02,-2.050302177667617798e-02,8.458422869443893433e-02,2.664293348789215088e-02,-4.893396422266960144e-02,-8.318819105625152588e-03,-3.958882763981819153e-02,-3.236219286918640137e-03,-4.643245041370391846e-02,7.623568177223205566e-03,-4.701220989227294922e-02,4.965186864137649536e-02,1.763842999935150146e-03,3.239573538303375244e-02,-7.564935088157653809e-02,-5.394813790917396545e-02
-6.195250153541564941e-02,4.321179538965225220e-02,4.093313962221145630e-02,2.010946720838546753e-02,4.391990602016448975e-03,7.755803316831588745e-02,-3.890351951122283936e-02,-3.268133848905563354e-02,6.107037514448165894e-02,-2.311311662197113037e-02,2.118800580501556396e-02,6.980208307504653931e-02,9.834654629230499268e-03,-5.217365920543670654e-02,1.560092717409133911e-02,5.229481309652328491e-02,3.623685240745544434e-02,-4.749432578682899475e-02,-5.359463393688201904e-02,3.408007323741912842e-02,3.059639781713485718e-02,-6.017473340034484863e-02,7.652295380830764771e-02,6.936433166265487671e-02,2.086852490901947021e-02,-2.846471965312957764e-03,6.942100822925567627e-03,2.352759242057800293e-03,-2.211467921733856201e-02,-7.637137919664382935e-02,-2.006412297487258911e-02,-2.959039807319641113e-02
2.426078915596008301e-02,4.723020642995834351e-02,5.810963362455368042e-02,-2.820301055908203125e-02,-4.394422471523284912e-02,5.587134510278701782e-02,4.627286642789840698e-02,-9.191580116748809814e-03,2.867420762777328491e-02,4.958675056695938110e-02,-6.239113211631774902e-02,-4.622555524110794067e-02,7.526791840791702271e-02,1.190966367721557617e-02,-4.864469915628433228e-02,-2.358852699398994446e-02,-6.093343719840049744e-02,3.164107352495193481e-02,4.954531788825988770e-03,-5.636139214038848877e-02,2.975260466337203979e-02,-3.277716040611267090e-02,3.369216620922088623e-02,8.147241920232772827e-02,1.891437917947769165e-02,-6.258159130811691284e-02,5.114776641130447388e-02,9.091302752494812012e-03,3.966263681650161743e-02,-4.175452515482902527e-02,-6.385783851146697998e-02,-3.877244889736175537e-03
-2.851380407810211182e-02,-2.592912316322326660e-02,1.250111311674118042e-02,-4.211555048823356628e-02,-5.994812771677970886e-02,5.850885063409805298e-02,4.678031057119369507e-02,-6.548520177602767944e-02,9.213984012603759766e-04,2.218318730592727661e-02,-7.970660924911499023e-02,-2.719956636428833008e-02,-5.153862014412879944e-02,-7.179571688175201416e-02,2.626659721136093140e-02,7.678521424531936646e-02,3.796182572841644287e-03,-3.733035549521446228e-02,4.687022417783737183e-02,-4.430301487445831299e-03,5.995953828096389771e-02,-4.538969323039054871e-02,6.737899035215377808e-02,4.614070802927017212e-02,-8.144625276327133179e-02,-1.157195866107940674e-02,3.106389194726943970e-02,5.098342150449752808e-02,6.944604963064193726e-02,-7.986683398485183716e-02,2.239196747541427612e-02,2.523485571146011353e-02
1.011376082897186279e-02,-7.636240869760513306e-02,5.862363427877426147e-02,8.053948730230331421e-02,5.859338492155075073e-02,-3.752629458904266357e-02,1.428586989641189575e-02,1.451314985752105713e-02,-9.630680084228515625e-03,1.943486928939819336e-02,-5.204518884420394897e-02,2.101876586675643921e-02,-4.681369662284851074e-02,6.419085711240768433e-02,5.184859037399291992e-04,7.303018122911453247e-02,-1.215838640928268433e-02,4.991434514522552490e-03,3.056994080543518066e-02,8.074156939983367920e-03,-3.934331610798835754e-02,5.876011401414871216e-02,1.848546415567398071e-02,-2.616284042596817017e-02,-1.828437298536300659e-02,-8.037501573562622070e-02,3.461477160453796387e-02,-6.829844415187835693e-02,5.028202384710311890e-02,-1.151353120803833008e-02,4.646455496549606323e-02,-2.907700836658477783e-03
-9.661078453063964844e-03,8.363697677850723267e-02,-6.092182546854019165e-02,7.220771163702011108e-02,1.759718358516693115e-02,6.476067751646041870e-02,7.183707505464553833e-02,8.488955348730087280e-02,-8.298913389444351196e-02,-3.067514672875404358e-02,6.274620443582534790e-02,4.650772362947463989e-02,2.384363114833831787e-02,5.207836627960205078e-03,-4.740567877888679504e-02,8.008306473493576050e-02,3.457007557153701782e-02,5.410084873437881470e-02,-6.227903068065643311e-03,-6.403233110904693604e-02,-1.940884441137313843e-02,-7.004514336585998535e-02,6.589189916849136353e-02,-3.824010491371154785e-02,5.168914794921875000e-04,4.971019178628921509e-02,1.874453574419021606e-02,7.264117151498794556e-02,5.033562332391738892e-02,-8.065181225538253784e-02,7.895330339670181274e-02,2.117767930030822754e-02
1.141220331192016602e-03,6.164450198411941528e-02,-1.332569122314453125e-02,-4.379837587475776672e-02,-6.847293674945831299e-02,-8.193112909793853760e-02,2.262368053197860718e-02,-4.901447519659996033e-02,7.175096124410629272e-02,-1.094575226306915283e-02,2.826258540153503418e-02,3.058188408613204956e-02,-6.220494583249092102e-02,2.017664909362792969e-02,-3.318582102656364441e-02,7.019098848104476929e-02,7.177034765481948853e-02,-7.871580123901367188e-02,1.364455372095108032e-02,8.230865746736526489e-02,-1.617811620235443115e-03,-1.523941010236740112e-02,-6.258772313594818115e-02,6.709810346364974976e-02,-6.493702530860900879e-02,4.197976738214492798e-02,-7.790327072143554688e-02,2.999938279390335083e-02,8.232758194208145142e-02,-7.946645468473434448e-02,-7.328581809997558594e-02,1.368509978055953979e-02
-6.567710638046264648e-02,-2.559950202703475952e-02,5.344707518815994263e-02,4.278220981359481812e-02,2.031714469194412231e-02,-1.904992759227752686e-02,3.954251855611801147e-02,-4.782010242342948914e-02,-1.732543855905532837e-02,-9.899541735649108887e-03,2.929106354713439941e-03,-8.264192938804626465e-02,-5.628049373626708984e-02,2.965088933706283569e-02,6.003949791193008423e-02,1.408866792917251587e-02,3.905515372753143311e-02,2.813442051410675049e-02,-1.192159950733184814e-02,4.243808239698410034e-02,3.529948741197586060e-02,-8.232213556766510010e-03,-7.101965695619583130e-02,-6.709240376949310303e-02,4.902824014425277710e-02,2.211549878120422363e-02,8.181207627058029175e-02,-2.040366083383560181e-02,-4.657848551869392395e-02,7.923357933759689331e-02,-1.210942119359970093e-02,-6.192042306065559387e-02
6.831473857164382935e-02,8.570422977209091187e-02,1.063816249370574951e-03,-3.514386713504791260e-02,-7.528336346149444580e-02,-9.413138031959533691e-04,8.080601692199707031e-03,6.466213613748550415e-02,2.565471827983856201e-02,4.851620644330978394e-02,5.228766053915023804e-02,-3.032289445400238037e-02,2.140001207590103149e-02,-9.386494755744934082e-03,1.787947863340377808e-02,6.311590224504470825e-02,7.241053134202957153e-02,4.654546827077865601e-02,-1.295991986989974976e-02,7.597165554761886597e-02,6.127785891294479370e-02,5.465397983789443970e-02,-6.939613819122314453e-02,1.488786935806274414e-02,-6.490111351013183594e-02,-6.966538727283477783e-02,-5.014297738671302795e-02,-2.883105725049972534e-02,1.788182556629180908e-02,-5.900111049413681030e-02,-4.032063111662864685e-02,-2.770423889160156250e-04
-7.435476779937744141e-02,8.083335310220718384e-02,-3.238569572567939758e-02,-7.440462708473205566e-02,-8.563086390495300293e-03,5.571230500936508179e-02,3.485482931137084961e-02,-5.442178994417190552e-02,-4.773730412125587463e-02,-1.680335402488708496e-02,8.173394948244094849e-02,3.136516362428665161e-02,-6.946117430925369263e-02,4.905947297811508179e-02,5.555471032857894897e-02,-8.180987089872360229e-02,7.011995464563369751e-02,5.763247609138488770e-04,7.215850055217742920e-03,-1.096722483634948730e-02,-2.925233170390129089e-02,5.828296393156051636e-02,-6.271374225616455078e-02,4.965983331203460693e-03,6.276728957891464233e-02,-4.055443033576011658e-02,4.564908891916275024e-02,7.236335426568984985e-02,5.917296558618545532e-02,5.745289474725723267e-02,-3.807233646512031555e-02,5.246072262525558472e-02
-1.085682213306427002e-02,-4.054944217205047607e-02,1.193552464246749878e-02,5.680932849645614624e-02,-8.552081882953643799e-03,-7.080703973770141602e-02,-6.182245537638664246e-02,-6.076019257307052612e-02,1.178573071956634521e-02,8.146280795335769653e-02,-4.203091189265251160e-02,-4.126850515604019165e-02,-6.387192755937576294e-02,-3.468843176960945129e-02,-3.620802983641624451e-02,-5.059912800788879395e-02,-4.834997653961181641e-02,3.444240242242813110e-02,4.009325057268142700e-02,-8.149296790361404419e-02,-1.562261581420898438e-02,-8.530721068382263184e-03,5.317426472902297974e-02,-6.892164796590805054e-02,6.760489195585250854e-02,-6.691271811723709106e-02,-6.139993667602539062e-03,-7.351367175579071045e-02,7.529184222221374512e-04,7.140661031007766724e-02,8.483808487653732300e-02,4.060517996549606323e-02
-7.359663397073745728e-02,-2.731636539101600647e-02,-1.658288389444351196e-02,-8.112949132919311523e-02,-1.794064790010452271e-02,-1.579436659812927246e-02,9.361654520034790039e-03,-6.949615478515625000e-02,7.518150657415390015e-02,-2.445660531520843506e-03,6.317505985498428345e-02,8.250264078378677368e-02,-6.483141332864761353e-02,2.608685195446014404e-02,-7.268424332141876221e-02,1.016445457935333252e-03,-5.633138120174407959e-03,-2.000142633914947510e-02,3.292836993932723999e-02,7.282545417547225952e-02,-7.304073125123977661e-02,-7.166771590709686279e-02,5.911356955766677856e-02,1.457204669713973999e-02,4.431005567312240601e-02,8.420503884553909302e-02,-1.594489812850952148e-02,-8.511241525411605835e-02,-2.381811290979385376e-02,7.894054800271987915e-02,-6.992920488119125366e-02,5.101298540830612183e-02
5.651202052831649780e-02,-1.535037904977798462e-02,-8.337792754173278809e-02,3.442426770925521851e-02,2.640238404273986816e-02,-5.939357727766036987e-02,3.995557874441146851e-02,4.936646670103073120e-02,-8.405828475952148438e-02,7.356632500886917114e-02,-2.378168329596519470e-02,8.005393296480178833e-02,6.707211583852767944e-02,1.835994422435760498e-03,-3.588172048330307007e-02,4.260681569576263428e-03,-4.504747688770294189e-02,3.382938355207443237e-02,-6.865347921848297119e-02,4.021780937910079956e-02,-8.139910548925399780e-02,-6.174846738576889038e-02,7.074771076440811157e-02,4.554779082536697388e-02,8.342518657445907593e-02,2.721384167671203613e-02,3.672418743371963501e-02,2.791544049978256226e-02,1.695676892995834351e-02,4.706464707851409912e-03,-2.805460616946220398e-02,-4.753962904214859009e-02
2.215696126222610474e-02,-1.109372824430465698e-02,7.947366684675216675e-02,-6.614156067371368408e-02,4.284062236547470093e-02,8.035153150558471680e-03,-2.830531448125839233e-02,7.238095253705978394e-02,-4.952770844101905823e-02,-2.197958528995513916e-03,4.278894513845443726e-02,5.102191120386123657e-02,-6.314688920974731445e-02,4.944903403520584106e-02,1.193601638078689575e-02,7.139017432928085327e-02,6.854297965764999390e-02,4.150367528200149536e-02,-1.697101444005966187e-02,7.416207343339920044e-02,2.736306190490722656e-02,-3.374956548213958740e-03,-6.810120493173599243e-02,5.167571455240249634e-02,6.851752847433090210e-02,-3.943108022212982178e-02,-8.965156972408294678e-03,-1.160710304975509644e-02,3.644451498985290527e-03,5.846213549375534058e-02,-1.439238339662551880e-02,7.303210347890853882e-02
-1.727201789617538452e-02,5.883962661027908325e-02,7.483343034982681274e-02,5.473724752664566040e-02,-6.467704474925994873e-02,6.834188848733901978e-02,1.257415860891342163e-02,1.219455152750015259e-02,3.968425840139389038e-02,3.915353119373321533e-02,-7.416923344135284424e-02,3.909346461296081543e-02,-6.103363633155822754e-02,7.532573491334915161e-02,-2.100556343793869019e-02,2.925067394971847534e-02,6.580779701471328735e-02,7.138475775718688965e-04,5.470737069845199585e-02,6.746146827936172485e-02,-5.309626832604408264e-02,5.485840141773223877e-03,-8.404440432786941528e-02,-2.184607088565826416e-03,-5.843963101506233215e-02,6.412067264318466187e-02,6.229295581579208374e-02,1.997731626033782959e-02,3.963033109903335571e-02,2.786740660667419434e-04,-7.124691456556320190e-02,-2.998002246022224426e-02
6.306353956460952759e-02,-4.022550210356712341e-02,7.707832008600234985e-02,1.666705310344696045e-02,2.184264361858367920e-03,-7.688267529010772705e-02,5.995354801416397095e-02,7.828638702630996704e-02,-1.966327428817749023e-03,-8.266180753707885742e-02,-2.204991132020950317e-02,-2.823384106159210205e-02,-4.686500877141952515e-02,1.651431620121002197e-02,7.532281428575515747e-02,3.832331299781799316e-02,7.424011826515197754e-03,7.857144623994827271e-02,6.610227376222610474e-02,-1.114697009325027466e-02,4.458027333021163940e-02,4.710843414068222046e-02,-6.906833499670028687e-02,3.726820647716522217e-02,-3.950881212949752808e-02,6.278177350759506226e-02,-4.306029900908470154e-02,-5.589191243052482605e-02,1.736132055521011353e-02,-5.690521001815795898e-02,6.232276558876037598e-03,6.227081269025802612e-02
-8.475576341152191162e-02,-7.817824184894561768e-02,5.368252843618392944e-02,2.739842981100082397e-02,4.031490534543991089e-02,-4.331497475504875183e-02,5.152115970849990845e-02,3.328888118267059326e-02,-5.849548429250717163e-02,8.082526177167892456e-02,2.563595026731491089e-02,-6.424199044704437256e-02,3.795544058084487915e-02,-1.018527150154113770e-02,-4.353174194693565369e-02,-3.847600892186164856e-02,-4.882086813449859619e-02,4.289731383323669434e-03,-8.510799705982208252e-02,8.208356797695159912e-03,7.416597753763198853e-02,-5.156462639570236206e-02,4.203233867883682251e-02,5.581874400377273560e-02,-7.259022444486618042e-02,8.993759751319885254e-03,-1.997026801109313965e-02,1.338614523410797119e-02,-6.590406596660614014e-02,-6.270985305309295654e-02,2.832428365945816040e-02,1.075635850429534912e-02
-5.563196539878845215e-02,1.346460729837417603e-02,3.915436565876007080e-02,-2.489339932799339294e-02,-5.694553256034851074e-03,6.381273269653320312e-04,4.095708578824996948e-02,1.300029456615447998e-02,5.565140396356582642e-02,-3.970963507890701294e-02,-7.848317176103591919e-02,-8.339679241180419922e-02,-5.354924872517585754e-02,-7.767627388238906860e-02,4.679057747125625610e-02,4.709694534540176392e-02,2.607338130474090576e-02,-5.776010453701019287e-02,-3.899459913372993469e-02,-1.254486292600631714e-02,-6.154643744230270386e-02,-2.800423279404640198e-02,3.149084746837615967e-03,7.190141826868057251e-02,-1.620938628911972046e-02,-7.976254820823669434e-02,-6.431225687265396118e-02,-8.346775919198989868e-02,-6.535170227289199829e-02,-6.061528623104095459e-02,-1.792026311159133911e-02,2.266389131546020508e-02
6.396143883466720581e-02,-7.090885192155838013e-02,5.914417654275894165e-02,4.629465192556381226e-02,-2.030497789382934570e-02,-5.078136548399925232e-02,6.086424738168716431e-02,-6.821213662624359131e-02,-5.159609019756317139e-03,5.407214164733886719e-03,1.863695681095123291e-02,7.770406454801559448e-02,5.814557522535324097e-02,-1.921162009239196777e-02,-1.959856599569320679e-02,2.208567410707473755e-02,6.305583566427230835e-02,8.034131675958633423e-02,-2.600446343421936035e-03,6.914886087179183960e-02,-6.238487362861633301e-02,-6.016540899872779846e-02,3.539058566093444824e-02,8.513429015874862671e-02,7.106762379407882690e-02,-1.882786303758621216e-02,5.448769778013229370e-02,-4.038441553711891174e-02,8.462340384721755981e-02,2.333172410726547241e-02,2.503935247659683228e-02,4.266155511140823364e-02
6.079605966806411743e-02,4.272655397653579712e-02,1.414995640516281128e-02,5.069241672754287720e-02,-6.593350321054458618e-02,2.194309234619140625e-02,-7.402178645133972168e-02,2.591540664434432983e-02,-4.920735955238342285e-04,3.470817953348159790e-02,2.067826688289642334e-02,-4.960097745060920715e-02,-9.556405246257781982e-03,-5.439512804150581360e-02,-5.209227278828620911e-02,3.735891729593276978e-02,-3.561802953481674194e-02,-3.538973629474639893e-03,-2.578374370932579041e-02,8.149472624063491821e-02,-7.798557728528976440e-02,-1.220933347940444946e-02,5.394711345434188843e-02,3.611189872026443481e-02,-2.928958088159561157e-02,5.673989653587341309e-03,2.642587572336196899e-02,-5.193613842129707336e-02,2.870336174964904785e-04,3.844640403985977173e-02,-7.628782838582992554e-02,-5.762815475463867188e-03
2.498494833707809448e-02,-6.766200065612792969e-03,-6.165401637554168701e-02,2.992521226406097412e-02,-3.161028027534484863e-03,-5.944356322288513184e-02,3.339709341526031494e-02,1.703940331935882568e-02,-4.567601531744003296e-02,1.722542196512222290e-02,-3.564839065074920654e-02,2.783648669719696045e-02,-2.496406435966491699e-03,3.960753232240676880e-02,5.243716388940811157e-02,2.547391504049301147e-02,8.276312798261642456e-02,-7.571342587471008301e-02,8.344471454620361328e-03,9.828358888626098633e-03,-3.759355470538139343e-02,6.374288350343704224e-02,1.356638967990875244e-03,-6.974618881940841675e-02,1.065264642238616943e-02,4.451534897089004517e-02,-7.741001248359680176e-02,7.219096273183822632e-02,-1.945447921752929688e-02,4.925497621297836304e-02,-3.070068359375000000e-02,2.500332891941070557e-02
-7.556056231260299683e-02,2.413661777973175049e-02,2.087136358022689819e-02,-4.218833148479461670e-02,3.317357599735260010e-02,-2.513613179326057434e-02,8.076141029596328735e-02,-1.043769717216491699e-02,2.268386632204055786e-02,6.445152312517166138e-02,7.176518440246582031e-03,-5.892798304557800293e-02,7.242643088102340698e-02,7.141222804784774780e-02,-3.459538891911506653e-02,-2.861937880516052246e-02,-3.618398681282997131e-02,2.861735224723815918e-02,2.963647991418838501e-02,-4.920691624283790588e-02,-2.032908052206039429e-02,5.643320828676223755e-02,-5.512406677007675171e-02,-3.658227995038032532e-02,-8.086539059877395630e-02,-2.581195905804634094e-02,-7.245755940675735474e-02,-1.785831898450851440e-02,-4.519075155258178711e-03,-7.281661033630371094e-03,2.339134365320205688e-02,-9.541213512420654297e-03
8.392065763473510742e-03,5.524035543203353882e-02,4.037333279848098755e-02,8.371188491582870483e-02,1.194572448730468750e-02,5.307909101247787476e-02,7.885194569826126099e-02,1.699288934469223022e-02,2.149742841720581055e-02,-4.220246151089668274e-02,-8.540748059749603271e-02,2.770642191171646118e-02,-6.853207945823669434e-03,-5.403289943933486938e-02,2.095714211463928223e-03,7.225514203310012817e-02,-7.980568706989288330e-02,5.672607570886611938e-02,1.925224065780639648e-02,-1.066613942384719849e-02,2.636939287185668945e-03,-2.080117911100387573e-02,2.105388790369033813e-02,6.361214071512222290e-02,-4.255634918808937073e-02,-3.496639057993888855e-02,6.286611407995223999e-02,-6.929644942283630371e-02,-9.149178862571716309e-03,3.496854007244110107e-02,-3.869988024234771729e-03,-4.463039711117744446e-02
5.408444255590438843e-02,3.613563627004623413e-02,2.919848263263702393e-02,-5.374739319086074829e-02,2.052433788776397705e-03,8.142276853322982788e-02,-4.504768177866935730e-02,-2.363516017794609070e-02,3.429111838340759277e-02,6.097074598073959351e-02,4.769510775804519653e-02,2.821985632181167603e-02,4.460694640874862671e-02,4.962570220232009888e-02,6.711024791002273560e-02,-7.086157798767089844e-02,-5.502634495496749878e-02,-8.199571073055267334e-02,-7.271550595760345459e-02,8.420836180448532104e-02,-4.470759257674217224e-02,-8.201353996992111206e-02,7.645975798368453979e-02,-6.046835333108901978e-02,5.576188117265701294e-02,7.436623424291610718e-02,8.056447654962539673e-02,-4.690199345350265503e-02,-1.930895447731018066e-02,-1.048263162374496460e-02,3.504060208797454834e-03,-2.728036418557167053e-02
2.966745197772979736e-02,2.919968962669372559e-02,-7.102693617343902588e-02,-5.816064774990081787e-02,3.432282805442810059e-02,-5.429290235042572021e-03,2.212490141391754150e-02,2.091478556394577026e-02,-2.147377282381057739e-02,-3.247017040848731995e-02,-4.723807796835899353e-02,6.352574378252029419e-02,-4.637657850980758667e-02,7.613020390272140503e-02,4.276173561811447144e-02,2.212040871381759644e-02,-7.476481050252914429e-02,7.906431704759597778e-02,-5.188433453440666199e-02,7.082268595695495605e-03,-8.062203973531723022e-02,6.945516914129257202e-02,-6.310310214757919312e-02,-7.382736355066299438e-02,-4.717985168099403381e-02,-5.942242592573165894e-02,-3.365924954414367676e-02,6.671672314405441284e-02,-6.340652704238891602e-03,2.189549803733825684e-02,5.338894575834274292e-02,-1.332734525203704834e-02
-1.359340548515319824e-02,-3.176868706941604614e-02,3.162807226181030273e-02,5.477380007505416870e-02,-8.496186137199401855e-02,1.598045229911804199e-02,-1.801017671823501587e-02,6.544052809476852417e-02,7.729493081569671631e-03,-1.421734690666198730e-03,-5.609414726495742798e-02,5.388628691434860229e-02,-7.285221666097640991e-02,6.343054026365280151e-02,7.813379913568496704e-02,-5.952323600649833679e-02,5.174034088850021362e-02,-7.618425786495208740e-02,-8.689694106578826904e-03,-1.996014267206192017e-02,-2.359498664736747742e-02,4.891767352819442749e-02,-2.198545634746551514e-02,6.153925508260726929e-02,4.127175360918045044e-02,4.176139086484909058e-02,2.258158475160598755e-02,-3.464128449559211731e-02,8.036998659372329712e-02,-7.742834836244583130e-02,6.073682755231857300e-02,8.227223902940750122e-02
-1.627781242132186890e-02,-4.619376361370086670e-02,5.115104466676712036e-02,3.150410205125808716e-02,4.517538100481033325e-02,2.221038192510604858e-02,6.121820956468582153e-02,6.468454748392105103e-02,-7.675050199031829834e-02,1.086134463548660278e-02,-5.423783138394355774e-02,-7.103521376848220825e-02,-8.191709965467453003e-02,-1.921513676643371582e-02,2.245658636093139648e-02,3.152988851070404053e-03,-7.945731282234191895e-03,3.123268485069274902e-02,-6.362226605415344238e-02,6.940805166959762573e-02,6.283288449048995972e-02,-8.340211212635040283e-02,-1.571692526340484619e-03,6.930714100599288940e-02,2.203486859798431396e-02,-1.724535971879959106e-02,6.020406633615493774e-02,7.618451863527297974e-02,-2.794531360268592834e-02,8.803263306617736816e-03,-6.708312034606933594e-02,5.061180144548416138e-02
-2.391301468014717102e-02,-1.669671386480331421e-02,5.234431475400924683e-02,8.280359953641891479e-02,3.924923390150070190e-02,5.250806361436843872e-02,-4.063951969146728516e-02,8.303760737180709839e-02,7.222989946603775024e-02,2.740965038537979126e-02,3.236825764179229736e-02,2.133878320455551147e-02,5.715740472078323364e-02,4.502711445093154907e-02,-3.571260347962379456e-02,-5.323302000761032104e-02,2.857960760593414307e-03,-1.780626177787780762e-02,-5.034418776631355286e-02,-1.843424886465072632e-02,8.129753917455673218e-02,6.742928177118301392e-02,4.207224398851394653e-02,-1.848360151052474976e-02,-3.707134723663330078e-02,-4.469773918390274048e-02,-4.386553540825843811e-02,8.344162255525588989e-02,-6.491701304912567139e-02,5.303473025560379028e-02,-3.135250508785247803e-02,7.432978600263595581e-02
1.976310461759567261e-02,3.685314953327178955e-02,-6.320804357528686523e-03,-3.245792537927627563e-02,-2.035913616418838501e-02,-2.379339560866355896e-02,7.617039233446121216e-02,-8.263485878705978394e-02,-5.107660219073295593e-02,-2.068945020437240601e-02,-3.952868282794952393e-02,3.560042381286621094e-02,8.239056915044784546e-02,-7.919424027204513550e-02,-7.960426807403564453e-02,8.015147596597671509e-02,-8.376121520996093750e-03,8.285661786794662476e-02,1.165993511676788330e-02,-7.116845250129699707e-02,-1.380066573619842529e-02,-2.434702590107917786e-02,8.177699893712997437e-02,-4.211493954062461853e-02,3.442478179931640625e-02,4.393567889928817749e-02,-5.370047688484191895e-02,6.986568123102188110e-02,-2.584810182452201843e-02,-5.834460631012916565e-02,-2.220362424850463867e-03,3.473880141973495483e-02
-4.969720914959907532e-02,3.918986022472381592e-02,-3.030827641487121582e-02,-7.529664784669876099e-02,-2.764547616243362427e-02,8.261799812316894531e-03,4.376886039972305298e-02,-1.806230843067169189e-02,-4.851823300123214722e-02,-3.587182238698005676e-02,-8.828364312648773193e-03,-1.690457016229629517e-02,4.340811818838119507e-02,-8.052928745746612549e-02,6.014733761548995972e-02,7.062547653913497925e-02,8.299490064382553101e-02,-2.751730382442474365e-03,-5.620384961366653442e-02,1.843930035829544067e-02,-2.573569864034652710e-02,2.263090014457702637e-02,-8.109896630048751831e-02,-1.894792914390563965e-02,-6.396492570638656616e-02,-8.522861450910568237e-02,7.349044829607009888e-02,-8.444038778543472290e-02,-5.277141928672790527e-03,4.289173334836959839e-02,-5.250408127903938293e-02,2.128713577985763550e-02
5.038238316774368286e-02,-5.725082010030746460e-02,7.019910961389541626e-02,-2.098403126001358032e-02,7.462958246469497681e-02,6.845565885305404663e-02,1.240625232458114624e-02,-8.019870519638061523e-02,-5.386795476078987122e-02,5.721872299909591675e-02,-4.827400669455528259e-02,6.603003293275833130e-02,5.212708562612533569e-02,6.424064189195632935e-02,8.899718523025512695e-05,-5.847814679145812988e-02,-5.358666181564331055e-02,-8.560178428888320923e-02,6.063558906316757202e-02,-1.203377544879913330e-02,-7.602503895759582520e-02,7.988501340150833130e-02,-1.577623188495635986e-02,8.078449219465255737e-02,-6.387204676866531372e-02,-6.468711793422698975e-02,-5.822746083140373230e-02,-1.100469380617141724e-02,-3.917771577835083008e-02,4.122471064329147339e-02,-3.757333382964134216e-02,-2.434081211686134338e-02
1.858815550804138184e-02,-4.425636678934097290e-02,2.001841366291046143e-02,2.998493611812591553e-03,7.719635963439941406e-03,1.328027993440628052e-02,2.000813186168670654e-02,-4.616790264844894409e-02,-5.439721420407295227e-02,4.402355104684829712e-02,-5.909640341997146606e-02,-3.084293380379676819e-02,8.317088335752487183e-02,-8.445786684751510620e-02,6.483096629381179810e-02,8.449434489011764526e-02,-4.712067544460296631e-03,3.097285330295562744e-02,-3.590148687362670898e-02,2.556944638490676880e-02,1.885920017957687378e-02,-6.380241364240646362e-02,1.646068692207336426e-02,9.395927190780639648e-05,-4.153877869248390198e-02,-1.342022418975830078e-02,-3.139040991663932800e-02,3.855453431606292725e-02,3.419704735279083252e-03,-3.161069750785827637e-02,7.421224564313888550e-02,8.107729256153106689e-03
2.217323333024978638e-02,8.455572277307510376e-02,1.973338425159454346e-03,2.487884461879730225e-02,5.978130549192428589e-02,-4.098643735051155090e-02,5.972569435834884644e-02,-4.157253354787826538e-02,3.164815157651901245e-02,-1.217144727706909180e-02,3.871195018291473389e-03,-7.957599312067031860e-02,4.714364558458328247e-02,-7.934640347957611084e-02,1.497554033994674683e-02,8.452222496271133423e-02,1.168994605541229248e-02,7.684881240129470825e-02,7.278057187795639038e-02,-7.633597403764724731e-02,9.723745286464691162e-03,-6.305773556232452393e-02,3.703990578651428223e-02,7.756393402814865112e-02,2.351655811071395874e-02,-6.440746039152145386e-02,-6.711222231388092041e-03,6.866141408681869507e-02,5.065443366765975952e-02,-5.366384983062744141e-03,7.676190882921218872e-02,-7.538239657878875732e-02
8.113000541925430298e-02,7.662821561098098755e-02,1.227661222219467163e-02,7.232113927602767944e-02,7.658017426729202271e-02,3.750678896903991699e-02,7.047600299119949341e-02,6.356190890073776245e-02,-1.181862503290176392e-02,-6.162809208035469055e-02,8.207675069570541382e-02,3.262631595134735107e-03,-5.066980421543121338e-02,1.706356555223464966e-02,-3.711745142936706543e-02,1.690901815891265869e-03,4.037164151668548584e-03,-1.213198900222778320e-02,7.667937129735946655e-02,4.055520147085189819e-02,-5.074651166796684265e-02,4.281324893236160278e-02,9.147688746452331543e-03,-5.338381603360176086e-02,-7.407024502754211426e-02,-5.842270329594612122e-02,7.549234479665756226e-02,4.084547609090805054e-02,-7.273317128419876099e-02,-4.982940107583999634e-02,2.319006621837615967e-02,-3.251796960830688477e-02
