-1.744334585964679718e-02,-6.681001745164394379e-03,3.883773460984230042e-02,5.268209427595138550e-02,1.004553213715553284e-01,6.837838888168334961e-02,-1.608566939830780029e-02,2.938981726765632629e-02,2.844698354601860046e-02,-1.532969810068607330e-02,-1.053332630544900894e-02,-1.089921742677688599e-01,3.373981267213821411e-02,8.881255984306335449e-02,-4.946302250027656555e-02,6.588797271251678467e-02,-3.672043979167938232e-02,-4.567163065075874329e-03,5.953831970691680908e-02,3.968885913491249084e-02,-1.259429007768630981e-01,-1.470903009176254272e-01,-2.098534628748893738e-02,6.662621162831783295e-04,3.063470125198364258e-02,-1.992349885404109955e-02,1.804955489933490753e-02,2.974245231598615646e-03,-1.510004978626966476e-02,2.808041125535964966e-02,-3.441629931330680847e-02,2.611473202705383301e-02,5.099069327116012573e-02,3.383203595876693726e-02,5.312496796250343323e-02,3.609508275985717773e-02,-8.459122851490974426e-03,-1.275978237390518188e-02,1.311481446027755737e-01,2.965642511844635010e-02,2.830801531672477722e-02,5.403429642319679260e-02,4.706702381372451782e-02,-1.806479394435882568e-01,-3.628691425547003746e-03,1.671317070722579956e-01,-4.372678324580192566e-02,4.581706225872039795e-02,-3.194462042301893234e-03,-8.367332629859447479e-03,3.511063009500503540e-02,8.695408701896667480e-02,-5.031878128647804260e-02,1.238596346229314804e-02,1.306876093149185181e-01,2.080910652875900269e-02,3.129674121737480164e-02,4.975097626447677612e-02,2.577752992510795593e-02,-1.598784886300563812e-02,6.675946712493896484e-02,3.783445060253143311e-02,-9.292324539273977280e-04,3.281441703438758850e-02,1.861803047358989716e-02,2.207091078162193298e-02,2.783030038699507713e-03,-2.660134341567754745e-03,6.370197236537933350e-02,-4.050617292523384094e-02,-2.529072109609842300e-03,5.117034539580345154e-02,-2.454350003972649574e-03,1.442236453294754028e-01,-9.744910523295402527e-03,5.516316741704940796e-02,3.281618282198905945e-02,3.319097310304641724e-02,-3.162378817796707153e-02,-3.497014055028557777e-03,4.250561352819204330e-03,7.209463417530059814e-02,-5.417543463408946991e-03,5.134234577417373657e-02,2.841673977673053741e-02,1.220945268869400024e-04,5.741012468934059143e-02,-4.405463114380836487e-03,-8.854364044964313507e-03,2.317080646753311157e-02,-1.167352944612503052e-01,6.340896338224411011e-02,-1.762835308909416199e-02,-3.743821978569030762e-01,8.576218783855438232e-02,1.487014442682266235e-02,-1.957205235958099365e-01,3.566328436136245728e-02,1.361341867595911026e-02,-3.516881912946701050e-02,-2.592220157384872437e-02,-1.542005222290754318e-03,-2.012949809432029724e-02,7.857535034418106079e-02,-5.464071035385131836e-02,-2.947478368878364563e-02,6.062757968902587891e-02,5.388844385743141174e-02,-1.531929615885019302e-02,-6.856075488030910492e-03,3.992852941155433655e-02,4.689212143421173096e-02,2.557754814624786377e-01,-1.516712605953216553e-01,3.607327863574028015e-02,1.538711637258529663e-01,-1.294889748096466064e-01,4.006646201014518738e-02,9.087171405553817749e-02,-3.203437849879264832e-02,1.985090598464012146e-02,2.279455773532390594e-02,3.934987261891365051e-02,-7.001379132270812988e-02,-1.066950410604476929e-01,4.453805088996887207e-02,1.035620085895061493e-02,-6.712105125188827515e-03,-2.263648435473442078e-02,1.867615990340709686e-02,3.440938144922256470e-02,-1.626832410693168640e-02,-1.274965554475784302e-01,5.171034112572669983e-02,2.793644089251756668e-04,3.450212627649307251e-02,-6.647381465882062912e-03,1.107296943664550781e-01,5.941521003842353821e-02,5.966656655073165894e-02,6.139964610338211060e-02,-1.107532382011413574e-01,-2.587589249014854431e-02,-3.315710229799151421e-03,-8.402404934167861938e-02,4.367057606577873230e-02,-1.572174206376075745e-02,-6.540165282785892487e-03,-2.197610400617122650e-02,7.911160588264465332e-02,4.178881645202636719e-03,3.410824388265609741e-02,-1.968541555106639862e-02,-2.321827560663223267e-01,3.713952749967575073e-02,-1.207771599292755127e-01,4.084519669413566589e-02,1.776311099529266357e-01,3.050056099891662598e-02,-1.190193276852369308e-02,-2.778883576393127441e-01,7.614310830831527710e-02,3.729193285107612610e-02,-2.731480449438095093e-02,-1.131058018654584885e-02,2.627874165773391724e-02,7.162205129861831665e-02,1.113351508975028992e-01,-1.613167114555835724e-02,-6.749253720045089722e-03,1.332450192421674728e-02,5.693974718451499939e-02,-5.149762146174907684e-04,2.931173518300056458e-02,-2.304385155439376831e-01,-9.321173653006553650e-03,1.427039969712495804e-02,-2.475416054949164391e-03,5.687088146805763245e-02,-2.258541733026504517e-01,1.534839067608118057e-02,6.259692460298538208e-02,-2.871498651802539825e-02,3.180981427431106567e-02,-3.917743265628814697e-02,4.016606509685516357e-02,4.612889513373374939e-02,-2.027111873030662537e-02,-1.306602545082569122e-02,3.477277234196662903e-02,5.945996195077896118e-02,-2.221451140940189362e-02,-1.732316985726356506e-02,7.839507609605789185e-02,-1.344799250364303589e-01,-3.597451001405715942e-02,4.413432627916336060e-02,-5.895477719604969025e-03,1.845741458237171173e-02,-3.929061070084571838e-02,4.719954356551170349e-02,8.723060041666030884e-02,3.432417288422584534e-02,1.289514750242233276e-01,1.067361608147621155e-01,2.113590203225612640e-02,-2.014728635549545288e-02,5.854240432381629944e-02,-1.922143995761871338e-02,3.361876308917999268e-02,3.923782333731651306e-02,-4.562173783779144287e-02,1.888370141386985779e-02,1.828123629093170166e-01,-5.844898056238889694e-03,7.830803841352462769e-02,4.208604618906974792e-02,4.695812612771987915e-02,-1.139951404184103012e-02,-6.577339954674243927e-04,-4.428893327713012695e-02,4.881959408521652222e-02,6.733036041259765625e-02,3.629118204116821289e-02,-1.251928508281707764e-01,-1.415256597101688385e-02,3.494223952293395996e-02,9.349254518747329712e-02,5.195164680480957031e-02,7.090358436107635498e-02,3.548293188214302063e-02,-4.469035193324089050e-02,3.262513875961303711e-02,7.173590362071990967e-02,1.440868061035871506e-02,-3.062047436833381653e-02,-7.606904488056898117e-03,-1.876613944768905640e-01,5.180229619145393372e-02,3.629383444786071777e-02,4.965636134147644043e-02,-4.073803313076496124e-03,-9.090348146855831146e-03,4.760148003697395325e-02,6.623115390539169312e-02,-3.591687232255935669e-02,-1.046571414917707443e-02,7.613784074783325195e-02,3.151739388704299927e-02,2.289179712533950806e-01,-2.054414302110671997e-01,-1.720744371414184570e-01,3.797880932688713074e-02,-4.148529842495918274e-03,1.298359595239162445e-02,-1.845093220472335815e-01,6.524540483951568604e-02,5.189297720789909363e-02,-8.892048895359039307e-02,6.633051484823226929e-02,6.909217685461044312e-02,-3.903649980202317238e-03,9.260874986648559570e-02,3.622508794069290161e-02,1.004941910505294800e-01,1.217784136533737183e-01,1.167074218392372131e-01,4.192481562495231628e-02,-3.601401671767234802e-02,2.521919086575508118e-02,-4.049005918204784393e-03,4.352707788348197937e-02,7.637478411197662354e-02,2.536674588918685913e-02,2.889795601367950439e-02,-4.748352617025375366e-02,8.939686417579650879e-02,-4.051055759191513062e-02,-1.256830710917711258e-02,5.372527986764907837e-02,2.118238061666488647e-02,8.805476129055023193e-02,1.001875251531600952e-01,-6.409965455532073975e-02,4.411112889647483826e-02,4.256561771035194397e-02,-1.024732366204261780e-01,3.679855540394783020e-02,6.466630846261978149e-02,-1.483865547925233841e-03,4.979224130511283875e-02,4.811654984951019287e-02,1.438619643449783325e-01,3.536342829465866089e-02,-1.126862596720457077e-02,-3.430864587426185608e-02,4.654451459646224976e-02,6.190684437751770020e-02,2.479231916368007660e-02,-1.133985724300146103e-02,1.312498748302459717e-02,-3.114714846014976501e-02,2.367264963686466217e-02,-4.301449656486511230e-02,-6.988999992609024048e-02,-1.348908245563507080e-01,2.203386090695858002e-02,-1.811636239290237427e-02,4.015830531716346741e-02,-3.334492910653352737e-03,-2.012033015489578247e-01,8.059572428464889526e-02,-1.292258352041244507e-01,1.475486438721418381e-03,1.389911472797393799e-01,9.697698056697845459e-03,4.785510152578353882e-02,1.408773213624954224e-01,8.377923816442489624e-02,-9.279005229473114014e-03,3.875102102756500244e-02,-1.705051027238368988e-02,2.024628454819321632e-03,-2.638227120041847229e-02,-1.481422483921051025e-01,6.487572938203811646e-02,-3.805932775139808655e-02,-4.174824338406324387e-03,3.353674709796905518e-02,9.758277982473373413e-02,-4.075621254742145538e-03,6.440970301628112793e-02,-1.572194509208202362e-02,1.615218669176101685e-01,6.123828142881393433e-02,2.741449698805809021e-02,-1.152978837490081787e-02,5.891572684049606323e-02,1.933637633919715881e-02,6.157768145203590393e-02,3.145713359117507935e-02,-1.293596066534519196e-02,3.565970063209533691e-02,-4.161947406828403473e-03,5.106765031814575195e-02,-1.956227608025074005e-02,2.900791913270950317e-02,-3.345428407192230225e-02,-1.305474713444709778e-02,4.203660041093826294e-02,5.868842825293540955e-02,-7.868146058171987534e-04,-8.022018522024154663e-02,-2.127430289983749390e-01,-1.249154563993215561e-02,2.968933619558811188e-02,2.071827650070190430e-02,-4.367234185338020325e-03,-5.312106106430292130e-03,2.000927180051803589e-02,1.561806797981262207e-01,2.877681702375411987e-02,5.894820019602775574e-02,5.771441012620925903e-02,6.069407612085342407e-02,2.692563831806182861e-02,6.509235501289367676e-02,2.708909101784229279e-02,-2.062783204019069672e-02,2.911175228655338287e-02,-1.675769388675689697e-01,1.817063987255096436e-02,6.956983357667922974e-02,-1.287599653005599976e-02,-1.715869642794132233e-02,6.195698678493499756e-02,-2.698075957596302032e-03,1.557864993810653687e-01,4.050430282950401306e-02,2.520463243126869202e-02,7.076734304428100586e-02,1.504289805889129639e-01,-6.696060299873352051e-02,2.661265619099140167e-02,2.573842182755470276e-02,6.670241802930831909e-02,-3.329996392130851746e-02,-1.610983535647392273e-02,6.226817891001701355e-02,4.890307039022445679e-02,-2.018451318144798279e-02,3.749637305736541748e-02,3.561621904373168945e-02,5.123950541019439697e-02,4.713935777544975281e-02,-1.366021633148193359e-01,2.005702070891857147e-02,2.869541198015213013e-02,-1.870696805417537689e-02,3.767346590757369995e-02,-1.745716482400894165e-01,-1.229165121912956238e-02,5.653294175863265991e-02,4.581440240144729614e-02,2.745235711336135864e-02,-9.993141517043113708e-03,-1.197713147848844528e-02,5.808637291193008423e-02,5.624307319521903992e-02,1.956183463335037231e-02,3.807903826236724854e-02,2.821042016148567200e-02,7.089187204837799072e-02,-1.183807626366615295e-01,-8.979593962430953979e-02,5.248542502522468567e-02,-4.496069625020027161e-03,3.139315545558929443e-02,-2.706027626991271973e-01,-9.420026093721389771e-02,-1.166650652885437012e-02,-7.323886267840862274e-03,-1.267367741093039513e-03,2.541953139007091522e-02,2.803699485957622528e-02,-1.348831951618194580e-01,-1.638842001557350159e-02,4.644123092293739319e-02,6.073890626430511475e-02,-1.188870593905448914e-01,2.583624422550201416e-02,3.616021201014518738e-02,4.717032611370086670e-02,-9.240218438208103180e-03,4.897307232022285461e-02,-2.851279824972152710e-02,-1.388918608427047729e-02,-4.242664575576782227e-02,-1.871474683284759521e-01,5.366598442196846008e-02,-3.215181082487106323e-02,-4.669649526476860046e-03,-2.956209145486354828e-02,1.240528281778097153e-02,-1.276459395885467529e-01,5.448383092880249023e-02,-9.193730354309082031e-02,5.211498960852622986e-02,-3.605281934142112732e-02,7.337225973606109619e-02,5.841152742505073547e-03,7.009524852037429810e-02,2.577137947082519531e-02,5.891507863998413086e-02,-9.352748282253742218e-03,2.908881604671478271e-01,3.353429213166236877e-02,1.286401180550456047e-03,-1.233415398746728897e-02,-2.030067741870880127e-01,-1.072443649172782898e-01,-3.095688484609127045e-02,3.863547369837760925e-02,1.611252501606941223e-02,4.190966486930847168e-02,1.590907946228981018e-02,4.357350245118141174e-02,-2.032298780977725983e-02,6.172177195549011230e-02,-8.765565231442451477e-03,-1.925228536128997803e-02,7.776711881160736084e-02,4.558838903903961182e-02,2.935694716870784760e-02,3.036574460566043854e-02,-1.986343711614608765e-01,5.059932172298431396e-02,3.402585908770561218e-02,-1.518100267276167870e-03,1.586991362273693085e-02,-2.596829319372773170e-03,1.050198897719383240e-01,-5.684889480471611023e-02,-1.964106597006320953e-02,-9.066642820835113525e-02,1.932751014828681946e-02,-1.375215221196413040e-02,8.211299031972885132e-02,-7.368024438619613647e-03,7.040847092866897583e-02,-1.387173086404800415e-01,-1.006247326731681824e-01,-1.036137528717517853e-02,-2.775041013956069946e-02,-6.024858728051185608e-02,3.250729665160179138e-02,3.417892009019851685e-02,-1.706387698650360107e-01,4.137843847274780273e-02,-1.425835490226745605e-01,6.300283968448638916e-02,1.644894853234291077e-02,4.598135873675346375e-02,3.384728357195854187e-02,1.565820127725601196e-01,-3.967032209038734436e-02,1.195854172110557556e-01,2.615909650921821594e-02,3.468646854162216187e-02,-3.283101692795753479e-02,2.964389882981777191e-02,1.027422677725553513e-02,-6.937070190906524658e-02,3.201543912291526794e-02,-6.915758550167083740e-02,4.989202320575714111e-02,7.054179906845092773e-02,-3.768009133636951447e-03,5.201504379510879517e-02,-1.548767462372779846e-02,-1.233962029218673706e-01,4.905874654650688171e-02,-3.836937621235847473e-02,3.381160274147987366e-02,1.620948873460292816e-02,-4.718288779258728027e-03,3.519830107688903809e-02,9.101626463234424591e-03,-1.710656583309173584e-01,1.116348654031753540e-01,7.210890948772430420e-02,-1.324594020843505859e-02,-1.072884630411863327e-02,-1.126381661742925644e-02,-1.380719710141420364e-02,-1.841409131884574890e-02,4.560321941971778870e-02,-8.145218715071678162e-03,-1.564646661281585693e-01,-4.659859836101531982e-02,7.992717623710632324e-02,5.802402645349502563e-02,6.258464604616165161e-02,2.026025205850601196e-02,-6.400651298463344574e-03,4.522810503840446472e-02,-1.114032603800296783e-02,3.509977087378501892e-02,5.716864019632339478e-02,-1.654714345932006836e-02,3.545338660478591919e-02,-5.199250206351280212e-02,1.447089016437530518e-02,-2.322434738744050264e-05,-4.462053254246711731e-02,4.777168110013008118e-02,7.529977709054946899e-02,-3.591478615999221802e-02,5.977319926023483276e-02,6.266964972019195557e-02,-2.272475278005003929e-03,-2.362696453928947449e-03,-1.017952524125576019e-02,-1.433889865875244141e-01,-1.504942867904901505e-02,3.734487667679786682e-02,-2.680728025734424591e-02,3.327596187591552734e-02,-2.859700936824083328e-03,6.259164959192276001e-02,-3.228042274713516235e-02,-9.375385008752346039e-03,-1.698443107306957245e-02,6.996490806341171265e-02,4.569690674543380737e-02,7.145064324140548706e-02,5.078402534127235413e-02,3.729091584682464600e-02,5.007464438676834106e-02,1.483311038464307785e-02,-3.681544214487075806e-02,5.598602816462516785e-02,-1.867874264717102051e-01,-3.835833817720413208e-02,-2.385394275188446045e-02,3.151975944638252258e-02,2.149304933845996857e-02,6.510534137487411499e-02,-1.233437843620777130e-02,-1.722514256834983826e-02,-1.189564820379018784e-02,-1.949751377105712891e-02,1.570651531219482422e-01,3.185074031352996826e-02,6.987559795379638672e-02,2.851971611380577087e-02,-2.136367186903953552e-02,3.028082475066184998e-02,3.056889586150646210e-02,1.201161649078130722e-02,-1.745975017547607422e-01,-8.372875303030014038e-02,7.380622625350952148e-02,4.219019040465354919e-02,-8.931240998208522797e-03,-2.156194597482681274e-01,3.063012473285198212e-02,-1.849494501948356628e-02,3.472052514553070068e-02,7.933943718671798706e-02,3.453534096479415894e-02,2.236863365396857262e-03,-5.654808483086526394e-04,-5.575976893305778503e-02,3.743335604667663574e-02,2.891997434198856354e-02,5.775072798132896423e-02,6.753101479262113571e-04,-2.318929582834243774e-01,-4.749163519591093063e-03,3.000232949852943420e-02,1.662752479314804077e-01,-1.590261422097682953e-02,6.820753961801528931e-02,3.028909116983413696e-02,-3.378478065133094788e-02,5.471457540988922119e-02,-1.103715039789676666e-02,-2.909478247165679932e-01,-3.172739595174789429e-02,-1.659786328673362732e-02,3.452498465776443481e-02,3.042986989021301270e-02,1.298898831009864807e-02,-1.797161065042018890e-02,3.153464570641517639e-02,9.852387756109237671e-02,3.915588185191154480e-02,-1.125967949628829956e-01,-1.966935582458972931e-02,3.272093832492828369e-02,2.715336531400680542e-02,-9.108242392539978027e-02,3.298898786306381226e-02,-2.517854236066341400e-02,2.200753688812255859e-01,1.016805693507194519e-01,1.228057593107223511e-01,3.685598820447921753e-02,-1.109607890248298645e-01,8.414217084646224976e-02,4.391042515635490417e-03,3.574569150805473328e-02,4.872049763798713684e-02,1.090453471988439560e-02,-3.700720891356468201e-02,4.725553840398788452e-02,2.752379328012466431e-02,-2.218384854495525360e-02,-2.818830870091915131e-02,-1.083063334226608276e-02,2.914804406464099884e-02,4.568737372756004333e-02,-1.562958769500255585e-02,-1.527923904359340668e-02,4.677768424153327942e-02,6.605409830808639526e-02,-6.178225949406623840e-02,4.827331006526947021e-02,-1.051471754908561707e-02,2.411258965730667114e-01,6.648141145706176758e-02,2.071385271847248077e-02,-4.725533071905374527e-03,-4.626324027776718140e-02,6.351105868816375732e-02,-1.512868553400039673e-01,4.031862318515777588e-02,3.227166831493377686e-02,-8.641973137855529785e-03,4.409473761916160583e-02,-1.982680894434452057e-02,4.131025820970535278e-02,4.105854779481887817e-02,4.187312349677085876e-02,-1.986758261919021606e-01,4.351165518164634705e-02,5.790037289261817932e-02,6.953438371419906616e-02,5.557205528020858765e-02,4.114452749490737915e-02,9.574279934167861938e-02,-1.694974005222320557e-01,-1.691725663840770721e-02,-3.124580904841423035e-02,2.797058224678039551e-02,-1.046652160584926605e-02,-2.339428849518299103e-02,1.815974861383438110e-01,3.206109255552291870e-02,8.180854469537734985e-02,-8.307383209466934204e-02,-6.030099466443061829e-03,1.696887798607349396e-02,-2.286307048052549362e-03,-3.543129935860633850e-02,7.220409810543060303e-02,5.559531599283218384e-02,2.131460979580879211e-02,-6.094207987189292908e-03,-2.225292474031448364e-02,-7.654947787523269653e-02,3.345179557800292969e-02,-1.450070291757583618e-01,3.978054225444793701e-02,1.263983547687530518e-02,5.154747143387794495e-02,-1.555487234145402908e-02,5.420338362455368042e-02,4.582458361983299255e-02,5.540350452065467834e-02,1.326796598732471466e-02,5.006013065576553345e-02,3.885835036635398865e-02,-2.402541600167751312e-02,1.287506241351366043e-02,-1.622695475816726685e-01,8.519245684146881104e-02,3.267636895179748535e-02,5.331707745790481567e-02,-1.106053218245506287e-02,6.977996230125427246e-02,3.747751563787460327e-02,-1.952746212482452393e-01,-2.118544578552246094e-01,-9.937867522239685059e-03,-1.028409693390130997e-02,-2.151692807674407959e-01,-1.529063098132610321e-02,-9.758059866726398468e-03,-7.463172078132629395e-02,5.733248963952064514e-02,2.146051079034805298e-02,1.635760068893432617e-01,4.542242735624313354e-02,5.570236593484878540e-02,3.730439022183418274e-02,-2.864832580089569092e-01,2.967588976025581360e-02,-1.599514670670032501e-02,-1.879933029413223267e-01,2.936611324548721313e-02,3.485726192593574524e-02,-6.591025739908218384e-03,-4.594948142766952515e-03,-2.658772282302379608e-02,3.686181083321571350e-02,-1.097118183970451355e-01,6.063173338770866394e-02,-1.469204202294349670e-02,7.194897532463073730e-02,4.484152421355247498e-02,-7.270298898220062256e-03,1.173216551542282104e-01,-1.093559712171554565e-02,-3.348681330680847168e-02,-2.094949781894683838e-02,-2.292883209884166718e-02,-4.252722859382629395e-02,7.757425308227539062e-02,6.301611661911010742e-02,-2.116482332348823547e-02,-4.136826843023300171e-02,1.651149094104766846e-01,-3.876974061131477356e-02,3.328570351004600525e-02,-1.085111312568187714e-02,6.641917675733566284e-02,-5.893151275813579559e-03,5.564134567975997925e-02,-7.168931514024734497e-02,6.399208307266235352e-02,4.808540642261505127e-02,2.054699361324310303e-01,-1.121334284543991089e-01,-1.182154007256031036e-02,-2.631187140941619873e-01,3.099333494901657104e-02,9.717456996440887451e-03,-1.082459911704063416e-01,-1.715810894966125488e-01,-7.725165225565433502e-03,4.208554327487945557e-02,6.392062455415725708e-02,-2.893438749015331268e-02,-4.322427511215209961e-02,4.605680704116821289e-02,-6.211343407630920410e-02,-1.258028298616409302e-01,2.903717942535877228e-02,-1.356134861707687378e-01,-1.789746619760990143e-02,-1.408244371414184570e-01,-1.219673641026020050e-02,3.987760096788406372e-02,3.558504953980445862e-02,4.822587966918945312e-02,-1.041330583393573761e-02,3.341430798172950745e-02,-1.847101375460624695e-02,-7.367157842963933945e-03,-1.713934168219566345e-02,-1.672860048711299896e-02,-9.285897016525268555e-03,-1.064405869692564011e-02,-4.334688186645507812e-03,-2.316152118146419525e-02,-1.783751323819160461e-02,-7.868058979511260986e-02,7.190230488777160645e-02,-4.094824567437171936e-02,-1.915262453258037567e-02,-1.155367046594619751e-01,2.689742483198642731e-02,7.156005501747131348e-02,8.576074242591857910e-02,6.598146259784698486e-02,8.836831152439117432e-02,-3.867821395397186279e-02,6.452045589685440063e-02,-7.625368982553482056e-02,7.708783447742462158e-02,7.395017892122268677e-02,-3.658592402935028076e-01,-1.306331604719161987e-01,-7.613505236804485321e-03,-1.217134371399879456e-01,-6.418302655220031738e-04,-7.261832803487777710e-02,5.994508787989616394e-02,-1.709301769733428955e-02,-6.201256066560745239e-03,-3.250449150800704956e-02,1.986661180853843689e-02,6.611289829015731812e-02,-9.209223091602325439e-03,1.790692284703254700e-02,2.087113857269287109e-01,-7.007115520536899567e-03,-1.017805933952331543e-02,-2.522538183256983757e-03,2.239700406789779663e-02,-5.515701603144407272e-03,-1.184309273958206177e-02,1.781651005148887634e-02,6.397446244955062866e-02,9.120386838912963867e-02,-1.715032905340194702e-01,5.017424002289772034e-02,2.169263176620006561e-02,-9.749354422092437744e-02,6.205103173851966858e-02,-9.375362098217010498e-02,6.590871512889862061e-02,4.655774310231208801e-02,4.178785905241966248e-02,3.147898986935615540e-02,4.767845198512077332e-02,-1.775986142456531525e-02,-2.425674349069595337e-03,6.721907854080200195e-02,1.024114340543746948e-02,9.905523061752319336e-02,6.764271110296249390e-02,2.514050528407096863e-02,-1.664853468537330627e-02,-4.962556064128875732e-02,4.984993487596511841e-02,-6.685148179531097412e-02,3.980866074562072754e-02,-1.975473761558532715e-01,3.450419753789901733e-02,1.966527551412582397e-01,-1.069631613790988922e-02,-1.052124332636594772e-02,-3.658050298690795898e-02,-2.299572899937629700e-02,5.721011757850646973e-02,-1.088896673172712326e-02,-1.208166107535362244e-01,4.288051649928092957e-02,5.350565537810325623e-02,-1.315202713012695312e-01,-1.060418970882892609e-02,-2.320962250232696533e-01,-2.686657942831516266e-02,3.259150683879852295e-02,2.555988915264606476e-02,-1.746668517589569092e-01,-8.006796706467866898e-04,7.141260802745819092e-02,-1.769118197262287140e-02,4.513164609670639038e-02,-1.302621420472860336e-02,6.839553266763687134e-02,4.935050010681152344e-02,8.180841058492660522e-02,-5.815745331346988678e-03,-1.337005943059921265e-02,-3.980576060712337494e-03,4.869811609387397766e-02,-4.195202514529228210e-02,-1.121444255113601685e-01,5.300282314419746399e-02,5.274891108274459839e-02,6.522700190544128418e-02,-1.313910931348800659e-01,4.422358423471450806e-02,-4.086716100573539734e-02,5.066030472517013550e-02,4.032877087593078613e-02,1.330434530973434448e-02,3.509047999978065491e-02,-5.743932351469993591e-02,-3.057021088898181915e-02,1.896629109978675842e-02,8.434002846479415894e-02,8.543223375454545021e-04,5.230152234435081482e-02,-1.444528251886367798e-01,3.425517305731773376e-02,-6.515565793961286545e-03,3.164789080619812012e-02,4.849795252084732056e-02,-2.611494809389114380e-02,-2.779566217213869095e-03,-1.053323596715927124e-02,4.176032170653343201e-02,-1.972901523113250732e-01,-3.288685157895088196e-02,4.431172460317611694e-02,3.930122777819633484e-02,5.751284584403038025e-02,-7.375892996788024902e-02,3.229662775993347168e-02,3.664574772119522095e-02,-1.058219932019710541e-02,3.601358458399772644e-02,-1.909818314015865326e-02,9.228122653439640999e-04,2.735324576497077942e-02,2.798775024712085724e-02,1.064401119947433472e-01,1.825734078884124756e-01,5.530228838324546814e-02,3.496787697076797485e-02,9.831834584474563599e-02,4.404071718454360962e-02,4.661907628178596497e-02,3.935728967189788818e-02,-1.070608645677566528e-01,2.672100439667701721e-02,1.289493888616561890e-01,-1.326367631554603577e-02,-1.618493697606027126e-04,5.065296962857246399e-02,1.738662831485271454e-05,3.585314378142356873e-02,-3.313937410712242126e-02,-8.231773041188716888e-03,-5.254419520497322083e-03,6.985312700271606445e-02,5.493596568703651428e-02,-1.337415166199207306e-02,-8.070597425103187561e-03,1.791600137948989868e-01,4.310142993927001953e-02,-2.474057860672473907e-02,-1.016265247017145157e-03,1.780696213245391846e-01,-1.990207005292177200e-03,5.329981073737144470e-02,5.912771448493003845e-02,6.258694082498550415e-02,9.483510255813598633e-02,6.886975467205047607e-02,1.163508519530296326e-01,2.955559175461530685e-03,2.655501104891300201e-02,2.668124809861183167e-02,-4.218126833438873291e-02,2.760108001530170441e-02,-4.575546458363533020e-02,-9.898315183818340302e-03,-5.505443364381790161e-02,6.164323166012763977e-02,-7.695448119193315506e-03,4.989297315478324890e-02,-1.483791274949908257e-03,-4.739830270409584045e-03,3.811924904584884644e-02,-9.531334042549133301e-02,3.015485405921936035e-02,4.655019193887710571e-02,-1.365614123642444611e-02,2.415895229205489159e-03,-1.967849582433700562e-02,7.103544473648071289e-02,4.343267530202865601e-02,5.465651303529739380e-02,1.977082155644893646e-02,3.915984556078910828e-02,7.220056653022766113e-02,1.036437526345252991e-01,-1.789286136627197266e-01,-1.543007604777812958e-02,-7.336004171520471573e-03,2.674106694757938385e-02,-5.973732564598321915e-03,3.347606584429740906e-02,-1.210553497076034546e-01,-1.629806756973266602e-01,-2.778055891394615173e-02,-5.410823598504066467e-02
3.205610206350684166e-03,2.045260276645421982e-03,-1.416575722396373749e-02,-2.684163302183151245e-02,-2.921692468225955963e-02,-2.885648980736732483e-02,2.978593809530138969e-03,5.656280089169740677e-03,1.170895993709564209e-02,-2.213969677686691284e-01,3.757899627089500427e-03,-5.301550030708312988e-02,1.477858237922191620e-02,-1.696768105030059814e-01,1.783649772405624390e-01,-1.900936067104339600e-01,6.951435934752225876e-03,2.529029268771409988e-03,4.314898513257503510e-03,-9.815981611609458923e-03,-1.897023767232894897e-01,4.011882841587066650e-02,3.837777767330408096e-03,-6.662996602244675159e-04,1.565603353083133698e-02,1.465058652684092522e-03,7.117563858628273010e-03,1.088386867195367813e-03,2.384330378845334053e-03,5.672079510986804962e-03,2.977310214191675186e-03,1.242344155907630920e-01,-7.159904111176729202e-03,-1.295003015547990799e-02,3.683052211999893188e-02,-4.321828950196504593e-03,1.030025305226445198e-03,1.287891296669840813e-03,-6.067154183983802795e-02,7.855167612433433533e-03,-7.305755279958248138e-03,-1.579329371452331543e-02,-7.245156913995742798e-03,3.723043203353881836e-02,-4.463786724954843521e-03,7.862295210361480713e-02,3.787820339202880859e-01,-1.319542434066534042e-02,1.239990117028355598e-03,-8.380925282835960388e-04,-7.484278175979852676e-03,-3.551307320594787598e-02,1.479274183511734009e-01,1.720803231000900269e-01,-5.128016695380210876e-02,-1.414137426763772964e-02,-1.046889834105968475e-02,4.017735365778207779e-03,1.222031470388174057e-02,2.225439064204692841e-03,-1.846473291516304016e-02,-1.288252975791692734e-02,6.924330955371260643e-05,-9.314697235822677612e-03,-1.356742344796657562e-02,-4.522433504462242126e-02,-1.473825424909591675e-03,1.826551510021090508e-03,-2.497042529284954071e-02,2.411380857229232788e-01,-2.509460318833589554e-03,-2.058990672230720520e-02,-1.471967203542590141e-03,1.089622080326080322e-02,-8.086746092885732651e-04,-2.013936825096607208e-02,-4.325492307543754578e-03,-1.329352799803018570e-02,6.180137395858764648e-03,7.554709445685148239e-04,-1.275704242289066315e-02,5.688966251909732819e-03,-1.182063715532422066e-03,-1.276187971234321594e-02,-1.220180094242095947e-02,2.719592303037643433e-04,-2.665475010871887207e-02,2.439389238134026527e-03,-1.346165835857391357e-01,-1.537632849067449570e-02,-1.919565796852111816e-01,-2.841859124600887299e-02,2.393366070464253426e-03,2.689374387264251709e-01,-6.191597133874893188e-02,2.264676392078399658e-01,-2.413073778152465820e-01,-1.624901033937931061e-02,2.104835212230682373e-01,1.850350201129913330e-01,5.622765049338340759e-03,-1.027389662340283394e-03,3.002508776262402534e-03,-3.047446906566619873e-02,1.781803667545318604e-01,1.002511456608772278e-01,-3.233859315514564514e-02,-2.010044082999229431e-02,-2.153180092573165894e-01,1.447069458663463593e-03,7.223074324429035187e-03,2.376525104045867920e-02,-2.039698697626590729e-02,4.890926182270050049e-02,-8.809772320091724396e-03,1.108177825808525085e-01,3.488837927579879761e-02,-1.586088724434375763e-02,-3.898774832487106323e-02,5.641780328005552292e-03,-1.146523840725421906e-02,7.432582788169384003e-03,-1.119179371744394302e-02,2.722385525703430176e-01,4.387492313981056213e-02,2.262905798852443695e-02,1.486618369817733765e-01,-5.776939913630485535e-03,3.034641500562429428e-03,-1.016905903816223145e-02,-1.261412538588047028e-02,2.087968401610851288e-03,1.926512643694877625e-02,-2.460238151252269745e-02,-1.229924615472555161e-03,-1.284723635762929916e-02,9.915813058614730835e-02,-8.677720278501510620e-02,5.083681084215641022e-03,1.536838896572589874e-02,-2.061166241765022278e-02,4.108403623104095459e-02,2.368753999471664429e-01,-4.014535807073116302e-05,1.067940518260002136e-02,-3.339044982567429543e-03,1.637918408960103989e-03,1.237852266058325768e-03,3.921135328710079193e-03,-2.683150395750999451e-02,-1.076193600893020630e-01,8.255224674940109253e-03,4.524052143096923828e-03,-3.682662174105644226e-02,-1.524171326309442520e-03,1.947804354131221771e-02,1.636037789285182953e-02,1.920559257268905640e-02,-8.231647312641143799e-03,9.647659026086330414e-04,-3.615246713161468506e-01,-3.555912896990776062e-02,-1.220106799155473709e-02,4.299703985452651978e-03,1.169619383290410042e-03,1.653049141168594360e-02,-2.433897182345390320e-02,-4.597551375627517700e-02,3.705741139128804207e-03,-7.302071899175643921e-04,-9.973395615816116333e-03,-2.096851728856563568e-02,-3.703408641740679741e-03,-3.755392506718635559e-03,8.868917077779769897e-02,-6.272264290601015091e-04,-1.167875900864601135e-02,-5.689669866114854813e-03,-1.420777011662721634e-02,1.589938998222351074e-02,1.295920554548501968e-02,-2.213877625763416290e-02,3.731839358806610107e-03,-1.139306370168924332e-02,2.333958148956298828e-01,-8.573620580136775970e-03,-1.224164199084043503e-02,5.124995950609445572e-03,-1.820776015520095825e-01,-1.310246624052524567e-02,-2.874487638473510742e-02,2.943858737125992775e-03,9.357770904898643494e-04,-3.538171947002410889e-02,1.658949442207813263e-02,1.725833714008331299e-01,2.208599448204040527e-02,-4.626996815204620361e-04,-2.021561143919825554e-03,7.252166047692298889e-03,-1.744387112557888031e-02,-3.325933357700705528e-03,-1.020681951195001602e-02,-8.620411902666091919e-02,-3.227028762921690941e-03,-7.800801098346710205e-02,1.628102734684944153e-03,-1.287801843136548996e-02,3.354917280375957489e-03,1.843950711190700531e-03,-1.744826138019561768e-02,-3.653895854949951172e-02,-9.331652894616127014e-03,-6.904909014701843262e-02,1.460472121834754944e-03,-5.140912160277366638e-02,-1.136551238596439362e-02,2.756856847554445267e-04,-2.414386253803968430e-04,1.124383416026830673e-04,6.496303714811801910e-03,-9.519442915916442871e-03,-2.763641625642776489e-02,-9.595323354005813599e-04,5.223092064261436462e-02,1.881530275568366051e-03,1.265388261526823044e-02,-3.932798281311988831e-02,-1.377002429217100143e-02,-1.422463208436965942e-01,-1.704763248562812805e-02,9.449218399822711945e-03,-1.215010602027177811e-02,-2.909070625901222229e-02,-3.765198402106761932e-03,-1.438321322202682495e-01,-1.117180213332176208e-01,1.710991375148296356e-02,-1.608855649828910828e-02,-9.958735899999737740e-04,1.593200303614139557e-02,-9.991212282329797745e-04,8.031304460018873215e-04,-1.169796939939260483e-02,-2.976476214826107025e-02,2.212358415126800537e-01,3.074213163927197456e-03,-1.994014251977205276e-03,1.612753421068191528e-01,-6.100733205676078796e-02,6.986533850431442261e-02,-1.640079356729984283e-02,1.684435643255710602e-02,-1.622273121029138565e-04,1.861289739608764648e-01,2.594744786620140076e-02,-1.120520606637001038e-01,-8.674638345837593079e-03,3.080352395772933960e-02,-2.312485314905643463e-02,-2.457410469651222229e-02,6.418419070541858673e-04,-4.498875513672828674e-02,-6.440037861466407776e-03,-3.875697404146194458e-02,-5.554176121950149536e-02,-9.648066014051437378e-02,1.496551837772130966e-02,5.386522039771080017e-03,-1.125996466726064682e-02,1.945789204910397530e-03,-1.109630800783634186e-02,-3.416382893919944763e-02,7.343579083681106567e-03,1.163133233785629272e-02,3.609021902084350586e-01,-3.648533672094345093e-02,3.789567621424794197e-03,-1.781072914600372314e-01,-1.744657568633556366e-02,1.636602282524108887e-01,-2.725101541727781296e-03,-2.022679708898067474e-02,-2.963068708777427673e-02,-1.770680211484432220e-02,-1.079750247299671173e-02,4.252504408359527588e-01,-6.253995932638645172e-03,-2.499274350702762604e-02,-1.472191419452428818e-03,-1.853231713175773621e-02,-1.824310608208179474e-02,1.537225246429443359e-01,-5.358137190341949463e-03,2.670097630470991135e-03,5.602434743195772171e-03,-1.444741897284984589e-02,-2.454476617276668549e-02,1.142480783164501190e-02,-1.687356978654861450e-01,2.049682587385177612e-01,1.424344927072525024e-01,-1.175471208989620209e-02,2.251415401697158813e-01,-9.552544355392456055e-02,-3.226807415485382080e-01,-6.938605569303035736e-03,1.758497674018144608e-03,-1.048758812248706818e-02,7.594885304570198059e-03,-2.518839538097381592e-01,-3.509033471345901489e-02,1.823620311915874481e-02,-1.119313295930624008e-03,-6.297902017831802368e-02,1.448296457529067993e-01,5.481774918735027313e-03,-1.121401041746139526e-01,-4.449228942394256592e-02,2.981512108817696571e-03,-1.484985277056694031e-02,3.068799385800957680e-03,6.022027693688869476e-03,1.504353284835815430e-01,-2.052569538354873657e-01,-1.910653524100780487e-02,2.182797193527221680e-01,8.049517637118697166e-04,-1.427307073026895523e-02,3.299877280369400978e-04,5.237741861492395401e-04,-1.364265661686658859e-02,1.406005583703517914e-03,1.663521975278854370e-01,-1.359380781650543213e-02,-1.216130703687667847e-02,4.032871685922145844e-03,-2.500108629465103149e-02,-6.705428473651409149e-03,-2.528117038309574127e-02,-1.517057232558727264e-02,-1.845498383045196533e-01,-1.267430279403924942e-02,1.907641999423503876e-04,-1.082853786647319794e-02,2.551800906658172607e-01,-7.443383801728487015e-03,2.211424112319946289e-01,8.286116644740104675e-04,1.602265983819961548e-02,-2.354468591511249542e-02,2.200524788349866867e-03,-1.558599770069122314e-01,3.773461282253265381e-02,2.516154199838638306e-05,-1.062608789652585983e-02,-1.813758723437786102e-02,2.380788791924715042e-03,-8.639436215162277222e-02,-1.078728120774030685e-02,1.582947969436645508e-01,-5.731479730457067490e-03,-3.268019855022430420e-02,-2.852597832679748535e-02,-2.306073904037475586e-02,-1.181721873581409454e-02,3.438874334096908569e-02,-1.358642149716615677e-02,5.469474010169506073e-03,-1.077754795551300049e-02,-2.142280042171478271e-01,-1.185420807451009750e-02,-3.081927448511123657e-02,2.682153601199388504e-03,2.557213651016354561e-03,-3.069073706865310669e-02,-6.405916530638933182e-03,5.862886458635330200e-02,-1.645313575863838196e-02,1.042035594582557678e-02,-2.744093351066112518e-02,-6.982897222042083740e-02,-1.467383354902267456e-01,4.287888705730438232e-01,-1.224558986723423004e-02,-2.623131871223449707e-02,-2.032659649848937988e-01,3.498057136312127113e-03,-1.656411960721015930e-02,-2.663381397724151611e-03,3.007668070495128632e-03,2.418295107781887054e-02,6.082907784730195999e-03,-1.510003767907619476e-02,-1.318219117820262909e-02,2.220566757023334503e-02,-7.731315679848194122e-03,-1.523936260491609573e-02,2.566282171756029129e-03,-1.071651838719844818e-02,-2.112350463867187500e-01,3.340390976518392563e-03,-1.774282939732074738e-02,-1.508335396647453308e-02,1.462949160486459732e-02,5.797503981739282608e-04,-1.763192266225814819e-01,-1.666099764406681061e-02,-1.238095201551914215e-02,-9.618957526981830597e-03,-3.902185941115021706e-03,1.358404308557510376e-01,-2.779856510460376740e-02,-1.806183457374572754e-01,4.631560742855072021e-01,-1.825306750833988190e-02,-5.569504573941230774e-04,5.435593426227569580e-03,1.044765561819076538e-01,7.170097529888153076e-02,3.243652870878577232e-03,1.199139398522675037e-03,-6.367773748934268951e-04,-7.851876318454742432e-03,-6.916686892509460449e-03,4.637036100029945374e-02,2.581291133537888527e-03,-2.166871353983879089e-02,-2.135053090751171112e-02,-3.127735555171966553e-01,1.244761515408754349e-02,-5.802486557513475418e-03,-1.022328715771436691e-02,-3.934479318559169769e-04,-1.882402040064334869e-02,6.054281257092952728e-03,4.084912128746509552e-03,5.005018785595893860e-03,2.387898601591587067e-02,-2.059897594153881073e-02,5.675650201737880707e-03,1.514630159363150597e-03,1.892525702714920044e-01,1.618130207061767578e-01,1.047458127140998840e-01,-1.925971545279026031e-02,1.326059736311435699e-02,-1.682998985052108765e-02,8.102153986692428589e-02,-2.346707880496978760e-02,-1.270425133407115936e-02,-3.511349484324455261e-02,-1.351942215114831924e-02,-2.753522805869579315e-02,-1.183130890130996704e-01,-2.004098519682884216e-02,-1.108601130545139313e-02,-7.984440308064222336e-04,3.871456719934940338e-04,-6.426538527011871338e-02,2.786821126937866211e-02,4.006566014140844345e-03,1.749610155820846558e-02,-9.723854251205921173e-03,-1.882205950096249580e-03,1.174808200448751450e-02,-5.670219659805297852e-03,4.506001248955726624e-03,-6.465869024395942688e-03,-5.679717287421226501e-05,-2.800619602203369141e-01,3.474433347582817078e-02,-1.663208194077014923e-02,-6.498832255601882935e-03,-1.208955794572830200e-02,-1.286952346563339233e-01,-1.633804477751255035e-02,-1.085791457444429398e-02,-1.370461774058640003e-03,2.206750661134719849e-01,-8.325784001499414444e-04,-4.240123555064201355e-02,1.695435494184494019e-01,3.267841646447777748e-03,-1.311093568801879883e-01,-1.326050236821174622e-02,2.163871424272656441e-03,-3.326612710952758789e-02,1.050045248121023178e-04,-2.451945841312408447e-02,2.230755053460597992e-02,-1.772140711545944214e-01,3.237666562199592590e-03,-2.589942328631877899e-02,1.018378976732492447e-02,1.311493013054132462e-02,-1.013737358152866364e-02,-2.244319915771484375e-01,-1.777372695505619049e-02,2.134187892079353333e-02,-3.405988588929176331e-02,-1.437206286936998367e-02,-1.877559721469879150e-02,-8.098142221570014954e-03,8.313674479722976685e-02,8.631512522697448730e-03,-1.350857764482498169e-01,4.404267296195030212e-03,-1.099361199885606766e-02,-1.738208085298538208e-01,-8.260899782180786133e-02,1.552671641111373901e-01,1.782055199146270752e-02,1.517496444284915924e-02,4.608811810612678528e-02,-1.562105305492877960e-02,-3.062328696250915527e-02,-4.787385929375886917e-03,-1.218480989336967468e-02,2.907045651227235794e-03,1.209336705505847931e-02,2.307022549211978912e-02,6.527653895318508148e-03,6.430658977478742599e-03,2.556623220443725586e-01,-4.521452821791172028e-03,-3.893546061590313911e-03,1.219596192240715027e-01,-5.853404477238655090e-02,-4.003912210464477539e-03,-2.628829702734947205e-02,7.421944756060838699e-04,-4.122960940003395081e-02,2.757682930678129196e-03,3.544870996847748756e-03,2.295444486662745476e-03,2.117648720741271973e-02,2.649238798767328262e-03,4.655486345291137695e-02,2.540051937103271484e-01,-3.081567771732807159e-02,2.256227284669876099e-02,-2.671871148049831390e-02,-1.606532782316207886e-01,1.598311588168144226e-03,-1.485196501016616821e-02,-2.897246740758419037e-04,-1.199735887348651886e-02,-2.252530306577682495e-02,1.853467896580696106e-03,1.724048517644405365e-02,-1.743563450872898102e-02,2.145700901746749878e-01,1.416134834289550781e-01,-2.643307447433471680e-01,1.034797169268131256e-02,-5.060737580060958862e-02,8.451100438833236694e-03,-1.486944500356912613e-02,-1.684090867638587952e-02,1.365668838843703270e-03,-5.940438713878393173e-04,3.080334980040788651e-03,-4.087773710489273071e-02,3.144069341942667961e-03,1.579247713088989258e-01,6.402409635484218597e-03,9.095811285078525543e-03,-3.467729082331061363e-03,-1.648584008216857910e-02,5.072094500064849854e-03,1.562726451084017754e-03,2.853350481018424034e-03,-1.191258244216442108e-02,-1.684407144784927368e-02,3.876081435009837151e-03,-7.752052973955869675e-03,-1.350045902654528618e-03,-2.109262347221374512e-02,-1.175300683826208115e-02,6.155404727905988693e-03,-2.671856991946697235e-02,-6.137366592884063721e-02,1.868137270212173462e-01,4.927466623485088348e-03,-7.089722901582717896e-03,-8.001393638551235199e-03,3.871824964880943298e-02,1.758680678904056549e-03,3.478645579889416695e-03,2.517186338081955910e-03,1.333217369392514229e-03,-3.086416609585285187e-02,1.016083545982837677e-02,-2.214060164988040924e-02,-7.520524784922599792e-03,2.277859020978212357e-03,-1.400101929903030396e-02,-1.148690190166234970e-02,1.912189573049545288e-01,-5.975092574954032898e-02,1.318663358688354492e-02,-2.949591353535652161e-02,1.802187040448188782e-02,5.115822423249483109e-04,-6.985810399055480957e-02,-1.451838668435811996e-02,4.456217400729656219e-03,-9.083801414817571640e-04,-4.538425430655479431e-02,-3.153650322929024696e-03,9.678208734840154648e-04,1.004148740321397781e-03,-1.775356940925121307e-02,1.887331604957580566e-01,-1.392148621380329132e-02,-2.843973413109779358e-02,-6.929134018719196320e-03,-6.358421407639980316e-03,1.325725913047790527e-01,-1.506939716637134552e-02,-2.600137330591678619e-02,6.646059919148683548e-04,-1.283708494156599045e-02,-1.337794214487075806e-02,4.354181699454784393e-03,-1.926844939589500427e-02,-1.387296468019485474e-01,-2.869608700275421143e-01,1.733296811580657959e-01,1.621730858460068703e-03,-1.333464123308658600e-02,7.834229618310928345e-03,-4.919438622891902924e-03,2.432179404422640800e-03,-1.088266912847757339e-02,1.513861492276191711e-02,-1.581101678311824799e-03,3.181717544794082642e-02,2.592770848423242569e-03,-1.281905174255371094e-02,4.406852126121520996e-01,5.369728431105613708e-02,-1.148878261446952820e-01,6.963806226849555969e-03,-1.237637847661972046e-01,-2.164986133575439453e-01,-5.958825722336769104e-02,1.372110284864902496e-02,-1.713265478610992432e-01,3.787990659475326538e-03,-1.092105405405163765e-03,-3.608035854995250702e-03,-1.641117781400680542e-02,2.874996978789567947e-03,6.665552034974098206e-03,1.103253383189439774e-02,1.062783878296613693e-02,5.333189852535724640e-03,7.096797227859497070e-02,3.015874652191996574e-03,-3.635398577898740768e-03,-1.715420000255107880e-02,3.035167232155799866e-03,1.319413771852850914e-03,-1.124374568462371826e-02,-9.488965570926666260e-02,7.725724019110202789e-03,-1.854976639151573181e-02,9.765657596290111542e-04,-1.596669107675552368e-01,-2.660818770527839661e-02,-4.170137643814086914e-02,-7.449906319379806519e-02,7.140121422708034515e-03,-2.636429667472839355e-02,-1.838447749614715576e-01,-6.114117801189422607e-03,-1.384235545992851257e-02,2.282279776409268379e-03,1.698504202067852020e-02,5.045877303928136826e-03,-1.725066639482975006e-02,-3.879678202793002129e-03,-1.051391824148595333e-03,-1.811032742261886597e-01,-1.247550826519727707e-02,-1.551499124616384506e-03,-2.580744586884975433e-02,-1.112071610987186432e-02,1.373349875211715698e-02,-3.846656531095504761e-02,-2.783387526869773865e-02,3.618164220824837685e-03,7.638573180884122849e-03,-1.473102904856204987e-02,1.728243893012404442e-03,4.664168227463960648e-03,-1.019824147224426270e-01,-3.330148523673415184e-03,-3.175491467118263245e-02,7.158190757036209106e-02,-2.988206688314676285e-04,2.570375800132751465e-01,-1.801578560844063759e-03,7.460089400410652161e-03,-2.839004620909690857e-02,-1.318582706153392792e-02,-1.194111444056034088e-02,1.773978350684046745e-03,2.467039739713072777e-03,1.103732082992792130e-02,-1.047415845096111298e-02,-4.999527707695960999e-02,-1.358050294220447540e-02,1.970096230506896973e-01,-1.694934256374835968e-02,1.284568570554256439e-03,-2.187343873083591461e-02,-1.454082131385803223e-02,-2.276797965168952942e-02,1.990783959627151489e-01,-1.160426344722509384e-02,1.089722663164138794e-02,1.514443457126617432e-01,1.963694095611572266e-01,-2.105444073677062988e-01,-3.912851214408874512e-02,-1.091693807393312454e-02,-1.212541665881872177e-02,1.762282801792025566e-03,3.210562467575073242e-02,-5.237904377281665802e-03,-4.803548753261566162e-02,5.636357069015502930e-01,1.688095508143305779e-03,1.439491985365748405e-03,9.878891706466674805e-02,4.093635827302932739e-03,2.721945988014340401e-03,-1.175147145986557007e-01,2.953746914863586426e-01,-1.492234785109758377e-02,8.818013221025466919e-02,1.491353847086429596e-02,-1.651353761553764343e-02,-8.854471147060394287e-03,-3.550088107585906982e-01,-1.383053511381149292e-02,2.360572572797536850e-03,-2.465831339359283447e-01,-8.009109646081924438e-03,-1.235167495906352997e-02,2.119621960446238518e-03,9.332201443612575531e-05,2.728984057903289795e-01,-3.744735382497310638e-03,1.833717525005340576e-02,-1.452762982808053493e-03,4.998757038265466690e-03,-2.507677078247070312e-01,-1.449263747781515121e-02,2.160336123779416084e-03,-4.425374418497085571e-02,3.308673389256000519e-03,5.302770994603633881e-03,5.472138524055480957e-03,2.974813571199774742e-03,2.300767749547958374e-01,-3.177348524332046509e-02,-1.802833005785942078e-02,1.803406281396746635e-03,8.562848903238773346e-03,2.496100962162017822e-01,1.561174243688583374e-01,1.555658690631389618e-02,1.949571771547198296e-03,-2.702367864549160004e-02,-2.269549295306205750e-04,-2.117408812046051025e-02,1.440722681581974030e-02,-2.640210278332233429e-02,1.969664357602596283e-03,-1.788055449724197388e-01,-1.844936162233352661e-01,7.056957110762596130e-04,-3.833616673946380615e-01,-1.455212570726871490e-02,-9.569951333105564117e-03,3.898680210113525391e-02,-4.353681206703186035e-02,1.622370909899473190e-03,-7.331813685595989227e-03,-2.519285306334495544e-02,5.860889330506324768e-03,9.990362823009490967e-02,1.962524838745594025e-02,3.828595876693725586e-01,2.089783921837806702e-02,-9.857341647148132324e-03,-5.054734647274017334e-02,2.479874296113848686e-03,-1.610734164714813232e-01,9.312089532613754272e-04,-5.808418150991201401e-03,-1.401499472558498383e-02,-1.855778135359287262e-02,1.369369914755225182e-03,-8.675517514348030090e-03,4.185769706964492798e-03,-4.824092611670494080e-03,9.809632319957017899e-04,1.037717796862125397e-03,3.306258935481309891e-03,-1.192372813820838928e-01,1.881106174550950527e-03,6.312793586403131485e-03,-2.519352734088897705e-01,2.717101387679576874e-02,-1.763278432190418243e-02,8.364741690456867218e-03,2.282175002619624138e-03,-1.703523993492126465e-01,-1.356819737702608109e-02,-3.204050287604331970e-02,-3.383740410208702087e-02,-3.151626139879226685e-02,4.462886452674865723e-01,2.148751914501190186e-01,-3.026308491826057434e-02,-1.333305984735488892e-01,-7.310998160392045975e-03,-3.017452172935009003e-02,-1.935292482376098633e-01,4.162348061800003052e-02,2.424806356430053711e-03,-5.074403807520866394e-02,-1.125933136790990829e-03,5.984584987163543701e-02,-2.059408649802207947e-02,3.576530376449227333e-03,-4.003714770078659058e-03,3.319755429401993752e-03,2.543285489082336426e-02,-2.780389226973056793e-02,3.271063556894659996e-03,-1.210290286689996719e-02,-1.087786033749580383e-01,-1.047064289450645447e-01,-1.529698073863983154e-01,3.499311860650777817e-04,-5.576324835419654846e-02,6.599395722150802612e-02,1.012878725305199623e-03,-9.626618586480617523e-03,-2.684805355966091156e-02,-5.452428013086318970e-02,6.041584908962249756e-02,-1.971213519573211670e-02,1.202543638646602631e-02,-1.434704661369323730e-01,-1.010292675346136093e-02,1.482386048883199692e-02,-2.338255196809768677e-02,-1.507321372628211975e-02,-1.111832913011312485e-02,-1.663081720471382141e-02,-1.632844656705856323e-02,2.826018491759896278e-03,1.785969012416899204e-03,3.262839838862419128e-02,1.480531692504882812e-01,-4.026585072278976440e-02,-4.991146735846996307e-03,9.631590917706489563e-03,4.071955103427171707e-03,-6.230992078781127930e-02,-1.556640118360519409e-02,8.915282785892486572e-03,9.648710489273071289e-03,-2.572525441646575928e-01,-1.584462635219097137e-02,8.462373167276382446e-02,9.630098938941955566e-04,3.039984963834285736e-03,4.903336055576801300e-03,4.366996232420206070e-03,-2.045121975243091583e-02,4.333416000008583069e-03,-1.794290393590927124e-01,-1.382766105234622955e-02,-9.194225072860717773e-03,2.373562939465045929e-02,2.710649510845541954e-03,1.047505903989076614e-02,4.373372532427310944e-03,-9.758111834526062012e-02,-1.329502183943986893e-02,2.298922277987003326e-03,-5.264851497486233711e-04,-3.634881228208541870e-02,2.983927493914961815e-03,1.572358794510364532e-02,2.674895571544766426e-03,-2.755045890808105469e-02,2.602006541565060616e-03,-3.280232101678848267e-02,1.943004317581653595e-04,9.390735067427158356e-04,5.516246892511844635e-04,1.397533342242240906e-04,8.718706667423248291e-03,8.738160878419876099e-02,1.373660098761320114e-02,1.338560879230499268e-02,-2.315425127744674683e-02,-2.439379319548606873e-02,2.745813131332397461e-02,-1.392145156860351562e-01,1.844952441751956940e-02,-8.698257151991128922e-04,-9.285409934818744659e-03,-8.791044354438781738e-03,3.178880363702774048e-02,2.197679728269577026e-01,-1.310603041201829910e-02,-3.325226902961730957e-02,-2.252126345410943031e-03,-2.129179984331130981e-02,4.256132245063781738e-02,-1.112654246389865875e-02,1.446558861061930656e-03,-1.188195403665304184e-02,-1.626943424344062805e-02,4.997061565518379211e-03,1.239447854459285736e-03,-1.167303919792175293e-01,-7.410403341054916382e-03,-2.486036121845245361e-01,1.361920684576034546e-01,-1.626074686646461487e-02,-3.103867638856172562e-04,-2.652035839855670929e-02,-1.537510454654693604e-01,-1.359059941023588181e-02,-8.723457343876361847e-03,1.944386167451739311e-03,1.443741610273718834e-03,1.619262620806694031e-03,1.475241500884294510e-03,1.118122972548007965e-02,-7.677328586578369141e-02,-1.156272739171981812e-01,-1.595301553606987000e-02,-1.748783048242330551e-03,-1.096588931977748871e-02,-6.205089390277862549e-02,-1.410850416868925095e-02,-1.430439110845327377e-02,-1.564971543848514557e-02,4.462913423776626587e-02,-1.267653144896030426e-02,-3.572845831513404846e-02,1.291832188144326210e-03,-2.212202642112970352e-03,-1.820535585284233093e-02,-7.923975936137139797e-04,4.187836311757564545e-03,4.143152851611375809e-03,-1.270769238471984863e-01,-1.265613827854394913e-04,2.574970014393329620e-02,-2.050765976309776306e-02,3.542211372405290604e-03,2.519686007872223854e-03,-7.447057217359542847e-02,1.041920855641365051e-02,4.003004636615514755e-03,1.284475903958082199e-03,-1.868725195527076721e-02,-1.762684201821684837e-03,-1.965133100748062134e-02,-2.023151516914367676e-02,2.869787625968456268e-02,-4.583807289600372314e-02,-2.901035919785499573e-02,-2.084142267704010010e-01,-8.053598552942276001e-02,4.235218465328216553e-01,-1.310586836189031601e-02,1.798452436923980713e-01,-1.318990904837846756e-02,3.629150241613388062e-02,1.387202413752675056e-03,3.149362802505493164e-01,2.506797201931476593e-02,3.673485945910215378e-03,-8.559749461710453033e-03,-1.329385340213775635e-01,1.534364419057965279e-03,-1.219337340444326401e-02,-1.476708352565765381e-01,-1.610160805284976959e-02,-2.804437093436717987e-02,1.316224690526723862e-03,-6.156074814498424530e-04,4.007183946669101715e-03,3.350234776735305786e-02,1.699321903288364410e-02,-2.312795445322990417e-02,-3.281027078628540039e-02,-5.235516931861639023e-03,-3.986539784818887711e-03,-4.247606918215751648e-02,-2.364179193973541260e-01,2.627942478284239769e-03,1.575386384502053261e-03,-1.345026865601539612e-02,8.324119262397289276e-04,-7.968613505363464355e-02,1.933095604181289673e-02,1.351813822984695435e-01,4.243846051394939423e-03,-3.212404847145080566e-01
