9.978811256587505341e-03,5.443899706006050110e-02
3.635650575160980225e-01,4.264498651027679443e-01
-5.088046193122863770e-02,-2.557841129601001740e-02
-6.645716726779937744e-02,-7.454339414834976196e-02
-3.358251973986625671e-02,-6.713934242725372314e-02
-2.532992884516716003e-02,2.818397618830204010e-02
-2.771515771746635437e-02,-3.681783098727464676e-03
8.670197427272796631e-02,-2.402837388217449188e-02
5.850202590227127075e-02,-3.474609926342964172e-02
-5.650155246257781982e-02,3.928194567561149597e-02
-2.077684924006462097e-02,7.129578292369842529e-02
2.271222136914730072e-02,-1.682194648310542107e-03
2.030547894537448883e-02,-3.937783651053905487e-03
-4.853501915931701660e-03,6.724292039871215820e-02
-3.860183432698249817e-02,-8.457919582724571228e-03
-1.410484779626131058e-02,-6.675527244806289673e-02
-1.819640165194869041e-03,1.915532164275646210e-02
2.894119545817375183e-02,9.245710819959640503e-02
-6.884711794555187225e-03,4.652328044176101685e-02
5.162734538316726685e-02,1.444081310182809830e-02
-5.733583495020866394e-02,5.686608701944351196e-02
6.600977480411529541e-02,5.343382433056831360e-02
4.622987285256385803e-02,-2.128859236836433411e-02
2.409159205853939056e-02,-5.965327471494674683e-02
5.762015655636787415e-02,2.854268299415707588e-03
3.631431236863136292e-02,1.189255341887474060e-02
6.240335479378700256e-02,2.027112618088722229e-02
8.036877959966659546e-03,6.847954541444778442e-02
-6.160232052206993103e-02,-3.266972675919532776e-02
-5.855810642242431641e-02,-5.489020422101020813e-02
-2.003932744264602661e-02,5.374220013618469238e-02
-7.581737823784351349e-03,-7.239358127117156982e-02
7.253611087799072266e-02,-1.301664113998413086e-02
4.658016934990882874e-02,2.214822173118591309e-02
7.311469316482543945e-02,-4.925164952874183655e-02
1.637320592999458313e-02,-1.291876100003719330e-02
5.321726202964782715e-02,-8.182437159121036530e-04
-2.487164549529552460e-02,7.000338286161422729e-02
2.051803097128868103e-02,-7.404477149248123169e-02
4.388428479433059692e-02,-2.286158315837383270e-02
3.946582973003387451e-02,-4.365020617842674255e-02
2.313070371747016907e-02,-7.674814760684967041e-02
-1.980795152485370636e-02,-1.004203781485557556e-02
-1.852308213710784912e-02,4.234075918793678284e-02
5.941136553883552551e-02,7.065099477767944336e-02
-1.488427221775054932e-01,-1.002503633499145508e-01
5.105006508529186249e-03,-2.274237759411334991e-02
-4.122049361467361450e-02,4.445131868124008179e-03
3.383200382813811302e-03,-2.183773368597030640e-02
-3.627231344580650330e-02,-4.083269834518432617e-02
7.053591310977935791e-02,-1.431180071085691452e-02
6.529819965362548828e-02,-5.112035199999809265e-02
1.720616826787590981e-03,1.450004521757364273e-02
-7.520802319049835205e-02,-5.014368146657943726e-02
5.500321835279464722e-02,-5.820767208933830261e-02
5.804160237312316895e-02,7.107263430953025818e-03
-3.018451295793056488e-02,-3.865771368145942688e-02
-5.149028729647397995e-03,3.627255186438560486e-02
-2.285867743194103241e-02,6.186856701970100403e-02
7.154041528701782227e-02,1.859443960711359978e-03
4.491406306624412537e-02,1.456111203879117966e-03
1.541752554476261139e-02,-3.265997767448425293e-02
-3.867688775062561035e-02,3.468112647533416748e-02
-5.089431069791316986e-03,-6.666551809757947922e-03
2.232411876320838928e-02,-1.232252456247806549e-02
5.268237553536891937e-03,6.374251097440719604e-02
-5.506387446075677872e-03,-5.332503467798233032e-02
4.551428928971290588e-02,-2.733414061367511749e-02
-2.991041727364063263e-02,1.472109649330377579e-02
4.291945695877075195e-02,2.376666665077209473e-02
2.884987508878111839e-03,1.805289881303906441e-03
3.385649248957633972e-02,-1.645200885832309723e-03
-2.355014672502875328e-03,-5.779144167900085449e-02
-8.059809915721416473e-04,-4.742597788572311401e-02
4.029209539294242859e-02,-3.245624154806137085e-02
-6.534422934055328369e-02,-5.928767099976539612e-02
-1.787926256656646729e-02,5.096092820167541504e-02
4.558073356747627258e-02,5.603790283203125000e-02
2.292210422456264496e-02,-8.243841119110584259e-03
-3.660365939140319824e-03,-5.010136216878890991e-02
-7.195749133825302124e-02,7.758775353431701660e-02
4.847125336527824402e-02,-2.996357344090938568e-02
1.329399272799491882e-02,6.852058321237564087e-02
1.718167215585708618e-02,-4.380896687507629395e-02
-3.251149505376815796e-02,-4.057470709085464478e-02
2.912620548158884048e-03,4.968613758683204651e-02
6.603967398405075073e-02,-7.764613628387451172e-02
1.422219444066286087e-02,4.009766131639480591e-02
5.727757513523101807e-02,9.531687945127487183e-02
-9.440517984330654144e-03,6.051766499876976013e-02
-3.931292518973350525e-02,3.708381950855255127e-02
-6.299924850463867188e-02,1.441043335944414139e-03
-7.498660124838352203e-03,1.306538656353950500e-02
-3.224394842982292175e-02,-2.936599962413311005e-02
5.018975213170051575e-02,1.868855766952037811e-02
1.500618457794189453e-02,3.431823104619979858e-02
-1.382837258279323578e-02,-5.251805856823921204e-02
-9.386368095874786377e-03,-1.483910251408815384e-02
1.119214110076427460e-02,-2.621033973991870880e-02
6.251797080039978027e-02,4.723810404539108276e-02
1.853801310062408447e-03,4.535222426056861877e-02
5.982433632016181946e-02,-4.672015085816383362e-02
-6.838512420654296875e-02,-1.884884387254714966e-02
3.017413988709449768e-02,4.233971983194351196e-02
6.113790348172187805e-02,-7.479211688041687012e-02
5.071823298931121826e-02,3.777737542986869812e-02
-4.428551718592643738e-02,-5.074563249945640564e-02
1.736037619411945343e-02,-2.447513490915298462e-02
-3.716866672039031982e-02,-1.934708282351493835e-02
4.360707476735115051e-02,6.901597231626510620e-02
6.739417463541030884e-02,-6.633529439568519592e-03
-2.329329401254653931e-02,7.080228626728057861e-02
3.774356469511985779e-02,2.872725017368793488e-02
3.997764363884925842e-02,7.009603083133697510e-02
4.407982900738716125e-02,-3.494703397154808044e-02
3.729659691452980042e-02,-3.508808836340904236e-02
-1.152813434600830078e-02,1.132125779986381531e-01
-1.882121711969375610e-02,5.579508841037750244e-02
-1.680584624409675598e-02,9.681078605353832245e-03
2.133411765098571777e-01,2.665815055370330811e-01
3.008609451353549957e-02,5.870065465569496155e-02
2.477912232279777527e-02,1.117280684411525726e-02
-5.842798203229904175e-02,-6.514837592840194702e-02
5.355610512197017670e-03,-2.279452420771121979e-02
6.581316888332366943e-02,1.326273288577795029e-02
5.303069949150085449e-02,2.502575330436229706e-02
1.598756760358810425e-02,2.877447754144668579e-02
5.551772657781839371e-03,4.715161398053169250e-02
1.722525432705879211e-02,3.246746724471449852e-03
-5.384477972984313965e-02,-7.771855592727661133e-02
1.256006397306919098e-02,8.627770096063613892e-02
5.659116432070732117e-03,6.013414263725280762e-02
-9.298212826251983643e-03,2.599322935566306114e-03
6.032592803239822388e-02,1.885097473859786987e-02
2.127884887158870697e-03,-5.964279640465974808e-03
5.085652694106101990e-02,1.240535080432891846e-02
-6.003661453723907471e-02,2.148415893316268921e-02
-4.671688191592693329e-03,-2.355953119695186615e-02
-1.879444718360900879e-02,5.828230455517768860e-02
3.559062257409095764e-02,-4.454930499196052551e-02
2.061542272567749023e-01,3.247460424900054932e-01
-6.631701439619064331e-02,-3.678423538804054260e-02
1.950970664620399475e-02,3.571313619613647461e-02
5.730867385864257812e-02,4.175769537687301636e-02
4.014028236269950867e-02,-4.174119234085083008e-02
7.000025361776351929e-02,1.781928911805152893e-02
5.954281426966190338e-03,3.532118722796440125e-02
7.984103262424468994e-02,1.020568609237670898e-01
-6.222398020327091217e-03,4.988548159599304199e-02
2.996025793254375458e-02,-4.809719324111938477e-02
6.682548206299543381e-03,-3.701829612255096436e-01
5.946910940110683441e-03,-7.723597344011068344e-03
-2.285793609917163849e-02,-3.267809376120567322e-02
5.138003081083297729e-02,3.274347633123397827e-02
1.055956333875656128e-01,2.148847579956054688e-01
5.748190358281135559e-02,4.878949746489524841e-02
1.615786179900169373e-02,-7.317169755697250366e-02
1.260340809822082520e-01,1.002366617321968079e-01
6.710003316402435303e-02,3.201615810394287109e-02
-1.942907646298408508e-02,3.377500176429748535e-02
1.932293549180030823e-02,2.779232710599899292e-02
-1.570474542677402496e-02,-4.288695380091667175e-02
-2.197960205376148224e-02,-8.800455369055271149e-03
-3.319343924522399902e-02,-5.646143481135368347e-02
-1.243002153933048248e-02,6.749063730239868164e-02
-6.341481208801269531e-02,3.446494042873382568e-02
4.298547655344009399e-02,-1.776913367211818695e-02
2.416781708598136902e-02,-1.997601985931396484e-02
-3.874873369932174683e-02,-1.955273747444152832e-02
3.931181877851486206e-02,-1.364320889115333557e-02
8.415727876126766205e-03,5.307944491505622864e-02
-4.669604450464248657e-02,3.649526461958885193e-02
5.991290882229804993e-02,-3.622741624712944031e-02
1.209161709994077682e-02,-6.638280302286148071e-02
1.174994651228189468e-02,6.643467396497726440e-02
6.496430188417434692e-02,-7.669612765312194824e-02
3.959884867072105408e-03,-3.428675606846809387e-02
4.811454191803932190e-02,-4.972439259290695190e-02
3.819048032164573669e-02,5.768328905105590820e-03
2.224865928292274475e-02,-1.386203803122043610e-02
5.948669090867042542e-02,-6.281211972236633301e-05
-3.228515014052391052e-02,3.416392207145690918e-02
5.660745874047279358e-02,-2.611557720229029655e-03
4.316885396838188171e-02,-2.717088162899017334e-02
-4.522189125418663025e-02,5.042025819420814514e-02
6.905703246593475342e-02,9.064160287380218506e-03
6.771351210772991180e-03,2.442277781665325165e-02
2.531912550330162048e-02,1.982521079480648041e-02
-2.628556638956069946e-02,2.278042212128639221e-02
3.559323027729988098e-02,-2.233088947832584381e-02
3.195203244686126709e-01,3.602860867977142334e-01
6.885859370231628418e-02,-2.714898064732551575e-02
1.688639167696237564e-04,6.082537397742271423e-02
3.791528195142745972e-02,-2.866747602820396423e-02
1.842679688706994057e-03,1.845513656735420227e-02
3.441399708390235901e-02,-4.202422127127647400e-02
6.504196673631668091e-02,6.886927783489227295e-02
4.160298779606819153e-02,-1.354399695992469788e-02
6.709901988506317139e-02,-1.257261913269758224e-02
-3.310414403676986694e-02,-4.916439205408096313e-02
-1.291925646364688873e-02,2.379865199327468872e-02
-2.380683645606040955e-02,7.215130142867565155e-03
2.150874398648738861e-02,-6.000568345189094543e-02
1.796586811542510986e-02,-3.319848328828811646e-02
2.015365064144134521e-01,2.828363180160522461e-01
2.602082788944244385e-01,2.413733899593353271e-01
2.499794587492942810e-03,-4.608016461133956909e-02
-2.614110149443149567e-02,7.087726891040802002e-02
-7.070735841989517212e-02,-2.147557400166988373e-02
3.761483356356620789e-02,1.737969927489757538e-02
-7.399588823318481445e-03,2.766133286058902740e-02
6.680649518966674805e-02,-3.602613136172294617e-02
1.092835096642374992e-03,-1.579921878874301910e-02
1.666709408164024353e-02,5.792039260268211365e-02
-1.333523396169766784e-04,-4.003645107150077820e-02
-4.289954900741577148e-03,8.565408177673816681e-03
5.119072273373603821e-02,5.513731017708778381e-02
9.307548403739929199e-03,-4.925193265080451965e-02
-1.171864662319421768e-02,1.609675139188766479e-01
-3.476616740226745605e-02,6.855480372905731201e-02
2.573425471782684326e-01,4.110350906848907471e-01
2.345372363924980164e-02,-9.416670538485050201e-03
-1.066061668097972870e-02,-5.680369958281517029e-02
1.727648451924324036e-02,-3.670825809240341187e-02
2.032018266618251801e-02,3.527853637933731079e-02
4.224677011370658875e-02,-3.813421726226806641e-02
8.228971622884273529e-03,-3.389106318354606628e-02
-3.618204966187477112e-02,-4.443340748548507690e-02
-2.495620399713516235e-02,6.813280284404754639e-02
3.938728570938110352e-02,5.997456982731819153e-02
2.829450182616710663e-02,3.069956228137016296e-02
9.456931613385677338e-03,5.228164419531822205e-02
3.024428710341453552e-02,2.466585859656333923e-02
5.471045151352882385e-02,-7.242564111948013306e-03
4.794039204716682434e-02,5.654785037040710449e-02
-2.936614118516445160e-02,9.207395836710929871e-03
-9.460462257266044617e-03,5.684043839573860168e-02
-4.355408623814582825e-02,1.407605875283479691e-02
3.940061852335929871e-02,4.474418982863426208e-02
1.673467457294464111e-02,-6.568795442581176758e-02
-2.836358174681663513e-02,-4.909692704677581787e-02
-1.799154095351696014e-03,1.797317340970039368e-02
1.157914381474256516e-02,-1.513079460710287094e-02
3.841214254498481750e-02,4.205491021275520325e-02
3.428420424461364746e-02,3.446359420195221901e-03
-2.599785476922988892e-02,-6.552021950483322144e-02
-7.323309779167175293e-02,1.300490833818912506e-02
-3.892304142937064171e-03,3.517456725239753723e-02
9.710910730063915253e-03,7.186616212129592896e-02
6.726869940757751465e-02,-6.779100745916366577e-02
5.447667092084884644e-02,6.039925292134284973e-02
2.090417295694351196e-01,3.407661318778991699e-01
-1.425135787576436996e-02,-1.249240059405565262e-02
-9.808631613850593567e-03,-1.178077887743711472e-02
2.406952157616615295e-02,-2.997571416199207306e-02
5.457027629017829895e-02,-2.166171930730342865e-02
2.117720805108547211e-02,1.706136949360370636e-02
5.726677551865577698e-02,-7.566843926906585693e-02
3.400608524680137634e-02,-7.664928212761878967e-03
1.532732788473367691e-02,4.265113919973373413e-02
-2.531858859583735466e-03,-2.109562419354915619e-02
6.222854927182197571e-02,-6.333440542221069336e-02
-6.966565549373626709e-02,-1.381333172321319580e-02
8.015406318008899689e-03,5.079042166471481323e-02
-3.015326708555221558e-02,6.685809791088104248e-02
-7.192847318947315216e-03,-4.815347865223884583e-02
-4.711373150348663330e-02,-7.369330525398254395e-02
1.734296604990959167e-02,5.378301814198493958e-02
5.867690965533256531e-02,1.258615031838417053e-02
7.295624911785125732e-02,2.382947504520416260e-02
-3.163863345980644226e-02,7.191231101751327515e-02
5.098952725529670715e-02,-1.715686172246932983e-02
-7.606986444443464279e-03,-1.428763195872306824e-02
4.505098983645439148e-02,-1.880714111030101776e-02
7.099410146474838257e-02,7.075548171997070312e-02
-1.202406082302331924e-02,-6.131160631775856018e-02
3.237199410796165466e-02,-1.648642355576157570e-03
7.053280621767044067e-02,9.308678098022937775e-03
-5.060483701527118683e-03,5.833003669977188110e-02
7.255506515502929688e-02,-7.213654369115829468e-02
-1.713180728256702423e-02,-2.463946864008903503e-02
5.626467242836952209e-02,-2.238401211798191071e-02
-6.285909563302993774e-02,9.315953589975833893e-03
-7.188375294208526611e-02,5.120772123336791992e-02
-1.818584161810576916e-03,6.969281286001205444e-02
-5.557235702872276306e-02,-1.278659794479608536e-02
5.444546416401863098e-02,3.785533830523490906e-02
7.313662767410278320e-02,-6.633505225181579590e-02
-9.569309651851654053e-03,-7.639753818511962891e-02
4.944880679249763489e-02,1.814418099820613861e-02
-2.575009874999523163e-02,-4.489611089229583740e-02
-3.482460044324398041e-03,7.022336870431900024e-02
2.747156657278537750e-02,-5.568544566631317139e-02
3.036821261048316956e-02,2.960385754704475403e-03
6.662873923778533936e-02,-6.014863774180412292e-02
-1.570794917643070221e-02,4.870779067277908325e-02
6.433196365833282471e-03,1.940980739891529083e-02
4.597013071179389954e-02,4.413482174277305603e-02
5.515057221055030823e-02,-6.603905558586120605e-02
6.438550353050231934e-02,6.212007254362106323e-02
2.289127558469772339e-02,5.427895858883857727e-02
4.924659803509712219e-02,-2.242530696094036102e-02
4.020849615335464478e-02,3.593340143561363220e-02
3.440433368086814880e-02,5.126680806279182434e-02
6.498476862907409668e-02,-6.770630180835723877e-02
2.521711401641368866e-02,-4.388124868273735046e-02
-2.755552157759666443e-02,7.514182478189468384e-02
-1.377301476895809174e-02,7.113485783338546753e-02
6.924552842974662781e-03,2.120254747569561005e-02
1.980619039386510849e-03,-5.069949105381965637e-02
4.602363333106040955e-06,2.234113775193691254e-02
4.695766046643257141e-02,6.035854667425155640e-02
5.208897963166236877e-02,-3.828296065330505371e-02
-2.495932951569557190e-02,-3.319392725825309753e-02
-5.724390223622322083e-02,-1.092088669538497925e-01
5.332387611269950867e-02,-5.345254391431808472e-02
3.402619436383247375e-02,6.850773468613624573e-03
-1.846520788967609406e-02,-2.949740923941135406e-02
-2.128393203020095825e-02,-9.797642938792705536e-03
-1.846583560109138489e-03,2.768850885331630707e-02
5.148144438862800598e-02,-6.225163117051124573e-02
7.015596330165863037e-02,-2.617044560611248016e-02
1.446447242051362991e-02,-4.153263941407203674e-02
8.426299691200256348e-02,1.594243645668029785e-01
6.195414438843727112e-02,4.184059333056211472e-03
6.369739770889282227e-02,-3.020431101322174072e-02
-3.698815405368804932e-02,-2.887575887143611908e-02
3.872106084600090981e-03,-5.648364871740341187e-02
-4.776859655976295471e-02,-3.936570882797241211e-02
-4.374912939965724945e-03,6.227024272084236145e-02
-4.577509313821792603e-02,-6.145854014903306961e-03
3.680897876620292664e-02,2.175952121615409851e-02
4.924888722598552704e-03,7.166650891304016113e-02
1.835324987769126892e-02,2.867875248193740845e-02
7.909592986106872559e-02,-4.075454548001289368e-02
6.457115709781646729e-02,-4.943183623254299164e-03
3.708222508430480957e-02,-6.474997848272323608e-02
1.902179792523384094e-02,1.016251929104328156e-02
1.016309037804603577e-01,4.380942508578300476e-02
-4.892216622829437256e-02,-2.816637419164180756e-02
1.640892401337623596e-02,2.759394980967044830e-02
6.824549287557601929e-02,9.899593889713287354e-03
-6.837265938520431519e-02,-7.181230932474136353e-02
1.574142463505268097e-02,-3.619354218244552612e-02
-5.239823088049888611e-02,2.545786555856466293e-03
6.671165674924850464e-02,7.093942165374755859e-02
4.677188768982887268e-02,-5.945937708020210266e-03
-3.010558662936091423e-03,1.360579952597618103e-02
4.347964376211166382e-02,2.333356812596321106e-02
3.594104573130607605e-02,2.156145498156547546e-02
5.352850630879402161e-02,-7.512221485376358032e-02
4.982620850205421448e-02,2.307397313416004181e-03
9.247913956642150879e-03,-5.973916873335838318e-02
5.128366127610206604e-02,-7.628577947616577148e-02
-3.016358055174350739e-02,5.391563102602958679e-02
6.399005651473999023e-02,4.689992219209671021e-02
4.077901318669319153e-02,4.927461035549640656e-03
4.342122003436088562e-02,1.903141383081674576e-03
3.825962916016578674e-02,-5.721231922507286072e-02
-5.455302074551582336e-03,2.263665199279785156e-02
1.369687821716070175e-02,-1.611321605741977692e-02
-3.954577259719371796e-03,3.233719617128372192e-02
-4.841498658061027527e-02,-4.243995994329452515e-03
5.746806040406227112e-02,3.534658113494515419e-03
1.648890599608421326e-02,6.763815134763717651e-02
1.638621650636196136e-02,4.793409258127212524e-02
1.778078824281692505e-02,-2.216014452278614044e-02
4.821375384926795959e-02,1.821186207234859467e-02
-1.621847972273826599e-02,1.207605469971895218e-02
6.899342685937881470e-02,-2.822937816381454468e-02
1.883352175354957581e-02,6.247241050004959106e-02
2.649248018860816956e-02,-5.718144774436950684e-02
-3.767582774162292480e-02,5.712943524122238159e-02
2.187163382768630981e-02,-3.833024576306343079e-02
-3.595234826207160950e-02,9.395679458975791931e-03
3.715853020548820496e-02,3.742446750402450562e-02
7.950398139655590057e-03,3.014103136956691742e-02
7.235469669103622437e-02,1.470380127429962158e-01
2.909534238278865814e-02,4.156660288572311401e-02
7.063625846058130264e-03,8.410887420177459717e-02
7.182142138481140137e-02,5.509242042899131775e-02
-1.482594379922375083e-04,-1.947355084121227264e-02
1.364177651703357697e-02,-4.404643923044204712e-02
5.066149309277534485e-02,-1.883611269295215607e-02
6.790152192115783691e-02,-6.083865091204643250e-02
-4.913749918341636658e-02,3.478787839412689209e-02
-4.573094472289085388e-02,5.691657587885856628e-02
6.594709306955337524e-02,6.626229733228683472e-02
4.755126312375068665e-02,-6.008156761527061462e-02
7.320624589920043945e-02,-3.091927617788314819e-02
1.658552139997482300e-02,4.404962062835693359e-02
6.101716682314872742e-02,3.528571128845214844e-02
-4.322559759020805359e-02,-1.032363274134695530e-03
-1.193499378859996796e-02,-2.231284528970718384e-01
-2.986089885234832764e-02,3.956647589802742004e-02
-2.397769363597035408e-03,-2.940766513347625732e-02
-4.499992728233337402e-02,-3.343055769801139832e-02
3.625068441033363342e-02,3.892162814736366272e-02
3.837056085467338562e-02,-1.568753458559513092e-02
2.413703873753547668e-02,-5.073514580726623535e-02
5.063319951295852661e-02,-5.260142032057046890e-03
3.310399502515792847e-02,1.215718686580657959e-01
-3.073371946811676025e-03,6.347354501485824585e-03
2.792966319248080254e-03,5.024631321430206299e-02
-8.977352641522884369e-03,-3.426416963338851929e-02
8.678165264427661896e-03,5.523765459656715393e-02
-5.507957190275192261e-02,3.024040162563323975e-02
2.758103422820568085e-02,1.570139825344085693e-02
-1.362954732030630112e-02,1.044979691505432129e-02
-3.774357028305530548e-03,4.094585776329040527e-02
-7.099599391222000122e-02,2.893413882702589035e-03
3.553592599928379059e-03,-5.190624296665191650e-02
1.977930590510368347e-02,-6.930316239595413208e-02
-6.319538503885269165e-02,-1.783753000199794769e-02
9.865118190646171570e-03,-1.441419310867786407e-02
4.179391637444496155e-02,7.293608039617538452e-02
-1.238036621361970901e-02,-4.604856669902801514e-02
5.008678510785102844e-02,8.862768858671188354e-02
4.777814820408821106e-02,-4.029015824198722839e-02
1.559059880673885345e-02,2.613341249525547028e-02
4.895950108766555786e-02,5.238221585750579834e-02
-8.995051495730876923e-03,-7.567398715764284134e-03
-2.411408536136150360e-02,4.914728552103042603e-02
3.532518446445465088e-02,-4.477098956704139709e-02
-6.364744156599044800e-02,-1.259757485240697861e-02
-4.091779515147209167e-02,-7.231887429952621460e-02
4.599361494183540344e-02,1.390053704380989075e-02
-1.300625596195459366e-02,-3.862794488668441772e-02
-3.341857576742768288e-03,5.826054885983467102e-02
9.940764307975769043e-02,3.725594654679298401e-02
-2.704227901995182037e-02,6.389775127172470093e-02
8.259091526269912720e-03,-6.664457917213439941e-02
4.858883470296859741e-02,-5.252433568239212036e-02
-3.183731064200401306e-02,6.822054088115692139e-02
7.762643508613109589e-03,1.372069586068391800e-02
7.155884802341461182e-02,3.424524143338203430e-02
4.269397817552089691e-03,6.357741355895996094e-02
4.907749220728874207e-02,5.686102434992790222e-02
-4.592755809426307678e-02,6.736256927251815796e-02
6.038369238376617432e-02,4.365629702806472778e-02
-7.557813078165054321e-04,-4.504098370671272278e-02
5.341449752449989319e-02,-7.430531084537506104e-02
3.022573329508304596e-02,-5.236294493079185486e-02
3.855122253298759460e-02,-5.025381594896316528e-02
-5.277815274894237518e-03,6.434891372919082642e-02
7.005684543401002884e-03,-3.251407993957400322e-03
-1.241186168044805527e-02,-3.113062679767608643e-02
6.014675274491310120e-02,4.312471300363540649e-02
5.380067601799964905e-02,3.975175693631172180e-02
-3.912999480962753296e-02,-7.238355278968811035e-02
4.819319024682044983e-02,-5.076787248253822327e-02
8.175406605005264282e-02,1.360890865325927734e-01
3.476407751441001892e-02,6.366778165102005005e-02
5.765816941857337952e-02,6.627168506383895874e-02
6.728877127170562744e-02,4.571758955717086792e-02
-4.561277851462364197e-02,-4.189559444785118103e-02
3.069138526916503906e-02,-5.956460162997245789e-02
-1.243138685822486877e-02,-2.184103056788444519e-02
6.898374110460281372e-02,1.775949634611606598e-02
1.498608849942684174e-02,-5.152215808629989624e-02
5.576520040631294250e-02,-1.517132297158241272e-02
-1.457073260098695755e-03,1.315534859895706177e-02
5.718364194035530090e-02,5.014434456825256348e-02
1.613658294081687927e-02,3.177758678793907166e-02
6.118287518620491028e-02,8.009403012692928314e-03
-2.985464222729206085e-02,-1.559875532984733582e-02
8.602602407336235046e-03,5.127958953380584717e-02
-3.760412707924842834e-02,4.825600236654281616e-02
2.911045588552951813e-02,-4.614385217428207397e-02
9.778480045497417450e-03,5.671060457825660706e-02
5.605231970548629761e-02,2.256409823894500732e-02
-7.894176989793777466e-03,2.626379579305648804e-02
-5.956115201115608215e-02,4.698913916945457458e-02
3.847654163837432861e-02,-6.807056069374084473e-02
-6.739399395883083344e-03,-4.099495708942413330e-02
-1.630163006484508514e-02,-5.567936226725578308e-02
-7.177465409040451050e-02,-5.341283977031707764e-02
-1.018693670630455017e-02,2.861329540610313416e-02
-7.441751658916473389e-02,-5.191858485341072083e-02
7.222454063594341278e-03,-7.851561158895492554e-02
6.906256079673767090e-02,-7.561878859996795654e-02
1.624133065342903137e-02,-7.679326832294464111e-02
3.274238854646682739e-02,4.157968610525131226e-02
4.057992994785308838e-02,1.542658545076847076e-02
-1.587425544857978821e-02,-1.673701032996177673e-02
5.177579075098037720e-02,6.371457874774932861e-02
2.505259402096271515e-02,3.897516429424285889e-02
-5.083984136581420898e-02,7.231235504150390625e-03
6.771615147590637207e-02,-5.598825961351394653e-02
-1.099066901952028275e-02,-2.724431268870830536e-02
4.125621914863586426e-02,2.013671398162841797e-01
-3.354291617870330811e-02,6.805465370416641235e-02
1.940493285655975342e-02,-2.518211491405963898e-02
1.504081953316926956e-02,-2.830090560019016266e-02
-6.190194748342037201e-03,6.844993680715560913e-02
-3.616265021264553070e-04,2.332357876002788544e-02
-1.413957122713327408e-02,-1.935681141912937164e-02
1.757980138063430786e-02,-5.294540151953697205e-02
-1.324259303510189056e-02,-4.005758091807365417e-03
5.289947614073753357e-02,-1.204939279705286026e-02
6.072286143898963928e-02,5.724653974175453186e-02
3.051066026091575623e-02,-8.911141194403171539e-03
5.513321235775947571e-02,3.313011676073074341e-02
-1.062480434775352478e-01,-8.071301504969596863e-03
5.525175109505653381e-02,-3.220040723681449890e-02
-1.132501056417822838e-03,1.696540042757987976e-02
-1.769744604825973511e-02,4.256112128496170044e-02
-4.401202499866485596e-02,-2.493442595005035400e-02
5.738233402371406555e-02,-5.675090104341506958e-02
2.874402329325675964e-02,-1.862257160246372223e-02
1.827827282249927521e-02,-1.947895251214504242e-02
6.942916661500930786e-03,6.185581907629966736e-02
2.046200633049011230e-02,5.411051213741302490e-02
4.815730825066566467e-02,-1.411640783771872520e-03
1.170464884489774704e-02,5.193272605538368225e-02
-1.781770773231983185e-02,-6.702303141355514526e-02
-3.659734874963760376e-02,-2.537610195577144623e-02
-4.662884771823883057e-02,-2.125921845436096191e-02
-2.651130035519599915e-02,-6.854157894849777222e-03
-6.864425539970397949e-02,-1.360133290290832520e-02
3.007581457495689392e-02,-5.371430143713951111e-02
4.381536319851875305e-02,-4.769900068640708923e-02
-3.601337224245071411e-02,-1.785507425665855408e-02
1.457425858825445175e-02,-6.632401794195175171e-02
-1.652866601943969727e-02,2.629095315933227539e-02
5.397878959774971008e-02,6.680951267480850220e-02
1.969586312770843506e-02,4.240335151553153992e-02
-3.316101804375648499e-02,5.101709067821502686e-02
7.217118144035339355e-02,1.683781854808330536e-02
5.238719284534454346e-02,-2.268118970096111298e-02
-7.042456418275833130e-04,-2.594505436718463898e-02
-3.930165991187095642e-02,-2.267540991306304932e-02
1.168341003358364105e-02,-1.288856938481330872e-02
6.177257001399993896e-02,-5.404093861579895020e-02
3.467761352658271790e-02,-4.982471000403165817e-03
2.123397961258888245e-02,6.281695514917373657e-02
1.312593743205070496e-02,3.024966269731521606e-02
5.708332732319831848e-02,6.697445362806320190e-02
3.531860560178756714e-02,7.332549244165420532e-02
-3.165490552783012390e-02,-2.163355238735675812e-02
2.918003499507904053e-02,8.084916323423385620e-02
3.029786422848701477e-02,-7.318197190761566162e-02
-3.699895460158586502e-03,-2.088821865618228912e-02
5.927244573831558228e-02,-1.922928914427757263e-02
2.064224891364574432e-02,5.213094502687454224e-02
1.103183720260858536e-02,-4.092773795127868652e-02
-4.927222430706024170e-02,-1.252211257815361023e-02
1.555089186877012253e-02,1.231691986322402954e-02
6.714963167905807495e-02,-7.496546953916549683e-02
1.080409158021211624e-03,-5.112542212009429932e-02
1.047600619494915009e-02,-1.220372878015041351e-02
-5.906881392002105713e-02,5.488702654838562012e-02
7.243776321411132812e-02,-4.230739176273345947e-02
1.287612691521644592e-02,-1.750929653644561768e-02
3.302549943327903748e-02,5.873774364590644836e-02
-1.468686852604150772e-03,9.474831633269786835e-03
3.775137290358543396e-02,2.974237129092216492e-02
6.162308529019355774e-02,-7.144787162542343140e-02
-3.753210604190826416e-02,-2.109075337648391724e-02
3.796030953526496887e-02,3.952650353312492371e-03
6.746387481689453125e-02,-5.326642468571662903e-02
-5.758568644523620605e-02,2.723686397075653076e-02
4.271225631237030029e-02,-6.847682595252990723e-02
4.655404761433601379e-02,7.920024916529655457e-03
6.292549520730972290e-02,-4.143374785780906677e-02
3.912389650940895081e-02,-2.934629656374454498e-02
2.172674983739852905e-02,-6.890975683927536011e-02
2.864442951977252960e-02,-5.636016651988029480e-02
1.000067498534917831e-02,3.418756648898124695e-02
1.693074777722358704e-02,2.543732523918151855e-02
-1.872835867106914520e-02,-5.615552887320518494e-02
2.952658571302890778e-02,-1.613936945796012878e-02
-2.050838991999626160e-02,5.958650633692741394e-02
-9.962027892470359802e-03,7.095081359148025513e-02
4.940131679177284241e-02,3.266471624374389648e-02
6.887001544237136841e-02,-7.456255704164505005e-02
-6.174632161855697632e-02,4.918353259563446045e-02
2.972960658371448517e-02,-4.518993571400642395e-02
6.224647536873817444e-02,5.984619259834289551e-02
2.467132173478603363e-02,-1.059550512582063675e-02
3.349916078150272369e-03,-6.438609212636947632e-02
-2.712691947817802429e-02,5.912213772535324097e-02
4.974201694130897522e-02,-3.392738476395606995e-02
-1.141049247235059738e-02,-5.866072326898574829e-02
-7.929288782179355621e-03,-1.261756289750337601e-02
-1.079703960567712784e-02,3.700836747884750366e-02
4.397763684391975403e-02,1.136418245732784271e-02
-4.299063980579376221e-02,2.058971673250198364e-02
-4.358367621898651123e-02,-6.144444644451141357e-02
-2.599472738802433014e-02,6.532108783721923828e-02
1.045900862663984299e-02,-2.418758720159530640e-02
1.536053605377674103e-03,5.849663168191909790e-02
9.633879177272319794e-03,-1.060810126364231110e-02
-3.719049319624900818e-02,-3.799146041274070740e-02
1.661640778183937073e-02,3.727773576974868774e-02
-1.602314040064811707e-02,3.083590045571327209e-02
1.752767711877822876e-02,-4.157583694905042648e-03
-4.952025040984153748e-02,-5.200088769197463989e-02
4.785070195794105530e-02,4.536065459251403809e-02
-4.176587983965873718e-02,4.890615493059158325e-02
-2.529542520642280579e-02,6.274142116308212280e-02
8.918336243368685246e-04,6.869158148765563965e-02
6.402458250522613525e-02,4.347715526819229126e-02
7.438956201076507568e-02,9.504272043704986572e-02
5.006625503301620483e-02,5.274995416402816772e-02
-2.523796074092388153e-02,-3.407792001962661743e-02
-6.518275011330842972e-03,-9.637666866183280945e-03
5.048661306500434875e-02,2.599670318886637688e-03
-6.483221054077148438e-02,1.295385044068098068e-02
-6.458751857280731201e-02,-5.812130495905876160e-02
-1.038742996752262115e-02,4.289754142519086599e-04
1.861293241381645203e-02,1.741129159927368164e-02
1.056154444813728333e-02,4.018384031951427460e-03
1.210333779454231262e-02,-5.759602040052413940e-02
2.981862798333168030e-02,-7.341415435075759888e-02
6.789413094520568848e-02,-1.633124239742755890e-02
1.281443890184164047e-02,-5.441432073712348938e-02
4.504296556115150452e-02,-5.364631116390228271e-02
-5.357676371932029724e-02,1.506170444190502167e-02
-4.547540843486785889e-02,2.560342662036418915e-02
2.490255050361156464e-02,2.907126396894454956e-02
2.804822102189064026e-02,-2.102207578718662262e-02
1.188448537141084671e-02,-4.023768752813339233e-02
-4.845716059207916260e-02,6.426072865724563599e-02
5.875105969607830048e-03,1.338162738829851151e-02
2.458739560097455978e-03,-1.952469907701015472e-02
3.883254900574684143e-02,-7.864320278167724609e-02
1.605244353413581848e-02,3.834124887362122536e-03
6.986162066459655762e-02,-7.514671236276626587e-02
2.125466242432594299e-02,2.230384945869445801e-02
-7.839716970920562744e-03,3.200213238596916199e-02
6.262186914682388306e-02,5.296451225876808167e-02
6.238060072064399719e-02,4.276778921484947205e-02
-3.034306317567825317e-02,-3.764869272708892822e-02
-5.991256237030029297e-02,4.695137217640876770e-02
5.771705135703086853e-02,6.594248116016387939e-02
3.697633370757102966e-02,2.745409309864044189e-02
6.628336012363433838e-02,-3.954183310270309448e-02
-3.080492280423641205e-02,-4.869074001908302307e-02
-3.644407913088798523e-02,-4.487024620175361633e-02
5.294564738869667053e-02,6.061830744147300720e-02
-2.347799018025398254e-02,-1.061243843287229538e-02
5.550939217209815979e-02,-6.631943397223949432e-03
-1.587376371026039124e-02,3.685264661908149719e-02
-1.913134194910526276e-02,6.813430786132812500e-02
1.725256629288196564e-02,-1.411754405125975609e-03
1.495778746902942657e-02,-3.922771196812391281e-03
6.254748255014419556e-02,-7.930291444063186646e-02
5.342016369104385376e-02,3.606133908033370972e-02
6.288070231676101685e-02,-6.999760866165161133e-02
2.244843542575836182e-02,3.303335979580879211e-04
6.336846947669982910e-02,4.624857380986213684e-02
3.666085377335548401e-02,4.447412118315696716e-02
5.618939176201820374e-02,4.350234195590019226e-02
3.369571641087532043e-02,-6.656200438737869263e-02
3.524360433220863342e-02,9.200030006468296051e-03
7.590227574110031128e-02,5.800202861428260803e-02
-1.625354634597897530e-03,5.689850077033042908e-02
1.358848530799150467e-03,7.149385660886764526e-02
-2.352632023394107819e-02,9.691656567156314850e-03
1.877113990485668182e-02,2.513872087001800537e-02
-2.846856974065303802e-02,7.046563178300857544e-02
1.165585219860076904e-02,-4.140444099903106689e-02
4.891033284366130829e-03,6.813241541385650635e-02
-3.453795239329338074e-02,5.456577986478805542e-02
4.489866271615028381e-02,5.489571765065193176e-02
5.880327895283699036e-02,-1.833471655845642090e-02
-1.734981313347816467e-02,4.823139682412147522e-02
6.526903808116912842e-02,4.934260249137878418e-02
6.624037027359008789e-02,9.391629137098789215e-03
1.661819405853748322e-04,2.301171608269214630e-02
5.673829466104507446e-02,-6.056155264377593994e-02
-1.069264486432075500e-02,6.726122647523880005e-02
3.864402696490287781e-02,3.167868824675679207e-03
5.614878609776496887e-02,-4.268311709165573120e-02
4.516959190368652344e-02,-3.337751328945159912e-02
6.076831743121147156e-02,6.864818930625915527e-02
7.712829392403364182e-04,-2.010702528059482574e-02
6.754040718078613281e-02,-1.759864762425422668e-02
5.613576248288154602e-02,1.591529697179794312e-02
8.951386064291000366e-02,2.631235122680664062e-02
-7.298386190086603165e-03,8.097606711089611053e-03
6.067571416497230530e-02,6.931976228952407837e-02
1.400379813276231289e-03,5.055016279220581055e-02
-3.367080911993980408e-02,-9.289780631661415100e-03
5.269366875290870667e-02,-3.005040343850851059e-04
8.603861182928085327e-02,3.817433491349220276e-02
5.188278853893280029e-02,-2.772277221083641052e-02
-1.355016836896538734e-03,-6.440792977809906006e-02
2.354072965681552887e-02,1.592518202960491180e-02
-1.593981403857469559e-03,-5.605317652225494385e-02
4.052823781967163086e-02,-5.468452721834182739e-02
3.816945478320121765e-02,6.786632537841796875e-02
-6.750505417585372925e-02,5.688660219311714172e-02
-1.471680589020252228e-02,6.543504074215888977e-03
-5.529872328042984009e-02,5.704024061560630798e-02
-6.735872477293014526e-02,4.931895527988672256e-03
2.110022120177745819e-03,-2.607822604477405548e-02
-4.785694926977157593e-02,-9.546935558319091797e-03
4.046100005507469177e-02,2.561907097697257996e-02
-6.320133060216903687e-02,3.772446513175964355e-02
7.230396568775177002e-02,-4.840926453471183777e-02
4.929558560252189636e-02,1.060177683830261230e-01
2.710440941154956818e-02,4.432145878672599792e-02
-1.253483258187770844e-02,6.849346309900283813e-02
6.767561193555593491e-03,-6.149499490857124329e-02
3.086807765066623688e-02,-2.286952361464500427e-02
2.624396607279777527e-02,7.144088298082351685e-02
-6.878624856472015381e-02,-5.394213274121284485e-02
-1.449990924447774887e-02,2.506600134074687958e-02
-5.292868707329034805e-03,7.866169512271881104e-02
6.313476245850324631e-03,1.883598789572715759e-02
2.989755198359489441e-02,-1.988856866955757141e-02
-5.000655073672533035e-04,5.446790531277656555e-02
6.423643231391906738e-02,6.992748938500881195e-03
3.208084031939506531e-02,-6.341136991977691650e-02
6.672356277704238892e-03,-3.361011296510696411e-02
-3.176669776439666748e-02,6.660114973783493042e-02
6.648474186658859253e-02,1.738290861248970032e-02
3.660420700907707214e-02,3.652122616767883301e-02
5.023222044110298157e-02,-4.945081099867820740e-02
3.812703117728233337e-02,5.326628312468528748e-02
7.000447809696197510e-02,-7.852616719901561737e-03
-4.976068623363971710e-03,2.819361351430416107e-02
7.203119993209838867e-02,2.713646367192268372e-02
1.274772360920906067e-02,1.730935424566268921e-01
1.502728834748268127e-02,-6.019337475299835205e-02
-7.794436533004045486e-03,-9.981498122215270996e-03
1.961391046643257141e-02,6.104228645563125610e-02
1.116578839719295502e-02,-6.227838993072509766e-02
2.289663534611463547e-03,3.005187772214412689e-02
-4.799194261431694031e-02,-6.403436511754989624e-02
2.991787623614072800e-03,-2.599755674600601196e-02
6.881921738386154175e-02,4.647537320852279663e-02
-4.716524481773376465e-02,2.348245121538639069e-02
1.803462579846382141e-02,2.063580229878425598e-02
3.048318438231945038e-02,-1.364520378410816193e-02
3.424757719039916992e-02,-2.138622803613543510e-03
-4.424354806542396545e-02,2.165819890797138214e-02
3.646792843937873840e-02,-4.544783756136894226e-02
6.999053806066513062e-02,9.343033283948898315e-02
-6.572628021240234375e-02,7.609500084072351456e-03
2.518821880221366882e-02,2.513486146926879883e-02
2.827806957066059113e-02,-5.124308541417121887e-02
8.416164666414260864e-03,4.775530844926834106e-02
-2.173257758840918541e-03,-3.248931095004081726e-02
-1.616173610091209412e-02,2.954662591218948364e-02
-3.807897865772247314e-02,3.017176501452922821e-02
1.209079101681709290e-01,6.702168378978967667e-03
4.453676566481590271e-02,-7.048586010932922363e-02
2.728107012808322906e-02,4.366908967494964600e-02
2.221108973026275635e-02,5.262548103928565979e-02
-2.980263717472553253e-02,6.826746463775634766e-02
-8.128151297569274902e-03,-4.488908126950263977e-02
1.448080092668533325e-01,1.675749896094202995e-03
-5.595769733190536499e-02,-5.319023877382278442e-02
-2.552578784525394440e-02,5.744034424424171448e-02
-1.046997774392366409e-02,4.883214714936912060e-04
-5.071638524532318115e-02,1.998601481318473816e-02
-2.512476779520511627e-02,-3.511200845241546631e-02
3.313589468598365784e-02,4.086266085505485535e-02
4.873032681643962860e-03,5.921449884772300720e-02
2.157567068934440613e-02,3.982529789209365845e-02
5.714127793908119202e-02,-3.443514928221702576e-02
3.150728717446327209e-02,3.941194340586662292e-02
2.348968014121055603e-02,-1.926084421575069427e-02
-1.289318222552537918e-02,-3.416375815868377686e-02
4.711464419960975647e-02,1.412716209888458252e-01
-5.677761137485504150e-02,-6.311941891908645630e-03
-2.358881011605262756e-02,1.052946820855140686e-01
-4.008685424923896790e-02,1.542529463768005371e-02
-4.606016725301742554e-02,6.080243736505508423e-02
4.772709682583808899e-02,2.094342932105064392e-02
-1.296946406364440918e-02,-3.638587892055511475e-02
1.051163952797651291e-02,7.124973088502883911e-02
7.174633443355560303e-02,7.087450474500656128e-02
4.830673336982727051e-02,1.779017224907875061e-02
6.104700639843940735e-02,-1.571600697934627533e-02
1.639114506542682648e-02,6.841199100017547607e-02
7.107357680797576904e-02,6.350929290056228638e-02
4.080707579851150513e-02,2.025466971099376678e-02
1.298947166651487350e-02,-7.175944745540618896e-02
2.838999591767787933e-02,-2.644344605505466461e-02
5.145126953721046448e-02,4.966468736529350281e-02
-1.872215233743190765e-02,-4.755112528800964355e-02
1.561021339148283005e-02,-1.561794057488441467e-02
4.155490547418594360e-03,6.340036541223526001e-02
-1.980879716575145721e-02,6.637878715991973877e-02
1.468462869524955750e-06,1.670385152101516724e-02
2.696647495031356812e-02,2.884717658162117004e-02
1.531544420868158340e-02,1.083337329328060150e-02
4.279914870858192444e-02,2.800681069493293762e-02
2.380918338894844055e-02,-5.302941426634788513e-02
-5.175195634365081787e-02,3.705491498112678528e-02
3.909988328814506531e-02,-4.866380989551544189e-02
5.291854590177536011e-02,-1.436370518058538437e-02
-2.191093936562538147e-02,6.765066832304000854e-02
2.047714777290821075e-02,6.316088885068893433e-02
-2.866269089281558990e-02,-3.230347856879234314e-02
6.602963805198669434e-02,-3.549227118492126465e-02
2.525594644248485565e-02,-2.100307866930961609e-02
-7.041189819574356079e-02,2.243825346231460571e-01
-5.430447310209274292e-02,7.690597325563430786e-02
-2.200055122375488281e-02,4.403768852353096008e-02
-2.642860822379589081e-02,-3.459255024790763855e-02
-3.081076778471469879e-02,-3.144016861915588379e-02
1.137838792055845261e-02,6.414414197206497192e-02
1.298230607062578201e-02,-4.881567507982254028e-02
3.961318358778953552e-02,5.317893251776695251e-02
1.508243661373853683e-02,2.028763480484485626e-02
4.682058468461036682e-03,1.163146272301673889e-02
-2.466912381350994110e-02,3.532670438289642334e-02
6.750151049345731735e-03,-9.752105921506881714e-03
4.230394959449768066e-02,3.900056472048163414e-03
1.080538146197795868e-02,-2.381909638643264771e-03
4.736392199993133545e-02,5.437062680721282959e-02
-1.514518447220325470e-02,-5.638572573661804199e-02
7.606043363921344280e-04,5.119541287422180176e-02
-5.033348500728607178e-02,5.230340734124183655e-02
-9.753691963851451874e-03,4.867205023765563965e-02
1.801405847072601318e-02,1.122200787067413330e-01
-4.687207564711570740e-02,5.917926505208015442e-02
4.067279398441314697e-02,-5.647610872983932495e-02
-9.623836725950241089e-02,-8.326285332441329956e-02
-4.137833602726459503e-03,1.465581357479095459e-02
-2.982113324105739594e-02,-4.547948017716407776e-02
3.844293579459190369e-02,2.598903886973857880e-02
2.009235508739948273e-02,2.113141305744647980e-02
-5.796042084693908691e-02,-9.742795489728450775e-03
4.166061989963054657e-03,7.676680572330951691e-03
-9.936502203345298767e-03,-2.028496563434600830e-02
-2.800326235592365265e-02,1.197374798357486725e-02
-5.663695745170116425e-03,4.121686145663261414e-02
2.964751236140727997e-02,1.009234786033630371e-02
-2.502913214266300201e-02,-7.021415233612060547e-02
3.062918782234191895e-02,-5.138973705470561981e-03
-4.579098895192146301e-03,1.109388377517461777e-02
1.260801404714584351e-01,7.448922842741012573e-02
4.723895713686943054e-02,-5.115572735667228699e-02
7.173715531826019287e-02,1.241679340600967407e-01
-2.059394493699073792e-02,1.335257478058338165e-02
-1.845149509608745575e-02,-4.095360636711120605e-02
5.637933686375617981e-02,3.245688974857330322e-02
2.595612592995166779e-02,-4.585574194788932800e-02
-1.579906418919563293e-02,1.592288166284561157e-02
4.253567382693290710e-02,2.755405753850936890e-02
-5.181998759508132935e-02,-5.363110080361366272e-02
-8.858127985149621964e-04,4.618251323699951172e-02
-4.206569492816925049e-02,5.639518797397613525e-02
1.355659216642379761e-03,-2.409451827406883240e-02
6.112255528569221497e-02,-1.296889968216419220e-03
6.554707884788513184e-02,7.667222619056701660e-02
3.364090994000434875e-02,3.598222136497497559e-02
1.229592785239219666e-02,3.375859186053276062e-02
3.798051550984382629e-02,-6.887056678533554077e-02
-1.898107677698135376e-02,5.578811839222908020e-02
2.829831838607788086e-02,1.199312787503004074e-02
4.151910915970802307e-02,6.260120868682861328e-02
3.904222324490547180e-02,4.564756900072097778e-02
3.554855659604072571e-02,-1.727201044559478760e-02
1.442122459411621094e-02,1.173244137316942215e-02
1.371955685317516327e-02,1.947189308702945709e-02
3.516170382499694824e-02,2.429706156253814697e-01
1.465891581028699875e-02,-4.398222640156745911e-02
5.961021408438682556e-02,-2.744310162961483002e-02
3.787169605493545532e-02,2.463130746036767960e-03
5.358977988362312317e-02,3.686781600117683411e-02
2.322945371270179749e-02,4.850162938237190247e-02
4.504400864243507385e-02,4.202167689800262451e-02
5.827167257666587830e-02,8.909952640533447266e-02
5.550260096788406372e-02,-6.618878245353698730e-02
1.864107511937618256e-02,5.549872666597366333e-02
-1.711518503725528717e-02,-4.733645170927047729e-02
-1.324072200804948807e-02,6.397963315248489380e-02
6.392204761505126953e-02,2.275401167571544647e-02
5.711264163255691528e-02,9.525387734174728394e-02
-7.147090882062911987e-02,-1.763496315106749535e-03
1.454060059040784836e-02,8.907598443329334259e-03
5.357703939080238342e-02,7.072541862726211548e-02
5.995648354291915894e-02,-1.966496929526329041e-02
6.710167229175567627e-02,1.008928567171096802e-02
-5.356025882065296173e-03,3.424680605530738831e-02
-3.100576438009738922e-02,6.847540289163589478e-02
4.293806105852127075e-02,-2.257156744599342346e-02
-4.449695721268653870e-02,6.061255559325218201e-02
-3.061720728874206543e-02,6.506478786468505859e-02
-2.826328855007886887e-03,6.785832345485687256e-02
1.703906431794166565e-02,-4.850766807794570923e-02
1.546208094805479050e-02,-5.082970485091209412e-02
6.156418099999427795e-02,-5.490500479936599731e-04
-6.484512984752655029e-02,4.463317990303039551e-02
-5.569071322679519653e-02,-4.579822719097137451e-02
9.228018671274185181e-02,5.883900076150894165e-02
-1.627609133720397949e-02,6.644267588853836060e-02
6.571507453918457031e-02,-6.471308320760726929e-02
-4.135058261454105377e-03,4.237883538007736206e-02
-2.894770354032516479e-02,7.165320217609405518e-02
4.587720707058906555e-02,2.363388240337371826e-02
-3.338131820783019066e-03,-2.797479555010795593e-02
-2.637414447963237762e-02,-4.368193447589874268e-02
-4.348014481365680695e-03,2.781717851758003235e-02
6.283742189407348633e-02,8.831932209432125092e-03
4.991466179490089417e-02,3.116675838828086853e-02
6.583024282008409500e-03,2.998599037528038025e-02
-9.937186725437641144e-03,1.599769107997417450e-02
3.258611634373664856e-02,3.232070803642272949e-02
3.700615838170051575e-02,6.865850184112787247e-03
2.476978488266468048e-02,6.378193944692611694e-02
3.406621888279914856e-02,6.430616229772567749e-02
3.480482473969459534e-02,5.291422456502914429e-02
2.601142786443233490e-02,-1.675675809383392334e-02
-1.185756921768188477e-02,-1.724813249893486500e-03
1.357607170939445496e-02,-5.339277908205986023e-02
8.596018888056278229e-03,-1.108944416046142578e-02
-3.467747196555137634e-02,-7.402329705655574799e-03
5.299460515379905701e-02,9.650293737649917603e-03
-1.130100106820464134e-03,7.239747047424316406e-02
-6.647326052188873291e-02,-1.730479486286640167e-02
4.363014921545982361e-02,2.105251140892505646e-02
-1.334781199693679810e-02,-2.231651917099952698e-02
2.126848883926868439e-02,-5.610296875238418579e-02
7.000951468944549561e-02,-5.308430641889572144e-02
5.901013687252998352e-02,-4.519627988338470459e-02
6.499290466308593750e-04,-1.599457859992980957e-02
-1.524524390697479248e-02,5.057596042752265930e-02
4.160154610872268677e-02,-8.859180845320224762e-03
1.064422354102134705e-02,6.984074134379625320e-03
1.457987260073423386e-02,6.850108504295349121e-02
-1.100234128534793854e-02,5.942215770483016968e-02
-1.070145890116691589e-02,2.389138936996459961e-02
3.061692975461483002e-02,4.004706069827079773e-02
3.715462237596511841e-02,-6.286337971687316895e-02
1.600336469709873199e-02,5.103023722767829895e-02
-1.737163215875625610e-02,-1.709752529859542847e-02
5.061027780175209045e-02,-3.780476748943328857e-02
8.828157559037208557e-03,-1.509751658886671066e-02
2.222865121439099312e-03,-4.616626352071762085e-02
4.734090715646743774e-02,3.920541331171989441e-02
1.154723577201366425e-03,6.289460510015487671e-02
6.359787285327911377e-02,6.902442127466201782e-02
2.984882518649101257e-02,3.007072769105434418e-02
5.892506614327430725e-02,-1.913898065686225891e-02
-8.355151861906051636e-03,6.830076873302459717e-02
-5.054209008812904358e-02,5.053145065903663635e-02
-1.438354840502142906e-03,1.871992833912372589e-02
1.365061756223440170e-02,-5.828982219099998474e-02
-2.588498033583164215e-02,1.400527264922857285e-02
1.931548491120338440e-02,1.503360271453857422e-02
-4.356000572443008423e-03,-3.364650532603263855e-03
-5.046543851494789124e-02,5.614534765481948853e-02
1.453198399394750595e-02,-1.131238136440515518e-02
1.210749614983797073e-02,4.329590126872062683e-02
4.229419305920600891e-02,-4.748879373073577881e-02
1.837130263447761536e-02,1.073678489774465561e-03
-3.389585390686988831e-02,1.294835284352302551e-02
6.097391620278358459e-02,-3.209213912487030029e-02
2.424645051360130310e-02,-3.560574725270271301e-02
-5.479928106069564819e-02,4.301933944225311279e-02
-8.320537954568862915e-02,-1.806681230664253235e-02
-5.966724827885627747e-02,5.879848077893257141e-02
-3.049800731241703033e-02,-1.236739382147789001e-01
-6.744313985109329224e-02,6.839366629719734192e-03
-3.632810711860656738e-02,3.373800590634346008e-02
9.122058749198913574e-02,1.814642846584320068e-01
4.625696688890457153e-03,-7.887206226587295532e-02
1.735680550336837769e-02,-1.778189651668071747e-02
1.156308129429817200e-02,5.902722477912902832e-02
1.427486495231278241e-05,-1.795414835214614868e-01
2.597288042306900024e-02,7.981144636869430542e-02
2.622438780963420868e-02,6.834521144628524780e-02
-9.589890949428081512e-03,7.028901576995849609e-02
3.269053623080253601e-02,-3.760715574026107788e-02
6.553862243890762329e-02,-7.449480146169662476e-02
4.435677453875541687e-02,-6.274817138910293579e-02
6.331771612167358398e-02,1.383571699261665344e-02
3.574023954570293427e-03,-5.326245352625846863e-02
-6.320740282535552979e-02,3.838573396205902100e-02
5.234101414680480957e-02,1.244188323616981506e-01
-5.038834363222122192e-02,3.174566477537155151e-02
2.515797875821590424e-02,1.201546564698219299e-02
1.995705813169479370e-02,2.005543373525142670e-02
7.870367169380187988e-02,5.860210582613945007e-02
1.531100831925868988e-02,1.099792681634426117e-02
6.609936058521270752e-02,4.201576486229896545e-02
1.813696883618831635e-02,1.331377681344747543e-02
-6.915973499417304993e-04,2.527499012649059296e-02
4.946695640683174133e-02,-1.146478019654750824e-02
3.878992749378085136e-03,-3.334782272577285767e-02
3.880684264004230499e-03,3.103616088628768921e-02
-4.698177054524421692e-02,-3.584321215748786926e-02
1.655129343271255493e-02,1.864996254444122314e-01
4.606454819440841675e-02,-7.100491970777511597e-02
2.845834940671920776e-03,-6.897314637899398804e-02
5.175453610718250275e-03,-2.663928084075450897e-02
5.167138949036598206e-02,6.566534936428070068e-02
-4.733993485569953918e-02,-1.573429675772786140e-03
9.674458205699920654e-02,4.759963601827621460e-02
-3.223436325788497925e-02,-5.164016969501972198e-03
2.928849495947360992e-02,-3.736480325460433960e-02
-3.232112154364585876e-02,3.209646092727780342e-03
-2.823798172175884247e-02,-4.877095669507980347e-02
-6.767248362302780151e-02,1.955396123230457306e-02
3.706959262490272522e-02,-6.414974480867385864e-02
4.005623608827590942e-02,2.900382131338119507e-02
2.041211165487766266e-02,2.996851690113544464e-02
3.232431784272193909e-02,5.143048241734504700e-02
2.651760727167129517e-02,1.574040576815605164e-02
-7.104691863059997559e-02,-1.982640288770198822e-02
1.217857655137777328e-02,5.348835512995719910e-02
4.920940473675727844e-02,-5.547553673386573792e-02
5.557230487465858459e-02,6.126868352293968201e-02
6.739454716444015503e-02,-2.221730723977088928e-02
1.656394638121128082e-02,6.943297572433948517e-03
-4.805210046470165253e-03,7.682127505540847778e-02
4.731417447328567505e-02,-7.179702073335647583e-02
-7.692462764680385590e-03,4.371630027890205383e-02
-2.527594752609729767e-02,9.116628766059875488e-02
5.110497400164604187e-02,4.275452345609664917e-02
5.497831106185913086e-02,-5.269147083163261414e-02
1.555223111063241959e-02,1.591541618108749390e-02
3.496807813644409180e-02,-2.063689939677715302e-02
-2.642951905727386475e-03,3.824041038751602173e-02
8.230197243392467499e-03,-1.125839501619338989e-01
7.173180580139160156e-02,-2.818196639418601990e-02
