1.633701473474502563e-01
1.771167814731597900e-01
4.472000896930694580e-02
1.564988791942596436e-01
1.731365621089935303e-01
3.243033215403556824e-02
1.649272888898849487e-01
1.854340583086013794e-01
5.275115370750427246e-02
1.806853860616683960e-01
1.929067224264144897e-01
4.340891912579536438e-02
1.715310961008071899e-01
1.818714737892150879e-01
4.080479219555854797e-02
1.703885346651077271e-01
1.868830472230911255e-01
4.503342881798744202e-02
1.759793609380722046e-01
1.853132396936416626e-01
4.193724319338798523e-02
1.883128881454467773e-01
1.983080208301544189e-01
5.075575038790702820e-02
1.872644722461700439e-01
1.945020705461502075e-01
5.637124180793762207e-02
1.992662250995635986e-01
1.799298971891403198e-01
5.296459794044494629e-02
1.956085711717605591e-01
1.919240057468414307e-01
5.161145702004432678e-02
1.964612752199172974e-01
1.848111152648925781e-01
4.486910998821258545e-02
1.996022015810012817e-01
1.895209550857543945e-01
3.793401271104812622e-02
1.956230998039245605e-01
1.842454969882965088e-01
4.076469317078590393e-02
2.046365439891815186e-01
1.918464899063110352e-01
4.077545553445816040e-02
2.010398209095001221e-01
1.995754241943359375e-01
5.545712262392044067e-02
1.955210119485855103e-01
1.956429630517959595e-01
4.734160378575325012e-02
1.886319071054458618e-01
1.939449906349182129e-01
4.277412220835685730e-02
1.892232894897460938e-01
1.910218745470046997e-01
4.531612247228622437e-02
1.786183267831802368e-01
1.900814920663833618e-01
3.750959411263465881e-02
1.732111126184463501e-01
1.688465178012847900e-01
2.696798741817474365e-02
1.766028404235839844e-01
1.756551563739776611e-01
3.417527675628662109e-02
1.512239873409271240e-01
1.738938242197036743e-01
3.346470743417739868e-02
1.482210010290145874e-01
1.584012657403945923e-01
3.246491029858589172e-02
1.605579555034637451e-01
1.688181757926940918e-01
2.447472885251045227e-02
1.612360030412673950e-01
1.618515849113464355e-01
2.631365321576595306e-02
1.433925628662109375e-01
1.554823964834213257e-01
2.717764861881732941e-02
1.436951309442520142e-01
1.519081741571426392e-01
2.467712014913558960e-02
1.377137601375579834e-01
1.474394947290420532e-01
1.409965567290782928e-02
1.438886672258377075e-01
1.518516391515731812e-01
2.528287097811698914e-02
1.428420692682266235e-01
1.491452604532241821e-01
1.620294712483882904e-02
1.428751796483993530e-01
1.529313772916793823e-01
1.195653900504112244e-02
1.502403318881988525e-01
1.794588714838027954e-01
4.118049144744873047e-02
1.453286409378051758e-01
1.752900928258895874e-01
3.981044888496398926e-02
1.656808108091354370e-01
1.912987381219863892e-01
3.933913260698318481e-02
1.688326150178909302e-01
1.785261631011962891e-01
3.316375613212585449e-02
1.536020785570144653e-01
1.650592833757400513e-01
3.631427884101867676e-02
1.585941761732101440e-01
1.761742234230041504e-01
3.519928827881813049e-02
1.467427760362625122e-01
1.632570922374725342e-01
1.085723843425512314e-02
1.700811386108398438e-01
1.669812053442001343e-01
3.289199247956275940e-02
1.663455069065093994e-01
1.825562715530395508e-01
3.386525809764862061e-02
1.587916165590286255e-01
1.549335420131683350e-01
2.483875676989555359e-02
1.664854735136032104e-01
1.530851721763610840e-01
2.744835615158081055e-02
1.718399524688720703e-01
1.528399884700775146e-01
1.762389950454235077e-02
1.721257567405700684e-01
1.626920700073242188e-01
1.652423664927482605e-02
1.679935008287429810e-01
1.566715985536575317e-01
5.586323328316211700e-03
1.659515351057052612e-01
1.613178253173828125e-01
1.912691816687583923e-02
1.796385198831558228e-01
1.713353842496871948e-01
1.336868107318878174e-02
1.761348694562911987e-01
1.751645356416702271e-01
1.906375028192996979e-02
1.665483415126800537e-01
1.677976697683334351e-01
1.348405517637729645e-02
1.673945337533950806e-01
1.650677770376205444e-01
1.288362126797437668e-02
1.562585234642028809e-01
1.619108468294143677e-01
1.431445218622684479e-02
1.392791867256164551e-01
1.451181620359420776e-01
1.366117503494024277e-02
1.413300782442092896e-01
1.527686268091201782e-01
9.253322146832942963e-03
1.407248973846435547e-01
1.519440710544586182e-01
1.610272377729415894e-02
1.324489265680313110e-01
1.454419493675231934e-01
7.126058917492628098e-03
1.373574137687683105e-01
1.451948583126068115e-01
4.487945698201656342e-03
1.392905712127685547e-01
1.457459032535552979e-01
6.422613747417926788e-03
1.203043609857559204e-01
1.301164478063583374e-01
-5.719906184822320938e-03
1.155957281589508057e-01
1.210796236991882324e-01
-8.884175680577754974e-03
1.202367395162582397e-01
1.236464455723762512e-01
-8.668938651680946350e-03
1.240878924727439880e-01
1.279824227094650269e-01
-9.027934866026043892e-04
1.199070960283279419e-01
1.345792263746261597e-01
-5.240994505584239960e-03
1.186260879039764404e-01
1.340994238853454590e-01
-2.259257249534130096e-03
1.429201662540435791e-01
1.564323753118515015e-01
2.390957809984683990e-02
1.389083862304687500e-01
1.452466249465942383e-01
7.165752351284027100e-03
1.443137973546981812e-01
1.502898931503295898e-01
1.415320672094821930e-02
1.507620364427566528e-01
1.620300412178039551e-01
1.061585918068885803e-02
1.386114060878753662e-01
1.413609683513641357e-01
-3.698562039062380791e-03
1.128900796175003052e-01
1.270802170038223267e-01
-1.345389755442738533e-04
1.147311627864837646e-01
1.278498917818069458e-01
-4.082932602614164352e-03
1.204685792326927185e-01
1.299400180578231812e-01
-7.151800673454999924e-05
1.247431188821792603e-01
1.156216412782669067e-01
-1.518816687166690826e-02
1.277003139257431030e-01
1.193397566676139832e-01
-1.456999965012073517e-02
1.309921890497207642e-01
1.190980821847915649e-01
-2.828206308186054230e-02
1.265932172536849976e-01
1.114742010831832886e-01
-3.568866476416587830e-02
1.203091442584991455e-01
1.083367317914962769e-01
-4.825292155146598816e-02
1.304143667221069336e-01
1.098664402961730957e-01
-4.354185611009597778e-02
1.209420636296272278e-01
1.159160211682319641e-01
-3.563274815678596497e-02
1.347453892230987549e-01
1.205496788024902344e-01
-2.838612906634807587e-02
1.396429389715194702e-01
1.288756430149078369e-01
-2.742622606456279755e-02
1.316617131233215332e-01
1.241458803415298462e-01
-3.339942544698715210e-02
1.287391781806945801e-01
1.211450770497322083e-01
-2.400856465101242065e-02
1.216925606131553650e-01
1.218861564993858337e-01
-2.426827885210514069e-02
9.841093420982360840e-02
9.922414273023605347e-02
-3.353406116366386414e-02
1.013596206903457642e-01
1.000800058245658875e-01
-3.270184993743896484e-02
1.029602363705635071e-01
1.144934371113777161e-01
-3.126998245716094971e-02
9.965628385543823242e-02
1.077222526073455811e-01
-2.640653029084205627e-02
1.089782565832138062e-01
1.167453825473785400e-01
-1.902326010167598724e-02
1.065838336944580078e-01
1.256190091371536255e-01
-1.732509396970272064e-02
8.910672366619110107e-02
9.583661705255508423e-02
-3.151369094848632812e-02
8.880392462015151978e-02
1.095417737960815430e-01
-4.103790968656539917e-02
9.876870363950729370e-02
1.158948093652725220e-01
-3.326854109764099121e-02
1.036072820425033569e-01
1.106923669576644897e-01
-2.426445856690406799e-02
1.054306626319885254e-01
1.189057007431983948e-01
-1.146355364471673965e-02
1.148563101887702942e-01
1.312339007854461670e-01
-6.844940595328807831e-03
1.257720440626144409e-01
1.323846876621246338e-01
-5.749375093728303909e-03
1.110348403453826904e-01
1.159266456961631775e-01
-2.319933287799358368e-02
1.136863157153129578e-01
1.109380349516868591e-01
-2.957903593778610229e-02
1.201232522726058960e-01
1.266910135746002197e-01
-2.144586481153964996e-02
1.079614162445068359e-01
1.153023242950439453e-01
-2.755322679877281189e-02
9.176681190729141235e-02
9.816498309373855591e-02
-4.940985143184661865e-02
8.720165491104125977e-02
9.050245583057403564e-02
-4.493355751037597656e-02
9.012363106012344360e-02
8.246164768934249878e-02
-4.396087303757667542e-02
8.756175637245178223e-02
7.783421128988265991e-02
-5.403331294655799866e-02
8.520368486642837524e-02
6.977204233407974243e-02
-6.078534945845603943e-02
7.857929170131683350e-02
7.532560825347900391e-02
-7.121338695287704468e-02
8.226592093706130981e-02
7.042907923460006714e-02
-8.681760728359222412e-02
7.839278876781463623e-02
6.094688177108764648e-02
-9.310181438922882080e-02
7.209694385528564453e-02
4.148859903216362000e-02
-1.104976311326026917e-01
7.836961746215820312e-02
5.807578191161155701e-02
-9.484457969665527344e-02
8.442530035972595215e-02
7.004640251398086548e-02
-8.770918846130371094e-02
9.346799552440643311e-02
7.438203692436218262e-02
-7.313825935125350952e-02
8.399443328380584717e-02
7.532653212547302246e-02
-8.850432187318801880e-02
9.343996644020080566e-02
7.976045459508895874e-02
-7.887201011180877686e-02
8.493395894765853882e-02
6.870885193347930908e-02
-7.683932781219482422e-02
6.530006974935531616e-02
5.460815876722335815e-02
-8.295504748821258545e-02
5.708609148859977722e-02
4.429168999195098877e-02
-8.110725134611129761e-02
5.248008295893669128e-02
5.031858757138252258e-02
-8.832545578479766846e-02
5.958501622080802917e-02
6.283713132143020630e-02
-7.281155884265899658e-02
6.915882229804992676e-02
6.764174997806549072e-02
-6.421941518783569336e-02
6.437606364488601685e-02
6.411557644605636597e-02
-6.070990115404129028e-02
6.843824684619903564e-02
7.146983593702316284e-02
-5.826186016201972961e-02
6.953842192888259888e-02
7.560715079307556152e-02
-6.677498668432235718e-02
8.553808182477951050e-02
9.362175315618515015e-02
-5.548450350761413574e-02
9.017769247293472290e-02
9.848381578922271729e-02
-3.540360555052757263e-02
9.124474972486495972e-02
1.001149788498878479e-01
-3.112723678350448608e-02
9.043459594249725342e-02
1.030038595199584961e-01
-3.354389593005180359e-02
1.120882928371429443e-01
1.156825274229049683e-01
-2.574926428496837616e-02
9.679459035396575928e-02
1.058303788304328918e-01
-5.193730071187019348e-02
8.935230225324630737e-02
1.103006228804588318e-01
-5.583111196756362915e-02
8.664377778768539429e-02
9.488325566053390503e-02
-6.819253414869308472e-02
7.779530435800552368e-02
7.463517785072326660e-02
-7.400342822074890137e-02
7.276424765586853027e-02
5.958368256688117981e-02
-9.352172911167144775e-02
7.183265686035156250e-02
5.568952858448028564e-02
-8.717088401317596436e-02
7.068024575710296631e-02
2.977686189115047455e-02
-9.160330891609191895e-02
5.240489169955253601e-02
2.907502651214599609e-02
-1.016877219080924988e-01
3.339040279388427734e-02
1.506361551582813263e-02
-1.261676251888275146e-01
4.379652068018913269e-02
2.781006507575511932e-02
-1.236239746212959290e-01
3.744287043809890747e-02
1.204148121178150177e-02
-1.324351727962493896e-01
2.794893644750118256e-02
-8.860331960022449493e-03
-1.524543017148971558e-01
1.948670856654644012e-02
-1.351409405469894409e-02
-1.447283923625946045e-01
2.402773685753345490e-02
2.536164131015539169e-03
-1.489814668893814087e-01
2.749793045222759247e-02
6.116239819675683975e-03
-1.400615125894546509e-01
4.591395705938339233e-02
1.490010786801576614e-02
-1.390246301889419556e-01
3.865653648972511292e-02
1.256864238530397415e-02
-1.336820721626281738e-01
4.608689621090888977e-02
1.868972182273864746e-02
-1.154436543583869934e-01
3.287490829825401306e-02
1.601642742753028870e-02
-1.265100389719009399e-01
2.538470178842544556e-02
1.736935344524681568e-03
-1.356459110975265503e-01
1.688179932534694672e-02
1.535354531370103359e-04
-1.342177689075469971e-01
2.891491539776325226e-02
6.296597421169281006e-03
-1.246253848075866699e-01
1.617311686277389526e-02
5.559008568525314331e-04
-1.279694139957427979e-01
4.369642212986946106e-02
1.864262297749519348e-02
-1.150234416127204895e-01
3.798896074295043945e-02
3.668870031833648682e-02
-1.102438494563102722e-01
4.989623278379440308e-02
5.018856748938560486e-02
-9.222004562616348267e-02
5.158806592226028442e-02
5.427803844213485718e-02
-6.958524882793426514e-02
5.670542269945144653e-02
6.631582230329513550e-02
-7.638337463140487671e-02
8.592338114976882935e-02
8.738984167575836182e-02
-5.868310481309890747e-02
9.508503228425979614e-02
8.893343061208724976e-02
-5.443270504474639893e-02
7.806547731161117554e-02
8.474723994731903076e-02
-5.680089443922042847e-02
1.063903644680976868e-01
9.959905594587326050e-02
-5.463008210062980652e-02
8.792452514171600342e-02
8.708539605140686035e-02
-6.148147955536842346e-02
7.838774472475051880e-02
7.377787679433822632e-02
-8.375345915555953979e-02
6.790075451135635376e-02
5.815289914608001709e-02
-9.379912912845611572e-02
6.047721952199935913e-02
4.631540179252624512e-02
-1.127899587154388428e-01
6.020509079098701477e-02
4.006257653236389160e-02
-1.020670086145401001e-01
4.343947023153305054e-02
1.708785071969032288e-02
-1.323843747377395630e-01
3.451537340879440308e-02
-8.397682569921016693e-03
-1.456600874662399292e-01
1.716163009405136108e-02
-1.876596361398696899e-02
-1.561045944690704346e-01
2.105438709259033203e-02
-3.067866712808609009e-02
-1.711615473031997681e-01
1.281281746923923492e-02
-4.268426075577735901e-02
-1.782542616128921509e-01
-1.568046957254409790e-02
-5.284272506833076477e-02
-1.884208619594573975e-01
-2.057577855885028839e-02
-6.333801895380020142e-02
-2.147137522697448730e-01
-2.103486470878124237e-02
-6.021733209490776062e-02
-1.947000324726104736e-01
-3.001403994858264923e-02
-6.282429397106170654e-02
-2.096378803253173828e-01
-2.146892994642257690e-02
-5.837246403098106384e-02
-1.989613622426986694e-01
-1.086087618023157120e-02
-4.844353720545768738e-02
-1.978174000978469849e-01
-6.777826696634292603e-03
-5.625583976507186890e-02
-1.929407864809036255e-01
1.616522786207497120e-05
-4.537002742290496826e-02
-1.879907548427581787e-01
-2.023597806692123413e-02
-5.684519186615943909e-02
-1.850453168153762817e-01
-8.569234982132911682e-03
-4.158046469092369080e-02
-1.777545213699340820e-01
-1.385481096804141998e-02
-4.856906458735466003e-02
-1.719945371150970459e-01
-9.328069165349006653e-03
-3.245235979557037354e-02
-1.689049005508422852e-01
9.217909537255764008e-03
-1.207955460995435715e-02
-1.446450501680374146e-01
2.775714173913002014e-02
-3.110869321972131729e-03
-1.329777091741561890e-01
1.838425174355506897e-02
1.573126576840877533e-02
-1.384377777576446533e-01
3.264764323830604553e-02
3.231037780642509460e-02
-1.084195822477340698e-01
4.852999374270439148e-02
4.708409681916236877e-02
-9.301073849201202393e-02
5.246907845139503479e-02
5.512308701872825623e-02
-9.978575259447097778e-02
6.789302080869674683e-02
6.443296372890472412e-02
-7.844290882349014282e-02
7.893596589565277100e-02
6.224441155791282654e-02
-8.135634660720825195e-02
7.379706948995590210e-02
6.358837336301803589e-02
-7.091258466243743896e-02
9.789139777421951294e-02
8.774311840534210205e-02
-7.215582579374313354e-02
6.889013200998306274e-02
8.613824844360351562e-02
-8.023434132337570190e-02
7.342759519815444946e-02
5.709177255630493164e-02
-1.102714613080024719e-01
4.855755344033241272e-02
3.803709894418716431e-02
-1.323201656341552734e-01
3.565068915486335754e-02
1.458364538848400116e-02
-1.478109061717987061e-01
3.780384734272956848e-02
1.299460604786872864e-02
-1.550999730825424194e-01
1.643626205623149872e-02
-1.627876982092857361e-02
-1.725596934556961060e-01
5.442557856440544128e-03
-3.702542930841445923e-02
-1.908687353134155273e-01
-1.132776681333780289e-02
-6.962626427412033081e-02
-2.150701135396957397e-01
-8.863983675837516785e-03
-8.429147303104400635e-02
-2.343653589487075806e-01
-2.135145477950572968e-02
-9.025815129280090332e-02
-2.438356429338455200e-01
-4.437957704067230225e-02
-1.222875788807868958e-01
-2.462225705385208130e-01
-6.269948184490203857e-02
-1.274735480546951294e-01
-2.670741975307464600e-01
-7.148628681898117065e-02
-1.214346066117286682e-01
-2.672658264636993408e-01
-6.126359105110168457e-02
-1.321901232004165649e-01
-2.635180056095123291e-01
-6.062463298439979553e-02
-1.217033341526985168e-01
-2.728994190692901611e-01
-6.129784137010574341e-02
-1.048757880926132202e-01
-2.526156604290008545e-01
-5.141743645071983337e-02
-1.075465902686119080e-01
-2.504964172840118408e-01
-4.476604610681533813e-02
-1.166415512561798096e-01
-2.394806444644927979e-01
-4.735665023326873779e-02
-1.065319404006004333e-01
-2.357792556285858154e-01
-4.670718312263488770e-02
-1.033156141638755798e-01
-2.308388650417327881e-01
-3.875026479363441467e-02
-9.301103651523590088e-02
-2.364919632673263550e-01
-1.534111797809600830e-02
-6.986661255359649658e-02
-2.085284590721130371e-01
-5.324557889252901077e-03
-3.714935109019279480e-02
-1.921937614679336548e-01
-1.031573954969644547e-02
-3.256106376647949219e-02
-1.722476780414581299e-01
-7.585424464195966721e-03
-2.779599092900753021e-02
-1.758719086647033691e-01
1.295993570238351822e-02
-2.561277011409401894e-03
-1.422611773014068604e-01
2.719225734472274780e-02
1.346663571894168854e-02
-1.213762089610099792e-01
4.788623005151748657e-02
3.315489739179611206e-02
-1.237946674227714539e-01
7.082192599773406982e-02
4.404684901237487793e-02
-1.019935607910156250e-01
6.555949151515960693e-02
4.483886435627937317e-02
-1.050740405917167664e-01
5.937219783663749695e-02
5.970342084765434265e-02
-9.482476115226745605e-02
7.753464579582214355e-02
8.288275450468063354e-02
-9.690410643815994263e-02
6.050035357475280762e-02
5.241454020142555237e-02
-1.132686957716941833e-01
5.965835228562355042e-02
4.559656977653503418e-02
-1.279513388872146606e-01
4.149144515395164490e-02
2.323752641677856445e-02
-1.491032391786575317e-01
1.820218190550804138e-02
-3.658637404441833496e-03
-1.698140203952789307e-01
2.055742312222719193e-03
-1.503249071538448334e-02
-1.775362640619277954e-01
-1.026484556496143341e-02
-4.545660316944122314e-02
-2.095481902360916138e-01
-1.910961978137493134e-02
-7.524988055229187012e-02
-2.338871806859970093e-01
-3.384325280785560608e-02
-1.019961908459663391e-01
-2.572584748268127441e-01
-4.152772575616836548e-02
-1.208605766296386719e-01
-2.732560932636260986e-01
-5.981581658124923706e-02
-1.384311020374298096e-01
-2.834397256374359131e-01
-7.024952024221420288e-02
-1.472859084606170654e-01
-2.955097556114196777e-01
-8.365274965763092041e-02
-1.621295958757400513e-01
-3.086611926555633545e-01
-8.122574537992477417e-02
-1.816650182008743286e-01
-3.340908885002136230e-01
-8.131512254476547241e-02
-1.832816600799560547e-01
-3.314905464649200439e-01
-9.019414335489273071e-02
-1.818134635686874390e-01
-3.214265406131744385e-01
-9.260188043117523193e-02
-1.750174313783645630e-01
-3.149588108062744141e-01
-9.649825096130371094e-02
-1.754227280616760254e-01
-3.063615262508392334e-01
-6.795859336853027344e-02
-1.428604722023010254e-01
-2.925819158554077148e-01
-6.078309193253517151e-02
-1.262106895446777344e-01
-2.788500189781188965e-01
-7.578492909669876099e-02
-1.366121768951416016e-01
-2.711925506591796875e-01
-7.192040979862213135e-02
-1.321989893913269043e-01
-2.734246850013732910e-01
-4.969635605812072754e-02
-1.087703183293342590e-01
-2.488259375095367432e-01
-3.863529115915298462e-02
-9.623003751039505005e-02
-2.231100052595138550e-01
-3.815545514225959778e-02
-6.237068027257919312e-02
-2.091152220964431763e-01
-1.994441077113151550e-02
-3.772844746708869934e-02
-1.941561996936798096e-01
-7.806499022990465164e-03
-3.598949685692787170e-02
-1.753541231155395508e-01
8.561531081795692444e-03
-1.522434502840042114e-02
-1.462420374155044556e-01
3.245108574628829956e-02
1.298660319298505783e-02
-1.343450695276260376e-01
4.755425080657005310e-02
2.256040275096893311e-02
-1.294752210378646851e-01
4.726580157876014709e-02
4.152193292975425720e-02
-1.301655173301696777e-01
5.603076890110969543e-02
4.058659449219703674e-02
-1.110539585351943970e-01
6.561629474163055420e-02
5.760729312896728516e-02
-1.137552037835121155e-01
5.912818759679794312e-02
3.615960851311683655e-02
-1.311777085065841675e-01
4.387157037854194641e-02
1.785726100206375122e-02
-1.425625532865524292e-01
2.486550807952880859e-02
6.937913130968809128e-03
-1.635028570890426636e-01
2.106156572699546814e-02
-1.359707862138748169e-02
-1.933426707983016968e-01
6.826664321124553680e-05
-3.052496910095214844e-02
-2.060134112834930420e-01
-3.388693183660507202e-02
-6.991160660982131958e-02
-2.296131402254104614e-01
-5.055429413914680481e-02
-1.040416508913040161e-01
-2.573038041591644287e-01
-5.773381143808364868e-02
-1.390112936496734619e-01
-2.762288749217987061e-01
-6.335674226284027100e-02
-1.483974009752273560e-01
-2.944508790969848633e-01
-8.252754807472229004e-02
-1.833414882421493530e-01
-3.268119096755981445e-01
-8.914008736610412598e-02
-1.940544545650482178e-01
-3.379199504852294922e-01
-9.248657524585723877e-02
-2.128753215074539185e-01
-3.489524424076080322e-01
-1.222286745905876160e-01
-2.414671331644058228e-01
-3.710584938526153564e-01
-1.313738524913787842e-01
-2.456561326980590820e-01
-3.836939334869384766e-01
-1.215747520327568054e-01
-2.387878298759460449e-01
-3.789156079292297363e-01
-1.184210777282714844e-01
-2.271550297737121582e-01
-3.647682964801788330e-01
-1.181175559759140015e-01
-2.263943701982498169e-01
-3.652411103248596191e-01
-1.012636497616767883e-01
-2.016401439905166626e-01
-3.368784189224243164e-01
-9.250853955745697021e-02
-1.743910759687423706e-01
-3.250079452991485596e-01
-9.454396367073059082e-02
-1.720840930938720703e-01
-3.183984458446502686e-01
-8.550492674112319946e-02
-1.697129905223846436e-01
-3.184893727302551270e-01
-7.025154680013656616e-02
-1.609848737716674805e-01
-2.998401820659637451e-01
-6.847729533910751343e-02
-1.252778619527816772e-01
-2.751097083091735840e-01
-5.470326170325279236e-02
-8.773447573184967041e-02
-2.353512197732925415e-01
-4.404501989483833313e-02
-7.768175005912780762e-02
-2.282507270574569702e-01
-1.780606992542743683e-02
-6.993857771158218384e-02
-2.174993455410003662e-01
4.986062180250883102e-03
-4.808857291936874390e-02
-1.960817724466323853e-01
5.829098634421825409e-03
-1.851725019514560699e-02
-1.696562469005584717e-01
3.994671627879142761e-02
2.696645446121692657e-03
-1.566032171249389648e-01
4.490441828966140747e-02
1.229392271488904953e-02
-1.531842797994613647e-01
4.755124077200889587e-02
2.640521526336669922e-02
-1.275935173034667969e-01
6.147987395524978638e-02
4.811134934425354004e-02
-1.199280247092247009e-01
4.504185542464256287e-02
2.750759944319725037e-02
-1.594833433628082275e-01
4.372024908661842346e-02
1.359336730092763901e-02
-1.730594485998153687e-01
3.513193130493164062e-02
-1.580026291776448488e-04
-1.779461950063705444e-01
6.035058293491601944e-03
-2.409113943576812744e-02
-2.020397037267684937e-01
-1.459262613207101822e-02
-5.266367271542549133e-02
-2.246456742286682129e-01
-4.945213347673416138e-02
-8.124278485774993896e-02
-2.681091725826263428e-01
-6.406036019325256348e-02
-1.278267353773117065e-01
-2.917248010635375977e-01
-8.061278611421585083e-02
-1.670907139778137207e-01
-3.142054677009582520e-01
-8.849412202835083008e-02
-1.816534847021102905e-01
-3.208561241626739502e-01
-9.351410716772079468e-02
-2.094590067863464355e-01
-3.515168726444244385e-01
-1.109746098518371582e-01
-2.466926276683807373e-01
-3.850997984409332275e-01
-1.391165405511856079e-01
-2.714241445064544678e-01
-4.196434617042541504e-01
-1.596469879150390625e-01
-2.959684133529663086e-01
-4.402149021625518799e-01
-1.513290554285049438e-01
-2.845231294631958008e-01
-4.238159954547882080e-01
-1.387502253055572510e-01
-2.692146301269531250e-01
-4.192926585674285889e-01
-1.430687010288238525e-01
-2.723412513732910156e-01
-4.012909531593322754e-01
-1.349028795957565308e-01
-2.571826875209808350e-01
-4.036297202110290527e-01
-1.384961009025573730e-01
-2.486938983201980591e-01
-3.858688473701477051e-01
-1.288173198699951172e-01
-2.265153080224990845e-01
-3.733858764171600342e-01
-1.238333433866500854e-01
-2.252973020076751709e-01
-3.648858368396759033e-01
-1.086048036813735962e-01
-2.179341018199920654e-01
-3.451285660266876221e-01
-1.004372015595436096e-01
-1.880528181791305542e-01
-3.442407250404357910e-01
-7.823550701141357422e-02
-1.701160073280334473e-01
-3.235443830490112305e-01
-6.324916332960128784e-02
-1.198063790798187256e-01
-2.788506746292114258e-01
-2.557340823113918304e-02
-9.701868891716003418e-02
-2.546532750129699707e-01
-2.913603559136390686e-02
-8.695190399885177612e-02
-2.349121719598770142e-01
-3.616067115217447281e-03
-6.668483465909957886e-02
-2.349534630775451660e-01
-4.765189718455076218e-03
-4.941596835851669312e-02
-2.059874236583709717e-01
1.441566273570060730e-02
-1.924349367618560791e-02
-1.849514693021774292e-01
3.188369795680046082e-02
-2.701936755329370499e-03
-1.557412892580032349e-01
3.688120096921920776e-02
2.584723383188247681e-02
-1.374616324901580811e-01
7.039251178503036499e-02
4.170507565140724182e-02
-1.343169361352920532e-01
5.577261745929718018e-02
3.030952438712120056e-02
-1.526197940111160278e-01
4.086855798959732056e-02
6.312872748821973801e-03
-1.771027147769927979e-01
3.829118981957435608e-02
-1.212701387703418732e-02
-1.959065049886703491e-01
2.090139314532279968e-02
-2.885831519961357117e-02
-2.097665518522262573e-01
-1.391597371548414230e-02
-6.876283138990402222e-02
-2.414714694023132324e-01
-4.887669160962104797e-02
-1.241801008582115173e-01
-2.795375585556030273e-01
-7.332772761583328247e-02
-1.458308547735214233e-01
-3.244275748729705811e-01
-9.262947738170623779e-02
-1.982567310333251953e-01
-3.608765304088592529e-01
-1.173536181449890137e-01
-2.370874434709548950e-01
-3.706504702568054199e-01
-1.263516098260879517e-01
-2.489940822124481201e-01
-3.943834602832794189e-01
-1.586393266916275024e-01
-2.847111225128173828e-01
-4.253822565078735352e-01
-1.699222475290298462e-01
-3.125070333480834961e-01
-4.577008783817291260e-01
-1.825657486915588379e-01
-3.322085142135620117e-01
-4.616872370243072510e-01
-1.795684844255447388e-01
-3.274149000644683838e-01
-4.665600955486297607e-01
-1.515263617038726807e-01
-3.125700354576110840e-01
-4.563852548599243164e-01
-1.629912555217742920e-01
-3.010648787021636963e-01
-4.333643913269042969e-01
-1.567106097936630249e-01
-2.971031665802001953e-01
-4.210157096385955811e-01
-1.504074037075042725e-01
-2.788134813308715820e-01
-4.146413207054138184e-01
-1.505410075187683105e-01
-2.764281630516052246e-01
-4.220522642135620117e-01
-1.575114727020263672e-01
-2.720673680305480957e-01
-4.220658838748931885e-01
-1.481098532676696777e-01
-2.538524270057678223e-01
-4.123049080371856689e-01
-1.243044212460517883e-01
-2.451370358467102051e-01
-4.002155065536499023e-01
-1.078128516674041748e-01
-2.108773589134216309e-01
-3.695876002311706543e-01
-7.799132913351058960e-02
-1.655226945877075195e-01
-3.149283528327941895e-01
-4.414843767881393433e-02
-1.194387525320053101e-01
-2.794517576694488525e-01
-3.394062072038650513e-02
-1.038761511445045471e-01
-2.737101912498474121e-01
8.574410341680049896e-03
-6.628876924514770508e-02
-2.475717812776565552e-01
3.032144159078598022e-03
-4.531940072774887085e-02
-2.223682403564453125e-01
1.523955445736646652e-02
-2.902199141681194305e-02
-1.946078836917877197e-01
2.021901495754718781e-02
-1.089388038963079453e-02
-1.783695816993713379e-01
4.023472219705581665e-02
2.557919546961784363e-02
-1.454803645610809326e-01
6.503088772296905518e-02
4.577196389436721802e-02
-1.274259686470031738e-01
4.673934355378150940e-02
2.739861980080604553e-02
-1.643418371677398682e-01
3.104769811034202576e-02
-9.309500455856323242e-04
-1.861721426248550415e-01
3.287974745035171509e-02
-2.398316375911235809e-02
-2.055648118257522583e-01
7.409969810396432877e-03
-4.575407505035400391e-02
-2.420480996370315552e-01
-2.189782261848449707e-02
-8.888502418994903564e-02
-2.675355076789855957e-01
-6.260407716035842896e-02
-1.437702924013137817e-01
-3.094318211078643799e-01
-7.866719365119934082e-02
-1.717855632305145264e-01
-3.516727983951568604e-01
-1.058540791273117065e-01
-2.164887636899948120e-01
-3.849396407604217529e-01
-1.411192715167999268e-01
-2.713568508625030518e-01
-4.134201109409332275e-01
-1.550299972295761108e-01
-2.995106875896453857e-01
-4.498080015182495117e-01
-1.942063122987747192e-01
-3.294032812118530273e-01
-4.765140414237976074e-01
-1.945974379777908325e-01
-3.530823588371276855e-01
-5.039651989936828613e-01
-1.919513940811157227e-01
-3.596125245094299316e-01
-4.902565777301788330e-01
-1.968122124671936035e-01
-3.713039457798004150e-01
-5.007442831993103027e-01
-1.801660805940628052e-01
-3.560082316398620605e-01
-4.846584498882293701e-01
-1.676333546638488770e-01
-3.342721760272979736e-01
-4.638453423976898193e-01
-1.610223054885864258e-01
-3.105857372283935547e-01
-4.574441015720367432e-01
-1.607539653778076172e-01
-3.126381635665893555e-01
-4.600370824337005615e-01
-1.697351932525634766e-01
-3.222946822643280029e-01
-4.703861773014068604e-01
-1.871598362922668457e-01
-3.330246210098266602e-01
-5.035046339035034180e-01
-1.654111146926879883e-01
-3.064444065093994141e-01
-4.770675599575042725e-01
-1.610176414251327515e-01
-2.837388515472412109e-01
-4.483186900615692139e-01
-1.371339261531829834e-01
-2.458473294973373413e-01
-4.235324859619140625e-01
-1.018077433109283447e-01
-2.031512409448623657e-01
-3.682647347450256348e-01
-7.728262245655059814e-02
-1.536101996898651123e-01
-3.199250698089599609e-01
-3.321356698870658875e-02
-1.167799830436706543e-01
-2.955884039402008057e-01
-7.850948721170425415e-03
-8.783694356679916382e-02
-2.672080099582672119e-01
2.751230727881193161e-03
-6.689973920583724976e-02
-2.370680719614028931e-01
1.189619954675436020e-02
-3.173590078949928284e-02
-2.108290195465087891e-01
5.651594139635562897e-03
-1.794212684035301208e-02
-1.955273896455764771e-01
3.221438452601432800e-02
1.573156751692295074e-02
-1.661533564329147339e-01
5.845051258802413940e-02
3.939758241176605225e-02
-1.376097202301025391e-01
3.766259551048278809e-02
1.163336914032697678e-02
-1.784896999597549438e-01
1.654324680566787720e-02
-2.162469550967216492e-02
-2.129923105239868164e-01
9.759577922523021698e-03
-3.913475200533866882e-02
-2.404085248708724976e-01
-6.135575938969850540e-03
-8.185645937919616699e-02
-2.720294594764709473e-01
-4.239415004849433899e-02
-1.186986789107322693e-01
-2.980513572692871094e-01
-6.440580636262893677e-02
-1.729406565427780151e-01
-3.394321799278259277e-01
-1.182748898863792419e-01
-2.382102012634277344e-01
-4.013201892375946045e-01
-1.387319415807723999e-01
-2.772772312164306641e-01
-4.396270215511322021e-01
-1.577107310295104980e-01
-2.918485403060913086e-01
-4.534127414226531982e-01
-1.910794675350189209e-01
-3.368681371212005615e-01
-4.890389442443847656e-01
-2.005107402801513672e-01
-3.515722155570983887e-01
-5.134625434875488281e-01
-2.161770761013031006e-01
-3.863938748836517334e-01
-5.292130708694458008e-01
-1.896139681339263916e-01
-3.683512210845947266e-01
-5.300413370132446289e-01
-1.895767301321029663e-01
-3.906112909317016602e-01
-5.283024311065673828e-01
-1.844162046909332275e-01
-3.751253485679626465e-01
-5.309782028198242188e-01
-1.887599229812622070e-01
-3.625035583972930908e-01
-5.048623085021972656e-01
-1.782469004392623901e-01
-3.413366675376892090e-01
-4.936106801033020020e-01
-1.855369657278060913e-01
-3.509452641010284424e-01
-4.958539605140686035e-01
-1.901914775371551514e-01
-3.440648913383483887e-01
-5.035633444786071777e-01
-2.071781307458877563e-01
-3.650073707103729248e-01
-5.275493264198303223e-01
-1.982647031545639038e-01
-3.470376729965209961e-01
-5.233315229415893555e-01
-1.721221059560775757e-01
-3.045974671840667725e-01
-4.902539253234863281e-01
-1.505665928125381470e-01
-2.784323990345001221e-01
-4.620614349842071533e-01
-1.070063486695289612e-01
-2.293995320796966553e-01
-4.197592437267303467e-01
-7.329767942428588867e-02
-1.871148943901062012e-01
-3.716488778591156006e-01
-6.924530863761901855e-02
-1.614309400320053101e-01
-3.431082665920257568e-01
-3.578352183103561401e-02
-1.119308024644851685e-01
-3.006686866283416748e-01
-1.372440159320831299e-02
-7.812282443046569824e-02
-2.781950533390045166e-01
1.728499308228492737e-02
-2.686936780810356140e-02
-2.343824356794357300e-01
1.635992527008056641e-02
-2.670295536518096924e-02
-2.127826511859893799e-01
2.705690637230873108e-02
1.121894572861492634e-03
-1.937147974967956543e-01
6.209314614534378052e-02
4.277401417493820190e-02
-1.471469402313232422e-01
2.791769802570343018e-02
-2.396478690207004547e-02
-2.012839317321777344e-01
4.797461442649364471e-03
-5.123275145888328552e-02
-2.382357120513916016e-01
1.312767714262008667e-02
-6.939128786325454712e-02
-2.730965614318847656e-01
-1.748543977737426758e-02
-1.006723418831825256e-01
-3.026007115840911865e-01
-4.761971533298492432e-02
-1.493598818778991699e-01
-3.462286591529846191e-01
-8.125041425228118896e-02
-1.982027888298034668e-01
-3.915369212627410889e-01
-1.146422699093818665e-01
-2.669643163681030273e-01
-4.388943314552307129e-01
-1.475399732589721680e-01
-3.065226078033447266e-01
-4.686881303787231445e-01
-1.699718683958053589e-01
-3.217854201793670654e-01
-4.847677052021026611e-01
-1.976436823606491089e-01
-3.568325042724609375e-01
-5.038703680038452148e-01
-2.127157002687454224e-01
-3.784177899360656738e-01
-5.300323963165283203e-01
-2.098514884710311890e-01
-4.098650217056274414e-01
-5.737120509147644043e-01
-1.936130076646804810e-01
-3.954551219940185547e-01
-5.561636686325073242e-01
-1.779646724462509155e-01
-3.907681703567504883e-01
-5.569987297058105469e-01
-1.919385045766830444e-01
-3.958548009395599365e-01
-5.501861572265625000e-01
-1.882429271936416626e-01
-3.887541294097900391e-01
-5.360708236694335938e-01
-1.719572544097900391e-01
-3.808395862579345703e-01
-5.334935188293457031e-01
-1.917498260736465454e-01
-3.862272202968597412e-01
-5.373444557189941406e-01
-1.902719289064407349e-01
-3.708448410034179688e-01
-5.377185940742492676e-01
-2.107301205396652222e-01
-3.827145695686340332e-01
-5.403590202331542969e-01
-1.941145360469818115e-01
-3.475984036922454834e-01
-5.342340469360351562e-01
-1.876828670501708984e-01
-3.438440263271331787e-01
-5.188914537429809570e-01
-1.535034477710723877e-01
-3.155893981456756592e-01
-4.956364929676055908e-01
-1.167430430650711060e-01
-2.662406861782073975e-01
-4.587851762771606445e-01
-9.007366746664047241e-02
-2.089165747165679932e-01
-4.190138578414916992e-01
-6.958042085170745850e-02
-1.785948425531387329e-01
-3.760859668254852295e-01
-3.622966632246971130e-02
-1.372484713792800903e-01
-3.321776688098907471e-01
-3.790976107120513916e-02
-1.081424802541732788e-01
-3.126307725906372070e-01
-5.015439819544553757e-03
-6.006255373358726501e-02
-2.678220570087432861e-01
1.254557818174362183e-02
-3.781436011195182800e-02
-2.277098149061203003e-01
3.350374102592468262e-02
1.638715388253331184e-03
-1.803035885095596313e-01
6.569467484951019287e-02
2.900555171072483063e-02
-1.593572199344635010e-01
1.669694110751152039e-02
-3.242223337292671204e-02
-2.335186749696731567e-01
2.413482172414660454e-03
-6.628867983818054199e-02
-2.666426897048950195e-01
-1.293595787137746811e-02
-8.154869079589843750e-02
-2.818533182144165039e-01
-2.526895515620708466e-02
-1.140775457024574280e-01
-3.283936381340026855e-01
-5.928542837500572205e-02
-1.540234088897705078e-01
-3.645769953727722168e-01
-7.515324652194976807e-02
-2.120699733495712280e-01
-3.978310823440551758e-01
-1.261560022830963135e-01
-2.782421708106994629e-01
-4.579401612281799316e-01
-1.500832587480545044e-01
-3.302625119686126709e-01
-5.037135481834411621e-01
-1.768683940172195435e-01
-3.529956936836242676e-01
-5.165884494781494141e-01
-1.935293972492218018e-01
-3.629277646541595459e-01
-5.227591991424560547e-01
-2.052453905344009399e-01
-3.831851780414581299e-01
-5.596854686737060547e-01
-2.040870338678359985e-01
-3.980801105499267578e-01
-5.655780434608459473e-01
-1.894518285989761353e-01
-4.046980440616607666e-01
-5.610377788543701172e-01
-1.774837076663970947e-01
-4.027644991874694824e-01
-5.589258074760437012e-01
-1.763499081134796143e-01
-3.970707058906555176e-01
-5.642197728157043457e-01
-1.972039937973022461e-01
-4.069762825965881348e-01
-5.669775009155273438e-01
-1.912955492734909058e-01
-4.081569015979766846e-01
-5.561749935150146484e-01
-1.943393200635910034e-01
-4.062565267086029053e-01
-5.785269737243652344e-01
-2.043629884719848633e-01
-4.154233038425445557e-01
-5.834906101226806641e-01
-2.202021479606628418e-01
-4.036189019680023193e-01
-5.716304183006286621e-01
-2.082659900188446045e-01
-3.764409422874450684e-01
-5.480129718780517578e-01
-1.936372667551040649e-01
-3.714156150817871094e-01
-5.488294363021850586e-01
-1.667665690183639526e-01
-3.418726921081542969e-01
-5.242160558700561523e-01
-1.137000545859336853e-01
-2.863001227378845215e-01
-4.722660779953002930e-01
-9.924436360597610474e-02
-2.315775156021118164e-01
-4.328366219997406006e-01
-8.895849436521530151e-02
-2.131230831146240234e-01
-4.041461348533630371e-01
-6.447958946228027344e-02
-1.585573256015777588e-01
-3.644711971282958984e-01
-3.519695252180099487e-02
-1.175472140312194824e-01
-3.226895630359649658e-01
-1.075688842684030533e-02
-7.514552772045135498e-02
-2.730267643928527832e-01
1.652138493955135345e-02
-4.717560857534408569e-02
-2.361102700233459473e-01
2.045377530157566071e-02
-1.019344571977853775e-02
-1.926901936531066895e-01
6.419366598129272461e-02
2.613183483481407166e-02
-1.856699734926223755e-01
1.358524523675441742e-02
-3.532411903142929077e-02
-2.331103384494781494e-01
3.286034567281603813e-03
-6.292896717786788940e-02
-2.750080823898315430e-01
-1.902456395328044891e-02
-1.019699275493621826e-01
-3.124786913394927979e-01
-4.861035570502281189e-02
-1.391590833663940430e-01
-3.409801721572875977e-01
-5.934480950236320496e-02
-1.699328571557998657e-01
-3.717092573642730713e-01
-7.879411429166793823e-02
-2.176016420125961304e-01
-4.223003089427947998e-01
-1.356784850358963013e-01
-2.767230868339538574e-01
-4.547791182994842529e-01
-1.648931801319122314e-01
-3.173237740993499756e-01
-5.141324996948242188e-01
-1.894841492176055908e-01
-3.593481183052062988e-01
-5.517762303352355957e-01
-1.926417052745819092e-01
-3.752653002738952637e-01
-5.556256175041198730e-01
-1.969675421714782715e-01
-3.924514651298522949e-01
-5.852720737457275391e-01
-1.915896534919738770e-01
-4.116519987583160400e-01
-5.849482417106628418e-01
-2.012231349945068359e-01
-4.244589507579803467e-01
-5.984939932823181152e-01
-2.125193774700164795e-01
-4.337441027164459229e-01
-5.894459486007690430e-01
-2.088369727134704590e-01
-4.222408831119537354e-01
-5.811793208122253418e-01
-2.198578864336013794e-01
-4.373040199279785156e-01
-5.975043773651123047e-01
-2.196773141622543335e-01
-4.462479054927825928e-01
-5.951008200645446777e-01
-2.056339532136917114e-01
-4.518126249313354492e-01
-6.075055003166198730e-01
-2.334188073873519897e-01
-4.483306407928466797e-01
-5.876570940017700195e-01
-2.370088100433349609e-01
-4.276097416877746582e-01
-5.941627621650695801e-01
-2.333178818225860596e-01
-4.262940585613250732e-01
-5.842779874801635742e-01
-1.958066076040267944e-01
-3.879342377185821533e-01
-5.801910161972045898e-01
-1.596277058124542236e-01
-3.470891416072845459e-01
-5.498141050338745117e-01
-1.250412464141845703e-01
-2.944548130035400391e-01
-4.921360313892364502e-01
-1.134444177150726318e-01
-2.555480301380157471e-01
-4.601750969886779785e-01
-9.968449175357818604e-02
-2.406080663204193115e-01
-4.372618794441223145e-01
-9.549354016780853271e-02
-1.908037811517715454e-01
-4.016492366790771484e-01
-5.935317277908325195e-02
-1.472945064306259155e-01
-3.500290513038635254e-01
-2.164370007812976837e-02
-9.668879956007003784e-02
-2.968371212482452393e-01
1.536475867033004761e-02
-4.924370720982551575e-02
-2.516589462757110596e-01
3.107770159840583801e-02
-1.617260091006755829e-02
-2.084207236766815186e-01
6.440143287181854248e-02
1.633064448833465576e-02
-1.966771930456161499e-01
3.950943052768707275e-02
-2.517401613295078278e-02
-2.380355447530746460e-01
1.723474636673927307e-02
-7.398018240928649902e-02
-2.910187542438507080e-01
-1.746533089317381382e-04
-1.050585806369781494e-01
-3.350584506988525391e-01
-3.829208761453628540e-02
-1.472390741109848022e-01
-3.648551106452941895e-01
-7.606906443834304810e-02
-1.860767453908920288e-01
-3.900901079177856445e-01
-8.633258938789367676e-02
-2.189169377088546753e-01
-4.282867312431335449e-01
-1.226064041256904602e-01
-2.727194130420684814e-01
-4.806977808475494385e-01
-1.571253687143325806e-01
-3.031489253044128418e-01
-5.279545783996582031e-01
-1.830068826675415039e-01
-3.646516501903533936e-01
-5.663479566574096680e-01
-1.904515624046325684e-01
-3.871498703956604004e-01
-5.888041257858276367e-01
-2.067977041006088257e-01
-4.137218594551086426e-01
-6.045041084289550781e-01
-1.950457841157913208e-01
-4.157361984252929688e-01
-6.068203449249267578e-01
-2.083493918180465698e-01
-4.386713504791259766e-01
-6.205724477767944336e-01
-2.152178883552551270e-01
-4.524695277214050293e-01
-6.225212812423706055e-01
-2.306799888610839844e-01
-4.444307088851928711e-01
-6.110046505928039551e-01
-2.451777905225753784e-01
-4.626570641994476318e-01
-6.325862407684326172e-01
-2.147720605134963989e-01
-4.701710343360900879e-01
-6.306592226028442383e-01
-2.265430539846420288e-01
-4.705255925655364990e-01
-6.364312171936035156e-01
-2.533006072044372559e-01
-4.536532163619995117e-01
-6.191931962966918945e-01
-2.485720068216323853e-01
-4.503135085105895996e-01
-6.175768375396728516e-01
-2.364020943641662598e-01
-4.303738176822662354e-01
-6.169728636741638184e-01
-2.192969173192977905e-01
-4.125496745109558105e-01
-6.026125550270080566e-01
-1.900422573089599609e-01
-3.602921664714813232e-01
-5.784701108932495117e-01
-1.562815457582473755e-01
-3.125578165054321289e-01
-5.336257815361022949e-01
-1.276949346065521240e-01
-2.858841419219970703e-01
-4.841437935829162598e-01
-1.369183808565139771e-01
-2.444461137056350708e-01
-4.560644924640655518e-01
-1.130388304591178894e-01
-2.078698575496673584e-01
-4.171836078166961670e-01
-7.728368788957595825e-02
-1.584929823875427246e-01
-3.798495531082153320e-01
-4.238388687372207642e-02
-1.180973872542381287e-01
-3.254190087318420410e-01
2.448600251227617264e-03
-5.561466142535209656e-02
-2.666770815849304199e-01
3.445034846663475037e-02
-2.405531145632266998e-02
-2.193980515003204346e-01
7.343774288892745972e-02
1.859717629849910736e-02
-2.056227624416351318e-01
4.734935238957405090e-02
-5.809361115097999573e-03
-2.592131793498992920e-01
2.230473980307579041e-02
-6.882373988628387451e-02
-3.033159971237182617e-01
-2.382775023579597473e-02
-1.210070997476577759e-01
-3.592518866062164307e-01
-5.687563866376876831e-02
-1.629840880632400513e-01
-3.925724029541015625e-01
-8.712700754404067993e-02
-1.991275846958160400e-01
-4.222331047058105469e-01
-8.407093584537506104e-02
-2.245180159807205200e-01
-4.453756809234619141e-01
-1.051807254552841187e-01
-2.748452723026275635e-01
-4.923673570156097412e-01
-1.488766968250274658e-01
-3.338572084903717041e-01
-5.409834980964660645e-01
-1.753199994564056396e-01
-3.689943253993988037e-01
-5.793051719665527344e-01
-1.951418220996856689e-01
-4.084635078907012939e-01
-6.074628233909606934e-01
-2.018638104200363159e-01
-4.213068783283233643e-01
-6.200703382492065430e-01
-1.995730400085449219e-01
-4.296595454216003418e-01
-6.272255182266235352e-01
-2.202340066432952881e-01
-4.577217102050781250e-01
-6.503775119781494141e-01
-2.462474107742309570e-01
-4.685650169849395752e-01
-6.508711576461791992e-01
-2.198517024517059326e-01
-4.672527611255645752e-01
-6.495582461357116699e-01
-2.115978300571441650e-01
-4.498937129974365234e-01
-6.492558717727661133e-01
-2.173569500446319580e-01
-4.654039740562438965e-01
-6.536712050437927246e-01
-2.376777827739715576e-01
-4.628678858280181885e-01
-6.644527316093444824e-01
-2.400386631488800049e-01
-4.637138545513153076e-01
-6.571724414825439453e-01
-2.333330661058425903e-01
-4.450115561485290527e-01
-6.294222474098205566e-01
-2.274320125579833984e-01
-4.286664426326751709e-01
-6.200146079063415527e-01
-2.148475795984268188e-01
-4.132475852966308594e-01
-6.144426465034484863e-01
-2.004956007003784180e-01
-3.800141811370849609e-01
-6.012330651283264160e-01
-1.729216128587722778e-01
-3.389246463775634766e-01
-5.424234271049499512e-01
-1.559609621763229370e-01
-2.842649519443511963e-01
-4.909709095954895020e-01
-1.331957131624221802e-01
-2.502838969230651855e-01
-4.657457768917083740e-01
-1.050007045269012451e-01
-2.045780271291732788e-01
-4.214338362216949463e-01
-5.262804776430130005e-02
-1.524365842342376709e-01
-3.690049350261688232e-01
-3.390001878142356873e-02
-1.112342029809951782e-01
-3.210449516773223877e-01
1.704096794128417969e-03
-6.674282252788543701e-02
-2.753034234046936035e-01
3.161788359284400940e-02
-1.452384609729051590e-02
-2.118991166353225708e-01
7.776891440153121948e-02
2.057424187660217285e-02
-2.055155634880065918e-01
4.357960075139999390e-02
-1.864648796617984772e-02
-2.623692452907562256e-01
3.321687504649162292e-02
-5.253000557422637939e-02
-2.992834150791168213e-01
-1.528055127710103989e-02
-1.188484653830528259e-01
-3.471840023994445801e-01
-7.052107155323028564e-02
-1.627850085496902466e-01
-3.841769695281982422e-01
-7.462283223867416382e-02
-1.950856149196624756e-01
-4.184037148952484131e-01
-7.706822454929351807e-02
-2.210105061531066895e-01
-4.425176084041595459e-01
-1.181808933615684509e-01
-2.689588963985443115e-01
-4.886800050735473633e-01
-1.556446403264999390e-01
-3.207564055919647217e-01
-5.388688445091247559e-01
-1.601298600435256958e-01
-3.558284044265747070e-01
-5.722182989120483398e-01
-1.812620759010314941e-01
-3.863495588302612305e-01
-6.036087870597839355e-01
-2.004997730255126953e-01
-4.213089048862457275e-01
-6.278018951416015625e-01
-1.978714317083358765e-01
-4.277335703372955322e-01
-6.308078765869140625e-01
-2.236697673797607422e-01
-4.525076746940612793e-01
-6.508967876434326172e-01
-2.442070543766021729e-01
-4.627104699611663818e-01
-6.619922518730163574e-01
-2.296367734670639038e-01
-4.614878892898559570e-01
-6.375430226325988770e-01
-2.081615775823593140e-01
-4.328837990760803223e-01
-6.353629231452941895e-01
-2.381917983293533325e-01
-4.481739997863769531e-01
-6.503675580024719238e-01
-2.357024848461151123e-01
-4.513004422187805176e-01
-6.514815092086791992e-01
-2.269641757011413574e-01
-4.399912357330322266e-01
-6.537016630172729492e-01
-2.196632772684097290e-01
-4.399586021900177002e-01
-6.457646489143371582e-01
-2.081681191921234131e-01
-4.206311702728271484e-01
-6.383647322654724121e-01
-2.035510838031768799e-01
-3.864204287528991699e-01
-6.057692766189575195e-01
-1.978192478418350220e-01
-3.805625438690185547e-01
-6.029712557792663574e-01
-1.815070956945419312e-01
-3.378525078296661377e-01
-5.684418082237243652e-01
-1.434338986873626709e-01
-2.987135946750640869e-01
-5.140649676322937012e-01
-1.244135573506355286e-01
-2.425504028797149658e-01
-4.620761275291442871e-01
-8.249291032552719116e-02
-1.999284625053405762e-01
-4.229018688201904297e-01
-5.006019026041030884e-02
-1.483368873596191406e-01
-3.628809750080108643e-01
-2.373034507036209106e-02
-9.851228445768356323e-02
-3.178878724575042725e-01
1.712339185178279877e-02
-5.642064660787582397e-02
-2.797035574913024902e-01
5.164398252964019775e-02
-1.552134752273559570e-02
-2.196525633335113525e-01
6.527754664421081543e-02
2.885365486145019531e-02
-2.037489712238311768e-01
4.200986772775650024e-02
-1.561518386006355286e-02
-2.578853368759155273e-01
2.575458586215972900e-02
-5.478015542030334473e-02
-2.974404692649841309e-01
-1.410759333521127701e-02
-1.048351824283599854e-01
-3.343792855739593506e-01
-5.558887496590614319e-02
-1.513980329036712646e-01
-3.817537128925323486e-01
-6.982906162738800049e-02
-1.806654781103134155e-01
-4.165043830871582031e-01
-8.595421165227890015e-02
-2.040392309427261353e-01
-4.464020133018493652e-01
-1.151306927204132080e-01
-2.647492289543151855e-01
-4.975572526454925537e-01
-1.476697325706481934e-01
-2.877037525177001953e-01
-5.249218940734863281e-01
-1.528938412666320801e-01
-3.386655747890472412e-01
-5.684371590614318848e-01
-1.739218831062316895e-01
-3.752754330635070801e-01
-5.901014804840087891e-01
-1.884642541408538818e-01
-3.920912444591522217e-01
-6.013153791427612305e-01
-2.175052464008331299e-01
-4.414127469062805176e-01
-6.455729603767395020e-01
-2.223852723836898804e-01
-4.242259263992309570e-01
-6.380571722984313965e-01
-2.298404127359390259e-01
-4.344899058341979980e-01
-6.413614749908447266e-01
-2.430792748928070068e-01
-4.397916495800018311e-01
-6.294582486152648926e-01
-2.143846899271011353e-01
-4.079561829566955566e-01
-6.177979111671447754e-01
-1.998102664947509766e-01
-4.152775108814239502e-01
-6.298986077308654785e-01
-2.052459865808486938e-01
-4.047955572605133057e-01
-6.271336078643798828e-01
-2.166076302528381348e-01
-4.137661457061767578e-01
-6.369983553886413574e-01
-2.287196367979049683e-01
-4.215604960918426514e-01
-6.364685893058776855e-01
-1.963905394077301025e-01
-3.986948132514953613e-01
-6.189109086990356445e-01
-1.903425604104995728e-01
-3.655019402503967285e-01
-6.049711108207702637e-01
-1.909035593271255493e-01
-3.655925989151000977e-01
-6.047484278678894043e-01
-1.630583703517913818e-01
-3.176557719707489014e-01
-5.663498044013977051e-01
-1.252960115671157837e-01
-2.810663282871246338e-01
-5.069127082824707031e-01
-1.118111014366149902e-01
-2.470560818910598755e-01
-4.608374238014221191e-01
-5.923823267221450806e-02
-1.931131929159164429e-01
-4.131611287593841553e-01
-3.525156900286674500e-02
-1.386403292417526245e-01
-3.640607893466949463e-01
-8.044074289500713348e-03
-9.683199971914291382e-02
-3.284465968608856201e-01
2.128344774246215820e-02
-5.622646212577819824e-02
-2.801136970520019531e-01
5.337161198258399963e-02
-8.176431991159915924e-03
-2.260746359825134277e-01
9.084891527891159058e-02
3.419320657849311829e-02
-1.837987899780273438e-01
6.361278146505355835e-02
-1.220468431711196899e-02
-2.534579932689666748e-01
2.978511154651641846e-02
-6.792099028825759888e-02
-3.064936399459838867e-01
-1.175247714854776859e-03
-1.024579033255577087e-01
-3.430947661399841309e-01
-2.945183590054512024e-02
-1.446846872568130493e-01
-3.857735097408294678e-01
-7.052972912788391113e-02
-1.965337246656417847e-01
-4.374421834945678711e-01
-9.593827277421951294e-02
-2.239175438880920410e-01
-4.622321426868438721e-01
-1.133823841810226440e-01
-2.497253417968750000e-01
-4.801681935787200928e-01
-1.223841160535812378e-01
-2.576265335083007812e-01
-4.980953633785247803e-01
-1.335432380437850952e-01
-3.017165362834930420e-01
-5.404039621353149414e-01
-1.668259203433990479e-01
-3.479714989662170410e-01
-5.780865550041198730e-01
-1.743247807025909424e-01
-3.681794106960296631e-01
-5.862912535667419434e-01
-1.874092072248458862e-01
-3.983853459358215332e-01
-6.237635016441345215e-01
-2.157213985919952393e-01
-4.130696952342987061e-01
-6.277160644531250000e-01
-2.231061756610870361e-01
-4.218226969242095947e-01
-6.350793838500976562e-01
-2.264599204063415527e-01
-4.230615496635437012e-01
-6.287897825241088867e-01
-2.131600975990295410e-01
-4.142624735832214355e-01
-6.293575763702392578e-01
-1.939161717891693115e-01
-3.999989032745361328e-01
-6.333704590797424316e-01
-1.938235759735107422e-01
-4.028587341308593750e-01
-6.388417482376098633e-01
-2.075123488903045654e-01
-4.122276306152343750e-01
-6.408779025077819824e-01
-2.116077840328216553e-01
-3.916546106338500977e-01
-6.422979235649108887e-01
-1.854231357574462891e-01
-3.731838762760162354e-01
-6.214769482612609863e-01
-1.799156367778778076e-01
-3.568660318851470947e-01
-5.858583450317382812e-01
-1.711969226598739624e-01
-3.325581252574920654e-01
-5.733308792114257812e-01
-1.517959088087081909e-01
-2.978006899356842041e-01
-5.220097303390502930e-01
-1.157084181904792786e-01
-2.511379420757293701e-01
-5.059987306594848633e-01
-1.081617996096611023e-01
-2.243523895740509033e-01
-4.512215256690979004e-01
-5.906089022755622864e-02
-1.755066066980361938e-01
-4.086316525936126709e-01
-2.418134175240993500e-02
-1.314167231321334839e-01
-3.711252510547637939e-01
-1.496772747486829758e-03
-8.566391468048095703e-02
-3.202482461929321289e-01
2.155075035989284515e-02
-3.507564961910247803e-02
-2.645549178123474121e-01
5.875570327043533325e-02
-5.686196032911539078e-03
-2.180574983358383179e-01
9.574710577726364136e-02
4.941472038626670837e-02
-1.929345726966857910e-01
4.821573570370674133e-02
-2.709781005978584290e-02
-2.580565810203552246e-01
1.758312620222568512e-02
-6.398129463195800781e-02
-3.126602768898010254e-01
-1.489769108593463898e-02
-1.127351745963096619e-01
-3.695486187934875488e-01
-3.687718138098716736e-02
-1.497526317834854126e-01
-4.084273874759674072e-01
-7.247580587863922119e-02
-2.004044651985168457e-01
-4.488360881805419922e-01
-7.363397628068923950e-02
-2.221375405788421631e-01
-4.677971005439758301e-01
-9.915535897016525269e-02
-2.298982441425323486e-01
-4.765317440032958984e-01
-1.119749173521995544e-01
-2.554939985275268555e-01
-4.944969415664672852e-01
-1.106088086962699890e-01
-2.753595709800720215e-01
-5.219128131866455078e-01
-1.405409127473831177e-01
-3.217869997024536133e-01
-5.584411621093750000e-01
-1.741262823343276978e-01
-3.444482684135437012e-01
-5.741282701492309570e-01
-1.817716211080551147e-01
-3.611209690570831299e-01
-5.827636122703552246e-01
-2.118552774190902710e-01
-3.863352835178375244e-01
-6.072616577148437500e-01
-2.242652326822280884e-01
-4.097574055194854736e-01
-6.144993901252746582e-01
-2.358022481203079224e-01
-4.155810773372650146e-01
-6.291366219520568848e-01
-2.278021723031997681e-01
-4.003480076789855957e-01
-6.262813210487365723e-01
-2.038339227437973022e-01
-3.995207548141479492e-01
-6.261233091354370117e-01
-1.978991478681564331e-01
-3.863800764083862305e-01
-6.309226751327514648e-01
-2.088358104228973389e-01
-3.797730207443237305e-01
-6.239859461784362793e-01
-1.920099556446075439e-01
-3.504046499729156494e-01
-6.112650632858276367e-01
-1.639841943979263306e-01
-3.386519849300384521e-01
-5.941512584686279297e-01
-1.472409963607788086e-01
-3.035077750682830811e-01
-5.565046668052673340e-01
-1.450992673635482788e-01
-2.872800529003143311e-01
-5.169741511344909668e-01
-1.332099735736846924e-01
-2.546580135822296143e-01
-4.932654798030853271e-01
-9.459219872951507568e-02
-2.095099389553070068e-01
-4.677591919898986816e-01
-6.682654470205307007e-02
-1.794468611478805542e-01
-4.297113716602325439e-01
-3.468443080782890320e-02
-1.563973575830459595e-01
-3.844996392726898193e-01
-1.009138301014900208e-02
-1.133031100034713745e-01
-3.469178080558776855e-01
1.997626200318336487e-02
-7.475762069225311279e-02
-3.101404011249542236e-01
5.003527924418449402e-02
-2.359285391867160797e-02
-2.603394091129302979e-01
5.942181497812271118e-02
1.879095286130905151e-02
-2.148480862379074097e-01
8.684271574020385742e-02
4.145180433988571167e-02
-1.967104375362396240e-01
5.285773798823356628e-02
-2.445068024098873138e-02
-2.582482993602752686e-01
3.000412881374359131e-02
-7.073017954826354980e-02
-3.027893304824829102e-01
-9.714399464428424835e-03
-1.142982691526412964e-01
-3.648275732994079590e-01
-3.278570994734764099e-02
-1.534262150526046753e-01
-3.979981243610382080e-01
-5.153159052133560181e-02
-1.743982434272766113e-01
-4.260325729846954346e-01
-5.503274500370025635e-02
-1.978764683008193970e-01
-4.498621821403503418e-01
-5.896573513746261597e-02
-2.033206224441528320e-01
-4.410265088081359863e-01
-7.553984969854354858e-02
-2.112340927124023438e-01
-4.672686755657196045e-01
-8.986612409353256226e-02
-2.502255141735076904e-01
-5.034676790237426758e-01
-1.341452896595001221e-01
-2.859071493148803711e-01
-5.460647344589233398e-01
-1.423033028841018677e-01
-3.083685040473937988e-01
-5.556894540786743164e-01
-1.425245851278305054e-01
-3.033257126808166504e-01
-5.544077754020690918e-01
-1.745094209909439087e-01
-3.255266845226287842e-01
-5.488682985305786133e-01
-1.804317235946655273e-01
-3.427717685699462891e-01
-5.709747672080993652e-01
-2.018954157829284668e-01
-3.580754995346069336e-01
-5.878449082374572754e-01
-1.981523782014846802e-01
-3.558462858200073242e-01
-5.888789892196655273e-01
-1.865219622850418091e-01
-3.748325407505035400e-01
-5.962709188461303711e-01
-1.935851126909255981e-01
-3.645035624504089355e-01
-5.974172949790954590e-01
-1.853572428226470947e-01
-3.333199620246887207e-01
-5.922306180000305176e-01
-1.643062680959701538e-01
-3.362996578216552734e-01
-5.844815373420715332e-01
-1.545170396566390991e-01
-3.256750702857971191e-01
-5.683661699295043945e-01
-1.396022289991378784e-01
-2.871926128864288330e-01
-5.289581418037414551e-01
-1.319577097892761230e-01
-2.702338099479675293e-01
-4.927079975605010986e-01
-1.053030863404273987e-01
-2.305160760879516602e-01
-4.675017595291137695e-01
-7.436842471361160278e-02
-1.993894577026367188e-01
-4.370073080062866211e-01
-6.721132248640060425e-02
-1.777590662240982056e-01
-4.143497347831726074e-01
-3.646027669310569763e-02
-1.559082418680191040e-01
-3.805880546569824219e-01
-4.799795802682638168e-03
-1.154598742723464966e-01
-3.385007679462432861e-01
1.933359168469905853e-02
-7.682584226131439209e-02
-3.099842369556427002e-01
4.844818264245986938e-02
-2.191700786352157593e-02
-2.685174345970153809e-01
7.458253204822540283e-02
1.026169490069150925e-02
-2.123181074857711792e-01
1.073714196681976318e-01
3.968108817934989929e-02
-1.772801876068115234e-01
4.675533622503280640e-02
-1.736816391348838806e-02
-2.480213195085525513e-01
3.683515265583992004e-02
-5.917367339134216309e-02
-2.761792242527008057e-01
1.126485783606767654e-02
-9.837492555379867554e-02
-3.341682851314544678e-01
-1.207498554140329361e-02
-1.349801719188690186e-01
-3.939116299152374268e-01
-4.302548617124557495e-02
-1.533346623182296753e-01
-4.220388829708099365e-01
-4.786380752921104431e-02
-1.649300754070281982e-01
-4.223327040672302246e-01
-3.660242259502410889e-02
-1.624720543622970581e-01
-4.273269474506378174e-01
-4.110532626509666443e-02
-1.738302260637283325e-01
-4.353356361389160156e-01
-9.056663513183593750e-02
-2.107066214084625244e-01
-4.676605761051177979e-01
-1.118257567286491394e-01
-2.553440928459167480e-01
-5.090674757957458496e-01
-1.290858536958694458e-01
-2.677228748798370361e-01
-5.128186345100402832e-01
-1.329782605171203613e-01
-2.730132639408111572e-01
-5.060179829597473145e-01
-1.358886063098907471e-01
-2.815188765525817871e-01
-5.152451992034912109e-01
-1.562871336936950684e-01
-3.117354810237884521e-01
-5.305485129356384277e-01
-1.675838679075241089e-01
-3.173556029796600342e-01
-5.450084805488586426e-01
-1.775939613580703735e-01
-3.349920213222503662e-01
-5.626596212387084961e-01
-1.868647933006286621e-01
-3.476758301258087158e-01
-5.718321204185485840e-01
-1.771357655525207520e-01
-3.301988244056701660e-01
-5.563524365425109863e-01
-1.618339121341705322e-01
-3.062104880809783936e-01
-5.504080057144165039e-01
-1.580874621868133545e-01
-3.053656816482543945e-01
-5.550182461738586426e-01
-1.467856913805007935e-01
-2.884052693843841553e-01
-5.317085385322570801e-01
-1.363195329904556274e-01
-2.569863498210906982e-01
-5.009877085685729980e-01
-9.357860684394836426e-02
-2.266293913125991821e-01
-4.700892269611358643e-01
-9.150643646717071533e-02
-2.042429596185684204e-01
-4.483696222305297852e-01
-6.766647100448608398e-02
-1.810438334941864014e-01
-4.164958894252777100e-01
-4.321212694048881531e-02
-1.536678373813629150e-01
-3.954465389251708984e-01
-1.917556114494800568e-02
-1.207195743918418884e-01
-3.497313559055328369e-01
1.158560439944267273e-02
-9.388125687837600708e-02
-3.133783936500549316e-01
2.335308678448200226e-02
-5.302121862769126892e-02
-2.817842662334442139e-01
4.634831473231315613e-02
-2.353727817535400391e-02
-2.353471368551254272e-01
8.952403068542480469e-02
2.913636155426502228e-02
-1.995785683393478394e-01
1.111421659588813782e-01
5.982247367501258850e-02
-1.517268419265747070e-01
4.860395193099975586e-02
4.946846049278974533e-03
-2.290547490119934082e-01
2.131061814725399017e-02
-4.962142929434776306e-02
-2.765356898307800293e-01
1.922254823148250580e-02
-8.405844122171401978e-02
-3.128025531768798828e-01
5.222166888415813446e-03
-1.065221428871154785e-01
-3.498149514198303223e-01
-2.040930092334747314e-02
-1.324788630008697510e-01
-3.781766593456268311e-01
-3.177706524729728699e-02
-1.455993950366973877e-01
-3.928130269050598145e-01
-4.116031154990196228e-02
-1.437208354473114014e-01
-3.937552571296691895e-01
-3.296487033367156982e-02
-1.348161995410919189e-01
-3.848763406276702881e-01
-4.798783361911773682e-02
-1.579001396894454956e-01
-4.143936634063720703e-01
-7.841747999191284180e-02
-1.997447013854980469e-01
-4.602690935134887695e-01
-9.784388542175292969e-02
-2.303437292575836182e-01
-4.808025062084197998e-01
-1.172060742974281311e-01
-2.458170503377914429e-01
-4.748338162899017334e-01
-1.320973485708236694e-01
-2.541070580482482910e-01
-4.859632253646850586e-01
-1.320450603961944580e-01
-2.738259434700012207e-01
-4.999301135540008545e-01
-1.377071589231491089e-01
-2.731378376483917236e-01
-5.175180435180664062e-01
-1.516734063625335693e-01
-2.839032411575317383e-01
-5.158467292785644531e-01
-1.601692438125610352e-01
-3.084748387336730957e-01
-5.366872549057006836e-01
-1.665745228528976440e-01
-2.995600700378417969e-01
-5.343591570854187012e-01
-1.375449150800704956e-01
-2.651416957378387451e-01
-4.961979687213897705e-01
-1.417827308177947998e-01
-2.631297111511230469e-01
-4.964774250984191895e-01
-1.216917634010314941e-01
-2.552617788314819336e-01
-5.015132427215576172e-01
-1.147872358560562134e-01
-2.256489247083663940e-01
-4.692426025867462158e-01
-8.288339525461196899e-02
-2.126994878053665161e-01
-4.344806969165802002e-01
-5.766787007451057434e-02
-1.675812304019927979e-01
-4.131035804748535156e-01
-3.868767991662025452e-02
-1.576145738363265991e-01
-3.747209906578063965e-01
-2.290929481387138367e-02
-1.232849955558776855e-01
-3.487477898597717285e-01
1.424108864739537239e-03
-9.129092842340469360e-02
-3.127977550029754639e-01
1.469702832400798798e-02
-5.701779574155807495e-02
-2.930519282817840576e-01
4.300535470247268677e-02
-3.993288427591323853e-02
-2.513299882411956787e-01
7.395734637975692749e-02
7.328922394663095474e-03
-2.181825637817382812e-01
1.013036817312240601e-01
4.619815200567245483e-02
-1.719946265220642090e-01
1.141082718968391418e-01
6.858223676681518555e-02
-1.489277780055999756e-01
6.136120855808258057e-02
2.156872488558292389e-02
-2.092611342668533325e-01
4.639411717653274536e-02
-3.091410361230373383e-02
-2.498155683279037476e-01
4.412702471017837524e-02
-4.760520905256271362e-02
-2.833490371704101562e-01
2.440394088625907898e-02
-6.324508041143417358e-02
-3.102609813213348389e-01
1.412763027474284172e-03
-9.544961154460906982e-02
-3.329021632671356201e-01
-1.797561720013618469e-02
-1.180143952369689941e-01
-3.558236956596374512e-01
-2.921758592128753662e-02
-1.071331202983856201e-01
-3.613048791885375977e-01
-1.637726649641990662e-02
-1.083362996578216553e-01
-3.476345837116241455e-01
-2.515510097146034241e-02
-1.323867440223693848e-01
-3.861322999000549316e-01
-6.055279821157455444e-02
-1.624276489019393921e-01
-3.977727591991424561e-01
-8.038604259490966797e-02
-1.777885407209396362e-01
-4.070037901401519775e-01
-7.795067876577377319e-02
-2.052059024572372437e-01
-4.320152997970581055e-01
-1.223040297627449036e-01
-2.424874156713485718e-01
-4.744864106178283691e-01
-1.382568478584289551e-01
-2.462886422872543335e-01
-4.742929339408874512e-01
-1.382026672363281250e-01
-2.509665489196777344e-01
-4.732426702976226807e-01
-1.458385586738586426e-01
-2.598153650760650635e-01
-4.787054359912872314e-01
-1.263707876205444336e-01
-2.534695863723754883e-01
-4.868179559707641602e-01
-1.423415839672088623e-01
-2.675207555294036865e-01
-4.884652495384216309e-01
-1.205180436372756958e-01
-2.304789423942565918e-01
-4.573139846324920654e-01
-1.096201315522193909e-01
-2.244425117969512939e-01
-4.612923264503479004e-01
-8.825147151947021484e-02
-2.007824331521987915e-01
-4.398591518402099609e-01
-7.871571183204650879e-02
-1.859783381223678589e-01
-4.162488281726837158e-01
-6.555170565843582153e-02
-1.728062480688095093e-01
-3.909340798854827881e-01
-4.484972730278968811e-02
-1.476453542709350586e-01
-3.718228936195373535e-01
-2.602360025048255920e-02
-1.312848627567291260e-01
-3.463539183139801025e-01
-1.368227787315845490e-02
-1.109220311045646667e-01
-3.305007219314575195e-01
1.590751670300960541e-02
-7.833869010210037231e-02
-3.120546936988830566e-01
4.201616719365119934e-02
-5.793346464633941650e-02
-2.704920172691345215e-01
4.052421078085899353e-02
-2.252113260328769684e-02
-2.514252960681915283e-01
7.823742926120758057e-02
8.540724404156208038e-03
-2.201196104288101196e-01
1.117960140109062195e-01
5.998484417796134949e-02
-1.743456572294235229e-01
1.227606534957885742e-01
6.436658650636672974e-02
-1.548840105533599854e-01
7.144619524478912354e-02
2.272492833435535431e-02
-2.075202912092208862e-01
6.378102302551269531e-02
2.778432331979274750e-03
-2.167537063360214233e-01
5.137248337268829346e-02
-1.520619634538888931e-02
-2.324372231960296631e-01
2.805175259709358215e-02
-5.461131781339645386e-02
-2.647826969623565674e-01
1.815050840377807617e-02
-6.229316070675849915e-02
-2.882225215435028076e-01
8.499197661876678467e-03
-7.505596429109573364e-02
-3.036189675331115723e-01
1.792714931070804596e-03
-7.414476573467254639e-02
-3.162857890129089355e-01
5.585516337305307388e-04
-7.988690584897994995e-02
-3.209789693355560303e-01
-3.110832534730434418e-02
-1.292959749698638916e-01
-3.544087707996368408e-01
-5.073689296841621399e-02
-1.404431164264678955e-01
-3.708096146583557129e-01
-6.770595163106918335e-02
-1.515700668096542358e-01
-3.869633674621582031e-01
-7.965496182441711426e-02
-1.716338843107223511e-01
-4.052045047283172607e-01
-1.142998039722442627e-01
-2.082394659519195557e-01
-4.329757690429687500e-01
-1.258726567029953003e-01
-2.194188386201858521e-01
-4.436127245426177979e-01
-1.232981607317924500e-01
-2.200429588556289673e-01
-4.336932599544525146e-01
-1.245624944567680359e-01
-2.316371947526931763e-01
-4.462031722068786621e-01
-1.148420050740242004e-01
-2.269453555345535278e-01
-4.423999488353729248e-01
-1.136934980750083923e-01
-2.301918268203735352e-01
-4.443942010402679443e-01
-1.071108058094978333e-01
-2.027421593666076660e-01
-4.208103716373443604e-01
-8.516565710306167603e-02
-1.840173155069351196e-01
-4.020588397979736328e-01
-6.919244676828384399e-02
-1.752840429544448853e-01
-3.979441821575164795e-01
-4.485815390944480896e-02
-1.387979090213775635e-01
-3.759607374668121338e-01
-4.151983559131622314e-02
-1.258680373430252075e-01
-3.630031943321228027e-01
-2.054531686007976532e-02
-1.155289933085441589e-01
-3.274064362049102783e-01
-2.201681956648826599e-03
-9.041003137826919556e-02
-3.116057813167572021e-01
3.858492127619683743e-04
-8.673857152462005615e-02
-2.985581159591674805e-01
1.034240331500768661e-02
-6.752699613571166992e-02
-2.787796854972839355e-01
5.229185894131660461e-02
-2.640637941658496857e-02
-2.526774406433105469e-01
5.373410135507583618e-02
1.275825593620538712e-02
-2.334396690130233765e-01
9.463783353567123413e-02
2.978064678609371185e-02
-1.999625712633132935e-01
1.160056143999099731e-01
6.228594481945037842e-02
-1.626859754323959351e-01
1.167660057544708252e-01
7.436102628707885742e-02
-1.494207531213760376e-01
7.395640760660171509e-02
1.559383049607276917e-02
-1.958973258733749390e-01
8.076906949281692505e-02
2.292432449758052826e-02
-2.006703466176986694e-01
6.435998529195785522e-02
4.469167441129684448e-03
-2.250172197818756104e-01
4.114158451557159424e-02
-3.310776129364967346e-02
-2.534566521644592285e-01
2.424435690045356750e-02
-3.698613867163658142e-02
-2.642067372798919678e-01
2.091141790151596069e-02
-5.940705165266990662e-02
-2.857147753238677979e-01
1.774032413959503174e-02
-6.626799702644348145e-02
-2.904114425182342529e-01
-1.583340344950556755e-03
-7.233671844005584717e-02
-2.956924140453338623e-01
-2.881277166306972504e-02
-9.309247136116027832e-02
-3.243950009346008301e-01
-3.820015117526054382e-02
-1.124078854918479919e-01
-3.425772190093994141e-01
-2.670146338641643524e-02
-1.111300662159919739e-01
-3.532456457614898682e-01
-4.076511412858963013e-02
-1.358166635036468506e-01
-3.698533773422241211e-01
-6.514228135347366333e-02
-1.541012823581695557e-01
-3.856815397739410400e-01
-7.760259509086608887e-02
-1.725293844938278198e-01
-3.975930213928222656e-01
-7.795525342226028442e-02
-1.684706211090087891e-01
-4.041807949542999268e-01
-8.501594513654708862e-02
-1.670597493648529053e-01
-3.942676484584808350e-01
-7.829220592975616455e-02
-1.711615175008773804e-01
-3.837324380874633789e-01
-7.317320257425308228e-02
-1.649281829595565796e-01
-3.920643627643585205e-01
-6.939658522605895996e-02
-1.729700416326522827e-01
-3.847237229347229004e-01
-5.570957437157630920e-02
-1.492355465888977051e-01
-3.625676929950714111e-01
-4.812001809477806091e-02
-1.161961480975151062e-01
-3.479639291763305664e-01
-3.936813026666641235e-02
-1.099886074662208557e-01
-3.427448272705078125e-01
-2.109866403043270111e-02
-9.561322629451751709e-02
-3.130742609500885010e-01
8.180978707969188690e-03
-6.616593152284622192e-02
-2.929322719573974609e-01
2.263155393302440643e-02
-6.451186537742614746e-02
-2.767058610916137695e-01
2.005882933735847473e-02
-5.278880149126052856e-02
-2.675337791442871094e-01
3.900274634361267090e-02
-3.895071521401405334e-02
-2.552405595779418945e-01
6.948014348745346069e-02
1.565836137160658836e-04
-2.343495488166809082e-01
8.075304329395294189e-02
3.160418197512626648e-02
-2.138562351465225220e-01
9.533422440290451050e-02
4.623650386929512024e-02
-1.872700005769729614e-01
1.174683496356010437e-01
6.610938161611557007e-02
-1.507235020399093628e-01
1.200885027647018433e-01
7.664729654788970947e-02
-1.490417122840881348e-01
9.136466681957244873e-02
3.658936172723770142e-02
-1.853536367416381836e-01
8.525356650352478027e-02
4.083004221320152283e-02
-1.931916922330856323e-01
7.203874737024307251e-02
2.234522625803947449e-02
-2.020728290081024170e-01
5.606855824589729309e-02
7.045953068882226944e-03
-2.233811020851135254e-01
4.120527207851409912e-02
-1.472137868404388428e-02
-2.339513152837753296e-01
3.608614951372146606e-02
-2.692284621298313141e-02
-2.546780705451965332e-01
2.896039746701717377e-02
-2.944120950996875763e-02
-2.567767202854156494e-01
1.062688790261745453e-02
-2.529544010758399963e-02
-2.541009783744812012e-01
2.853520913049578667e-03
-5.776671692728996277e-02
-2.855829298496246338e-01
-5.919648683629930019e-04
-6.361966580152511597e-02
-2.954795658588409424e-01
-8.271542377769947052e-03
-7.732567191123962402e-02
-3.150787353515625000e-01
-1.487286761403083801e-02
-7.902760058641433716e-02
-3.138056993484497070e-01
-2.643034234642982483e-02
-1.024780943989753723e-01
-3.306672573089599609e-01
-4.187024012207984924e-02
-1.232388913631439209e-01
-3.495720028877258301e-01
-3.259956464171409607e-02
-1.231309771537780762e-01
-3.460035622119903564e-01
-4.779491573572158813e-02
-1.229747086763381958e-01
-3.333440124988555908e-01
-2.715888060629367828e-02
-1.100982278585433960e-01
-3.345018923282623291e-01
-2.435667626559734344e-02
-1.026086881756782532e-01
-3.259921073913574219e-01
-2.311179041862487793e-02
-1.078536882996559143e-01
-3.234973251819610596e-01
-1.814975589513778687e-02
-9.027747809886932373e-02
-2.967786192893981934e-01
5.608800798654556274e-03
-6.862349063158035278e-02
-2.962275147438049316e-01
-2.130091190338134766e-03
-6.739603728055953979e-02
-2.840754091739654541e-01
9.328180924057960510e-03
-4.945290461182594299e-02
-2.836658358573913574e-01
4.252317547798156738e-02
-2.826214395463466644e-02
-2.419286817312240601e-01
4.236439242959022522e-02
-2.998658083379268646e-02
-2.445373535156250000e-01
3.197418898344039917e-02
-1.663404330611228943e-02
-2.386840879917144775e-01
4.524622485041618347e-02
-1.635895855724811554e-02
-2.194289863109588623e-01
6.422084569931030273e-02
3.293014131486415863e-03
-2.061393857002258301e-01
9.668909013271331787e-02
3.666301816701889038e-02
-1.919583082199096680e-01
9.469330310821533203e-02
5.793268978595733643e-02
-1.749799400568008423e-01
1.224117875099182129e-01
7.236053794622421265e-02
-1.499602645635604858e-01
1.312313377857208252e-01
8.219202607870101929e-02
-1.312949061393737793e-01
1.039959192276000977e-01
5.880757421255111694e-02
-1.716696321964263916e-01
8.766739070415496826e-02
4.578925669193267822e-02
-1.804402023553848267e-01
7.858452945947647095e-02
3.301928192377090454e-02
-1.848953217267990112e-01
7.904632389545440674e-02
2.362875454127788544e-02
-2.024667412042617798e-01
7.676987349987030029e-02
2.808826416730880737e-02
-1.827510744333267212e-01
7.708453387022018433e-02
2.034693397581577301e-02
-2.012584358453750610e-01
6.089085713028907776e-02
1.332986541092395782e-02
-2.012485265731811523e-01
5.075437203049659729e-02
-1.008128747344017029e-04
-2.148802876472473145e-01
2.381184697151184082e-02
-1.874746568500995636e-02
-2.472730129957199097e-01
3.088563121855258942e-02
-4.029136523604393005e-02
-2.480542361736297607e-01
9.647823870182037354e-03
-4.355834424495697021e-02
-2.777788639068603516e-01
1.053831726312637329e-02
-4.847294092178344727e-02
-2.770222127437591553e-01
5.750982090830802917e-03
-6.396746635437011719e-02
-2.868042290210723877e-01
-5.016691517084836960e-03
-7.226499915122985840e-02
-2.853572070598602295e-01
9.783451678231358528e-04
-6.683527678251266479e-02
-2.867354452610015869e-01
9.287262335419654846e-03
-5.841463431715965271e-02
-2.732439935207366943e-01
1.332140620797872543e-02
-5.797505006194114685e-02
-2.669969201087951660e-01
3.757320344448089600e-02
-4.872688651084899902e-02
-2.703594863414764404e-01
2.118173614144325256e-02
-5.842221155762672424e-02
-2.740158438682556152e-01
3.758120164275169373e-02
-3.257748857140541077e-02
-2.534818947315216064e-01
5.191043391823768616e-02
-1.118832826614379883e-02
-2.357991635799407959e-01
4.342655465006828308e-02
-1.134621724486351013e-02
-2.350725680589675903e-01
5.455638840794563293e-02
-3.219197271391749382e-03
-2.217507362365722656e-01
7.779343426227569580e-02
2.233325503766536713e-02
-2.099765986204147339e-01
9.492686390876770020e-02
3.054708987474441528e-02
-1.912531852722167969e-01
8.969622850418090820e-02
1.988837122917175293e-02
-2.001562714576721191e-01
8.604697883129119873e-02
3.274596109986305237e-02
-1.890766918659210205e-01
1.017862930893898010e-01
4.450117796659469604e-02
-1.797474920749664307e-01
1.045247912406921387e-01
5.798190459609031677e-02
-1.786081641912460327e-01
1.092612892389297485e-01
5.718646943569183350e-02
-1.665302217006683350e-01
1.238369718194007874e-01
6.320412456989288330e-02
-1.355799436569213867e-01
1.315201222896575928e-01
9.508843719959259033e-02
-1.231847256422042847e-01
1.110755130648612976e-01
6.561534851789474487e-02
-1.541940867900848389e-01
1.204918771982192993e-01
6.735594570636749268e-02
-1.578610688447952271e-01
1.122282743453979492e-01
5.542656406760215759e-02
-1.738577187061309814e-01
1.143392249941825867e-01
5.804555863142013550e-02
-1.719165295362472534e-01
1.113189980387687683e-01
5.678949132561683655e-02
-1.689153462648391724e-01
1.096600219607353210e-01
6.316635012626647949e-02
-1.630780845880508423e-01
9.456969052553176880e-02
5.179876089096069336e-02
-1.682365834712982178e-01
9.679160267114639282e-02
4.652572050690650940e-02
-1.725878119468688965e-01
7.795770466327667236e-02
2.380605228245258331e-02
-1.911310702562332153e-01
6.966826319694519043e-02
1.296795345842838287e-02
-2.116329967975616455e-01
6.452213972806930542e-02
9.432090446352958679e-03
-2.171157151460647583e-01
4.499019309878349304e-02
-1.514583360403776169e-02
-2.239099740982055664e-01
4.099165275692939758e-02
-2.636105753481388092e-02
-2.326322346925735474e-01
5.594929680228233337e-02
-1.638558506965637207e-02
-2.286353707313537598e-01
5.916118621826171875e-02
-8.070959709584712982e-03
-2.253383994102478027e-01
6.127551198005676270e-02
4.965778789483010769e-04
-2.212437540292739868e-01
7.380700111389160156e-02
1.140734367072582245e-02
-2.076832801103591919e-01
7.727427035570144653e-02
1.991624245420098305e-03
-2.094331830739974976e-01
7.615970820188522339e-02
3.431110177189111710e-03
-2.172184288501739502e-01
8.876709640026092529e-02
1.811344549059867859e-02
-2.091238200664520264e-01
8.549562841653823853e-02
2.690072543919086456e-02
-2.034468799829483032e-01
8.995713293552398682e-02
2.804864756762981415e-02
-1.923335343599319458e-01
1.005032584071159363e-01
3.115824237465858459e-02
-1.902493834495544434e-01
9.974475950002670288e-02
4.645343124866485596e-02
-1.869419515132904053e-01
1.138230934739112854e-01
5.646178498864173889e-02
-1.711279302835464478e-01
1.191736534237861633e-01
4.830919951200485229e-02
-1.759841740131378174e-01
1.120969653129577637e-01
5.376993492245674133e-02
-1.608370840549468994e-01
1.191122978925704956e-01
6.987422704696655273e-02
-1.519805043935775757e-01
1.212956011295318604e-01
6.843031197786331177e-02
-1.489281654357910156e-01
1.260823309421539307e-01
5.874174833297729492e-02
-1.609366834163665771e-01
1.273138821125030518e-01
6.981520354747772217e-02
-1.427274793386459351e-01
1.490276753902435303e-01
1.196346580982208252e-01
-1.032475903630256653e-01
1.489963084459304810e-01
9.939387440681457520e-02
-1.151358932256698608e-01
1.522699445486068726e-01
1.047787219285964966e-01
-1.191177591681480408e-01
1.484777629375457764e-01
9.064207226037979126e-02
-1.301409304141998291e-01
1.496006846427917480e-01
9.639138728380203247e-02
-1.424081474542617798e-01
1.573107093572616577e-01
8.585152029991149902e-02
-1.393080055713653564e-01
1.594318300485610962e-01
8.981583267450332642e-02
-1.379930973052978516e-01
1.427733600139617920e-01
8.727102726697921753e-02
-1.395586282014846802e-01
1.428968459367752075e-01
7.870933413505554199e-02
-1.395437121391296387e-01
1.262294352054595947e-01
6.476958096027374268e-02
-1.501562595367431641e-01
1.042587384581565857e-01
5.543829873204231262e-02
-1.627134531736373901e-01
1.160645186901092529e-01
4.418278113007545471e-02
-1.731675118207931519e-01
1.091064065694808960e-01
3.318933025002479553e-02
-1.735239773988723755e-01
1.078947260975837708e-01
3.257855400443077087e-02
-1.779440790414810181e-01
1.086527705192565918e-01
4.020825773477554321e-02
-1.708921045064926147e-01
1.200599521398544312e-01
5.337780714035034180e-02
-1.666735857725143433e-01
1.336211562156677246e-01
5.039734765887260437e-02
-1.550883054733276367e-01
1.296039819717407227e-01
5.792741104960441589e-02
-1.621508002281188965e-01
1.219986304640769958e-01
5.393495783209800720e-02
-1.565373390913009644e-01
1.331162303686141968e-01
7.586736977100372314e-02
-1.503402441740036011e-01
1.346147358417510986e-01
6.735853105783462524e-02
-1.531725227832794189e-01
1.325792968273162842e-01
6.142620742321014404e-02
-1.650307327508926392e-01
1.120217591524124146e-01
5.679965019226074219e-02
-1.570066064596176147e-01
1.196268349885940552e-01
5.921407416462898254e-02
-1.583161205053329468e-01
1.196239069104194641e-01
6.001137197017669678e-02
-1.492654681205749512e-01
1.445354372262954712e-01
7.703983783721923828e-02
-1.322912424802780151e-01
1.447450667619705200e-01
8.880983293056488037e-02
-1.247209906578063965e-01
1.438512206077575684e-01
9.146375954151153564e-02
-1.225716471672058105e-01
1.444613486528396606e-01
8.607142418622970581e-02
-1.269006431102752686e-01
1.467119902372360229e-01
8.897036314010620117e-02
-1.247859001159667969e-01
1.362286061048507690e-01
8.776734769344329834e-02
-1.233491748571395874e-01
1.317087709903717041e-01
8.494906872510910034e-02
-1.252681165933609009e-01
