2.070559933781623840e-02,-7.139582186937332153e-02
-8.648728020489215851e-03,2.569930255413055420e-02
-1.520348899066448212e-02,-5.745888873934745789e-02
5.267529934644699097e-02,-5.540274083614349365e-03
2.787211164832115173e-02,-3.731782361865043640e-02
7.004159968346357346e-03,-1.832418888807296753e-02
-6.110612303018569946e-03,2.947447448968887329e-02
-2.508228272199630737e-02,-1.617223769426345825e-02
-6.555784493684768677e-02,-1.034577004611492157e-02
-2.805839106440544128e-02,-6.117331236600875854e-02
2.309513464570045471e-02,3.113642893731594086e-02
-6.667459756135940552e-02,3.512443602085113525e-02
1.068097539246082306e-02,2.247193083167076111e-02
-3.875480266287922859e-03,7.167301326990127563e-02
1.250161044299602509e-02,2.511917147785425186e-03
2.305551245808601379e-02,4.807928204536437988e-02
-5.288316309452056885e-02,4.194504022598266602e-02
-3.928526490926742554e-02,-4.742268938571214676e-03
4.137532319873571396e-03,-4.383613169193267822e-02
-2.693878300487995148e-02,7.009232789278030396e-02
-3.545752167701721191e-02,1.274424418807029724e-02
1.543275546282529831e-03,-5.778079479932785034e-02
-4.517620429396629333e-02,1.751265302300453186e-02
-3.624115372076630592e-03,3.715381771326065063e-02
8.815401233732700348e-04,-5.587611347436904907e-02
-3.173257783055305481e-02,-9.191271848976612091e-03
-2.473226189613342285e-02,7.257717102766036987e-02
9.926537051796913147e-03,7.034609466791152954e-02
-3.406374156475067139e-02,-4.970482550561428070e-03
-3.116000071167945862e-02,-8.507277816534042358e-03
2.668639272451400757e-02,5.435951799154281616e-02
3.291420638561248779e-02,5.582021549344062805e-02
-4.673118516802787781e-02,6.309451907873153687e-02
-2.291622385382652283e-02,4.223776236176490784e-02
4.058096185326576233e-02,-4.189770296216011047e-02
6.827217340469360352e-02,-1.596591994166374207e-02
-3.336271271109580994e-02,3.987267613410949707e-02
-5.293969437479972839e-02,-4.237554594874382019e-02
-4.168556630611419678e-02,3.041397593915462494e-02
-1.482586190104484558e-02,-3.163006529211997986e-02
-2.867727354168891907e-02,4.640310257673263550e-02
2.393038384616374969e-02,6.727183610200881958e-02
-7.024943828582763672e-03,1.764053478837013245e-02
2.724831923842430115e-02,4.522765800356864929e-02
-5.095383524894714355e-02,4.870016127824783325e-02
5.176732316613197327e-03,-5.059715360403060913e-03
2.357988804578781128e-02,-1.646111719310283661e-02
-4.200622811913490295e-02,-3.736370429396629333e-02
-2.301838994026184082e-02,-1.858918368816375732e-02
3.186037018895149231e-02,-1.595572754740715027e-02
-2.558448538184165955e-02,-5.502199009060859680e-02
-2.989287720993161201e-03,2.762687392532825470e-02
2.894184179604053497e-02,6.102301180362701416e-02
-3.180117812007665634e-03,-3.793555777519941330e-03
2.793963067233562469e-02,2.482726052403450012e-02
2.129894495010375977e-02,-2.276302687823772430e-02
-3.267847746610641479e-02,-8.762674406170845032e-03
1.536544319242238998e-02,1.766707003116607666e-02
2.429774962365627289e-02,4.325631633400917053e-02
2.854944206774234772e-02,6.194158643484115601e-02
3.004068881273269653e-02,-5.134000256657600403e-02
-3.312933444976806641e-02,-2.732356637716293335e-02
3.029848448932170868e-02,5.318817123770713806e-02
-5.767583847045898438e-03,-3.188889473676681519e-02
2.350945957005023956e-02,-3.157569095492362976e-02
1.524475496262311935e-02,1.627017743885517120e-03
-2.607182599604129791e-02,2.431648969650268555e-02
-6.165161356329917908e-02,-8.062396198511123657e-03
2.428515814244747162e-03,1.270851772278547287e-02
-3.870366886258125305e-02,7.999079301953315735e-03
-1.451698876917362213e-02,1.139911040663719177e-01
-1.036830712109804153e-03,4.631470516324043274e-02
5.502233281731605530e-02,9.716628119349479675e-03
5.949360877275466919e-02,-5.515344813466072083e-02
4.018307849764823914e-02,2.499271556735038757e-02
-1.372396945953369141e-02,4.561361297965049744e-02
3.353653848171234131e-02,5.121985822916030884e-02
-5.555030703544616699e-02,6.768987327814102173e-02
5.931385606527328491e-02,2.615512907505035400e-02
-3.935598582029342651e-02,-2.977054007351398468e-02
-5.276640504598617554e-02,4.413756355643272400e-02
-6.761033087968826294e-02,-1.677525974810123444e-02
-1.531328540295362473e-02,-7.066530734300613403e-02
-6.259966641664505005e-02,4.913064837455749512e-02
5.312885344028472900e-02,5.510049685835838318e-02
2.979433164000511169e-02,-2.878448739647865295e-02
-1.626165583729743958e-02,-3.507176041603088379e-02
2.840451151132583618e-02,6.980974972248077393e-02
-2.709663659334182739e-02,1.618295535445213318e-02
-2.801221981644630432e-02,-6.488156504929065704e-04
3.195499628782272339e-02,6.248111836612224579e-03
-3.422586712986230850e-03,1.008915156126022339e-02
8.646227419376373291e-03,4.169609025120735168e-02
4.366357810795307159e-03,-2.162073180079460144e-02
-7.599183171987533569e-02,6.948218494653701782e-02
-4.706865549087524414e-02,-5.402998626232147217e-02
-4.984724894165992737e-02,-1.642407290637493134e-02
2.017901092767715454e-02,1.401279494166374207e-02
5.134656280279159546e-02,7.730171084403991699e-03
2.814275212585926056e-03,1.778075471520423889e-02
1.759791746735572815e-02,-6.526105571538209915e-03
-7.345779240131378174e-02,-1.635055616497993469e-02
-7.853342592716217041e-02,7.991230487823486328e-02
-3.441670909523963928e-02,6.696526892483234406e-03
1.758265122771263123e-02,3.726213797926902771e-02
-3.074967302381992340e-02,3.576452657580375671e-02
1.666879095137119293e-02,1.122086774557828903e-03
-6.117510050535202026e-02,2.855728194117546082e-02
1.463154982775449753e-02,-3.033914603292942047e-02
2.075948007404804230e-02,2.164204604923725128e-02
1.267637824639678001e-03,-1.688913628458976746e-02
-2.267612330615520477e-02,-9.632980450987815857e-03
3.112964704632759094e-02,-3.803060948848724365e-02
6.969904899597167969e-02,-7.401474565267562866e-02
-2.368306927382946014e-02,4.487844184041023254e-02
-4.054644703865051270e-02,5.158119276165962219e-02
-2.512036822736263275e-02,1.367414146661758423e-01
7.689689751714468002e-03,-2.164400555193424225e-02
-2.912547066807746887e-02,1.514815539121627808e-02
-7.478965818881988525e-02,-7.917980849742889404e-02
5.297050811350345612e-03,-6.284601241350173950e-02
-4.528929665684700012e-02,1.407467946410179138e-02
6.369787454605102539e-02,-1.637572795152664185e-02
2.222239412367343903e-02,2.795490063726902008e-02
-5.699916929006576538e-02,3.721464797854423523e-02
-2.686416357755661011e-02,-7.688628137111663818e-02
3.904293105006217957e-02,-3.070262027904391289e-03
-1.806759461760520935e-02,2.754622325301170349e-02
-4.780516400933265686e-02,4.178787395358085632e-02
5.307156220078468323e-02,-2.445843815803527832e-02
-2.905427105724811554e-02,6.379427760839462280e-02
-1.689982041716575623e-02,-1.543104276061058044e-02
2.719632163643836975e-02,8.913817815482616425e-03
7.904045283794403076e-02,-4.353584721684455872e-02
-7.750214636325836182e-02,-3.632037341594696045e-02
-4.438949003815650940e-02,6.729038804769515991e-02
-3.341828286647796631e-02,-6.697596609592437744e-02
-2.710275352001190186e-02,1.226095855236053467e-02
2.509887143969535828e-02,1.314998511224985123e-02
5.527595803141593933e-02,4.921171814203262329e-03
-4.250494763255119324e-02,1.016925647854804993e-02
-1.984038576483726501e-02,-1.641704468056559563e-03
-3.729346022009849548e-02,-1.328788790851831436e-02
3.950388729572296143e-02,2.723817899823188782e-02
2.196840941905975342e-02,-2.460894733667373657e-02
-6.624673306941986084e-02,6.163566559553146362e-02
5.386980250477790833e-02,-7.467374205589294434e-02
-1.029977016150951385e-02,8.304813504219055176e-02
-5.615565553307533264e-02,-3.643183782696723938e-02
3.614158928394317627e-02,-1.111598871648311615e-02
6.029447540640830994e-04,1.248254813253879547e-02
1.799190975725650787e-02,3.451519878581166267e-03
-5.501612648367881775e-02,-3.590566292405128479e-02
4.053962603211402893e-02,2.548896474763751030e-03
-2.656839974224567413e-02,5.806139484047889709e-02
-6.813995540142059326e-02,6.893216632306575775e-03
2.475949376821517944e-02,-3.993105608969926834e-03
-3.432423993945121765e-02,1.778950542211532593e-02
-2.406882867217063904e-02,1.059996057301759720e-02
7.853534072637557983e-03,4.425247758626937866e-02
-3.091866523027420044e-02,3.538690879940986633e-02
-2.551567554473876953e-02,-2.901191264390945435e-02
-1.699147373437881470e-02,6.503179669380187988e-02
-3.653786703944206238e-02,-3.455822914838790894e-02
-1.567564345896244049e-02,-8.437240612693130970e-04
1.767747104167938232e-02,2.451768144965171814e-03
-7.930791005492210388e-03,-1.250590663403272629e-02
3.828345611691474915e-02,-5.329655483365058899e-02
-2.170993387699127197e-02,-4.230599105358123779e-02
-3.093988401815295219e-03,-4.780378658324480057e-04
-6.416708230972290039e-02,-7.145563513040542603e-02
1.365745998919010162e-02,-7.184191048145294189e-02
-1.564186811447143555e-02,-2.514305710792541504e-02
4.866081476211547852e-02,4.731543734669685364e-02
6.134955957531929016e-02,4.858109727501869202e-02
-1.438222173601388931e-02,1.759156584739685059e-02
2.650096639990806580e-02,1.523692277260124683e-03
5.172400549054145813e-02,1.361438306048512459e-03
3.111126273870468140e-02,3.926093503832817078e-02
3.468306735157966614e-02,-1.648016646504402161e-02
-1.283281948417425156e-02,3.851678222417831421e-02
4.611622542142868042e-02,-2.886811085045337677e-02
6.458284799009561539e-03,6.146084889769554138e-02
2.546839229762554169e-02,7.358659058809280396e-03
4.171843081712722778e-02,1.895108819007873535e-02
-7.201663404703140259e-02,1.537356246262788773e-02
-7.063513249158859253e-02,3.928696736693382263e-02
-5.454801395535469055e-02,3.503176942467689514e-02
6.702204793691635132e-02,2.880734950304031372e-02
5.597471818327903748e-02,4.439125955104827881e-02
-1.424984931945800781e-01,-2.220763266086578369e-02
-7.731419801712036133e-02,-7.281052321195602417e-02
6.270354241132736206e-02,-4.593306034803390503e-02
-3.698363155126571655e-02,-2.357155270874500275e-02
1.894309930503368378e-02,-5.806197971105575562e-02
-7.570983469486236572e-02,1.356471702456474304e-02
-1.875451952219009399e-02,-5.703396350145339966e-02
-3.748117759823799133e-02,6.289280951023101807e-02
-2.604644186794757843e-02,6.420765817165374756e-02
3.204137459397315979e-02,-8.079930208623409271e-03
2.445072121918201447e-02,1.583419367671012878e-02
-2.645525336265563965e-02,3.744045272469520569e-02
-5.684068053960800171e-02,2.727761678397655487e-02
-4.352354258298873901e-02,-4.934672638773918152e-02
-6.266853958368301392e-02,-9.107425808906555176e-02
-5.380960181355476379e-02,-3.922492265701293945e-02
-3.521736711263656616e-02,-2.447610022500157356e-03
-4.341798275709152222e-02,2.738802134990692139e-02
-5.602490901947021484e-02,5.021058768033981323e-02
-1.532646082341670990e-02,2.431203983724117279e-02
-2.359703369438648224e-02,3.701893612742424011e-02
-6.619609892368316650e-02,-1.706974580883979797e-02
2.794887498021125793e-02,9.464531205594539642e-03
-1.371981855481863022e-02,6.954059749841690063e-02
1.014375220984220505e-02,1.739917788654565811e-03
-1.786653697490692139e-02,-1.300495117902755737e-02
5.037874914705753326e-03,5.847279448062181473e-03
-6.702831014990806580e-03,-7.933054585009813309e-04
-2.419129386544227600e-02,1.888623535633087158e-01
-6.044784188270568848e-02,-7.275391370058059692e-02
-4.036631062626838684e-02,4.297361709177494049e-03
6.855806708335876465e-02,4.233767464756965637e-02
-9.511085227131843567e-04,2.078270539641380310e-02
7.094307243824005127e-02,2.042395249009132385e-02
5.165429785847663879e-02,-1.429238170385360718e-02
3.254490718245506287e-02,2.051676064729690552e-02
4.553804919123649597e-02,-7.336942106485366821e-02
-4.173015058040618896e-02,3.089299798011779785e-02
3.603710979223251343e-02,-4.963060095906257629e-02
-5.214663222432136536e-02,-2.569760382175445557e-02
2.750572748482227325e-02,-4.294987767934799194e-02
-2.097389660775661469e-03,-3.738643601536750793e-03
3.685991466045379639e-02,-1.306892558932304382e-02
-4.346825182437896729e-02,3.399594500660896301e-02
4.993056505918502808e-02,8.647685870528221130e-03
-1.791605167090892792e-02,-2.544209174811840057e-02
5.544516444206237793e-02,-1.211090385913848877e-02
-1.066315080970525742e-02,-1.414682902395725250e-02
-2.601671218872070312e-02,-9.335240349173545837e-03
7.063995301723480225e-02,-4.376975074410438538e-02
5.101444944739341736e-02,-3.008328936994075775e-02
-2.293431758880615234e-02,1.986353471875190735e-02
-5.190970003604888916e-02,3.618753701448440552e-02
3.611694276332855225e-02,7.074455916881561279e-02
4.609869047999382019e-02,-2.122153528034687042e-03
-6.501669436693191528e-02,2.566854655742645264e-02
3.581348434090614319e-02,2.624756656587123871e-02
2.688032202422618866e-02,1.916099525988101959e-02
5.308017134666442871e-02,3.983196988701820374e-02
3.437896445393562317e-02,-6.592669337987899780e-02
-5.022097378969192505e-02,-2.247711457312107086e-02
-3.867835178971290588e-02,1.951486058533191681e-02
-6.819313857704401016e-03,-1.403128169476985931e-02
3.028465621173381805e-02,1.971466280519962311e-02
5.068119149655103683e-03,2.770501002669334412e-02
2.616689726710319519e-02,-7.343737781047821045e-02
-1.796601340174674988e-02,-4.106928780674934387e-02
-3.432188183069229126e-02,6.417300552129745483e-02
-2.400241233408451080e-02,-2.914710901677608490e-02
-6.078617647290229797e-02,-4.733400791883468628e-02
5.417640507221221924e-02,4.703038930892944336e-02
-6.621554493904113770e-02,-5.416947603225708008e-02
-3.011056222021579742e-02,-3.835014253854751587e-02
-4.567081481218338013e-02,-4.774804040789604187e-02
-2.989177033305168152e-02,3.751936927437782288e-02
-2.351449243724346161e-02,-1.410024706274271011e-04
-1.064379117451608181e-03,-3.011056594550609589e-02
1.549592521041631699e-02,-5.145473405718803406e-02
3.195134550333023071e-02,2.513224631547927856e-02
-4.384207539260387421e-03,1.242425385862588882e-02
3.342850133776664734e-02,-8.842194452881813049e-03
2.269030734896659851e-02,-6.972287781536579132e-03
-1.546494942158460617e-02,5.397566407918930054e-02
9.802671149373054504e-03,1.823315396904945374e-02
-2.102959528565406799e-02,-2.569296956062316895e-02
6.777054816484451294e-02,5.546769872307777405e-02
-6.460543721914291382e-02,1.215102523565292358e-02
4.473308101296424866e-03,5.092369392514228821e-02
5.574441701173782349e-02,8.003456518054008484e-03
7.042881101369857788e-02,-1.742150261998176575e-02
7.503563165664672852e-02,-6.260386854410171509e-02
-4.705822840332984924e-02,-2.228942513465881348e-02
-5.756464228034019470e-02,-1.755835488438606262e-02
-5.960223730653524399e-03,-2.868999913334846497e-02
5.166988074779510498e-02,6.382959336042404175e-02
-2.235648408532142639e-02,-7.431934773921966553e-02
3.358412161469459534e-02,-4.826530441641807556e-02
-6.998176127672195435e-02,-5.843312665820121765e-02
-4.797491710633039474e-03,-2.139508351683616638e-02
4.044251516461372375e-02,-2.193879708647727966e-02
-2.307561784982681274e-02,-2.502468414604663849e-02
5.160895362496376038e-02,-3.896473720669746399e-02
-7.071390002965927124e-02,6.795047968626022339e-02
-1.522251870483160019e-02,3.283212333917617798e-02
-5.763481557369232178e-02,-3.065982088446617126e-02
4.052013531327247620e-02,1.083445549011230469e-02
-2.987381257116794586e-02,4.729479923844337463e-02
-4.603395611047744751e-02,-4.949283227324485779e-02
-1.925396919250488281e-02,-1.293993834406137466e-02
3.628232330083847046e-02,-6.080324761569499969e-03
-5.037515237927436829e-02,5.083367973566055298e-02
5.538308247923851013e-02,-1.976768672466278076e-02
-6.402149796485900879e-02,-1.307115610688924789e-02
5.486715212464332581e-02,-2.145605534315109253e-02
-8.117573335766792297e-03,-6.004709005355834961e-02
-4.691075533628463745e-03,-2.198341861367225647e-02
-3.143477067351341248e-02,-3.374217078089714050e-02
-3.613457456231117249e-02,-2.610286511480808258e-02
2.013382501900196075e-02,-1.609325408935546875e-02
2.235007844865322113e-02,4.909722134470939636e-03
-3.218406438827514648e-02,-3.377208858728408813e-02
3.164039924740791321e-02,4.694619029760360718e-02
-6.249249726533889771e-02,2.521602436900138855e-02
4.477789252996444702e-02,-6.918666511774063110e-02
-1.266178395599126816e-02,2.501622028648853302e-02
-8.146798238158226013e-03,1.577100530266761780e-02
-6.895978935062885284e-03,-6.365360319614410400e-02
5.583481118083000183e-02,6.802123785018920898e-02
-6.961600854992866516e-03,7.274515926837921143e-03
1.992336846888065338e-02,-3.400571644306182861e-02
6.592850387096405029e-02,-4.534910246729850769e-02
5.147912353277206421e-02,-2.991192042827606201e-02
-5.922775017097592354e-04,-1.791801117360591888e-02
-2.562461420893669128e-02,3.213567286729812622e-02
6.741186231374740601e-02,3.575962781906127930e-02
-2.291503176093101501e-02,-4.004533402621746063e-03
-6.656046211719512939e-02,-6.806238088756799698e-03
4.022930935025215149e-02,-6.436685472726821899e-02
3.076327033340930939e-02,3.091007657349109650e-02
-1.759260520339012146e-02,4.860220104455947876e-02
-4.691535234451293945e-02,7.014029473066329956e-02
-2.123139612376689911e-02,-8.069906383752822876e-03
-4.428702965378761292e-02,-2.435098960995674133e-02
1.993978582322597504e-02,-7.740329205989837646e-02
-1.704244688153266907e-02,8.274531923234462738e-03
6.705556996166706085e-03,-1.239547319710254669e-02
5.862919986248016357e-02,1.918156445026397705e-02
3.476548939943313599e-02,-4.888478294014930725e-02
-1.488612033426761627e-02,4.152604192495346069e-02
2.532531274482607841e-03,1.200068742036819458e-02
-4.795081913471221924e-02,4.404950886964797974e-02
-1.463600806891918182e-02,5.700210854411125183e-02
-2.564501389861106873e-02,4.920508340001106262e-02
1.780537888407707214e-02,-2.038007974624633789e-02
5.286985635757446289e-02,-3.013259731233119965e-02
3.984973952174186707e-02,-5.050802230834960938e-02
-1.475609838962554932e-03,3.299415856599807739e-02
6.918233633041381836e-02,7.003047317266464233e-02
2.393846772611141205e-02,-3.931945189833641052e-02
7.119845598936080933e-02,-3.010645136237144470e-02
-1.441309787333011627e-02,-2.627684362232685089e-02
1.845123432576656342e-02,-4.207177087664604187e-02
-1.421794015914201736e-02,-2.014546841382980347e-02
-1.702246814966201782e-02,-6.095017492771148682e-02
-5.555206537246704102e-02,-2.791321650147438049e-02
4.714670777320861816e-02,-6.832244992256164551e-02
-6.968755275011062622e-02,-7.162547856569290161e-02
-3.128586104139685631e-03,-6.870575994253158569e-02
-4.131413996219635010e-03,2.804759703576564789e-02
4.528488963842391968e-03,4.108521679881960154e-04
-5.686126276850700378e-02,-5.388280004262924194e-02
2.203934639692306519e-02,-8.689092472195625305e-03
-1.642113178968429565e-02,3.303318470716476440e-02
2.192493528127670288e-02,5.401101894676685333e-03
5.557812377810478210e-02,1.000093482434749603e-02
3.136672824621200562e-02,-1.456219796091318130e-02
-6.938075181096792221e-03,-6.957449018955230713e-03
6.756896525621414185e-02,2.109380438923835754e-02
3.464054688811302185e-02,-8.685701526701450348e-03
4.403510317206382751e-02,5.243414267897605896e-02
-1.762747764587402344e-03,1.585306786000728607e-02
1.756596937775611877e-02,-1.509085390716791153e-02
2.193238772451877594e-02,1.252340991050004959e-02
-2.387020923197269440e-02,4.879993945360183716e-02
-4.060002975165843964e-03,-5.154906213283538818e-02
5.807080864906311035e-02,6.396228820085525513e-02
-7.555587589740753174e-02,-9.926701895892620087e-03
-2.638605050742626190e-02,4.372389614582061768e-02
-6.858591735363006592e-02,-6.637169979512691498e-03
-6.265668570995330811e-02,5.742378532886505127e-02
3.714319691061973572e-02,-1.988589204847812653e-02
2.226705546490848064e-04,-3.242811188101768494e-02
-4.393113777041435242e-03,-4.970240872353315353e-03
1.478647720068693161e-02,-5.332337692379951477e-02
5.895737186074256897e-02,5.332121253013610840e-02
1.393018290400505066e-03,-4.989061132073402405e-02
1.844430901110172272e-02,1.967502571642398834e-02
-3.202006593346595764e-02,4.353505373001098633e-02
4.037131369113922119e-02,5.904293432831764221e-02
-1.481472887098789215e-02,9.524757973849773407e-03
6.973981857299804688e-02,-4.369439557194709778e-02
4.973056912422180176e-02,-5.713199824094772339e-02
-1.221280544996261597e-02,-1.467796880751848221e-02
9.633548557758331299e-03,3.397511690855026245e-02
1.620793715119361877e-02,3.875511139631271362e-02
7.328903302550315857e-05,4.244823753833770752e-02
-7.774326205253601074e-02,-6.618455052375793457e-02
-6.225036922842264175e-04,2.871337160468101501e-02
-2.174839004874229431e-02,5.250361934304237366e-02
-7.270663045346736908e-04,2.649314329028129578e-02
7.142929732799530029e-02,6.409654021263122559e-02
-6.727528572082519531e-02,1.362848132848739624e-01
-4.785709455609321594e-02,-3.842493891716003418e-02
-6.371532380580902100e-02,5.398973450064659119e-02
-3.789967298507690430e-02,-2.077816985547542572e-02
5.973496660590171814e-02,-3.411410748958587646e-02
-1.485279109328985214e-02,-6.722451746463775635e-02
1.211842801421880722e-02,5.013410374522209167e-02
-8.604547008872032166e-03,-1.332132890820503235e-02
-7.628457248210906982e-02,1.153846504166722298e-03
-3.193934634327888489e-02,1.538113132119178772e-02
-3.677648305892944336e-02,2.358935587108135223e-02
1.986836455762386322e-02,-2.144710533320903778e-02
1.271516643464565277e-02,-5.460770335048437119e-03
-3.004424646496772766e-02,4.672675579786300659e-02
-2.714994736015796661e-02,2.518127858638763428e-02
1.566675864160060883e-02,7.088666781783103943e-03
-1.744915358722209930e-02,6.633514910936355591e-02
-2.500671893358230591e-02,-7.235731184482574463e-02
-3.408276662230491638e-02,-1.000569667667150497e-02
4.225127771496772766e-02,7.590630650520324707e-02
3.050672635436058044e-02,-7.100945804268121719e-03
-2.743645757436752319e-02,-5.410193465650081635e-03
-3.925201669335365295e-02,3.976323083043098450e-02
-5.264562554657459259e-03,-4.924357868731021881e-03
-7.453828305006027222e-02,-2.180162258446216583e-02
-4.413117840886116028e-02,7.082782685756683350e-02
4.952843114733695984e-02,-4.396750032901763916e-02
-3.747837617993354797e-02,-1.463798061013221741e-02
-2.420916222035884857e-02,2.905293926596641541e-02
3.205621987581253052e-02,2.742779999971389771e-02
-9.526620618999004364e-03,2.348952740430831909e-02
-3.902141749858856201e-02,1.796968840062618256e-02
1.882386207580566406e-02,7.812289986759424210e-04
5.820387601852416992e-02,-4.783172532916069031e-02
5.347276479005813599e-02,-5.757695809006690979e-02
3.988542780280113220e-02,1.074648741632699966e-02
-6.021148059517145157e-03,3.008504398167133331e-02
-1.328636240214109421e-02,-8.154649287462234497e-03
1.484725624322891235e-02,-6.029580533504486084e-02
5.416307970881462097e-02,2.734349295496940613e-02
-1.333256904035806656e-02,4.291011765599250793e-02
1.458243560045957565e-02,1.876565441489219666e-02
-5.991942249238491058e-03,2.980233356356620789e-02
6.253375858068466187e-02,4.104889184236526489e-02
-1.207890454679727554e-03,1.693732803687453270e-03
-2.979732491075992584e-02,-2.780584990978240967e-02
-1.276812050491571426e-02,4.161996021866798401e-02
4.962015897035598755e-02,3.380382061004638672e-02
7.797917351126670837e-05,7.112772203981876373e-03
-6.832423806190490723e-02,-4.747560992836952209e-02
1.015683636069297791e-02,2.850208431482315063e-03
1.478533353656530380e-02,-4.358780011534690857e-02
3.649910539388656616e-02,-5.880076810717582703e-02
1.399188302457332611e-02,-2.079241909086704254e-03
-7.043084502220153809e-02,5.714453011751174927e-02
6.735015660524368286e-03,-5.384543910622596741e-03
1.959177665412425995e-02,7.238688319921493530e-02
-5.088142119348049164e-03,5.916969478130340576e-02
3.804477304220199585e-02,5.701628699898719788e-02
-3.694177046418190002e-02,5.420218780636787415e-02
-3.732114285230636597e-02,1.975741004571318626e-03
3.514547273516654968e-02,6.886336952447891235e-02
1.053354609757661819e-02,6.181125715374946594e-02
-6.060731038451194763e-02,-3.926211223006248474e-02
5.601132288575172424e-03,-4.818378947675228119e-04
7.719040848314762115e-03,-7.445699721574783325e-02
7.035195082426071167e-02,5.763721838593482971e-02
7.139699906110763550e-02,-1.030168496072292328e-04
3.975291922688484192e-02,6.919960677623748779e-02
2.911582961678504944e-02,5.834050104022026062e-02
3.523804247379302979e-02,-4.358824808150529861e-03
-3.125737980008125305e-02,3.431423008441925049e-02
5.274777486920356750e-02,-2.458518557250499725e-02
1.744293980300426483e-02,-1.510437205433845520e-02
1.301199384033679962e-02,6.353386677801609039e-03
-6.366780400276184082e-02,-1.362874731421470642e-02
-4.407677799463272095e-03,3.220938146114349365e-02
5.393923819065093994e-02,-3.910693526268005371e-02
7.111387699842453003e-02,5.893317237496376038e-02
3.292458876967430115e-02,5.675483122467994690e-02
-1.718741096556186676e-02,3.534747660160064697e-02
-4.042304307222366333e-02,-4.808900505304336548e-02
-3.092414699494838715e-02,-2.101413905620574951e-02
-4.990157485008239746e-02,4.147436842322349548e-02
-7.749131415039300919e-03,-4.214806016534566879e-03
-3.355126082897186279e-02,3.374026715755462646e-02
5.638824775815010071e-02,-4.852676019072532654e-02
-7.194054871797561646e-02,5.522840097546577454e-02
-4.627378657460212708e-04,7.031789422035217285e-02
-3.018940240144729614e-02,6.331590563058853149e-02
3.679282730445265770e-03,1.950032822787761688e-02
-3.523341566324234009e-02,-1.228271517902612686e-03
5.831729248166084290e-02,3.599121049046516418e-02
-9.207648225128650665e-03,3.807909414172172546e-02
-3.611999377608299255e-02,1.430638041347265244e-02
-5.733363330364227295e-02,3.538846224546432495e-02
-3.353414684534072876e-02,-9.925303980708122253e-03
2.589196339249610901e-02,1.407000888139009476e-02
-1.899373345077037811e-02,2.870897203683853149e-02
-1.800183206796646118e-02,-6.851407885551452637e-02
1.661691255867481232e-02,-1.668267138302326202e-02
6.280797719955444336e-02,-6.279172748327255249e-02
-4.144580103456974030e-03,-5.479017738252878189e-03
-6.439317017793655396e-02,1.766477897763252258e-02
-3.842258453369140625e-02,-2.109844051301479340e-02
2.713720081374049187e-03,-5.172649864107370377e-03
-3.855256363749504089e-02,-5.344823747873306274e-02
-3.683564439415931702e-02,2.024722471833229065e-02
-5.409285798668861389e-02,2.896056324243545532e-02
-3.782522678375244141e-02,7.922214269638061523e-02
6.982420384883880615e-02,5.876844376325607300e-02
2.819496765732765198e-02,-1.858253777027130127e-02
-2.250130847096443176e-02,-4.019920900464057922e-02
-8.382505737245082855e-03,-7.225768268108367920e-02
1.958751864731311798e-02,-7.441948167979717255e-03
8.353785611689090729e-03,-1.515101734548807144e-02
1.537415757775306702e-02,2.942473627626895905e-03
-7.215564697980880737e-02,-5.299219116568565369e-02
2.468036860227584839e-02,-4.767031222581863403e-02
5.698657780885696411e-02,5.369878560304641724e-02
-6.319833919405937195e-03,-3.864330425858497620e-02
-5.012596398591995239e-02,4.201005771756172180e-02
-2.390098571777343750e-02,-1.178830955177545547e-02
-5.578609555959701538e-02,1.416648831218481064e-02
5.077689141035079956e-02,3.657643450424075127e-03
1.137492153793573380e-02,4.408287629485130310e-02
-1.217463146895170212e-02,-4.121638461947441101e-02
-4.941027238965034485e-02,5.775776691734790802e-03
-3.040497191250324249e-02,7.064542919397354126e-02
5.000245757400989532e-03,2.653147093951702118e-02
5.615000799298286438e-02,-4.447119683027267456e-02
-2.325544320046901703e-02,-8.581001311540603638e-03
2.645656093955039978e-02,6.168578192591667175e-02
-1.816502213478088379e-02,-6.277291104197502136e-03
4.128808155655860901e-02,3.798219189047813416e-02
6.708212941884994507e-02,1.767014339566230774e-02
-2.855138294398784637e-02,-1.169646158814430237e-02
-5.015692487359046936e-02,-1.826986297965049744e-02
5.334459710866212845e-03,-4.131378233432769775e-02
-5.106611922383308411e-02,5.255744606256484985e-02
2.290923334658145905e-02,-2.370453812181949615e-02
1.433434337377548218e-02,5.562437698245048523e-03
3.034969978034496307e-02,1.168152317404747009e-02
-1.028536725789308548e-02,5.855759978294372559e-02
-8.588014170527458191e-03,-4.537612572312355042e-02
-1.734835281968116760e-02,-2.398529648780822754e-02
1.654955931007862091e-02,2.088980749249458313e-02
5.376616865396499634e-02,8.155463263392448425e-03
3.664803877472877502e-02,-9.606774896383285522e-03
-3.561389818787574768e-02,-4.662691615521907806e-03
-6.513544172048568726e-02,1.226438488811254501e-02
1.818423159420490265e-02,1.690099015831947327e-02
4.093022271990776062e-02,-2.246078103780746460e-02
2.563440939411520958e-03,-7.391717284917831421e-02
2.891890518367290497e-02,3.568851947784423828e-02
-2.351522259414196014e-02,4.972583800554275513e-02
-7.087139785289764404e-02,-2.792816981673240662e-02
6.434747017920017242e-03,-6.050565838813781738e-02
7.374927401542663574e-03,-2.711869403719902039e-02
-4.371573776006698608e-02,-2.853714674711227417e-02
2.398573048412799835e-02,-1.517286617308855057e-02
-2.181245386600494385e-02,-6.133378483355045319e-03
-4.610155895352363586e-02,-5.247138813138008118e-02
-3.475607372820377350e-03,3.192868828773498535e-02
-5.498294904828071594e-02,5.118568241596221924e-02
-7.468433119356632233e-03,8.829273283481597900e-03
-6.258758902549743652e-02,4.019300267100334167e-02
-4.942997172474861145e-02,3.380052372813224792e-02
-5.553694441914558411e-02,6.482394412159919739e-03
-2.393574081361293793e-02,1.025095488876104355e-02
-6.520043592900037766e-03,6.544281542301177979e-02
4.842069745063781738e-02,-5.046024918556213379e-02
-2.095047198235988617e-02,-2.797278948128223419e-02
-2.234661579132080078e-02,-5.774332582950592041e-02
4.894977062940597534e-02,-7.565942406654357910e-02
-5.122273415327072144e-02,2.728443220257759094e-02
5.396117642521858215e-02,5.505890771746635437e-02
-4.187689721584320068e-02,-1.515080407261848450e-02
-1.347531843930482864e-02,-4.937446117401123047e-02
-3.373918822035193443e-03,-3.295870870351791382e-02
-3.431817516684532166e-02,5.478652566671371460e-02
-3.593401610851287842e-02,4.606953635811805725e-02
3.568711504340171814e-02,5.954248085618019104e-02
4.337003082036972046e-02,-2.528935670852661133e-02
5.439030937850475311e-03,1.452440023422241211e-02
-4.663063585758209229e-02,1.258184481412172318e-02
1.008544862270355225e-02,-6.953648477792739868e-02
-1.973536796867847443e-02,-3.764865174889564514e-02
4.674731567502021790e-02,3.116685710847377777e-02
1.772137917578220367e-02,-4.085686802864074707e-02
6.457652896642684937e-03,7.232236093841493130e-04
-1.743561401963233948e-02,2.688729390501976013e-02
-2.935446798801422119e-02,-8.992812596261501312e-03
1.372788846492767334e-02,-6.838952749967575073e-02
6.651304662227630615e-02,7.228510081768035889e-02
-1.353774406015872955e-02,-2.314435504376888275e-02
-6.376373022794723511e-02,5.269097164273262024e-03
-6.574391573667526245e-02,4.168136790394783020e-02
-5.674652755260467529e-02,1.543731801211833954e-02
-6.776165217161178589e-02,6.755018234252929688e-02
-5.339566618204116821e-02,-4.107635840773582458e-02
-2.239766344428062439e-02,-1.738526113331317902e-02
-5.586036667227745056e-02,6.046904996037483215e-02
6.667838990688323975e-02,-1.420550420880317688e-02
2.064454602077603340e-03,4.304813966155052185e-02
1.746536046266555786e-02,1.221009530127048492e-02
-2.840340696275234222e-02,-2.041154541075229645e-02
-3.489195182919502258e-02,4.040869325399398804e-02
-2.456820337101817131e-03,-1.856449805200099945e-02
-9.009058121591806412e-04,-2.723853290081024170e-02
-1.713611744344234467e-02,-5.774224922060966492e-02
-7.175870984792709351e-02,-4.018010571599006653e-02
-3.261179104447364807e-02,2.178858965635299683e-02
-4.928197339177131653e-02,2.381062135100364685e-02
1.349642593413591385e-02,4.580854251980781555e-02
4.428081214427947998e-02,-5.424363166093826294e-02
-3.996950760483741760e-02,-7.816855609416961670e-02
6.488170474767684937e-02,5.561761558055877686e-03
1.057939790189266205e-02,1.851622015237808228e-02
6.876271963119506836e-02,-7.451938092708587646e-02
5.310339480638504028e-02,-5.637767165899276733e-02
5.151959508657455444e-02,-5.071875452995300293e-02
-2.158934064209461212e-02,-5.734822526574134827e-02
-6.186513975262641907e-02,5.723353475332260132e-03
2.617143839597702026e-02,-1.642187591642141342e-03
-4.216224886476993561e-03,4.362516850233078003e-02
4.357364773750305176e-02,8.597338572144508362e-03
5.340404435992240906e-02,-4.162389412522315979e-02
-2.531475201249122620e-02,-6.511835008859634399e-02
-6.507827341556549072e-02,4.991809651255607605e-02
-2.249933592975139618e-02,6.820566952228546143e-02
-6.942605227231979370e-02,-2.545594051480293274e-02
-8.189008571207523346e-03,-1.578274555504322052e-02
6.617521494626998901e-02,2.888406999409198761e-02
9.260684251785278320e-03,-5.470785498619079590e-02
1.743026264011859894e-02,2.070654369890689850e-02
-7.140180468559265137e-02,4.704195633530616760e-02
2.618305943906307220e-02,-4.778176546096801758e-02
-7.496033608913421631e-02,5.717883259057998657e-02
3.647150844335556030e-02,-2.547422237694263458e-02
-5.268672108650207520e-02,-9.293783456087112427e-03
-1.782922074198722839e-02,-3.862515091896057129e-02
1.515629235655069351e-02,2.556280232965946198e-02
-1.064672227948904037e-02,-5.466475337743759155e-02
6.642485409975051880e-02,-1.035736966878175735e-02
3.507462516427040100e-02,-1.695174910128116608e-02
4.429461807012557983e-02,-5.828838050365447998e-02
-7.474442943930625916e-03,6.958626955747604370e-02
-1.714912056922912598e-02,1.192998420447111130e-02
-7.342727482318878174e-02,4.500277712941169739e-02
6.523039191961288452e-02,-6.488741189241409302e-02
-1.381454896181821823e-02,6.638659536838531494e-02
-6.566058844327926636e-02,-3.996202722191810608e-02
3.122361004352569580e-02,-1.636976934969425201e-02
1.415193546563386917e-04,2.386946044862270355e-02
5.856501311063766479e-02,7.808780670166015625e-02
-5.212876200675964355e-02,-3.596630692481994629e-02
6.734776496887207031e-02,-4.308281838893890381e-02
-6.571343541145324707e-02,-1.656954288482666016e-01
1.468903850764036179e-02,-5.762108042836189270e-02
-5.186383053660392761e-02,-2.114498242735862732e-02
-3.205902129411697388e-02,4.308444634079933167e-02
-1.027689687907695770e-02,6.309255212545394897e-02
2.155465073883533478e-02,5.253279954195022583e-02
-4.079641029238700867e-02,5.609089508652687073e-02
-4.201184213161468506e-02,-1.517833862453699112e-02
-4.886800423264503479e-03,3.929769620299339294e-02
-3.680971637368202209e-02,-5.439092218875885010e-02
-5.222316458821296692e-02,4.824158921837806702e-02
-2.390969544649124146e-02,3.248864412307739258e-02
-1.224728859961032867e-02,4.527148231863975525e-02
2.222373709082603455e-02,2.917090989649295807e-02
6.818676367402076721e-03,-3.310248255729675293e-02
-5.744551494717597961e-02,-5.860988050699234009e-03
-3.704716637730598450e-02,1.334780082106590271e-02
-5.923240631818771362e-02,-4.338440299034118652e-02
6.549163907766342163e-02,2.667751349508762360e-02
-2.770839445292949677e-02,2.293254062533378601e-02
-4.880176857113838196e-05,-1.059731561690568924e-02
1.375452708452939987e-02,2.118649333715438843e-02
3.278974443674087524e-03,3.597327740862965584e-03
-6.228701025247573853e-02,4.001090303063392639e-02
-1.461874414235353470e-02,-7.345714140683412552e-03
1.013836823403835297e-02,2.893545432016253471e-03
4.213320463895797729e-02,-2.932267729192972183e-03
2.945674769580364227e-02,1.954833418130874634e-02
4.669256042689085007e-03,3.198920190334320068e-02
3.893719986081123352e-02,-2.163354773074388504e-03
1.603976823389530182e-03,2.086568251252174377e-02
9.030155837535858154e-03,1.043154858052730560e-02
-4.730760119855403900e-03,-1.102696266025304794e-02
-3.012269362807273865e-02,-1.427538413554430008e-02
-7.575387507677078247e-02,4.201914742588996887e-02
1.378417387604713440e-02,5.992987379431724548e-02
1.106350403279066086e-02,-6.652765721082687378e-02
-2.577353641390800476e-02,-1.974283345043659210e-02
-5.624760687351226807e-02,7.255238015204668045e-03
-1.020061317831277847e-03,-3.600924089550971985e-02
2.984860539436340332e-02,1.974294893443584442e-03
-6.790807843208312988e-02,2.327326685190200806e-02
4.589743912220001221e-02,-7.683555781841278076e-02
-2.488732803612947464e-03,3.736089915037155151e-02
-1.971505209803581238e-02,-2.064332179725170135e-02
-5.268353968858718872e-02,2.969366684556007385e-02
2.221784368157386780e-02,5.750194936990737915e-02
6.945362687110900879e-02,-6.936772167682647705e-02
-4.264343902468681335e-02,4.756162315607070923e-02
6.034579128026962280e-02,-5.398482084274291992e-02
8.016786724328994751e-02,-6.734363734722137451e-02
6.294652819633483887e-02,-6.444375216960906982e-02
-3.914825152605772018e-03,-5.566220497712492943e-04
-4.607951641082763672e-02,-7.173248380422592163e-02
2.069162391126155853e-02,7.042661309242248535e-05
-3.094046376645565033e-02,3.780637308955192566e-02
1.364947762340307236e-02,-4.348039627075195312e-02
-2.586828731000423431e-02,-7.194424979388713837e-04
5.447440966963768005e-02,4.715164378285408020e-02
-2.356503531336784363e-02,-4.419424384832382202e-02
4.870077129453420639e-03,3.894400596618652344e-02
-3.079826384782791138e-02,-7.404951378703117371e-03
-5.017962306737899780e-02,2.024666033685207367e-02
-7.678529620170593262e-02,-4.278565570712089539e-02
-3.138487413525581360e-02,-9.973989799618721008e-04
-7.684931904077529907e-02,-5.494079738855361938e-02
-5.575147643685340881e-02,1.234582141041755676e-01
4.054843261837959290e-02,6.999696046113967896e-02
5.531129986047744751e-02,-2.651468850672245026e-03
-3.127540647983551025e-02,2.589452825486660004e-02
-4.136814177036285400e-02,3.702186048030853271e-02
-5.259759724140167236e-02,-1.965342275798320770e-02
-1.211320422589778900e-02,-8.861467242240905762e-03
2.906239964067935944e-02,2.013629116117954254e-02
1.843314431607723236e-02,-2.309870347380638123e-02
-3.275024471804499626e-03,9.056102484464645386e-03
-5.764825642108917236e-02,-6.045749783515930176e-02
6.036116555333137512e-02,6.935401260852813721e-02
4.022985696792602539e-02,-6.257716566324234009e-02
-1.420327648520469666e-02,-1.944951340556144714e-02
4.553730040788650513e-02,-7.616688311100006104e-02
-2.691822499036788940e-02,1.158331111073493958e-01
-2.753208950161933899e-02,2.104493603110313416e-02
-4.838864132761955261e-02,1.161825843155384064e-02
-6.215108931064605713e-02,-4.618282988667488098e-02
6.115215644240379333e-02,-3.816682100296020508e-02
3.374513983726501465e-02,3.889871761202812195e-02
7.535434514284133911e-02,-7.381823658943176270e-02
1.419536583125591278e-02,2.723484486341476440e-02
-2.917216345667839050e-02,3.174733370542526245e-02
3.483757004141807556e-02,-3.933825716376304626e-02
-5.195407196879386902e-02,-6.006396189332008362e-02
2.041313797235488892e-02,2.624224498867988586e-02
-4.496994614601135254e-02,-2.062163257505744696e-04
5.508095026016235352e-02,-6.675352156162261963e-02
-2.453954517841339111e-02,4.505753889679908752e-02
-7.340680807828903198e-02,8.752023801207542419e-03
5.596914142370223999e-02,-9.931038133800029755e-03
-5.324556306004524231e-02,-5.300263315439224243e-02
6.917071342468261719e-02,-5.679643154144287109e-02
-4.093582928180694580e-02,-3.488333895802497864e-02
4.620622098445892334e-02,3.727031499147415161e-02
2.121632453054189682e-03,3.083622269332408905e-02
-4.190050065517425537e-02,-7.597351819276809692e-02
1.941809244453907013e-02,-5.756498873233795166e-02
-5.922239273786544800e-02,6.836078315973281860e-02
-1.599031500518321991e-02,-1.571597345173358917e-02
4.503440856933593750e-02,-3.904001321643590927e-03
-6.705598533153533936e-02,-1.540382206439971924e-01
-5.285175517201423645e-02,-4.203533381223678589e-02
-3.590843081474304199e-02,5.131207033991813660e-02
2.945161610841751099e-02,5.072963982820510864e-02
-2.220580354332923889e-02,-4.544360190629959106e-02
2.038930915296077728e-02,-4.753381013870239258e-02
1.289963256567716599e-02,1.254631765186786652e-02
4.197472706437110901e-02,5.731602385640144348e-02
-2.449309453368186951e-03,3.028399124741554260e-02
-9.126705117523670197e-05,3.845398314297199249e-03
-5.879576131701469421e-02,-1.423231977969408035e-02
-6.626100838184356689e-02,-2.436811104416847229e-02
2.838159538805484772e-02,9.588777087628841400e-03
-3.477091342210769653e-02,6.098984275013208389e-03
-6.039098650217056274e-02,-2.457664720714092255e-02
-2.665125206112861633e-02,-9.078646078705787659e-03
6.861732900142669678e-02,-5.334415286779403687e-02
8.093153126537799835e-03,-1.893027685582637787e-02
9.378651157021522522e-03,5.127193406224250793e-02
6.404563784599304199e-02,4.737082123756408691e-02
1.231491286307573318e-02,1.208913605660200119e-02
2.403435111045837402e-02,4.397501423954963684e-02
-5.504119768738746643e-02,7.156616449356079102e-02
5.136241391301155090e-02,-1.578548550605773926e-02
6.903096288442611694e-02,1.984562259167432785e-03
-2.156829275190830231e-02,6.540411710739135742e-02
-3.542531281709671021e-02,-1.168508734554052353e-02
-4.497192054986953735e-02,4.483353346586227417e-03
1.397858373820781708e-02,-6.826801691204309464e-04
4.425611346960067749e-02,5.646512843668460846e-03
-2.088037133216857910e-02,6.014455854892730713e-02
5.197281949222087860e-03,2.663975581526756287e-02
2.475318312644958496e-02,5.950080230832099915e-02
1.286622136831283569e-02,-7.773622125387191772e-02
-9.326492995023727417e-02,1.248842384666204453e-02
3.941969200968742371e-02,-3.953726217150688171e-02
-4.883352667093276978e-02,6.110850349068641663e-02
-2.733174525201320648e-02,-6.119371205568313599e-02
4.814147949218750000e-02,-5.655652284622192383e-02
-2.764734625816345215e-02,-2.589366212487220764e-02
-8.349278010427951813e-03,-7.291815243661403656e-03
-6.312701851129531860e-02,-6.981249898672103882e-02
1.705623045563697815e-02,4.441285878419876099e-02
-1.623492874205112457e-02,-2.916164882481098175e-02
5.209168791770935059e-02,-4.524061828851699829e-02
-2.304230257868766785e-02,-3.058469854295253754e-02
-3.798036649823188782e-02,-3.168784081935882568e-02
-7.958862185478210449e-02,4.544178489595651627e-03
-6.316524744033813477e-02,1.637989096343517303e-02
3.803168237209320068e-02,-6.189624592661857605e-02
2.446116413921117783e-03,-3.550294786691665649e-02
-5.727182701230049133e-02,-7.130112964659929276e-03
4.566349089145660400e-02,3.744392469525337219e-02
-5.458690226078033447e-02,6.815848499536514282e-02
-4.307663068175315857e-02,-1.839823275804519653e-02
-3.386550769209861755e-02,7.785595953464508057e-03
-3.457245882600545883e-03,-6.228797137737274170e-04
5.981833860278129578e-02,2.832739613950252533e-02
-4.353318363428115845e-03,-1.375071611255407333e-02
2.662307769060134888e-02,-3.578854026272892952e-03
-3.436659276485443115e-02,5.307573825120925903e-02
2.597677893936634064e-02,-2.691891230642795563e-02
-4.432990401983261108e-02,6.620869040489196777e-02
6.330328434705734253e-02,-5.548143759369850159e-02
-9.666795842349529266e-03,3.964924067258834839e-02
-2.992500737309455872e-02,-2.121090888977050781e-02
3.403067588806152344e-02,-6.620176136493682861e-02
-5.941516533493995667e-02,-3.520615026354789734e-02
5.238930508494377136e-02,-4.090039432048797607e-02
6.217991933226585388e-03,3.102409280836582184e-02
-4.146790504455566406e-02,5.445715785026550293e-02
-2.704907208681106567e-02,3.750409185886383057e-02
-2.047634497284889221e-02,-5.659358575940132141e-02
-3.491177037358283997e-02,-7.119190879166126251e-03
-6.100508570671081543e-02,-1.289604697376489639e-02
-4.549354780465364456e-03,-6.388176232576370239e-02
-6.577204912900924683e-02,-3.407447040081024170e-02
2.452898398041725159e-02,1.098831184208393097e-02
-4.235545545816421509e-02,-3.161324933171272278e-02
2.761552808806300163e-03,-3.673090413212776184e-02
5.438337847590446472e-02,1.140939537435770035e-02
-3.417477756738662720e-02,5.054479092359542847e-02
-5.934090167284011841e-02,1.312715001404285431e-02
-2.587296813726425171e-02,1.244079135358333588e-02
1.971384696662425995e-02,-4.648157954216003418e-02
7.789634168148040771e-03,2.875339798629283905e-02
-5.455189850181341171e-03,-3.743521124124526978e-02
6.814157217741012573e-02,2.341587468981742859e-02
-3.318108245730400085e-02,-2.521910332143306732e-02
-1.919892802834510803e-02,6.396861374378204346e-02
6.341202557086944580e-02,1.922819763422012329e-02
-9.158638305962085724e-03,-8.927719667553901672e-03
-1.544652972370386124e-02,7.554998621344566345e-03
5.886735394597053528e-02,-6.695487350225448608e-02
-2.940103039145469666e-02,-3.029782325029373169e-02
-1.124119907617568970e-01,2.855136990547180176e-01
3.030522167682647705e-02,5.354818701744079590e-02
-1.493360847234725952e-02,-3.065900504589080811e-02
-6.952555477619171143e-02,-6.937566399574279785e-02
4.608049616217613220e-02,2.535209059715270996e-02
-2.216503582894802094e-02,-3.983759135007858276e-02
-7.082181423902511597e-02,-4.932251200079917908e-02
-6.679090112447738647e-02,4.254441708326339722e-02
-9.954107925295829773e-03,-5.403447896242141724e-02
4.455586150288581848e-02,5.003897845745086670e-02
1.701877918094396591e-03,6.645961198955774307e-03
3.598919510841369629e-02,1.478627882897853851e-02
-1.755118928849697113e-02,-1.938375644385814667e-04
3.229445591568946838e-02,5.809043347835540771e-02
-2.084427140653133392e-02,2.546444162726402283e-02
3.924389556050300598e-02,-1.835171505808830261e-02
-3.042327240109443665e-02,6.991593539714813232e-02
-1.713209226727485657e-02,6.809280812740325928e-02
5.303485319018363953e-02,-3.359400853514671326e-02
7.275669835507869720e-03,2.084103599190711975e-02
3.367497771978378296e-02,3.483847528696060181e-02
-9.205957874655723572e-03,2.231891453266143799e-02
1.504281535744667053e-02,2.835701964795589447e-02
6.073828414082527161e-02,2.341208420693874359e-02
2.421918511390686035e-02,-3.646740317344665527e-02
5.480471625924110413e-02,4.510514438152313232e-02
-7.803088054060935974e-03,6.007071584463119507e-03
6.544779986143112183e-02,2.475087065249681473e-03
1.141670159995555878e-02,-2.430665120482444763e-02
-7.681509014219045639e-03,1.562228426337242126e-02
-1.536191906780004501e-02,5.854005366563796997e-02
3.775564208626747131e-02,2.459476701915264130e-03
-7.083675265312194824e-02,-5.909742042422294617e-02
3.180441632866859436e-02,-2.916722092777490616e-03
2.678446099162101746e-02,2.800067327916622162e-02
1.264902018010616302e-02,4.187194630503654480e-02
-5.724275484681129456e-03,7.558101788163185120e-03
2.490021288394927979e-02,-1.498045632615685463e-03
5.839651077985763550e-02,4.236452654004096985e-02
-4.882949218153953552e-02,2.108499966561794281e-02
3.381823748350143433e-02,-2.676534280180931091e-02
5.408103391528129578e-02,2.155391126871109009e-02
6.247745454311370850e-02,4.627159610390663147e-02
-5.765812098979949951e-02,-7.820308953523635864e-02
-2.017922326922416687e-02,-4.073291644454002380e-02
3.853309899568557739e-02,3.350166603922843933e-02
4.537451639771461487e-02,4.176660254597663879e-02
-6.069009751081466675e-02,2.673610858619213104e-02
-2.063846215605735779e-02,5.789503827691078186e-02
2.439857460558414459e-02,-1.419458538293838501e-02
6.512876600027084351e-02,4.401286691427230835e-02
4.188461229205131531e-02,6.632890552282333374e-02
2.470170706510543823e-02,7.255944609642028809e-02
-3.528633341193199158e-02,2.124594058841466904e-03
-6.388532370328903198e-02,4.586743190884590149e-03
2.558330446481704712e-02,1.782546378672122955e-02
1.368010183796286583e-03,-4.732481203973293304e-03
-1.870524697005748749e-02,8.088985458016395569e-03
-2.757721021771430969e-02,-1.038123108446598053e-02
-2.829495817422866821e-02,-1.808434724807739258e-02
-2.876949030905961990e-03,-5.210850015282630920e-02
3.180962800979614258e-02,-2.951625362038612366e-02
3.804437443614006042e-02,3.096370398998260498e-02
6.638094782829284668e-02,-6.958842277526855469e-02
-6.234996020793914795e-02,2.899818122386932373e-02
-6.468624621629714966e-02,-1.107592433691024780e-01
-9.428599849343299866e-03,9.779602289199829102e-03
-4.291344061493873596e-02,-5.335270427167415619e-03
-2.242205664515495300e-02,3.153357654809951782e-02
-1.339467614889144897e-02,1.917963381856679916e-04
-8.475346490740776062e-03,4.313280433416366577e-02
-5.788848735392093658e-03,2.997042424976825714e-02
5.745555274188518524e-03,-4.904076457023620605e-02
-2.805905602872371674e-02,4.781977459788322449e-02
3.370002657175064087e-02,7.087146490812301636e-02
5.457102134823799133e-02,3.912778198719024658e-02
2.938907966017723083e-02,9.535623714327812195e-03
-1.229422260075807571e-02,9.387668222188949585e-03
6.484109908342361450e-02,2.818317338824272156e-02
-3.936654701828956604e-02,4.977200180292129517e-02
-6.738342344760894775e-02,-9.810548275709152222e-03
-6.129568815231323242e-02,5.275406688451766968e-02
-9.772625751793384552e-03,-2.626943588256835938e-02
6.414851639419794083e-03,6.801391392946243286e-02
-7.454955577850341797e-02,-6.097858026623725891e-02
7.548318244516849518e-03,6.653618067502975464e-02
5.746603943407535553e-03,5.670777708292007446e-02
5.744911357760429382e-02,-3.351056575775146484e-02
2.212874963879585266e-02,-1.128491014242172241e-02
-7.483556121587753296e-02,-1.213691104203462601e-02
7.098399847745895386e-02,-7.677791267633438110e-02
-3.913892805576324463e-02,6.737245619297027588e-02
2.935479395091533661e-02,-3.370225802063941956e-02
-1.143291499465703964e-02,-1.570315845310688019e-02
9.931115433573722839e-03,5.375503376126289368e-02
-2.539632283151149750e-02,2.435961365699768066e-02
-9.631061926484107971e-03,-2.804741077125072479e-02
-3.938321396708488464e-02,1.911635138094425201e-02
1.092399433255195618e-01,2.658308446407318115e-01
2.702662721276283264e-02,6.454280018806457520e-02
2.975010313093662262e-02,5.641920492053031921e-03
-2.231316268444061279e-02,9.087245166301727295e-02
4.659418016672134399e-02,3.315544128417968750e-02
3.605142235755920410e-02,-2.671267092227935791e-02
2.873522229492664337e-02,-5.366203561425209045e-02
2.493342570960521698e-02,-2.027581632137298584e-01
5.180621519684791565e-03,-4.573609307408332825e-02
2.726827748119831085e-02,-1.630027778446674347e-02
1.973810605704784393e-02,1.945653557777404785e-02
-2.967941388487815857e-02,-3.297910839319229126e-02
-2.928020665422081947e-03,1.373836491256952286e-02
-6.943351030349731445e-02,5.235040560364723206e-02
-1.373306475579738617e-02,2.243226394057273865e-02
1.950300764292478561e-03,4.057212918996810913e-02
-2.616619691252708435e-02,2.310778200626373291e-02
-3.515097126364707947e-02,1.128551214933395386e-01
-3.763499855995178223e-02,-2.281329594552516937e-02
6.784019619226455688e-02,-4.901481419801712036e-02
-2.389544434845447540e-02,-6.664104759693145752e-02
-1.455564983189105988e-02,-1.391822565346956253e-02
3.007985278964042664e-02,-3.736682981252670288e-02
-1.191797852516174316e-02,9.945709258317947388e-03
-1.300069503486156464e-02,-1.313133398070931435e-03
-5.145817250013351440e-02,5.128328222781419754e-03
-4.173145070672035217e-02,5.850165151059627533e-03
-3.232447057962417603e-02,-2.831345796585083008e-02
5.427703727036714554e-03,-2.153364010155200958e-02
-4.032826796174049377e-02,3.268071264028549194e-02
-4.259722679853439331e-02,-5.940996855497360229e-02
5.451869592070579529e-02,-5.901624634861946106e-02
1.695490069687366486e-02,-1.093599852174520493e-02
4.998006299138069153e-02,9.269688278436660767e-03
2.082990109920501709e-02,-3.996631503105163574e-02
-1.074488833546638489e-02,-1.846213638782501221e-02
-2.649927698075771332e-02,-5.736556649208068848e-02
-2.004085481166839600e-02,-1.241369917988777161e-02
4.482800886034965515e-02,-1.282656285911798477e-02
-9.752618148922920227e-03,-8.409697562456130981e-03
-3.600390162318944931e-03,-7.151872385293245316e-03
-4.825392365455627441e-02,-1.736566983163356781e-02
-2.888432703912258148e-03,6.951307877898216248e-03
4.182860255241394043e-02,1.666462048888206482e-04
5.800762027502059937e-02,7.937096059322357178e-03
1.428706385195255280e-02,-7.586596906185150146e-02
-6.769135594367980957e-02,9.042716026306152344e-02
-6.740489602088928223e-02,3.947335109114646912e-02
-2.519824728369712830e-02,-3.601133450865745544e-02
-6.688068807125091553e-02,5.266733840107917786e-02
6.288605928421020508e-02,-7.541786879301071167e-02
-6.554390490055084229e-02,-3.738202154636383057e-02
-5.218060687184333801e-03,2.230725809931755066e-02
3.254298493266105652e-02,1.610698550939559937e-02
-6.609025597572326660e-02,4.775142669677734375e-02
-5.270330980420112610e-02,7.260525226593017578e-02
4.276064783334732056e-02,4.492859169840812683e-02
-5.993372946977615356e-02,-1.369526982307434082e-02
1.893081888556480408e-02,3.210793808102607727e-02
5.527519434690475464e-02,-4.513512179255485535e-02
-3.006796166300773621e-02,-1.170084811747074127e-02
3.239517100155353546e-03,3.218946978449821472e-02
-3.649066435173153877e-03,-4.978246055543422699e-03
3.955947607755661011e-02,1.720656827092170715e-02
