-4.299497976899147034e-02,1.571825891733169556e-02,-2.850271761417388916e-03,-3.765834122896194458e-02,3.534581512212753296e-02,5.269110202789306641e-03,-4.652711004018783569e-02,8.457501977682113647e-02,-1.888666301965713501e-02,-5.208648741245269775e-02,2.920395880937576294e-02,-3.890721872448921204e-02,4.133697599172592163e-02,6.213957816362380981e-02,5.616494268178939819e-02,-4.085594043135643005e-02,9.800061583518981934e-03,-2.223953604698181152e-02,-5.552062392234802246e-02,-7.135281711816787720e-02,-4.607987031340599060e-02,-3.102331236004829407e-02,8.021267503499984741e-02,-7.951347529888153076e-02,-6.515510380268096924e-03,-4.755310341715812683e-02,-6.111475825309753418e-02,-4.473758488893508911e-02,-4.443856701254844666e-02,-4.651711136102676392e-02,-2.978269755840301514e-02,2.693548798561096191e-03
-4.942657053470611572e-02,-3.904388844966888428e-02,2.108746021986007690e-02,-3.520828485488891602e-02,-6.028521060943603516e-02,-4.770117998123168945e-02,-7.014020532369613647e-02,-7.782030105590820312e-02,3.494870662689208984e-02,-5.962163209915161133e-02,1.338742673397064209e-02,-2.815719693899154663e-02,2.814181894063949585e-02,3.588899970054626465e-02,-8.525877445936203003e-02,3.176540136337280273e-03,2.898260951042175293e-02,1.143557578325271606e-02,1.233874261379241943e-02,4.964769631624221802e-02,-3.222175315022468567e-02,-1.976773142814636230e-03,4.106379300355911255e-02,2.652110904455184937e-02,-6.251954287290573120e-02,4.066898673772811890e-02,5.165823549032211304e-02,3.662204742431640625e-02,7.779903709888458252e-03,-1.202128827571868896e-02,-3.403908014297485352e-02,-3.668495267629623413e-02
4.370635002851486206e-02,-5.023844540119171143e-03,7.266586273908615112e-02,1.824759691953659058e-02,2.880474925041198730e-02,-8.346012979745864868e-02,-2.213197946548461914e-02,1.040897518396377563e-02,7.029540091753005981e-02,-3.137466683983802795e-02,-7.539202272891998291e-02,-5.634650588035583496e-03,7.481057196855545044e-02,8.195150643587112427e-02,-6.467311084270477295e-02,-4.230149090290069580e-02,-5.563591048121452332e-02,5.828093737363815308e-02,-7.670867443084716797e-02,-4.884073883295059204e-02,5.865447968244552612e-02,-3.057697415351867676e-02,-5.229945480823516846e-02,6.835506111383438110e-02,-3.333872184157371521e-02,-2.380527555942535400e-03,7.445593923330307007e-02,-4.742428287863731384e-02,-1.662387698888778687e-02,-5.046894028782844543e-02,8.027673512697219849e-02,-5.230797827243804932e-02
-6.450604647397994995e-02,-5.798473954200744629e-03,3.815820068120956421e-02,-7.410138100385665894e-02,7.535321265459060669e-02,-3.560528159141540527e-03,6.848297268152236938e-02,1.994977891445159912e-02,3.136115521192550659e-02,1.846395432949066162e-02,6.271483749151229858e-02,-5.127466470003128052e-02,1.953073590993881226e-02,-4.769435152411460876e-02,3.209093213081359863e-02,-4.916987195611000061e-02,1.572733372449874878e-02,-7.144802808761596680e-02,-5.460008978843688965e-04,6.108028441667556763e-02,3.685361891984939575e-02,-6.849784404039382935e-02,-2.089620381593704224e-02,-2.685113623738288879e-02,-5.897134542465209961e-02,-6.164710223674774170e-02,5.016200989484786987e-02,-4.590513184666633606e-02,2.146725356578826904e-02,-4.343144223093986511e-02,7.625233381986618042e-02,2.954049408435821533e-02
-6.753221899271011353e-02,5.409374088048934937e-02,-5.196533352136611938e-02,-6.265714764595031738e-02,6.426208466291427612e-02,-4.945940151810646057e-02,-3.684682771563529968e-02,-7.493239641189575195e-02,-1.647994667291641235e-02,7.442394644021987915e-02,-2.292660623788833618e-02,4.609107226133346558e-02,5.159664899110794067e-02,-4.663840681314468384e-02,3.301960974931716919e-02,3.404818475246429443e-03,5.568442493677139282e-02,7.921957224607467651e-02,2.704221010208129883e-02,4.449681192636489868e-02,-5.010568723082542419e-02,-7.854221016168594360e-02,7.246469706296920776e-02,-2.955022454261779785e-02,-2.428875863552093506e-02,-6.287361681461334229e-02,-4.314549267292022705e-03,-4.053860902786254883e-05,3.848629444837570190e-02,1.404313743114471436e-02,-8.899413049221038818e-03,-8.289566636085510254e-02
5.170295387506484985e-02,7.388066500425338745e-02,-3.980870544910430908e-02,7.531918585300445557e-03,-5.062552168965339661e-02,-9.524554014205932617e-03,8.923470973968505859e-03,-3.687992691993713379e-02,3.762374818325042725e-02,7.151969522237777710e-02,-1.886302977800369263e-02,7.122420519590377808e-02,-5.226527154445648193e-02,2.481576800346374512e-02,6.551988422870635986e-03,-1.545660942792892456e-02,3.853233158588409424e-02,5.812806636095046997e-02,-1.821742206811904907e-02,-6.170332431793212891e-02,-5.898463353514671326e-02,5.968625098466873169e-02,7.563365250825881958e-02,2.597823739051818848e-03,-4.346251860260963440e-02,-2.869381755590438843e-02,7.904268056154251099e-02,-4.913728311657905579e-02,4.159947484731674194e-02,4.219353944063186646e-02,3.328360617160797119e-03,-2.521938085556030273e-02
-1.197277009487152100e-02,-3.228241205215454102e-02,1.024726033210754395e-02,-2.919545769691467285e-02,-1.392736285924911499e-02,-8.563854545354843140e-02,1.236585527658462524e-02,-5.753924697637557983e-02,-1.422092318534851074e-04,3.386773169040679932e-03,-4.699534177780151367e-02,5.572763830423355103e-02,4.354491084814071655e-02,-4.478579014539718628e-02,-2.564219012856483459e-02,-4.310736060142517090e-02,-8.397798240184783936e-02,-4.927759245038032532e-02,1.127292215824127197e-02,8.200287073850631714e-02,-7.993801683187484741e-02,1.978953927755355835e-02,8.082164078950881958e-02,-4.941689968109130859e-02,5.435775965452194214e-02,1.657104492187500000e-02,4.184051603078842163e-02,4.119259864091873169e-02,-2.265579998493194580e-02,3.325318545103073120e-02,3.519575297832489014e-02,-5.175426602363586426e-02
-1.251059770584106445e-02,6.880500167608261108e-02,-5.383211746811866760e-02,2.966748923063278198e-02,-1.101281493902206421e-02,6.321982294321060181e-02,-5.094293877482414246e-02,-4.669111222028732300e-02,8.023389428853988647e-02,-6.296142935752868652e-03,6.691993027925491333e-02,4.407962411642074585e-02,6.079048663377761841e-02,-7.400034368038177490e-02,-4.788836836814880371e-02,3.644373267889022827e-02,6.758063286542892456e-02,7.424824684858322144e-02,4.838753491640090942e-02,4.245816916227340698e-02,4.193616658449172974e-02,4.037078469991683960e-02,-7.744506001472473145e-04,1.898977905511856079e-02,-7.832421362400054932e-02,1.307293772697448730e-02,2.393049746751785278e-02,-3.662562370300292969e-02,-3.405267745256423950e-02,4.865249246358871460e-02,3.243613243103027344e-02,-2.409741282463073730e-04
-1.562312245368957520e-04,-4.399909824132919312e-02,3.649860620498657227e-02,-2.262631803750991821e-02,4.815604537725448608e-02,-5.688083916902542114e-02,4.193005710840225220e-02,8.125367015600204468e-02,-2.062223106622695923e-02,1.185644418001174927e-02,-4.700219258666038513e-02,-2.381786704063415527e-02,1.277989149093627930e-02,-1.015295088291168213e-02,5.665167421102523804e-02,4.031561315059661865e-03,2.539573609828948975e-02,3.449938446283340454e-02,-2.162636816501617432e-02,-1.881976425647735596e-02,-7.735769450664520264e-02,-7.936358451843261719e-05,-5.586531385779380798e-02,6.868059188127517700e-02,8.678123354911804199e-03,2.392835170030593872e-02,6.431908160448074341e-02,1.793438941240310669e-02,6.719812750816345215e-03,4.205154627561569214e-02,-6.901703774929046631e-03,3.843513876199722290e-02
1.551571488380432129e-02,6.294158846139907837e-02,8.458922058343887329e-02,7.874497026205062866e-02,-4.826660454273223877e-02,-7.600165158510208130e-02,-5.160647630691528320e-02,9.848572313785552979e-03,-1.271013170480728149e-02,-5.371122807264328003e-02,-6.094098091125488281e-02,-6.413177400827407837e-02,-4.167356714606285095e-02,-8.568070828914642334e-03,-8.716724812984466553e-03,-6.020672619342803955e-02,-6.766745448112487793e-02,-5.232752487063407898e-02,-8.506353199481964111e-02,4.098647087812423706e-02,6.096965819597244263e-02,-7.585144788026809692e-02,1.934945583343505859e-03,8.153913170099258423e-02,-5.977964773774147034e-02,-5.096209421753883362e-02,3.379123657941818237e-02,-1.214456558227539062e-02,-7.870192080736160278e-02,6.288745254278182983e-02,5.899813026189804077e-02,3.024823963642120361e-03
4.913850873708724976e-02,1.143048703670501709e-02,-2.116553485393524170e-02,-1.472823321819305420e-03,1.723527908325195312e-02,7.541956752538681030e-02,7.925052195787429810e-02,5.963694304227828979e-02,-6.131926178932189941e-02,-3.588223084807395935e-02,-2.552643418312072754e-03,4.727082699537277222e-02,-5.455972626805305481e-02,-8.209263533353805542e-02,-1.510885357856750488e-02,2.417024224996566772e-02,7.367085665464401245e-02,3.451680392026901245e-02,1.442906260490417480e-02,7.294472306966781616e-02,-4.715372249484062195e-02,-4.775437340140342712e-02,-1.273217052221298218e-02,2.801735699176788330e-02,-8.279133588075637817e-02,1.559428125619888306e-02,-4.889745265245437622e-02,-8.392893522977828979e-02,7.895090430974960327e-02,8.216848224401473999e-02,6.478068977594375610e-02,-3.272850438952445984e-02
6.533671170473098755e-02,-5.185215547680854797e-02,6.197155267000198364e-02,-4.026878252625465393e-02,-5.875252932310104370e-02,-1.765319705009460449e-02,-7.476411759853363037e-03,-7.397145777940750122e-02,-4.127331078052520752e-02,-3.813798353075981140e-02,-7.383345812559127808e-02,-2.007886767387390137e-03,4.338689893484115601e-02,5.226316303014755249e-02,3.895362466573715210e-02,8.209476619958877563e-02,4.061108082532882690e-02,5.896791070699691772e-02,6.874292343854904175e-02,1.390381157398223877e-02,6.866667419672012329e-02,-1.251117140054702759e-02,8.403740823268890381e-03,-4.652479663491249084e-02,-1.429656147956848145e-02,5.292996019124984741e-02,-4.959791898727416992e-03,-1.264481246471405029e-02,-5.291784927248954773e-02,-4.057727754116058350e-03,6.703325361013412476e-02,1.140650361776351929e-02
-8.160903304815292358e-02,3.992224112153053284e-02,7.656716555356979370e-02,-2.640753518790006638e-03,6.040790304541587830e-02,-1.796795241534709930e-02,-8.007676154375076294e-02,2.486625872552394867e-02,-4.868763685226440430e-02,-3.860243782401084900e-02,8.432253450155258179e-02,7.444612681865692139e-02,-8.543331176042556763e-03,-3.558216243982315063e-02,-4.541780054569244385e-02,-2.040109969675540924e-02,-6.740802526473999023e-02,7.231694459915161133e-02,-6.962534785270690918e-02,7.013289257884025574e-03,-7.185795903205871582e-02,-1.961651444435119629e-02,-7.472386211156845093e-02,-6.172671914100646973e-02,1.403116062283515930e-02,-5.966065451502799988e-03,-2.419042773544788361e-02,-3.163080289959907532e-02,-3.236505016684532166e-02,3.511326014995574951e-02,7.349080592393875122e-02,2.007254399359226227e-02
6.844539195299148560e-02,-3.975624218583106995e-02,-7.895568758249282837e-02,-8.331128209829330444e-02,-1.869643852114677429e-02,7.539951801300048828e-02,-7.841514050960540771e-02,-1.272841263562440872e-02,-3.807057812809944153e-02,-5.375557392835617065e-02,4.894155636429786682e-02,4.941088706254959106e-02,7.260897755622863770e-02,9.542310610413551331e-03,-2.817895263433456421e-02,2.281107194721698761e-02,5.502948537468910217e-02,-7.335793972015380859e-02,7.762932218611240387e-03,4.711158573627471924e-02,-7.297945022583007812e-02,-4.879254475235939026e-02,-3.344016522169113159e-02,-2.705471962690353394e-02,3.967825695872306824e-02,4.051343351602554321e-02,6.590764224529266357e-02,-1.728055439889431000e-02,5.125941336154937744e-02,-3.137995302677154541e-02,2.253349125385284424e-02,-7.774598896503448486e-02
5.350237339735031128e-02,3.798738121986389160e-02,-3.348545357584953308e-02,-3.246518969535827637e-02,5.347619578242301941e-02,-5.804259702563285828e-02,6.631278991699218750e-02,-5.232231691479682922e-02,-5.944798141717910767e-02,-2.938666939735412598e-02,-1.030468940734863281e-02,-2.861862629652023315e-02,-1.135378051549196243e-02,1.523194019682705402e-03,-1.087552309036254883e-02,5.673233419656753540e-02,3.406035155057907104e-02,1.046060351654887199e-04,2.223947644233703613e-02,2.796696685254573822e-02,-6.782114040106534958e-03,9.483086178079247475e-04,-6.802360713481903076e-02,2.944589592516422272e-02,-8.079541847109794617e-03,-5.609886348247528076e-02,-6.276834756135940552e-02,-8.455785363912582397e-02,2.578632533550262451e-02,7.714145630598068237e-02,3.831562772393226624e-02,-4.609690606594085693e-02
-7.529398798942565918e-02,-8.570542931556701660e-02,4.815876856446266174e-02,-5.663681402802467346e-02,-2.485605329275131226e-02,-6.059668958187103271e-03,-1.972554437816143036e-02,-7.561646401882171631e-02,-2.929978817701339722e-02,-2.376553229987621307e-02,-4.723350703716278076e-02,2.168306894600391388e-02,-4.114079475402832031e-02,-7.554362714290618896e-02,-4.420413076877593994e-02,-7.226055115461349487e-02,4.111983999609947205e-02,-2.253083698451519012e-02,-5.966114625334739685e-02,-2.190923318266868591e-03,-3.365037217736244202e-02,-1.563319377601146698e-02,-1.848424598574638367e-02,2.854013815522193909e-02,4.865433275699615479e-02,-7.883781194686889648e-02,8.398550748825073242e-02,-8.306714147329330444e-02,4.453253746032714844e-02,1.507124677300453186e-02,5.715768411755561829e-02,-5.559534300118684769e-03
-1.192640513181686401e-02,-9.439609944820404053e-03,-4.910479858517646790e-02,-2.763372287154197693e-02,6.783575564622879028e-02,5.710402876138687134e-02,-6.626361608505249023e-02,-1.036076247692108154e-02,-7.969117909669876099e-02,4.059924930334091187e-02,-2.182639390230178833e-02,-8.619181811809539795e-03,1.940815150737762451e-02,-1.753323525190353394e-02,-6.075835227966308594e-02,6.208112090826034546e-02,1.168906688690185547e-02,-3.686234727501869202e-02,-5.773174762725830078e-02,-4.912589490413665771e-02,-3.058353811502456665e-02,-1.839995384216308594e-04,-2.280920743942260742e-03,-6.278854608535766602e-02,4.946496337652206421e-02,-5.659863352775573730e-03,6.378606706857681274e-02,7.124503701925277710e-02,8.314295858144760132e-02,8.965484797954559326e-03,-1.558645069599151611e-02,3.730195760726928711e-02
-6.811708211898803711e-03,-2.455138787627220154e-02,6.177128106355667114e-02,8.371930569410324097e-02,-6.092080473899841309e-02,-6.742028892040252686e-02,-5.409402772784233093e-02,-7.153278589248657227e-02,8.484862744808197021e-03,6.665015965700149536e-02,2.957614511251449585e-02,2.196527272462844849e-02,-7.463750988245010376e-02,-4.131712391972541809e-02,-3.405465930700302124e-02,2.649800479412078857e-02,-8.480147272348403931e-02,5.295623093843460083e-02,6.521879881620407104e-02,4.576102644205093384e-02,-4.071154445409774780e-02,-3.650469705462455750e-02,6.870725005865097046e-02,-7.230386137962341309e-02,-2.924400940537452698e-02,-3.628194332122802734e-03,-2.719429507851600647e-02,-8.286248147487640381e-02,6.459663063287734985e-02,-4.422030597925186157e-02,6.757474690675735474e-02,5.766684561967849731e-02
-6.017312407493591309e-04,-8.664652705192565918e-04,5.124784260988235474e-02,-2.880652621388435364e-02,5.073764175176620483e-02,-4.499348625540733337e-02,5.035217851400375366e-02,3.419349342584609985e-02,-2.323111891746520996e-02,-3.883811831474304199e-02,-2.103117853403091431e-02,3.793601691722869873e-02,3.755315393209457397e-02,-8.553180843591690063e-02,1.949787139892578125e-03,3.115916252136230469e-02,7.639070600271224976e-02,3.614657372236251831e-02,-2.145228534936904907e-02,-5.670663714408874512e-02,7.447976619005203247e-02,-3.274778276681900024e-02,3.584641218185424805e-02,2.365536987781524658e-03,-9.035572409629821777e-03,5.655574053525924683e-02,-2.374479919672012329e-02,6.966357678174972534e-02,-5.997592955827713013e-02,5.008473247289657593e-02,-5.581577867269515991e-02,5.609739571809768677e-02
-8.215442299842834473e-02,7.611032575368881226e-02,4.214274138212203979e-02,-5.233312398195266724e-02,2.591295540332794189e-02,-2.774219959974288940e-02,5.856434255838394165e-02,7.361664623022079468e-02,-5.806740373373031616e-02,-5.988113209605216980e-02,-5.533406883478164673e-02,-7.483888417482376099e-02,2.567471563816070557e-02,-5.213581025600433350e-03,6.879914551973342896e-02,8.569213002920150757e-02,-4.917156696319580078e-02,-5.399454385042190552e-02,2.496047317981719971e-02,-1.395473629236221313e-02,-6.240534037351608276e-02,-8.535418659448623657e-02,3.577291965484619141e-03,-3.291293978691101074e-03,3.324893116950988770e-02,6.358432024717330933e-02,7.975447922945022583e-02,-2.726887539029121399e-02,5.655559152364730835e-02,-7.732357084751129150e-02,2.430389076471328735e-02,-2.471238374710083008e-03
1.631207764148712158e-02,-5.958011001348495483e-02,-6.863722950220108032e-02,-3.186035901308059692e-02,-3.468401357531547546e-02,6.544502824544906616e-02,-3.319483622908592224e-02,7.581452280282974243e-02,7.184685021638870239e-02,-5.707132071256637573e-02,6.712322682142257690e-02,4.664879292249679565e-02,7.775958627462387085e-02,1.481024920940399170e-02,-6.717039644718170166e-02,-1.386690884828567505e-02,6.922868639230728149e-02,-7.458686828613281250e-02,3.254129737615585327e-02,-2.401255071163177490e-03,-4.876840859651565552e-02,6.472850590944290161e-02,2.106589078903198242e-02,5.788677185773849487e-02,6.909879297018051147e-02,3.276675939559936523e-03,1.617712527513504028e-02,8.344040066003799438e-02,2.163213491439819336e-02,1.803295314311981201e-02,-2.157489210367202759e-02,6.064064800739288330e-03
1.889508217573165894e-02,2.901335805654525757e-02,4.765517264604568481e-02,-2.726670727133750916e-02,-3.138875216245651245e-02,-4.204826802015304565e-02,-1.284290105104446411e-02,2.898287773132324219e-02,1.197790354490280151e-02,-3.237351030111312866e-02,-8.321279287338256836e-02,3.473912924528121948e-02,1.611606031656265259e-02,-1.547298580408096313e-02,5.878587812185287476e-02,-7.624834775924682617e-03,-6.711350381374359131e-02,-1.422403007745742798e-02,-3.657688573002815247e-02,-4.441251978278160095e-02,-6.951078772544860840e-02,-2.702358365058898926e-02,7.941722124814987183e-02,5.023670941591262817e-02,-8.306353539228439331e-02,2.578605711460113525e-02,-8.098419010639190674e-02,-5.460617691278457642e-02,6.984753161668777466e-02,-6.171534955501556396e-02,-4.649666696786880493e-02,8.263935893774032593e-02
-5.184812471270561218e-02,6.094468384981155396e-02,8.913479745388031006e-03,-6.817933917045593262e-02,-7.212860882282257080e-02,5.280395597219467163e-02,-6.000179424881935120e-02,5.741288512945175171e-02,-2.427641302347183228e-02,-7.711205631494522095e-02,5.133368819952011108e-02,1.261721551418304443e-02,1.899842917919158936e-02,-2.016067504882812500e-03,1.203566044569015503e-02,-3.973504528403282166e-02,-2.237663418054580688e-02,1.168528199195861816e-02,-2.011527866125106812e-02,-4.752564430236816406e-02,6.571426987648010254e-03,2.451530098915100098e-02,-2.066941559314727783e-02,-4.275850951671600342e-03,1.018261164426803589e-02,5.289172381162643433e-02,3.165225684642791748e-02,4.385390132665634155e-02,-2.462153136730194092e-02,4.808541387319564819e-02,-7.966010272502899170e-02,1.294843107461929321e-02
6.650919467210769653e-02,7.520089298486709595e-02,5.682138353586196899e-02,-3.084540367126464844e-06,-6.906234472990036011e-02,-6.059756129980087280e-02,2.859071642160415649e-02,-3.019487112760543823e-02,5.393441766500473022e-02,4.333289712667465210e-02,1.702247560024261475e-02,-5.701444298028945923e-02,5.512144416570663452e-02,-6.122135370969772339e-02,3.017142415046691895e-02,8.007229119539260864e-02,-2.671763673424720764e-02,-1.771017909049987793e-02,1.452885568141937256e-03,5.146355181932449341e-02,2.467360347509384155e-02,5.984776467084884644e-02,4.096896201372146606e-02,1.406004279851913452e-02,-8.169301599264144897e-02,6.674096733331680298e-02,1.994853466749191284e-02,2.628275007009506226e-02,-8.094714581966400146e-02,1.995460689067840576e-02,7.508585602045059204e-02,-8.237265050411224365e-03
-1.937779039144515991e-02,-5.368446931242942810e-02,-3.235496953129768372e-02,-6.912284344434738159e-02,-8.259748667478561401e-02,2.290306985378265381e-02,7.196585088968276978e-02,5.737248808145523071e-02,-2.443812415003776550e-02,1.042937487363815308e-02,-3.649428859353065491e-02,-3.014365956187248230e-02,5.860578268766403198e-02,4.262087494134902954e-02,-2.907133847475051880e-02,3.024140000343322754e-02,2.027092128992080688e-02,-6.643612682819366455e-02,3.516521304845809937e-02,-7.957500964403152466e-02,6.480433046817779541e-03,6.075178831815719604e-02,-8.215744793415069580e-02,-6.670592725276947021e-02,-3.478899598121643066e-02,-1.084032654762268066e-02,3.140987455844879150e-02,-3.749560564756393433e-02,3.722118586301803589e-02,1.484612375497817993e-02,4.710257053375244141e-05,-6.193223968148231506e-02
-1.264667510986328125e-02,-8.113496750593185425e-02,-4.667862132191658020e-02,5.947879701852798462e-02,1.397029310464859009e-02,-5.176540836691856384e-02,3.578192740678787231e-02,7.979054003953933716e-02,4.337564855813980103e-02,-7.315963506698608398e-03,-3.466205671429634094e-02,5.816067010164260864e-02,-2.818042039871215820e-02,5.634365230798721313e-02,-6.515298038721084595e-02,3.979756683111190796e-02,5.160052329301834106e-02,-1.532308757305145264e-02,7.755892723798751831e-02,6.945272535085678101e-02,4.337368160486221313e-02,-4.599253088235855103e-02,6.545305997133255005e-02,-4.293967783451080322e-02,-1.065558940172195435e-02,5.589900165796279907e-02,7.535722106695175171e-02,7.262694090604782104e-02,-6.053708493709564209e-02,-3.518624603748321533e-02,-1.094984263181686401e-02,5.163518339395523071e-02
5.307600647211074829e-02,-2.364738285541534424e-02,8.154743164777755737e-02,7.111414521932601929e-02,1.424739509820938110e-02,6.348822265863418579e-02,-1.392879337072372437e-02,-3.471789136528968811e-02,6.935604661703109741e-02,-5.386073887348175049e-02,-8.983679115772247314e-03,8.542694896459579468e-02,7.052325457334518433e-02,-4.240769892930984497e-02,3.439240157604217529e-02,1.708440482616424561e-03,-6.777239590883255005e-02,-7.038020342588424683e-02,7.778679579496383667e-02,-8.188633620738983154e-02,9.952083230018615723e-03,1.160582154989242554e-02,-7.671889662742614746e-02,-8.432144671678543091e-02,1.522131264209747314e-03,3.042952716350555420e-02,-6.830932199954986572e-02,1.855468750000000000e-02,9.732410311698913574e-03,-2.726850658655166626e-02,4.614142328500747681e-02,7.668808102607727051e-04
4.679597169160842896e-02,-5.602647364139556885e-02,-1.690588146448135376e-02,3.669294714927673340e-02,8.173192292451858521e-02,-5.883639305830001831e-02,-2.280642837285995483e-02,-1.794068515300750732e-02,-6.159184128046035767e-02,-1.609867811203002930e-02,8.527897298336029053e-03,-2.775158360600471497e-02,2.886530011892318726e-02,4.421306401491165161e-02,-6.211102753877639771e-02,-6.723563373088836670e-02,6.381242722272872925e-02,-7.116203010082244873e-02,-1.553769409656524658e-02,-8.914694190025329590e-04,2.578519284725189209e-02,3.930688649415969849e-02,5.564091354608535767e-02,-6.151014938950538635e-02,1.149173825979232788e-02,4.748762398958206177e-02,-1.817616075277328491e-02,6.734075397253036499e-02,6.697455793619155884e-02,-1.047760248184204102e-02,-6.538242846727371216e-02,1.134300976991653442e-02
8.212339133024215698e-02,-3.905564546585083008e-03,-5.913657695055007935e-02,-2.158313244581222534e-02,-1.600899547338485718e-02,8.006282150745391846e-03,-3.873685747385025024e-02,2.315275371074676514e-02,-2.271287888288497925e-02,-4.566926881670951843e-02,-6.444863975048065186e-02,5.115162581205368042e-02,-6.100830435752868652e-02,-2.717380970716476440e-02,-3.329405188560485840e-02,4.023835808038711548e-02,1.066323369741439819e-02,2.224154025316238403e-02,-1.105906069278717041e-02,2.859967201948165894e-02,6.843625754117965698e-02,-4.093945771455764771e-02,6.453634053468704224e-02,7.747507840394973755e-02,-4.460293799638748169e-02,-4.720667377114295959e-02,8.308254927396774292e-02,-5.060483142733573914e-02,-1.407018303871154785e-02,-3.549971804022789001e-02,-2.594519406557083130e-02,2.268413454294204712e-02
-7.030782848596572876e-02,-8.092676103115081787e-02,1.890659332275390625e-04,-6.119839474558830261e-02,-5.820205062627792358e-02,-5.182093754410743713e-02,1.424549520015716553e-02,-8.310531824827194214e-02,2.858448028564453125e-02,3.823601454496383667e-02,4.005857557058334351e-02,-7.171936333179473877e-03,4.220458120107650757e-02,5.779013782739639282e-02,-1.468641310930252075e-02,-6.409548223018646240e-03,6.396757811307907104e-02,8.357597142457962036e-02,8.231438696384429932e-03,7.413118332624435425e-02,6.980740278959274292e-02,4.787879437208175659e-02,-4.185282438993453979e-02,5.380829423666000366e-02,8.262524753808975220e-02,-1.597875356674194336e-02,3.109468519687652588e-02,1.100694388151168823e-02,-2.656236290931701660e-02,1.483760774135589600e-03,-3.609217330813407898e-02,-7.776702940464019775e-02
4.960010200738906860e-02,6.571941077709197998e-03,-7.951803505420684814e-03,-3.399059176445007324e-03,-2.928205952048301697e-02,-8.010967075824737549e-02,1.480437815189361572e-02,-1.312756538391113281e-02,4.016239196062088013e-02,-4.710077494382858276e-02,5.822683125734329224e-02,5.967583507299423218e-02,-7.834547758102416992e-02,-1.760031282901763916e-02,-4.353691637516021729e-02,7.435091584920883179e-02,-4.064311832189559937e-02,7.559096068143844604e-02,6.184827536344528198e-02,4.042791575193405151e-02,-7.784845679998397827e-02,1.920036971569061279e-03,5.944512039422988892e-02,2.115114778280258179e-02,-6.365505605936050415e-02,-7.765497267246246338e-02,-8.078382164239883423e-02,-4.319075495004653931e-02,5.451828986406326294e-02,3.970883041620254517e-02,2.387621998786926270e-02,7.888882607221603394e-02
5.799727886915206909e-02,-1.289396733045578003e-02,-1.339793950319290161e-02,4.866207391023635864e-02,-6.180487200617790222e-02,6.034963577985763550e-02,1.802714169025421143e-02,-6.601666659116744995e-02,4.693987220525741577e-02,-3.554929420351982117e-02,-7.494127005338668823e-02,6.664483994245529175e-02,-4.042632877826690674e-02,2.174388617277145386e-02,4.624221473932266235e-02,1.184505969285964966e-02,2.756232768297195435e-02,-2.611539140343666077e-02,6.108581274747848511e-02,-7.958940416574478149e-02,4.360086470842361450e-02,8.678779006004333496e-03,-1.772395521402359009e-02,-6.383800506591796875e-02,-2.743140608072280884e-02,6.714947521686553955e-03,8.272772282361984253e-02,2.386345714330673218e-02,4.069434851408004761e-02,-8.286653459072113037e-02,6.732381135225296021e-02,6.172537058591842651e-02
6.953143328428268433e-02,4.219200462102890015e-02,-8.836947381496429443e-03,-5.355880130082368851e-03,1.880636624991893768e-02,-3.415587171912193298e-02,-6.045134272426366806e-03,7.672835886478424072e-02,7.440145313739776611e-02,1.592332869768142700e-02,-8.823656244203448296e-04,-3.604991734027862549e-02,-4.146511852741241455e-02,1.830900833010673523e-02,3.660215064883232117e-02,-4.989740904420614243e-03,-1.341725699603557587e-03,-6.912188231945037842e-02,-8.357802033424377441e-02,5.492512136697769165e-02,-7.275962829589843750e-02,-1.230878382921218872e-02,7.477013021707534790e-02,5.558332055807113647e-02,-7.364536821842193604e-02,-1.149224769324064255e-02,1.356818806380033493e-02,4.115845263004302979e-02,-6.726579368114471436e-02,5.059751868247985840e-02,3.984180837869644165e-02,-4.238223657011985779e-02
5.836823955178260803e-02,-8.055221289396286011e-02,3.301321994513273239e-04,8.040662109851837158e-02,-2.787068486213684082e-02,-3.693561628460884094e-02,-2.765767090022563934e-02,-8.391880989074707031e-02,5.692847818136215210e-02,2.825453877449035645e-03,7.074630260467529297e-02,-7.802679389715194702e-02,-4.110570251941680908e-02,7.520526647567749023e-02,2.184210531413555145e-02,6.057625263929367065e-02,3.601051867008209229e-02,-2.914136648178100586e-02,-4.961364436894655228e-03,-7.531062513589859009e-02,-5.166153237223625183e-02,2.952466718852519989e-02,7.968220114707946777e-02,-3.471285849809646606e-02,-3.064258955419063568e-02,-6.799346953630447388e-02,-6.313195824623107910e-02,-6.252577900886535645e-02,3.147070854902267456e-02,-3.218248486518859863e-02,5.615507811307907104e-02,-3.274049237370491028e-02
-1.400542724877595901e-02,7.695872336626052856e-02,8.413642644882202148e-03,5.786602944135665894e-02,-6.208184733986854553e-02,3.121660090982913971e-02,-3.196331858634948730e-02,-6.812035292387008667e-02,-6.401427090167999268e-02,-2.818859741091728210e-02,4.672931879758834839e-02,-1.904568448662757874e-02,3.182759881019592285e-02,3.730605915188789368e-02,6.419917196035385132e-02,4.785065352916717529e-02,7.530096918344497681e-02,-8.131557703018188477e-02,8.081596344709396362e-02,3.483006497845053673e-03,-3.968690522015094757e-03,7.544142007827758789e-02,-2.230004034936428070e-02,5.951001122593879700e-02,-3.157277405261993408e-02,2.642832323908805847e-02,-4.347159340977668762e-02,7.819861918687820435e-02,7.489176094532012939e-02,-2.788217179477214813e-02,3.934543952345848083e-02,6.859111040830612183e-02
-1.999969221651554108e-02,-7.171184569597244263e-02,1.691762357950210571e-02,6.362242996692657471e-02,1.707576401531696320e-02,-5.437153391540050507e-03,-9.233815595507621765e-03,1.914811506867408752e-02,-8.622267097234725952e-02,3.061808645725250244e-02,-4.878246784210205078e-02,2.076947502791881561e-02,-5.111393332481384277e-02,-2.269946411252021790e-02,2.618127316236495972e-02,-7.449017465114593506e-02,7.793634384870529175e-02,7.181049138307571411e-02,3.818590939044952393e-02,-2.614155970513820648e-02,1.810245774686336517e-02,-2.234601229429244995e-02,-2.254448458552360535e-02,-8.069919794797897339e-02,2.319424971938133240e-02,4.179660975933074951e-02,2.582238614559173584e-02,-1.744230836629867554e-02,2.867495082318782806e-02,5.284016206860542297e-02,-4.511035978794097900e-02,-8.113303780555725098e-02
-2.822537161409854889e-02,-6.124017760157585144e-02,-3.319612517952919006e-02,-6.852588802576065063e-02,-6.575334072113037109e-02,3.236002475023269653e-02,2.967051463201642036e-03,1.676828972995281219e-02,6.738179945386946201e-04,-5.667795985937118530e-02,6.800604611635208130e-02,1.759784854948520660e-02,3.832603991031646729e-02,-1.135722640901803970e-02,-5.426168069243431091e-02,8.658006787300109863e-03,4.762895777821540833e-02,5.106142535805702209e-02,5.443869158625602722e-02,6.013752892613410950e-02,2.338858693838119507e-02,-5.983818694949150085e-02,-3.322490304708480835e-02,-6.481968611478805542e-02,9.561040438711643219e-03,6.120362505316734314e-02,-4.192234203219413757e-02,-2.453482523560523987e-02,8.281020820140838623e-02,5.274072661995887756e-02,-6.514656543731689453e-02,7.116045057773590088e-02
8.123335987329483032e-02,7.435271143913269043e-02,7.465565949678421021e-02,7.332897931337356567e-02,5.194616317749023438e-02,7.834190130233764648e-02,3.703734651207923889e-02,-3.566539287567138672e-02,1.455644052475690842e-02,5.947794392704963684e-02,-7.318321615457534790e-02,7.580328732728958130e-02,3.449472412467002869e-02,-7.120802253484725952e-02,5.420732498168945312e-02,6.363831460475921631e-02,3.562522679567337036e-02,7.471293210983276367e-02,5.488631129264831543e-02,5.220412835478782654e-02,4.662324860692024231e-02,7.076335698366165161e-02,6.309267878532409668e-02,-2.400364354252815247e-02,8.434662222862243652e-02,4.233646392822265625e-02,-2.402450703084468842e-02,3.554304316639900208e-02,-3.365752846002578735e-02,4.493967071175575256e-02,3.818381950259208679e-02,-2.748281136155128479e-02
-2.909627975896000862e-03,4.280404001474380493e-02,-1.456921361386775970e-02,-6.281318515539169312e-02,3.929346334189176559e-03,3.927803039550781250e-02,4.428474605083465576e-02,8.554402738809585571e-02,-1.521335542201995850e-02,-4.993942752480506897e-02,-1.462672278285026550e-02,6.107398867607116699e-02,-4.701875150203704834e-02,1.391782891005277634e-02,1.382281538099050522e-02,-5.632909387350082397e-02,2.725258469581604004e-02,7.837250083684921265e-02,6.199325248599052429e-02,-5.546812899410724640e-03,6.763946264982223511e-02,5.541395768523216248e-02,4.583845438901335001e-04,-4.084346443414688110e-02,4.581254906952381134e-03,-6.242544576525688171e-02,6.290465593338012695e-02,-1.131787430495023727e-02,-1.807948574423789978e-03,-7.272768765687942505e-02,-7.552647590637207031e-02,-1.238565519452095032e-02
-1.831934973597526550e-02,6.070461124181747437e-02,-4.308887571096420288e-02,-7.521654665470123291e-02,6.286409497261047363e-02,-1.304884999990463257e-02,-5.395260453224182129e-02,-8.499537408351898193e-02,-3.630159795284271240e-02,6.381817162036895752e-02,-5.492658540606498718e-02,-5.224116030149161816e-04,2.106470428407192230e-02,6.796762347221374512e-02,-8.058553934097290039e-02,5.066739767789840698e-02,-2.752771601080894470e-02,4.465659335255622864e-02,-1.479032915085554123e-02,-4.172622039914131165e-02,7.149774581193923950e-02,-2.652353048324584961e-02,5.457257851958274841e-02,-6.676567345857620239e-02,9.391615167260169983e-03,-4.449566826224327087e-02,8.483594655990600586e-02,4.258288536220788956e-03,-4.973594099283218384e-02,-2.162502147257328033e-02,-7.397035602480173111e-03,-7.313101738691329956e-02
-8.542312681674957275e-02,-3.399946168065071106e-02,-4.559757187962532043e-02,-3.261189162731170654e-02,7.004669308662414551e-02,6.118446588516235352e-02,-4.267797619104385376e-02,2.026355080306529999e-02,3.614215925335884094e-02,8.350395411252975464e-02,4.546066746115684509e-02,3.070553950965404510e-02,-6.142533570528030396e-02,-8.469968289136886597e-02,2.939603989943861961e-03,6.533503532409667969e-02,-5.457961186766624451e-02,-5.581155885010957718e-03,-5.321626365184783936e-02,-3.619362041354179382e-02,3.069424070417881012e-02,-6.170426309108734131e-02,6.773450970649719238e-02,-4.805744439363479614e-02,8.502771705389022827e-02,-6.377852708101272583e-02,7.822684198617935181e-02,3.718046471476554871e-02,8.399201929569244385e-02,-1.768693886697292328e-02,2.852916903793811798e-02,-1.004271488636732101e-02
-4.163740575313568115e-02,8.077258616685867310e-02,3.615060821175575256e-02,6.173238530755043030e-02,7.095132023096084595e-03,8.172024786472320557e-02,5.138169601559638977e-02,7.044948637485504150e-02,-1.616973802447319031e-02,2.912031114101409912e-02,-1.023502834141254425e-02,-4.852529242634773254e-02,-7.681781053543090820e-02,2.558915875852108002e-02,2.164164930582046509e-02,2.429198008030653000e-03,6.439838558435440063e-02,-6.575148552656173706e-02,-3.485304489731788635e-02,-7.844907045364379883e-02,4.110018163919448853e-02,4.119822010397911072e-02,7.325410097837448120e-02,5.970341339707374573e-02,8.587716519832611084e-02,5.307473242282867432e-02,-4.454905167222023010e-02,2.250104025006294250e-02,2.878309972584247589e-02,-7.972482591867446899e-02,-3.220500051975250244e-02,1.103175710886716843e-02
-1.497505418956279755e-02,-2.176636271178722382e-02,-7.674145512282848358e-03,3.726812079548835754e-02,-4.572704061865806580e-02,-7.257114630192518234e-03,3.396697714924812317e-02,3.089405130594968796e-03,1.272917632013559341e-02,-3.649515286087989807e-02,-6.495197117328643799e-02,3.047667443752288818e-02,3.776585450395941734e-03,-3.105575963854789734e-02,-4.823680222034454346e-02,3.538459539413452148e-02,-1.244886219501495361e-02,3.379913046956062317e-02,7.955329865217208862e-02,-7.337788585573434830e-03,-1.374081149697303772e-02,8.026702702045440674e-02,-7.533516734838485718e-02,-5.560845136642456055e-02,5.656437948346138000e-03,6.833449006080627441e-02,6.206863373517990112e-02,-5.019927397370338440e-02,-7.457069307565689087e-02,-8.297987282276153564e-02,3.160693868994712830e-02,6.821905076503753662e-02
5.617312341928482056e-02,3.000309923663735390e-03,-3.070122562348842621e-02,7.952974736690521240e-02,4.628352820873260498e-02,4.359556362032890320e-02,-2.377900481224060059e-02,6.592769920825958252e-02,4.068366438150405884e-02,2.362390421330928802e-02,2.866237424314022064e-02,-5.968639161437749863e-03,-7.351791858673095703e-02,-1.466559246182441711e-03,4.301068931818008423e-02,7.831960916519165039e-02,8.344365633092820644e-04,-4.182502999901771545e-02,-1.390307489782571793e-02,-2.837877534329891205e-02,-6.849418580532073975e-02,7.641967386007308960e-02,-6.789979338645935059e-02,2.178634889423847198e-02,1.414088252931833267e-02,-4.467254132032394409e-02,2.267117612063884735e-02,8.243627846240997314e-02,6.670086830854415894e-02,-5.138213932514190674e-02,-2.703730016946792603e-02,3.420074656605720520e-02
9.941690601408481598e-03,3.280778648331761360e-03,-1.809260807931423187e-02,-1.116044260561466217e-02,-5.935770645737648010e-02,6.502698361873626709e-02,-4.283158574253320694e-03,4.893226921558380127e-02,-3.463614359498023987e-02,4.906935989856719971e-02,-7.542817853391170502e-03,-4.401966184377670288e-02,-3.696562722325325012e-02,5.354925245046615601e-02,-6.093696877360343933e-02,-2.608005143702030182e-02,-5.731867626309394836e-02,-7.725585252046585083e-02,-5.242636054754257202e-02,1.696813106536865234e-02,3.915842995047569275e-02,-2.603091113269329071e-02,8.060813695192337036e-02,-3.080471046268939972e-02,6.962061673402786255e-02,-6.936948001384735107e-02,-1.379762403666973114e-02,-1.605454459786415100e-02,-5.315610393881797791e-02,-4.391353204846382141e-02,4.302705079317092896e-02,-4.271421581506729126e-03
3.986050561070442200e-02,2.544068358838558197e-02,-6.515308469533920288e-02,-8.643021807074546814e-03,3.572179749608039856e-02,2.702906914055347443e-02,-2.788861654698848724e-02,5.667113512754440308e-02,-4.289099201560020447e-02,-3.279615193605422974e-02,5.732037127017974854e-02,8.057947456836700439e-02,3.898863494396209717e-02,-7.804346084594726562e-02,-4.984391480684280396e-02,-7.416626065969467163e-02,2.444683760404586792e-02,-1.492331270128488541e-02,-6.473911553621292114e-02,6.952878832817077637e-02,-6.030292063951492310e-02,-1.560883782804012299e-02,3.328298777341842651e-02,2.133834548294544220e-02,4.083681479096412659e-02,-8.108540624380111694e-02,-7.604884356260299683e-02,7.983222603797912598e-02,1.395970396697521210e-02,-6.603270769119262695e-02,-4.571055993437767029e-02,6.832074373960494995e-02
-6.590458750724792480e-02,3.991711139678955078e-02,-4.272739589214324951e-02,1.714207790791988373e-02,-5.059657990932464600e-02,-9.247316047549247742e-03,4.589435458183288574e-02,4.430398344993591309e-03,-3.384270519018173218e-02,6.144150346517562866e-02,1.194874569773674011e-02,3.954800218343734741e-02,-2.147219143807888031e-02,6.775383651256561279e-02,5.735016427934169769e-03,-6.307836621999740601e-02,7.492584735155105591e-02,-1.747254095971584320e-02,1.827183552086353302e-02,4.764428362250328064e-02,-9.568140842020511627e-03,-2.768751420080661774e-02,-7.829586416482925415e-02,8.471859991550445557e-02,1.934948004782199860e-02,-4.959536250680685043e-03,-3.836318105459213257e-02,-5.985269788652658463e-03,1.104177348315715790e-02,7.585058361291885376e-02,6.756018847227096558e-02,-2.931180223822593689e-02
5.217894539237022400e-02,-8.527879416942596436e-02,-4.505939409136772156e-02,1.340530160814523697e-02,-7.685512304306030273e-02,4.324645549058914185e-02,-2.359606139361858368e-02,4.296005889773368835e-02,-3.051384165883064270e-02,2.736303210258483887e-02,4.052976891398429871e-02,2.084069885313510895e-02,-7.227926701307296753e-02,-4.078944027423858643e-02,-1.233334373682737350e-02,8.490502834320068359e-03,-6.270233541727066040e-02,7.165851444005966187e-02,9.331930195912718773e-04,3.090078197419643402e-02,5.963989719748497009e-02,-4.683659970760345459e-02,5.863922461867332458e-02,2.159688435494899750e-02,-8.994413539767265320e-03,6.531778723001480103e-02,-2.372734248638153076e-02,-1.741532050073146820e-02,-6.281912326812744141e-02,-3.013384528458118439e-02,1.377777848392724991e-02,-2.411440573632717133e-02
-1.583523489534854889e-02,2.565792761743068695e-02,3.968999162316322327e-02,1.767309755086898804e-02,1.266595441848039627e-02,8.513690531253814697e-02,-8.458945155143737793e-02,2.885268628597259521e-02,-3.066449426114559174e-03,-4.595617577433586121e-02,1.128742378205060959e-02,-7.202082127332687378e-02,-5.547552183270454407e-02,-2.658727206289768219e-02,7.852506637573242188e-02,-4.905620217323303223e-02,-4.908360913395881653e-02,8.558274060487747192e-02,1.265639904886484146e-02,-1.980626210570335388e-02,2.357919327914714813e-02,-3.775173798203468323e-02,-6.863323599100112915e-02,7.252298295497894287e-03,1.757251098752021790e-02,5.913545563817024231e-02,-6.298039108514785767e-02,-6.360811647027730942e-03,1.305589731782674789e-02,-6.374083459377288818e-02,-8.404306718148291111e-04,-4.060469940304756165e-02
5.398490279912948608e-02,-4.194992408156394958e-02,9.682767093181610107e-03,7.126599550247192383e-02,8.411208540201187134e-02,-7.010905444622039795e-02,5.418273806571960449e-02,-3.063076734542846680e-02,5.217130109667778015e-02,2.055566757917404175e-02,7.030766457319259644e-02,6.314948201179504395e-02,-7.799343764781951904e-02,-4.341108258813619614e-03,5.225119739770889282e-02,-6.635097414255142212e-02,-1.795583590865135193e-02,-8.253323286771774292e-02,6.816383451223373413e-02,1.364158187061548233e-02,-8.502062410116195679e-02,-6.792809814214706421e-02,-4.487538244575262070e-03,3.920746594667434692e-02,-6.562877446413040161e-02,-4.496057704091072083e-02,1.402658596634864807e-02,4.866496194154024124e-03,4.544484615325927734e-02,-4.298972338438034058e-02,1.675443165004253387e-02,2.701102569699287415e-02
5.396715179085731506e-02,-1.037567737512290478e-03,9.484040550887584686e-03,3.356650471687316895e-02,-8.059334009885787964e-02,-2.497091889381408691e-02,-7.005244493484497070e-02,2.692427113652229309e-02,-5.188212916254997253e-02,5.711840838193893433e-02,6.731215864419937134e-02,1.565185002982616425e-02,-4.646739736199378967e-02,-6.768149137496948242e-02,-3.629298135638237000e-02,-8.148700743913650513e-02,6.573332101106643677e-02,-5.265431106090545654e-02,-6.815196573734283447e-02,6.920985877513885498e-02,6.643219292163848877e-02,-3.632430359721183777e-02,6.324337422847747803e-02,7.777122408151626587e-02,7.360245287418365479e-02,-1.246772799640893936e-02,-5.562592297792434692e-02,5.971493571996688843e-02,-7.086797058582305908e-02,-2.640937268733978271e-02,7.140877842903137207e-02,-4.947572574019432068e-02
-1.197795150801539421e-03,4.539021290838718414e-03,-6.820533424615859985e-02,2.246082574129104614e-02,-4.254213348031044006e-02,-1.436227280646562576e-02,-1.448942814022302628e-03,-3.921974450349807739e-02,-7.435538619756698608e-02,-7.387853413820266724e-02,-3.874783962965011597e-02,6.770108826458454132e-03,3.777083242312073708e-03,6.722196191549301147e-02,-2.019849792122840881e-02,5.581019818782806396e-02,-2.384934201836585999e-02,-8.031654357910156250e-02,2.989150024950504303e-02,3.874504566192626953e-02,-4.808112978935241699e-03,3.477128222584724426e-02,3.477206453680992126e-02,4.142613336443901062e-02,3.458571154624223709e-03,6.559498608112335205e-02,6.899509578943252563e-02,6.912916898727416992e-02,1.410525641404092312e-03,-5.536525323987007141e-02,3.964583948254585266e-02,-4.338325187563896179e-02
3.021104633808135986e-02,3.148747980594635010e-02,-6.927521526813507080e-02,2.735495567321777344e-03,-8.557017892599105835e-02,-4.382867366075515747e-02,-3.960303962230682373e-02,4.561763256788253784e-02,5.801942199468612671e-02,1.956087350845336914e-02,4.164750128984451294e-02,6.188280135393142700e-02,-1.801089197397232056e-02,-7.928090542554855347e-02,-8.109888434410095215e-02,-1.593224704265594482e-02,1.975931227207183838e-03,5.431687086820602417e-02,6.624997407197952271e-02,8.903890848159790039e-04,-5.089329928159713745e-02,-3.248838707804679871e-02,-2.347722649574279785e-02,-6.195789575576782227e-02,5.433999747037887573e-02,1.693985611200332642e-02,-1.566635072231292725e-02,-3.851009160280227661e-02,-8.117745071649551392e-02,9.777508676052093506e-03,7.451523095369338989e-02,-1.792944222688674927e-02
-3.644910827279090881e-02,-4.101317748427391052e-02,-2.069944888353347778e-02,4.435842484235763550e-02,-7.807686924934387207e-03,-7.222601026296615601e-02,-7.421623170375823975e-02,-4.694846272468566895e-02,-3.878575935959815979e-02,-2.841336280107498169e-02,7.968334108591079712e-02,-7.502893358469009399e-02,7.924491912126541138e-02,8.140183240175247192e-02,4.993256181478500366e-02,1.240763813257217407e-02,7.376544177532196045e-03,-3.822334110736846924e-03,-6.251103430986404419e-02,1.759082078933715820e-02,-1.361734420061111450e-02,-6.932209432125091553e-02,2.103054523468017578e-02,6.428234279155731201e-03,6.763562560081481934e-04,-6.154314428567886353e-02,6.583029776811599731e-02,-7.662636041641235352e-02,-2.951256558299064636e-02,-3.580394759774208069e-02,2.125992625951766968e-02,7.207546383142471313e-02
3.527104854583740234e-02,4.314430803060531616e-02,6.316490471363067627e-03,4.184681922197341919e-02,-6.792523711919784546e-02,-4.881659522652626038e-02,7.819562405347824097e-02,-6.112438440322875977e-02,-4.106870666146278381e-02,-2.244450896978378296e-02,2.706281840801239014e-02,6.148964911699295044e-02,5.930565297603607178e-03,-7.259020209312438965e-02,5.598311871290206909e-02,4.121474921703338623e-03,7.717580348253250122e-02,9.087108075618743896e-03,-2.885992452502250671e-02,4.204141348600387573e-02,7.857992500066757202e-02,-8.399487286806106567e-02,-1.102109253406524658e-02,-4.804817959666252136e-02,2.611996978521347046e-02,7.828995585441589355e-03,-5.421624332666397095e-02,-2.310243993997573853e-02,6.183498352766036987e-02,3.892190009355545044e-02,-7.889160513877868652e-02,-8.038023114204406738e-02
6.000944226980209351e-02,-8.492160588502883911e-02,7.685501128435134888e-02,-6.689521670341491699e-02,8.267327398061752319e-02,-7.989250868558883667e-02,2.150861173868179321e-02,-7.206963002681732178e-02,-4.628212377429008484e-02,3.570107370615005493e-02,-6.988236308097839355e-02,5.861051380634307861e-03,6.747738271951675415e-02,-4.901535436511039734e-02,-5.886787548661231995e-02,4.607338458299636841e-02,-3.730668127536773682e-02,3.316308557987213135e-02,1.295769214630126953e-02,8.313298225402832031e-03,-3.286997973918914795e-02,-1.795362681150436401e-02,-8.455959707498550415e-02,-7.676887512207031250e-02,3.172730654478073120e-02,-1.572810858488082886e-02,1.846358925104141235e-02,-2.448849380016326904e-03,-8.222106844186782837e-02,5.754046142101287842e-03,-1.696608960628509521e-02,-1.625000685453414917e-02
-1.324155926704406738e-02,4.850619286298751831e-02,8.079553395509719849e-02,-7.507605850696563721e-02,1.960276067256927490e-02,3.309672325849533081e-02,-4.603745043277740479e-02,6.410717219114303589e-02,-6.931223720312118530e-02,-4.386792704463005066e-02,-2.457072585821151733e-02,-8.180887252092361450e-02,-2.137498557567596436e-02,5.404574424028396606e-02,4.294536262750625610e-02,2.038000524044036865e-02,5.316054075956344604e-02,2.154680341482162476e-02,-4.665112122893333435e-02,3.721245378255844116e-02,-2.828014642000198364e-02,4.269740730524063110e-02,-1.342490315437316895e-02,4.942671209573745728e-02,-1.513630896806716919e-02,-6.614761054515838623e-02,-2.287512272596359253e-02,7.910335808992385864e-02,-8.189109712839126587e-02,6.135682016611099243e-02,-5.573759973049163818e-02,-6.380352377891540527e-02
2.770791202783584595e-02,3.420496731996536255e-02,3.245594352483749390e-02,-7.958241552114486694e-02,-4.939477890729904175e-02,-5.606623739004135132e-02,-7.687155157327651978e-02,5.806423723697662354e-03,1.435358077287673950e-02,3.567053377628326416e-02,-4.636715352535247803e-02,7.716784626245498657e-02,6.755948811769485474e-02,7.737646251916885376e-02,3.991567343473434448e-02,-4.527610540390014648e-02,-6.706181913614273071e-02,2.744882553815841675e-02,3.182247281074523926e-03,1.851680129766464233e-02,6.037961691617965698e-02,6.441696733236312866e-02,-4.127684608101844788e-02,3.084689378738403320e-03,-4.080209136009216309e-02,-6.217258423566818237e-02,8.057496696710586548e-02,-6.194457411766052246e-03,8.233874291181564331e-02,-2.823044732213020325e-02,7.677679508924484253e-02,-3.071521967649459839e-02
3.999593108892440796e-02,-2.390726935118436813e-03,-5.489423871040344238e-02,-2.206202223896980286e-02,-6.433409452438354492e-02,1.308225095272064209e-02,-8.481587469577789307e-02,6.574571877717971802e-02,-8.273516595363616943e-02,-8.368401229381561279e-02,-6.121281906962394714e-02,7.031142711639404297e-03,-6.041940301656723022e-02,-4.397812113165855408e-02,5.006048828363418579e-02,-2.969892695546150208e-02,5.476201325654983521e-02,7.073186337947845459e-02,-3.112916648387908936e-02,-4.663056135177612305e-02,-4.024174064397811890e-02,-5.990991741418838501e-02,2.222761325538158417e-02,7.438274472951889038e-02,7.583004236221313477e-02,-6.617294996976852417e-02,-7.027545571327209473e-02,6.100735813379287720e-02,-3.664644435048103333e-02,5.487052351236343384e-02,-1.683671772480010986e-02,-3.095640800893306732e-02
6.074063479900360107e-02,-7.037147134542465210e-02,5.002437904477119446e-02,-3.441155329346656799e-02,-3.150030225515365601e-02,-5.818595364689826965e-02,1.268703397363424301e-02,-7.353851199150085449e-02,-2.871330082416534424e-02,3.441124409437179565e-02,3.583785519003868103e-02,-4.949133470654487610e-02,-2.201789431273937225e-02,5.210615694522857666e-02,2.427296526730060577e-02,5.332736298441886902e-02,8.605257607996463776e-03,5.774140357971191406e-02,-5.851544067263603210e-02,-2.645110711455345154e-02,-5.755806341767311096e-02,6.725811213254928589e-02,5.105940997600555420e-02,-6.084194034337997437e-02,-3.888321295380592346e-02,-8.256851881742477417e-02,1.768700964748859406e-02,5.532785877585411072e-02,5.366212502121925354e-02,-6.280448287725448608e-02,5.813791602849960327e-02,3.153563663363456726e-02
3.841317072510719299e-02,5.890152230858802795e-02,-7.774553447961807251e-02,5.734676495194435120e-02,-6.705866754055023193e-02,-5.851818993687629700e-02,1.794922165572643280e-02,-7.000385969877243042e-02,2.504858560860157013e-02,1.881375443190336227e-03,1.065869163721799850e-02,-2.946568652987480164e-02,-4.309135302901268005e-02,8.778208866715431213e-03,3.305827034637331963e-03,3.474549204111099243e-02,5.494375899434089661e-02,-4.727159440517425537e-02,-8.884227834641933441e-03,-5.285517871379852295e-02,8.526925742626190186e-02,-4.972741380333900452e-02,-7.795111089944839478e-02,-2.048383653163909912e-02,6.601478159427642822e-02,-8.485980331897735596e-02,-4.511655122041702271e-02,-6.707786023616790771e-02,-5.998282879590988159e-02,-4.091195762157440186e-03,1.889265025965869427e-03,3.724477440118789673e-02
4.129070788621902466e-02,8.118976652622222900e-02,-5.858247727155685425e-02,-4.022094886749982834e-03,-1.871912367641925812e-02,-4.683599993586540222e-02,1.511597726494073868e-02,-4.671889171004295349e-02,1.475473120808601379e-02,1.632009446620941162e-02,-5.174167454242706299e-02,-6.356006860733032227e-02,-1.722045801579952240e-02,-2.155878208577632904e-02,4.379515722393989563e-02,-4.396280646324157715e-02,3.256949409842491150e-02,-6.600772589445114136e-02,1.643464900553226471e-02,8.120908588171005249e-02,-8.689039386808872223e-03,-2.276396006345748901e-02,7.321885973215103149e-02,-2.895218506455421448e-02,3.200740367174148560e-02,6.988287717103958130e-02,-7.108511030673980713e-02,-2.365346625447273254e-02,-3.410008922219276428e-02,-8.453662507236003876e-03,-1.200804486870765686e-02,7.165922969579696655e-02
2.108081057667732239e-02,7.868325710296630859e-02,4.699911456555128098e-03,-4.571166262030601501e-02,8.409841358661651611e-02,7.186603546142578125e-02,4.041360691189765930e-02,-5.385338515043258667e-02,-8.160991221666336060e-02,-8.930334821343421936e-03,5.684122443199157715e-02,5.045007914304733276e-02,-6.727012246847152710e-02,3.268631547689437866e-02,-1.648871228098869324e-03,-7.656703889369964600e-02,-4.013011697679758072e-03,-8.262673765420913696e-02,3.467784821987152100e-02,-6.302367150783538818e-02,-2.020382694900035858e-02,4.577284562401473522e-05,7.470278441905975342e-02,2.028399333357810974e-02,-4.253002628684043884e-02,5.707517266273498535e-02,-8.234949782490730286e-03,2.531996555626392365e-02,-4.411148279905319214e-02,-3.862161189317703247e-02,5.442254990339279175e-02,-1.278820727020502090e-02
6.211884319782257080e-04,-6.085845082998275757e-02,-3.285748884081840515e-02,-5.862463638186454773e-02,3.009383752942085266e-02,7.694431394338607788e-02,-6.284936517477035522e-02,-5.555498972535133362e-02,1.905367523431777954e-02,-1.955816708505153656e-02,-3.066484816372394562e-02,2.095083892345428467e-02,-2.215549116954207420e-03,-6.091369315981864929e-02,-1.255784649401903152e-02,5.971773341298103333e-02,-2.388831228017807007e-02,-7.479894906282424927e-02,7.887270301580429077e-02,-7.728192210197448730e-02,-3.226257115602493286e-02,-4.117130301892757416e-03,2.688449108973145485e-03,-7.268708944320678711e-02,-2.710963971912860870e-02,1.816962286829948425e-02,-1.646434329450130463e-02,-3.467825427651405334e-02,-4.102305695414543152e-02,6.689859926700592041e-02,-1.950385607779026031e-02,-4.144309833645820618e-02
-8.603540062904357910e-02,2.704909816384315491e-02,1.131149474531412125e-02,7.495383173227310181e-02,8.109039813280105591e-02,2.504958538338541985e-03,-7.443905621767044067e-02,5.797600746154785156e-02,4.834469407796859741e-02,-6.363250315189361572e-02,-5.899068340659141541e-02,5.532818287611007690e-02,1.228412147611379623e-02,-7.956679910421371460e-02,4.752917587757110596e-02,7.892294228076934814e-02,1.726868562400341034e-02,-4.829749464988708496e-02,-6.581234186887741089e-02,-8.244148641824722290e-02,-7.646366953849792480e-02,-4.831270128488540649e-02,-3.914657980203628540e-02,8.246178925037384033e-02,-3.603471675887703896e-03,7.619784772396087646e-02,-6.188998371362686157e-02,-2.214274741709232330e-02,-6.857702974230051041e-03,2.270598895847797394e-02,-6.246499344706535339e-02,-3.328378871083259583e-02
-9.835552424192428589e-03,-8.840024471282958984e-02,-4.524429515004158020e-02,6.150117889046669006e-02,7.226144522428512573e-02,4.865076020359992981e-02,6.475288420915603638e-02,4.607159271836280823e-02,-3.722916916012763977e-02,7.614754140377044678e-02,-6.347803026437759399e-02,1.146884635090827942e-02,4.799883812665939331e-02,4.844630137085914612e-02,2.612090855836868286e-02,-8.034871518611907959e-02,7.097323983907699585e-02,-8.555475622415542603e-02,-7.442398369312286377e-02,3.151597082614898682e-02,-2.797619253396987915e-02,-9.213005006313323975e-02,5.602531507611274719e-02,1.769984327256679535e-02,-5.659596621990203857e-02,5.313938483595848083e-02,1.356193446554243565e-03,3.325292095541954041e-02,8.612645417451858521e-02,7.830807566642761230e-02,5.394361913204193115e-02,-2.606189064681529999e-02
6.549876183271408081e-02,-7.835738360881805420e-02,5.547929927706718445e-02,3.032959252595901489e-02,-3.919339552521705627e-02,-1.002138480544090271e-02,1.092619355767965317e-02,-3.664247924461960793e-03,6.761980056762695312e-02,1.484390348196029663e-02,-5.381193384528160095e-02,7.390635088086128235e-03,6.519706547260284424e-02,1.663365866988897324e-03,4.954528808593750000e-02,2.616634592413902283e-02,-5.824856087565422058e-02,5.494542792439460754e-02,7.915033400058746338e-02,5.913271754980087280e-02,3.460692614316940308e-02,-1.606085896492004395e-02,-7.893761992454528809e-02,-2.054004743695259094e-02,6.700953841209411621e-02,3.606087714433670044e-02,-2.161719650030136108e-02,-8.962725847959518433e-02,2.302995882928371429e-02,2.496641688048839569e-02,3.503128420561552048e-03,6.250639259815216064e-02
5.084798485040664673e-02,-7.973650097846984863e-02,-1.026738155633211136e-02,-4.821508750319480896e-02,3.348870959598571062e-04,-3.853576490655541420e-03,3.064111433923244476e-02,-3.666789084672927856e-02,5.987362563610076904e-02,6.573949754238128662e-02,-6.464479863643646240e-02,8.193295449018478394e-02,5.702516064047813416e-03,3.964686393737792969e-02,5.035511404275894165e-02,-6.873833388090133667e-02,2.745026489719748497e-03,7.099334895610809326e-02,-1.429629791527986526e-02,-3.108412027359008789e-02,-7.838930003345012665e-03,-2.029793895781040192e-02,-1.842709258198738098e-02,7.392884697765111923e-03,-2.507978491485118866e-02,-4.770968109369277954e-02,6.765703856945037842e-02,-1.051935553550720215e-02,-5.147872492671012878e-03,-5.537019297480583191e-02,8.402523398399353027e-02,-7.129871100187301636e-02
4.936163127422332764e-02,3.820082545280456543e-02,-5.565629154443740845e-02,6.157888844609260559e-02,6.002276763319969177e-02,2.697366662323474884e-02,-3.382108733057975769e-02,-6.587397307157516479e-02,1.153328455984592438e-03,5.702224001288414001e-02,4.969142749905586243e-02,8.919490873813629150e-02,1.069760844111442566e-01,5.497092381119728088e-03,-4.279675707221031189e-02,1.811301894485950470e-02,-4.855186119675636292e-02,6.559200119227170944e-03,7.106267660856246948e-02,2.893320657312870026e-02,-2.937741391360759735e-02,5.112435246701352298e-06,-2.709947712719440460e-02,2.776626870036125183e-02,5.868430715054273605e-03,-8.404142223298549652e-03,7.514595240354537964e-02,-2.706547640264034271e-02,2.898721722885966301e-03,1.425072923302650452e-02,-5.971494317054748535e-02,7.436224818229675293e-02
-7.666701078414916992e-02,1.580397039651870728e-02,-7.525420188903808594e-02,-6.843991111963987350e-03,7.252918556332588196e-03,-4.418762028217315674e-02,3.834562748670578003e-02,8.188537508249282837e-02,3.319031675346195698e-04,-2.542735822498798370e-02,2.114203758537769318e-02,3.856474906206130981e-02,-3.617937117815017700e-02,-9.763474762439727783e-02,1.924088923260569572e-03,9.497652761638164520e-03,-7.791315764188766479e-02,3.164717927575111389e-02,1.008321642875671387e-01,-4.110043868422508240e-02,8.895567059516906738e-02,-6.579244136810302734e-02,-1.262894831597805023e-02,-5.443391203880310059e-02,2.294746413826942444e-02,1.003785207867622375e-01,8.183603733777999878e-02,9.359663636132609099e-06,-6.475619971752166748e-02,6.013748422265052795e-02,1.438214723020792007e-02,6.723962724208831787e-02
2.341325022280216217e-02,-3.256872878409922123e-04,-4.255803674459457397e-02,-1.531384699046611786e-02,4.720966517925262451e-02,-5.324126034975051880e-02,2.946674637496471405e-02,2.894994802772998810e-02,-1.097785532474517822e-01,3.601522743701934814e-02,1.564332842826843262e-02,1.535747013986110687e-02,-1.392654841765761375e-03,5.621697753667831421e-02,-7.862466573715209961e-02,7.131104916334152222e-02,-3.532914072275161743e-02,-2.143773436546325684e-02,1.330735981464385986e-01,1.211206689476966858e-01,8.192316442728042603e-02,4.908159002661705017e-02,-5.627774074673652649e-02,4.040052369236946106e-02,-2.418207377195358276e-02,-6.912833452224731445e-02,-7.312594354152679443e-02,-3.342791646718978882e-02,-1.403933390974998474e-02,8.616842329502105713e-02,7.668732851743698120e-02,-6.992078572511672974e-02
5.979649722576141357e-02,2.746174670755863190e-02,4.102717712521553040e-02,5.066394433379173279e-02,-2.766445092856884003e-02,1.416043564677238464e-02,1.709791831672191620e-02,8.214631117880344391e-03,4.113557189702987671e-02,7.014930993318557739e-02,-3.809449076652526855e-02,6.526435166597366333e-02,5.364771187305450439e-02,5.614150688052177429e-02,4.191527143120765686e-03,-2.614028565585613251e-02,2.466209605336189270e-02,2.472692728042602539e-02,5.187072604894638062e-02,-1.010987162590026855e-02,8.119408786296844482e-02,-4.238454625010490417e-02,-9.516361355781555176e-02,3.045706264674663544e-02,3.775293007493019104e-02,4.605102539062500000e-02,-3.882927820086479187e-02,2.903160452842712402e-02,-2.524128742516040802e-02,-1.871153898537158966e-02,-5.854352936148643494e-02,-1.519627682864665985e-02
1.730179041624069214e-02,-7.062561810016632080e-02,1.023956164717674255e-01,3.367068618535995483e-02,2.667199075222015381e-02,6.634961068630218506e-02,-2.817606180906295776e-02,6.681127101182937622e-02,-2.075904421508312225e-02,2.125817164778709412e-02,7.623178511857986450e-02,1.326611042022705078e-01,-3.538057580590248108e-02,-5.759501457214355469e-02,1.913782581686973572e-02,-2.322137169539928436e-02,3.492660447955131531e-02,1.044967025518417358e-02,6.090048700571060181e-02,7.306632399559020996e-02,8.466826379299163818e-02,8.923617005348205566e-02,-1.985015533864498138e-02,-1.228676550090312958e-02,-1.702186092734336853e-02,-5.762220360338687897e-03,5.112107843160629272e-02,1.103036943823099136e-02,-4.649533703923225403e-02,1.071428060531616211e-01,3.696306049823760986e-02,-2.457918040454387665e-02
2.142821997404098511e-02,2.834557741880416870e-02,1.028211489319801331e-01,2.404744550585746765e-02,-5.811625346541404724e-02,-3.501365706324577332e-02,-7.994989864528179169e-03,6.335145980119705200e-02,-9.619136899709701538e-02,-7.858379185199737549e-02,2.788949944078922272e-02,1.082257647067308426e-02,1.037333309650421143e-01,-5.750393867492675781e-02,2.711113169789314270e-02,-5.234797671437263489e-02,-3.176308795809745789e-02,7.842590659856796265e-02,2.261291444301605225e-02,-2.782270684838294983e-02,-7.119652628898620605e-02,-4.470604285597801208e-02,-7.408823072910308838e-02,4.973221570253372192e-02,1.711308397352695465e-02,3.745603142306208611e-03,7.778891175985336304e-02,-9.523344039916992188e-02,-4.622641205787658691e-02,-8.392173913307487965e-04,4.009595513343811035e-02,9.551765024662017822e-02
-7.068853080272674561e-02,7.543223910033702850e-03,2.770058438181877136e-02,-5.031155422329902649e-02,-3.898349357768893242e-03,-3.467210009694099426e-02,8.154430240392684937e-02,-8.201070129871368408e-02,-9.398068487644195557e-02,3.370071575045585632e-02,5.701645836234092712e-02,3.926953673362731934e-02,5.652933567762374878e-02,8.170096576213836670e-02,-7.802003622055053711e-02,6.882252544164657593e-02,8.279112726449966431e-02,2.952242828905582428e-02,-4.874356463551521301e-02,2.770246006548404694e-02,-3.448085114359855652e-02,-1.936837844550609589e-02,-3.218722715973854065e-02,-5.840077251195907593e-02,4.969735071063041687e-02,3.550227358937263489e-02,-1.741096936166286469e-02,3.216243535280227661e-02,-8.880109339952468872e-02,8.917410857975482941e-03,-3.330182656645774841e-02,3.893971815705299377e-02
-2.004698291420936584e-02,-6.564908474683761597e-02,1.232877746224403381e-01,-1.540458295494318008e-02,4.186480492353439331e-02,-3.357081115245819092e-02,4.755592718720436096e-02,7.533709704875946045e-02,6.457551568746566772e-02,-1.679053157567977905e-02,-5.521180480718612671e-02,-3.515070537105202675e-03,7.683315128087997437e-02,8.176843076944351196e-02,-8.737272024154663086e-02,6.081093568354845047e-03,-6.937233265489339828e-03,-7.997861504554748535e-02,3.613956645131111145e-02,6.694410741329193115e-02,6.303565949201583862e-02,1.914078742265701294e-02,4.608282819390296936e-02,1.644854806363582611e-02,-7.372038066387176514e-02,-8.103053271770477295e-02,7.094538956880569458e-02,-2.024301886558532715e-02,7.211188226938247681e-02,3.901722282171249390e-02,-4.072401672601699829e-02,5.423301458358764648e-02
-2.368723973631858826e-02,-8.711930364370346069e-02,-3.695107251405715942e-02,1.275786850601434708e-02,2.577552804723381996e-03,-4.660052806138992310e-02,2.511194534599781036e-02,-7.606818526983261108e-02,4.605443030595779419e-02,-2.327122492715716362e-03,1.798618957400321960e-02,4.486945644021034241e-02,-6.559020280838012695e-02,-6.081179901957511902e-02,-1.622504368424415588e-02,-1.895797904580831528e-03,-7.016038894653320312e-02,5.957839637994766235e-02,-2.533076889812946320e-02,-4.535715281963348389e-02,1.927649229764938354e-02,-1.093061119318008423e-01,7.745502144098281860e-02,8.274923264980316162e-02,-7.475136220455169678e-02,1.556461863219738007e-02,-8.446480333805084229e-02,6.140772625803947449e-02,-6.026457529515028000e-03,-2.418787963688373566e-02,-4.686627537012100220e-02,-3.343015676364302635e-03
-8.334434032440185547e-02,4.379438608884811401e-02,9.223660826683044434e-02,-4.225837066769599915e-02,-2.770361490547657013e-03,1.931062527000904083e-02,7.965636253356933594e-02,-1.103794388473033905e-02,-6.530709564685821533e-02,-3.694203123450279236e-02,1.672776415944099426e-02,3.100845962762832642e-02,-6.098899058997631073e-03,-4.589871317148208618e-02,-6.396362185478210449e-02,4.893490299582481384e-02,-5.078774318099021912e-02,-5.283771082758903503e-02,2.494574896991252899e-02,7.062289118766784668e-02,-5.134285893291234970e-03,6.068363040685653687e-02,-8.072907477617263794e-02,-2.193900756537914276e-02,4.499003291130065918e-03,-2.952511794865131378e-02,-8.036620169878005981e-02,-4.193798825144767761e-02,1.991714164614677429e-02,6.649000570178031921e-03,7.547148317098617554e-02,5.714076384902000427e-02
4.043718054890632629e-02,-3.694825991988182068e-02,5.840275064110755920e-02,-6.603477150201797485e-02,-4.374152049422264099e-02,-2.875751815736293793e-02,3.878663107752799988e-02,7.415769249200820923e-02,7.871979475021362305e-02,-2.420968189835548401e-02,3.491428866982460022e-02,1.584700122475624084e-02,1.866601407527923584e-02,2.013563364744186401e-02,6.846778839826583862e-02,-5.696136876940727234e-02,-2.403235062956809998e-02,-1.965853571891784668e-02,2.936170436441898346e-02,1.214087288826704025e-02,1.660699583590030670e-02,-1.284885313361883163e-02,5.464288592338562012e-02,-3.536132723093032837e-02,-5.045747384428977966e-02,-5.217119306325912476e-02,5.048148334026336670e-02,8.314149826765060425e-02,-6.878905743360519409e-02,4.836269468069076538e-02,4.771471768617630005e-02,-6.249348632991313934e-03
-6.851001083850860596e-02,-7.277318276464939117e-03,6.421892344951629639e-02,7.586041837930679321e-02,-3.695727884769439697e-02,2.807928994297981262e-02,7.139424979686737061e-02,2.164100063964724541e-03,7.217136770486831665e-02,-1.820956729352474213e-02,4.999793320894241333e-02,3.964698314666748047e-02,-4.788827151060104370e-02,2.685953490436077118e-02,-7.343000918626785278e-02,-3.617720305919647217e-02,-6.090743467211723328e-03,-5.907945334911346436e-02,-2.140508592128753662e-02,2.744357660412788391e-02,2.877825684845447540e-02,-3.062717057764530182e-02,9.258460253477096558e-03,-1.296020299196243286e-02,5.181382223963737488e-02,7.516385614871978760e-02,4.552941396832466125e-02,4.154842346906661987e-03,-1.110612787306308746e-02,5.572280660271644592e-02,3.673040866851806641e-02,-2.083426527678966522e-02
5.270128697156906128e-02,-8.465704321861267090e-02,-5.502130836248397827e-02,8.102295547723770142e-02,-3.580514341592788696e-02,-3.100272268056869507e-02,2.587418816983699799e-02,-4.360644891858100891e-02,-6.125482544302940369e-02,-3.026647318620234728e-04,2.127809077501296997e-02,4.876300692558288574e-02,-4.390810802578926086e-02,-6.680566072463989258e-02,-5.459121614694595337e-02,-4.872620571404695511e-03,7.350841164588928223e-02,-3.050599945709109306e-03,5.023590475320816040e-02,7.903933525085449219e-02,-3.742725774645805359e-02,-3.677335754036903381e-02,1.744842156767845154e-02,-5.603294819593429565e-02,3.091682866215705872e-02,-6.357676535844802856e-02,-5.964757874608039856e-02,-1.537943072617053986e-02,-1.451626652851700783e-03,1.126929558813571930e-02,-5.081805214285850525e-02,7.762932777404785156e-02
-5.962887406349182129e-02,4.975768551230430603e-02,2.512365579605102539e-02,5.344025418162345886e-02,4.716629534959793091e-02,5.136664584279060364e-02,-2.340384386479854584e-02,4.403548315167427063e-02,-8.923464454710483551e-03,-5.624201893806457520e-02,-7.270894944667816162e-02,1.205011364072561264e-02,3.286328539252281189e-02,-5.154307559132575989e-02,2.149365283548831940e-02,-5.551557987928390503e-03,5.185084417462348938e-02,6.055201590061187744e-02,7.515905797481536865e-02,7.687879353761672974e-02,5.702300742268562317e-02,4.873428493738174438e-03,-4.316890239715576172e-02,4.402094706892967224e-02,-6.197737157344818115e-02,7.247824966907501221e-02,8.390989154577255249e-02,-5.074181407690048218e-02,4.816747084259986877e-02,6.332173943519592285e-02,1.486031711101531982e-02,-7.658613473176956177e-02
1.216128468513488770e-02,-3.514036908745765686e-02,-2.189825475215911865e-02,8.026578277349472046e-02,8.201178163290023804e-02,1.667851954698562622e-02,8.009449392557144165e-02,-5.335107445716857910e-03,2.128225564956665039e-02,-7.380526512861251831e-02,7.937061041593551636e-02,-8.732400834560394287e-03,5.124591290950775146e-03,-1.511745154857635498e-03,4.863023757934570312e-03,6.997332721948623657e-02,-6.288886815309524536e-02,2.769460529088973999e-02,-8.364660292863845825e-02,-3.135344758629798889e-02,-6.974974274635314941e-02,1.683463156223297119e-02,-7.666622847318649292e-02,-4.011994972825050354e-02,-5.327272042632102966e-02,4.554460197687149048e-02,6.811771541833877563e-02,1.759047806262969971e-02,-4.160948097705841064e-03,-6.772625446319580078e-02,3.384006023406982422e-02,-5.193474888801574707e-02
-1.883448660373687744e-02,-6.038083136081695557e-02,7.306792587041854858e-02,5.776398628950119019e-02,6.601646542549133301e-03,6.818871945142745972e-02,-4.296749830245971680e-04,1.597893983125686646e-02,6.677656620740890503e-02,7.834304124116897583e-02,-4.176072031259536743e-02,9.317658841609954834e-03,-7.317691296339035034e-02,-1.926919072866439819e-02,7.648938149213790894e-02,6.985329836606979370e-02,-6.778016686439514160e-02,6.447946280241012573e-02,-6.454726308584213257e-02,-2.162914723157882690e-02,-3.834870457649230957e-02,7.066158205270767212e-02,-1.740179955959320068e-02,2.873355895280838013e-02,-6.981134414672851562e-02,-2.901665121316909790e-02,2.734944224357604980e-02,7.702708244323730469e-03,3.707563877105712891e-02,5.330694466829299927e-02,6.245518475770950317e-02,-7.524778693914413452e-02
-5.019976943731307983e-02,7.516039162874221802e-02,-1.739488542079925537e-02,-2.282039821147918701e-02,5.288265645503997803e-03,8.534707129001617432e-03,-3.164101392030715942e-02,-1.684769988059997559e-03,-3.091144189238548279e-02,-4.391466453671455383e-02,-6.385953724384307861e-02,-7.789909839630126953e-02,-4.223264753818511963e-03,-1.475927978754043579e-02,2.887726575136184692e-02,-5.627977848052978516e-02,2.945838868618011475e-02,-8.216676861047744751e-02,-4.179312661290168762e-02,8.538492769002914429e-02,7.826653867959976196e-02,6.337598711252212524e-02,-7.154562324285507202e-02,1.904068887233734131e-02,-8.567419648170471191e-02,1.999694854021072388e-02,4.392681270837783813e-02,-4.442642256617546082e-02,-1.560182869434356689e-02,-6.325037777423858643e-02,-2.511468529701232910e-02,5.299512296915054321e-02
1.804977655410766602e-02,1.318981498479843140e-02,-1.299621164798736572e-02,5.680681020021438599e-02,-2.050692588090896606e-02,-7.970305532217025757e-02,4.312574118375778198e-02,-7.541013509035110474e-02,9.760439395904541016e-03,6.530925631523132324e-03,-4.953191801905632019e-02,3.300104290246963501e-02,2.015737444162368774e-02,1.244450360536575317e-02,-2.079905569553375244e-02,-2.748740091919898987e-02,1.149807870388031006e-02,2.588326483964920044e-02,6.416871398687362671e-02,-6.547549366950988770e-02,-8.221687376499176025e-02,-4.345881938934326172e-02,-6.501937657594680786e-02,2.945808321237564087e-02,-3.857467323541641235e-02,-7.396039366722106934e-02,-3.798817098140716553e-02,2.601045370101928711e-02,5.346409976482391357e-03,2.469325065612792969e-02,-3.869093954563140869e-02,8.457479625940322876e-02
6.768859177827835083e-02,-6.994483619928359985e-02,-4.293745756149291992e-02,7.132413238286972046e-02,-2.752597443759441376e-03,4.534300882369279861e-03,3.531863167881965637e-02,-7.840338163077831268e-03,-2.268819138407707214e-02,-4.893224686384201050e-02,-3.905006498098373413e-02,-8.380732685327529907e-02,3.075975365936756134e-02,-5.173157528042793274e-02,-4.499233886599540710e-02,-1.503277802839875221e-03,4.706471785902976990e-02,-6.290825456380844116e-02,4.892743751406669617e-02,-2.933599799871444702e-02,6.357625871896743774e-02,9.044290520250797272e-03,1.613528467714786530e-02,-2.171410806477069855e-02,-1.959173567593097687e-02,-2.225496061146259308e-02,7.859219610691070557e-02,2.415235526859760284e-02,-5.281591042876243591e-02,3.196182660758495331e-03,1.351982355117797852e-04,5.919225979596376419e-03
2.421341277658939362e-02,1.720049418509006500e-02,-2.117333002388477325e-03,-5.211086571216583252e-02,-8.441969752311706543e-02,-6.897231936454772949e-02,-3.495314717292785645e-02,2.710761502385139465e-02,-1.431380212306976318e-02,-6.738662719726562500e-03,-8.036095649003982544e-02,-3.324125334620475769e-02,-8.228512108325958252e-02,1.785271614789962769e-02,2.331559732556343079e-02,5.974526703357696533e-02,2.670246176421642303e-02,-2.922214567661285400e-02,8.449997007846832275e-02,-4.161250591278076172e-02,2.275508828461170197e-02,-2.387356758117675781e-02,-3.052340447902679443e-02,-6.226561963558197021e-02,4.080068692564964294e-02,5.936510115861892700e-02,3.095988556742668152e-02,-6.670726090669631958e-02,3.838177397847175598e-02,1.512670796364545822e-02,8.747875690460205078e-04,-6.780144572257995605e-02
-7.654746621847152710e-02,4.071635380387306213e-02,6.175517290830612183e-02,-3.647170588374137878e-02,5.433308705687522888e-02,3.365599736571311951e-02,-8.055303245782852173e-02,9.095704182982444763e-03,-5.538253858685493469e-02,3.732761368155479431e-02,3.555095195770263672e-02,4.949495196342468262e-02,-5.145106092095375061e-02,4.328856593929231167e-04,3.065472468733787537e-02,7.956046611070632935e-02,2.090337872505187988e-02,-2.043970488011837006e-02,8.488748222589492798e-02,2.677696011960506439e-02,-4.890349134802818298e-02,-8.214880712330341339e-03,-3.952084109187126160e-02,-3.191252937540411949e-03,-4.622926935553550720e-02,7.544009014964103699e-03,-4.696958139538764954e-02,4.939386248588562012e-02,1.778377452865242958e-03,3.273025900125503540e-02,-7.564870268106460571e-02,-5.369809269905090332e-02
-6.213317438960075378e-02,4.198987409472465515e-02,4.086304455995559692e-02,2.114413678646087646e-02,4.107995890080928802e-03,7.543702423572540283e-02,-3.886590898036956787e-02,-3.251398727297782898e-02,6.005068868398666382e-02,-2.312145940959453583e-02,2.129202336072921753e-02,7.076397538185119629e-02,1.076468639075756073e-02,-5.140819773077964783e-02,1.542760152369737625e-02,5.260920524597167969e-02,3.640469536185264587e-02,-4.741869866847991943e-02,-5.452601611614227295e-02,3.372739627957344055e-02,3.103721141815185547e-02,-6.110759824514389038e-02,7.646297663450241089e-02,6.921545416116714478e-02,2.017494104802608490e-02,-2.281807828694581985e-03,7.115853019058704376e-03,1.197492703795433044e-03,-2.125614881515502930e-02,-7.631158083677291870e-02,-1.998665370047092438e-02,-2.938514389097690582e-02
2.298472449183464050e-02,4.377333447337150574e-02,5.828059092164039612e-02,-2.626838907599449158e-02,-4.383771866559982300e-02,4.919406771659851074e-02,4.604975879192352295e-02,-8.758675307035446167e-03,2.590387873351573944e-02,4.957856982946395874e-02,-6.178839132189750671e-02,-4.347820207476615906e-02,7.894131541252136230e-02,1.453334465622901917e-02,-4.974913224577903748e-02,-2.267611213028430939e-02,-6.071764975786209106e-02,2.985389716923236847e-02,6.883246242068707943e-04,-5.737803503870964050e-02,3.119536861777305603e-02,-3.617121279239654541e-02,3.348340094089508057e-02,8.109366148710250854e-02,1.696760579943656921e-02,-6.107636541128158569e-02,5.151230096817016602e-02,6.712206639349460602e-03,4.204481840133666992e-02,-4.190482199192047119e-02,-6.361919641494750977e-02,-2.716694027185440063e-03
-3.177481889724731445e-02,-3.241223096847534180e-02,1.268405746668577194e-02,-3.764130547642707825e-02,-5.941806733608245850e-02,4.387683793902397156e-02,4.613570123910903931e-02,-6.479914486408233643e-02,-6.604566238820552826e-03,2.218396589159965515e-02,-7.994537800550460815e-02,-1.879770681262016296e-02,-4.076255857944488525e-02,-6.629993766546249390e-02,2.344616502523422241e-02,7.864342629909515381e-02,4.437765106558799744e-03,-4.080501571297645569e-02,3.783439099788665771e-02,-6.447627209126949310e-03,6.382799893617630005e-02,-5.521165579557418823e-02,6.526038050651550293e-02,4.510454460978507996e-02,-8.617213368415832520e-02,-8.563009090721607208e-03,3.162031620740890503e-02,4.476078227162361145e-02,7.718666642904281616e-02,-7.982622832059860229e-02,2.288258261978626251e-02,2.595124579966068268e-02
4.852429497987031937e-03,-8.313371241092681885e-02,5.959396436810493469e-02,8.803442865610122681e-02,5.937480926513671875e-02,-6.010197103023529053e-02,1.454828679561614990e-02,1.463066879659891129e-02,-2.449865080416202545e-02,1.935463584959506989e-02,-5.514728650450706482e-02,3.344797715544700623e-02,-2.398831211030483246e-02,7.381593436002731323e-02,-4.260658286511898041e-03,7.583022862672805786e-02,-1.080537959933280945e-02,-1.919868052937090397e-03,1.574274525046348572e-02,2.154648536816239357e-03,-3.216716647148132324e-02,3.664903715252876282e-02,1.205082610249519348e-02,-2.796006761491298676e-02,-2.931716106832027435e-02,-7.242694497108459473e-02,3.434186428785324097e-02,-7.924322038888931274e-02,6.543487310409545898e-02,-1.030250359326601028e-02,4.703167825937271118e-02,-6.255676504224538803e-03
-1.962364651262760162e-02,7.640629261732101440e-02,-6.173994392156600952e-02,8.517935127019882202e-02,1.807511784136295319e-02,2.751756273210048676e-02,7.844198495149612427e-02,8.440170437097549438e-02,-1.102700904011726379e-01,-3.081750124692916870e-02,5.816235393285751343e-02,7.013937085866928101e-02,6.591589748859405518e-02,2.206451073288917542e-02,-5.281376466155052185e-02,8.420701324939727783e-02,3.915056586265563965e-02,4.572008177638053894e-02,-1.858968101441860199e-02,-7.015305012464523315e-02,-5.498807877302169800e-03,-1.046234890818595886e-01,5.353266000747680664e-02,-4.330559447407722473e-02,-1.174649689346551895e-02,6.555407494306564331e-02,1.681981794536113739e-02,5.167129635810852051e-02,8.144363015890121460e-02,-7.137806713581085205e-02,7.944697141647338867e-02,1.188700366765260696e-02
-8.715110830962657928e-03,5.550409480929374695e-02,-2.282255887985229492e-02,-2.368845045566558838e-02,-6.741757690906524658e-02,-1.321134120225906372e-01,3.840321674942970276e-02,-5.026436597108840942e-02,2.672792412340641022e-02,-1.112048793584108353e-02,2.486606501042842865e-02,7.107912003993988037e-02,4.883211295236833394e-05,4.823866486549377441e-02,-3.967035934329032898e-02,7.360929250717163086e-02,8.084518462419509888e-02,-8.923646062612533569e-02,1.957865618169307709e-02,8.424986898899078369e-02,2.127660252153873444e-02,-6.199470162391662598e-02,-8.297673612833023071e-02,5.455600842833518982e-02,-6.843701750040054321e-02,7.143089175224304199e-02,-8.149398118257522583e-02,-4.839224740862846375e-03,1.293975114822387695e-01,-5.976032838225364685e-02,-7.290734350681304932e-02,-3.654330503195524216e-03
-6.361323595046997070e-02,-3.266702219843864441e-02,3.291144967079162598e-02,7.253343611955642700e-02,1.782811805605888367e-02,-7.493486255407333374e-02,6.676168739795684814e-02,-4.963942617177963257e-02,-8.283179253339767456e-02,-1.021397858858108521e-02,1.893591979751363397e-04,-2.360638231039047241e-02,2.646949142217636108e-02,6.338595598936080933e-02,4.944117739796638489e-02,1.548142824321985245e-02,5.265882983803749084e-02,1.916111260652542114e-02,2.031086944043636322e-02,5.694176629185676575e-02,6.671406328678131104e-02,-7.390180975198745728e-02,-1.032019481062889099e-01,-8.826731145381927490e-02,5.443183332681655884e-02,7.183820754289627075e-02,7.654628902673721313e-02,-6.849684566259384155e-02,4.360226448625326157e-03,1.069525554776191711e-01,-1.178552582859992981e-02,-9.613920748233795166e-02
8.621575683355331421e-02,7.289840281009674072e-02,-2.538965269923210144e-02,4.434190690517425537e-03,-8.873753249645233154e-02,-5.055648088455200195e-02,5.194263160228729248e-02,6.202327087521553040e-02,-4.873313754796981812e-02,4.789601638913154602e-02,4.503769800066947937e-02,4.812604933977127075e-02,1.186376065015792847e-01,1.670074835419654846e-02,4.101634025573730469e-03,6.352072954177856445e-02,8.558510988950729370e-02,3.973622992634773254e-02,5.507558211684226990e-02,1.059117615222930908e-01,9.551438689231872559e-02,-2.481894940137863159e-02,-1.206493452191352844e-01,-1.267683506011962891e-02,-5.272354185581207275e-02,-1.047902973368763924e-03,-5.316423252224922180e-02,-8.364279568195343018e-02,5.336494371294975281e-02,-2.418651804327964783e-02,-3.966234624385833740e-02,-5.657447502017021179e-02
-3.725403919816017151e-02,6.316562741994857788e-02,-6.092034280300140381e-02,-2.179833315312862396e-02,-3.836385905742645264e-02,2.628111839294433594e-02,8.689511567354202271e-02,-5.984143167734146118e-02,-1.252296268939971924e-01,-1.764441281557083130e-02,7.061760127544403076e-02,1.251940727233886719e-01,3.242733702063560486e-02,5.602128803730010986e-02,4.019952937960624695e-02,-8.009947836399078369e-02,8.127738535404205322e-02,-8.110770955681800842e-03,1.212175488471984863e-01,3.188532218337059021e-02,7.897246628999710083e-03,-1.905714347958564758e-02,-1.375340223312377930e-01,-2.980457432568073273e-02,8.106056600809097290e-02,4.066691175103187561e-02,4.738065227866172791e-02,1.764972321689128876e-02,6.115927547216415405e-02,9.229095280170440674e-02,-3.704473003745079041e-02,-2.456372231245040894e-02
4.866527393460273743e-02,-5.551136285066604614e-02,-3.189611481502652168e-03,1.072262674570083618e-01,-5.881363898515701294e-02,-7.399863004684448242e-02,-1.278954744338989258e-02,-6.709889322519302368e-02,-7.154919207096099854e-02,8.038115501403808594e-02,-4.956936463713645935e-02,7.106458395719528198e-02,3.485858812928199768e-02,-5.027898401021957397e-02,-5.408968031406402588e-02,-4.500928521156311035e-02,-3.052541241049766541e-02,2.334133535623550415e-02,2.005895078182220459e-01,-2.752159535884857178e-02,2.969656139612197876e-02,-5.661305785179138184e-02,-3.917678445577621460e-02,-1.129098162055015564e-01,9.528893977403640747e-02,3.198983846232295036e-03,-3.251138143241405487e-03,-1.311462968587875366e-01,-3.563975170254707336e-02,1.124021038413047791e-01,8.570221811532974243e-02,-4.113078117370605469e-02
1.263657584786415100e-02,-3.353910893201828003e-02,1.357665564864873886e-02,-5.351921170949935913e-02,-8.421602100133895874e-02,9.918304160237312317e-03,4.355897754430770874e-02,-7.723691314458847046e-02,-5.776139441877603531e-03,-3.604854457080364227e-03,5.716181918978691101e-02,2.068020254373550415e-01,1.659686677157878876e-02,-3.434535174164921045e-04,-9.563661366701126099e-02,1.433459110558032990e-02,2.246562950313091278e-02,-4.075003787875175476e-02,2.152061462402343750e-01,1.162956580519676208e-01,-2.276287041604518890e-02,-8.081900328397750854e-02,-3.542324900627136230e-02,-3.688473999500274658e-02,7.117942720651626587e-02,1.262848675251007080e-01,-1.841655187308788300e-02,-1.525680571794509888e-01,-9.366520494222640991e-02,1.329308003187179565e-01,-6.969363242387771606e-02,-1.442652847617864609e-02
1.627265959978103638e-01,-2.260602824389934540e-02,1.516644563525915146e-02,3.668562695384025574e-02,-5.603592470288276672e-02,-6.145919207483530045e-03,6.269492208957672119e-02,3.973729535937309265e-02,-1.425784975290298462e-01,7.236094027757644653e-02,-3.299324214458465576e-02,2.038909196853637695e-01,1.132936850190162659e-01,-1.421647053211927414e-02,-5.571793392300605774e-02,2.394309826195240021e-02,-2.317066676914691925e-02,4.772962536662817001e-03,9.030562639236450195e-02,5.985385552048683167e-02,-4.329048097133636475e-02,-6.074555218219757080e-02,-9.115178138017654419e-03,-3.132983576506376266e-03,1.039557531476020813e-01,4.250859841704368591e-02,3.087785467505455017e-02,-4.222033172845840454e-02,-6.176169589161872864e-02,6.891338527202606201e-02,-2.804060466587543488e-02,-7.257640361785888672e-02
1.211272999644279480e-01,-2.751298807561397552e-02,2.286193519830703735e-01,-7.572070509195327759e-02,-4.750362411141395569e-02,7.310076802968978882e-02,-8.690191432833671570e-03,6.334333866834640503e-02,-8.303221315145492554e-02,-3.320656018331646919e-03,3.310865536332130432e-02,1.640491187572479248e-01,-4.369829967617988586e-02,5.723534896969795227e-02,8.126205648295581341e-04,9.034577012062072754e-02,7.039088755846023560e-02,3.225311264395713806e-02,9.406553953886032104e-02,6.527242064476013184e-02,4.853797331452369690e-02,-2.526142261922359467e-02,-1.243477836251258850e-01,2.191489376127719879e-02,8.764616400003433228e-02,-3.487082570791244507e-02,-1.349505316466093063e-02,-7.613880187273025513e-02,-5.257540941238403320e-02,1.397290229797363281e-01,-1.434339676052331924e-02,9.913937002420425415e-02
5.463742464780807495e-02,3.303296864032745361e-02,2.316698282957077026e-01,3.991469368338584900e-02,-1.374555379152297974e-01,1.381316184997558594e-01,3.319646418094635010e-02,5.581798031926155090e-03,2.443687431514263153e-02,3.841594979166984558e-02,-8.131287246942520142e-02,1.127287298440933228e-01,-5.660793557763099670e-02,9.480936825275421143e-02,-3.005736507475376129e-02,4.290701076388359070e-02,5.363036692142486572e-02,4.705070517957210541e-03,1.117307394742965698e-01,3.511504828929901123e-02,-4.639109596610069275e-02,-5.371649190783500671e-02,-1.261909455060958862e-01,-9.162061847746372223e-03,-3.977774456143379211e-02,6.609345227479934692e-02,6.196168810129165649e-02,-2.973481267690658569e-02,6.245809607207775116e-03,9.334306418895721436e-02,-7.128237187862396240e-02,2.321325242519378662e-02
1.033118441700935364e-01,-6.619794666767120361e-02,2.028317153453826904e-01,5.155180115252733231e-04,-4.477328062057495117e-02,-2.368478290736675262e-02,8.341450244188308716e-02,7.298775762319564819e-02,-2.860317472368478775e-03,-8.300295472145080566e-02,-2.555054053664207458e-02,9.126164019107818604e-03,-4.819224029779434204e-02,3.785052523016929626e-02,6.840714067220687866e-02,5.180869251489639282e-02,-5.695062223821878433e-03,8.618675917387008667e-02,8.337552100419998169e-02,-4.794879257678985596e-02,4.737985134124755859e-02,-3.155884891748428345e-02,-1.011072546243667603e-01,3.939157724380493164e-02,-2.597853727638721466e-02,6.224456429481506348e-02,-4.028391093015670776e-02,-8.606163412332534790e-02,2.599082363303750753e-04,3.295412659645080566e-02,5.788667593151330948e-03,1.173906847834587097e-01
-6.656868755817413330e-02,-9.781060367822647095e-02,1.375627517700195312e-01,1.302381884306669235e-02,1.752252504229545593e-02,-1.046703569591045380e-02,6.846700608730316162e-02,2.947737462818622589e-02,-4.681330546736717224e-02,8.060036599636077881e-02,1.770299859344959259e-02,-5.229393765330314636e-02,3.155454248189926147e-02,5.815547425299882889e-03,-4.542583972215652466e-02,-2.493211999535560608e-02,-5.655024573206901550e-02,6.510656327009201050e-03,-8.852552622556686401e-02,-2.432725392282009125e-02,7.574388384819030762e-02,-1.287114322185516357e-01,1.747738011181354523e-02,5.396367982029914856e-02,-7.493364810943603516e-02,8.845391683280467987e-03,-1.498087123036384583e-02,3.459330182522535324e-03,-7.745238393545150757e-02,-1.271703047677874565e-03,2.743061445653438568e-02,4.911494255065917969e-02
-5.396245792508125305e-02,-3.986185765825212002e-05,8.561458438634872437e-02,-3.579674661159515381e-02,-1.420226972550153732e-02,1.302705705165863037e-02,5.041759833693504333e-02,1.215970423072576523e-02,6.765609234571456909e-02,-3.989682346582412720e-02,-8.698338270187377930e-02,-7.714957743883132935e-02,-5.825494229793548584e-02,-6.628119200468063354e-02,4.919885098934173584e-02,5.690613389015197754e-02,2.356902137398719788e-02,-5.129290372133255005e-02,-4.254518076777458191e-02,-3.254772722721099854e-02,-5.788854882121086121e-02,-8.124416321516036987e-02,-1.125403214246034622e-02,6.740444898605346680e-02,-2.447157353162765503e-02,-7.743187993764877319e-02,-5.863245576620101929e-02,-8.541415631771087646e-02,-7.092282921075820923e-02,-2.791197225451469421e-02,-1.870369538664817810e-02,4.873182252049446106e-02
5.950164049863815308e-02,-7.697739452123641968e-02,8.119495958089828491e-02,3.774077445268630981e-02,-2.115519344806671143e-02,-4.654936119914054871e-02,6.644397228956222534e-02,-6.753738969564437866e-02,1.898622140288352966e-03,5.331772845238447189e-03,1.333724055439233780e-02,7.876534759998321533e-02,5.359784886240959167e-02,-1.407915540039539337e-02,-1.697655208408832550e-02,2.720958180725574493e-02,6.335189938545227051e-02,8.404607325792312622e-02,-6.087169982492923737e-03,5.714270845055580139e-02,-5.880559980869293213e-02,-8.963815867900848389e-02,2.874021418392658234e-02,8.169764280319213867e-02,6.315491348505020142e-02,-1.664477586746215820e-02,5.819126963615417480e-02,-3.881646320223808289e-02,8.192821592092514038e-02,3.491912409663200378e-02,2.457483857870101929e-02,5.582170560956001282e-02
5.595661327242851257e-02,4.038630425930023193e-02,2.273432537913322449e-02,4.608488827943801880e-02,-6.496143341064453125e-02,2.216266840696334839e-02,-7.106161862611770630e-02,2.674706652760505676e-02,2.094920491799712181e-03,3.468374162912368774e-02,1.909467577934265137e-02,-5.000536888837814331e-02,-1.170355267822742462e-02,-5.274800211191177368e-02,-5.054178088903427124e-02,3.921033814549446106e-02,-3.489419445395469666e-02,-1.522818463854491711e-03,-2.722644247114658356e-02,7.605118304491043091e-02,-7.621402293443679810e-02,-2.487044222652912140e-02,5.107124894857406616e-02,3.440968319773674011e-02,-3.321434557437896729e-02,6.208644248545169830e-03,2.784413844347000122e-02,-5.128342658281326294e-02,-2.406096900813281536e-04,4.230989888310432434e-02,-7.640100270509719849e-02,-1.026713405735790730e-03
2.248393557965755463e-02,-7.519914302974939346e-03,-5.823581293225288391e-02,2.799573540687561035e-02,-2.210363280028104782e-03,-5.950237065553665161e-02,3.453219681978225708e-02,1.739336550235748291e-02,-4.420778155326843262e-02,1.722843199968338013e-02,-3.620408847928047180e-02,2.690707519650459290e-02,-3.699788358062505722e-03,4.002068191766738892e-02,5.312402918934822083e-02,2.625077590346336365e-02,8.293983340263366699e-02,-7.524077594280242920e-02,7.005703169852495193e-03,7.827893830835819244e-03,-3.701762855052947998e-02,5.819283798336982727e-02,-2.064902946585789323e-04,-7.012322545051574707e-02,8.556976914405822754e-03,4.478768259286880493e-02,-7.679614424705505371e-02,7.249484956264495850e-02,-1.990969292819499969e-02,5.045651271939277649e-02,-3.073868155479431152e-02,2.620716579258441925e-02
-7.603172212839126587e-02,2.394898794591426849e-02,2.137599512934684753e-02,-4.242730885744094849e-02,3.345111384987831116e-02,-2.510296180844306946e-02,8.095389604568481445e-02,-1.040270552039146423e-02,2.308708429336547852e-02,6.445158272981643677e-02,7.140005938708782196e-03,-5.914643406867980957e-02,7.223569601774215698e-02,7.137237489223480225e-02,-3.451646864414215088e-02,-2.846448309719562531e-02,-3.613691776990890503e-02,2.872069180011749268e-02,2.901116199791431427e-02,-4.951863735914230347e-02,-2.021499536931514740e-02,5.541741102933883667e-02,-5.542165040969848633e-02,-3.663467988371849060e-02,-8.145910501480102539e-02,-2.577101439237594604e-02,-7.236258685588836670e-02,-1.775952614843845367e-02,-4.550697747617959976e-03,-7.283748127520084381e-03,2.338093146681785583e-02,-9.345178492367267609e-03
8.327880874276161194e-03,5.522140115499496460e-02,4.040474444627761841e-02,8.369109034538269043e-02,1.196922641247510910e-02,5.307905003428459167e-02,7.891997694969177246e-02,1.697692088782787323e-02,2.155528590083122253e-02,-4.220246151089668274e-02,-8.541891723871231079e-02,2.767302095890045166e-02,-6.862185895442962646e-03,-5.402357503771781921e-02,2.105434192344546318e-03,7.225293666124343872e-02,-7.977223396301269531e-02,5.676770210266113281e-02,1.918620429933071136e-02,-1.065742503851652145e-02,2.661512931808829308e-03,-2.087759226560592651e-02,2.102669514715671539e-02,6.362812221050262451e-02,-4.260138422250747681e-02,-3.497127071022987366e-02,6.287696212530136108e-02,-6.927175819873809814e-02,-9.132368490099906921e-03,3.501499071717262268e-02,-3.886397695168852806e-03,-4.466309770941734314e-02
5.408444255590438843e-02,3.613563627004623413e-02,2.919848263263702393e-02,-5.374739319086074829e-02,2.052433788776397705e-03,8.142276853322982788e-02,-4.504768177866935730e-02,-2.363516017794609070e-02,3.429111838340759277e-02,6.097074598073959351e-02,4.769510775804519653e-02,2.821985632181167603e-02,4.460694640874862671e-02,4.962570220232009888e-02,6.711024791002273560e-02,-7.086157798767089844e-02,-5.502634495496749878e-02,-8.199571073055267334e-02,-7.271550595760345459e-02,8.420836180448532104e-02,-4.470759257674217224e-02,-8.201353996992111206e-02,7.645975798368453979e-02,-6.046835333108901978e-02,5.576188117265701294e-02,7.436623424291610718e-02,8.056447654962539673e-02,-4.690199345350265503e-02,-1.930895447731018066e-02,-1.048263162374496460e-02,3.504060208797454834e-03,-2.728036418557167053e-02
2.966745197772979736e-02,2.919968962669372559e-02,-7.102693617343902588e-02,-5.816064774990081787e-02,3.432282805442810059e-02,-5.429290235042572021e-03,2.212490141391754150e-02,2.091478556394577026e-02,-2.147377282381057739e-02,-3.247017040848731995e-02,-4.723807796835899353e-02,6.352574378252029419e-02,-4.637657850980758667e-02,7.613020390272140503e-02,4.276173561811447144e-02,2.212040871381759644e-02,-7.476481050252914429e-02,7.906431704759597778e-02,-5.188433453440666199e-02,7.082268595695495605e-03,-8.062203973531723022e-02,6.945516914129257202e-02,-6.310310214757919312e-02,-7.382736355066299438e-02,-4.717985168099403381e-02,-5.942242592573165894e-02,-3.365924954414367676e-02,6.671672314405441284e-02,-6.340652704238891602e-03,2.189549803733825684e-02,5.338894575834274292e-02,-1.332734525203704834e-02
-1.359548605978488922e-02,-3.175637498497962952e-02,3.162353113293647766e-02,5.476094782352447510e-02,-8.496934175491333008e-02,1.596536301076412201e-02,-1.799586974084377289e-02,6.544017046689987183e-02,7.741013076156377792e-03,-1.421734690666198730e-03,-5.609875172376632690e-02,5.388752371072769165e-02,-7.285055518150329590e-02,6.342514604330062866e-02,7.813956588506698608e-02,-5.951690301299095154e-02,5.173604562878608704e-02,-7.618687301874160767e-02,-8.681560866534709930e-03,-1.996454596519470215e-02,-2.359502017498016357e-02,4.890638962388038635e-02,-2.198125049471855164e-02,6.152635067701339722e-02,4.127099364995956421e-02,4.175426065921783447e-02,2.257782779633998871e-02,-3.463634103536605835e-02,8.037664741277694702e-02,-7.741641998291015625e-02,6.073682755231857300e-02,8.226659893989562988e-02
-1.624552160501480103e-02,-4.618148133158683777e-02,5.121209472417831421e-02,3.148631379008293152e-02,4.514856263995170593e-02,2.220947109162807465e-02,6.120512261986732483e-02,6.468357890844345093e-02,-7.682433724403381348e-02,1.086134463548660278e-02,-5.425544828176498413e-02,-7.100941985845565796e-02,-8.187163621187210083e-02,-1.923454925417900085e-02,2.243338897824287415e-02,3.160092979669570923e-03,-7.946358993649482727e-03,3.122018277645111084e-02,-6.360404193401336670e-02,6.936542689800262451e-02,6.285287439823150635e-02,-8.342889696359634399e-02,-1.661749207414686680e-03,6.927847862243652344e-02,2.207367867231369019e-02,-1.727890595793724060e-02,6.019347533583641052e-02,7.619004696607589722e-02,-2.796243876218795776e-02,8.888376876711845398e-03,-6.708312034606933594e-02,5.065605044364929199e-02
-2.387747354805469513e-02,-1.664044149219989777e-02,5.240454524755477905e-02,8.280593156814575195e-02,3.917673602700233459e-02,5.251206830143928528e-02,-4.062697663903236389e-02,8.303248882293701172e-02,7.218559831380844116e-02,2.740938588976860046e-02,3.234473615884780884e-02,2.134018391370773315e-02,5.718412622809410095e-02,4.502260684967041016e-02,-3.568879887461662292e-02,-5.321742966771125793e-02,2.865640446543693542e-03,-1.773062162101268768e-02,-5.032485350966453552e-02,-1.836088113486766815e-02,8.131040632724761963e-02,6.727995723485946655e-02,4.195803776383399963e-02,-1.849747449159622192e-02,-3.721553087234497070e-02,-4.463363438844680786e-02,-4.387577623128890991e-02,8.333224058151245117e-02,-6.491375714540481567e-02,5.312722176313400269e-02,-3.135250508785247803e-02,7.439730316400527954e-02
1.975462399423122406e-02,3.611858934164047241e-02,-6.220330484211444855e-03,-3.177830576896667480e-02,-2.084364928305149078e-02,-2.596088871359825134e-02,7.597517222166061401e-02,-8.263994008302688599e-02,-5.151958763599395752e-02,-2.069844678044319153e-02,-3.928077593445777893e-02,3.690375015139579773e-02,8.297090977430343628e-02,-7.786969095468521118e-02,-7.944606244564056396e-02,8.018898218870162964e-02,-8.317692205309867859e-03,8.253443241119384766e-02,1.069778762757778168e-02,-7.197032123804092407e-02,-1.356271933764219284e-02,-2.516877464950084686e-02,8.172571659088134766e-02,-4.194762185215950012e-02,3.349578008055686951e-02,4.456372931599617004e-02,-5.371749401092529297e-02,6.846169382333755493e-02,-2.520925179123878479e-02,-5.842095613479614258e-02,-2.215031301602721214e-03,3.477421030402183533e-02
-4.785570502281188965e-02,3.330089896917343140e-02,-3.003790974617004395e-02,-7.141130417585372925e-02,-2.868802472949028015e-02,-1.114566810429096222e-03,4.302523657679557800e-02,-1.773246563971042633e-02,-5.244793370366096497e-02,-3.589051589369773865e-02,-8.842535316944122314e-03,-1.300704758614301682e-02,4.835858941078186035e-02,-7.576214522123336792e-02,5.960889533162117004e-02,7.056671380996704102e-02,8.329135179519653320e-02,-7.780188228935003281e-03,-6.483263522386550903e-02,1.328960992395877838e-02,-2.413395792245864868e-02,1.766565442085266113e-02,-8.050450682640075684e-02,-1.897460781037807465e-02,-7.044021785259246826e-02,-8.151827007532119751e-02,7.303497195243835449e-02,-8.971094340085983276e-02,-4.176553338766098022e-04,4.149792343378067017e-02,-5.244207754731178284e-02,1.985308341681957245e-02
5.306359007954597473e-02,-7.147732377052307129e-02,7.107789069414138794e-02,-1.336662657558917999e-02,7.263415306806564331e-02,4.591147974133491516e-02,1.243089977651834488e-02,-7.912230491638183594e-02,-6.245912984013557434e-02,5.719108879566192627e-02,-4.882407933473587036e-02,7.459513098001480103e-02,6.613844633102416992e-02,7.686801254749298096e-02,-7.858732715249061584e-04,-5.750916525721549988e-02,-5.187265574932098389e-02,-9.577778726816177368e-02,4.039565101265907288e-02,-2.126157470047473907e-02,-7.276148349046707153e-02,6.711489707231521606e-02,-1.510007865726947784e-02,8.015947043895721436e-02,-7.599165290594100952e-02,-5.554088205099105835e-02,-5.946359038352966309e-02,-2.349862828850746155e-02,-2.566683478653430939e-02,4.164564982056617737e-02,-3.731380775570869446e-02,-2.734056673943996429e-02
2.658687718212604523e-02,-6.653038412332534790e-02,2.317068539559841156e-02,1.612050645053386688e-02,3.690530313178896904e-03,-2.700717188417911530e-02,1.820179820060729980e-02,-4.460193589329719543e-02,-7.348898798227310181e-02,4.382355511188507080e-02,-6.446328759193420410e-02,-1.797408424317836761e-02,1.122648566961288452e-01,-5.674851313233375549e-02,6.338423490524291992e-02,8.602291345596313477e-02,1.514580508228391409e-04,8.529710583388805389e-03,-7.402676343917846680e-02,6.446284707635641098e-03,2.554960735142230988e-02,-9.210813790559768677e-02,1.389281917363405228e-02,-5.098055698908865452e-04,-6.236396357417106628e-02,8.363303728401660919e-03,-3.424651548266410828e-02,1.472563110291957855e-02,3.336347639560699463e-02,-2.670657820999622345e-02,7.452619820833206177e-02,-4.115962423384189606e-03
3.815394639968872070e-02,5.506712570786476135e-02,8.677733130753040314e-03,4.814548417925834656e-02,5.132467299699783325e-02,-1.033628284931182861e-01,5.958156287670135498e-02,-4.046485945582389832e-02,-7.025867700576782227e-03,-1.257357653230428696e-02,-1.358591113239526749e-02,-6.184834986925125122e-02,1.017289757728576660e-01,-2.955819480121135712e-02,1.344055961817502975e-02,8.435456454753875732e-02,2.288384176790714264e-02,3.766077384352684021e-02,1.716432720422744751e-02,-1.071247830986976624e-01,2.363326586782932281e-02,-1.142520755529403687e-01,3.055024333298206329e-02,7.601683586835861206e-02,-6.114897783845663071e-03,-1.482285745441913605e-02,-1.284151338040828705e-02,3.266328945755958557e-02,1.072175949811935425e-01,1.178359147161245346e-02,7.682676613330841064e-02,-1.083634793758392334e-01
1.070582792162895203e-01,4.879547283053398132e-02,1.751850917935371399e-02,1.078868359327316284e-01,6.269419938325881958e-02,-4.742076992988586426e-02,8.134255558252334595e-02,6.396049261093139648e-02,-7.378798723220825195e-02,-6.234338507056236267e-02,5.123177915811538696e-02,3.391848877072334290e-02,3.091248311102390289e-02,9.328831732273101807e-02,-3.566650301218032837e-02,-4.988209344446659088e-03,2.500090189278125763e-02,-5.379744619131088257e-02,2.312072925269603729e-02,1.154852006584405899e-02,-2.182732336223125458e-02,-2.650084346532821655e-02,-2.650964306667447090e-03,-5.615798011422157288e-02,-9.858394414186477661e-02,3.310848027467727661e-02,6.535322219133377075e-02,-9.578040800988674164e-03,2.186249010264873505e-02,-1.143538020551204681e-02,2.304274775087833405e-02,-9.098656475543975830e-02
