-1.720682531595230103e-02,4.495139047503471375e-02,7.240543514490127563e-02,-1.964795589447021484e-02,-8.120951056480407715e-02,4.584246501326560974e-02,-6.789053976535797119e-02,6.191034615039825439e-02,-8.595537394285202026e-02,-4.270258173346519470e-02,5.517755448818206787e-02,3.714382648468017578e-02,-9.571840614080429077e-02,-3.213391173630952835e-03,6.311384588479995728e-02,2.398310787975788116e-02,-4.929167032241821289e-02,-1.453388389199972153e-02,-5.276111513376235962e-02,7.193712051957845688e-03,4.723018035292625427e-02,-6.593225151300430298e-02,5.657223984599113464e-02,-1.651108032092452049e-04,4.830217361450195312e-02,1.644036546349525452e-02,-5.925434455275535583e-02,-6.194969266653060913e-02,3.002166189253330231e-02,-1.881435513496398926e-02,-7.118473201990127563e-02,3.219259902834892273e-03,7.264377176761627197e-02,-1.494094822555780411e-02,-5.005415529012680054e-02,-7.799317687749862671e-02,-7.178614288568496704e-02,-1.665991498157382011e-03,-8.465433865785598755e-02,-3.938644006848335266e-02,6.480626761913299561e-02,-1.251624803990125656e-02,-1.363730523735284805e-02,1.492579351179301739e-03,-2.705011703073978424e-02,5.145934596657752991e-02,-4.469355195760726929e-02,3.275715187191963196e-02,-4.970225319266319275e-02,3.739291802048683167e-02,-9.585349261760711670e-02,-8.581573516130447388e-02,-6.571517139673233032e-02,-6.365836411714553833e-02,3.803787380456924438e-02,-9.048339910805225372e-03,6.695163249969482422e-02,-5.910903215408325195e-02,-1.987528800964355469e-02,6.338385492563247681e-02,5.198649317026138306e-02,6.054399907588958740e-02,3.634790331125259399e-02,2.177852019667625427e-02,-1.685477048158645630e-02,-4.369293153285980225e-02,-3.818540647625923157e-02,3.651961311697959900e-02,6.336209364235401154e-03,1.394525766372680664e-01,1.081527918577194214e-01,1.089311540126800537e-01,7.188833504915237427e-02,1.221805438399314880e-01,6.402313709259033203e-02,9.673397988080978394e-02,5.996344611048698425e-02,9.782192111015319824e-02,6.938061118125915527e-02,-1.855547167360782623e-02,-8.321962505578994751e-02,-7.908499985933303833e-02,-2.830660343170166016e-02,-6.522951275110244751e-02,-4.197795316576957703e-02,1.515274588018655777e-02,2.022528275847434998e-02,-4.679141566157341003e-02,7.790857460349798203e-03,7.005286216735839844e-02,-6.938256323337554932e-02,-1.493770250817760825e-04,6.329027563333511353e-02,4.519838839769363403e-03,1.525005884468555450e-02,1.076536700129508972e-01,2.006130963563919067e-01,1.445174068212509155e-01,2.104242891073226929e-01,2.274735718965530396e-01,2.529279887676239014e-01,2.459350675344467163e-01,1.549273431301116943e-01,1.894551962614059448e-01,1.291708052158355713e-01,8.646418154239654541e-02,1.477676257491111755e-02,-6.151062995195388794e-02,7.340712100267410278e-02,-2.398993447422981262e-02,8.396202698349952698e-03,-3.963095694780349731e-02,-1.892096549272537231e-02,-8.019635081291198730e-02,1.501233037561178207e-02,-5.924637615680694580e-02,2.458197623491287231e-02,8.326227962970733643e-02,3.668929636478424072e-02,1.123837530612945557e-01,1.166941523551940918e-01,1.411231905221939087e-01,1.233694776892662048e-01,1.866354197263717651e-01,9.089258313179016113e-02,1.273991912603378296e-01,1.893839091062545776e-01,2.570523619651794434e-01,3.016822636127471924e-01,3.338904976844787598e-01,1.943661123514175415e-01,1.264826655387878418e-01,6.175641715526580811e-02,3.038629074580967426e-05,-3.584400191903114319e-02,-7.487233728170394897e-02,6.612489814870059490e-04,1.598140038549900055e-02,-8.694095164537429810e-02,-9.620381891727447510e-02,-3.046034649014472961e-02,-9.100863337516784668e-02,-6.443607062101364136e-02,4.807339981198310852e-02,-4.845753312110900879e-02,-1.628167741000652313e-02,8.150034397840499878e-02,4.367685690522193909e-02,6.130235269665718079e-02,4.542785510420799255e-02,1.066067665815353394e-01,1.257691234350204468e-01,1.473162025213241577e-01,1.398163139820098877e-01,1.999443322420120239e-01,2.526344060897827148e-01,3.267579376697540283e-01,3.118574023246765137e-01,2.761518955230712891e-01,1.956708729267120361e-01,8.959081768989562988e-02,4.325189813971519470e-02,-8.457703888416290283e-02,-8.516705036163330078e-02,-3.250258788466453552e-02,-6.711828708648681641e-02,5.197319388389587402e-02,-6.329505890607833862e-02,-8.227392099797725677e-03,-1.533862110227346420e-02,-9.044772386550903320e-02,-1.976760104298591614e-02,7.661683857440948486e-02,4.136214032769203186e-02,5.611599236726760864e-02,-2.088963054120540619e-02,2.844804152846336365e-02,1.159751862287521362e-01,1.316017955541610718e-01,9.668771177530288696e-02,1.444139927625656128e-01,8.517473936080932617e-02,1.432767063379287720e-01,1.570020020008087158e-01,2.444643229246139526e-01,2.723096609115600586e-01,2.188666164875030518e-01,2.105604112148284912e-01,7.561340183019638062e-02,4.717952106148004532e-03,-8.718043565750122070e-02,-6.677956134080886841e-02,-2.729337848722934723e-02,-5.409226194024085999e-02,2.766228280961513519e-02,-6.585072726011276245e-02,5.773132294416427612e-02,-5.560208484530448914e-02,7.119667530059814453e-02,-5.113927647471427917e-02,-5.111275240778923035e-02,9.975402057170867920e-02,5.890964344143867493e-02,2.249848656356334686e-02,4.433865845203399658e-02,1.196370050311088562e-01,1.521163284778594971e-01,1.274321228265762329e-01,1.136344149708747864e-01,7.230284065008163452e-02,1.110082641243934631e-01,6.866586953401565552e-02,8.696770668029785156e-02,1.535135060548782349e-01,1.426817327737808228e-01,2.161856591701507568e-01,6.709087640047073364e-02,-5.928763002157211304e-02,-1.001551225781440735e-01,-1.795348078012466431e-01,-1.107111796736717224e-01,-9.724207967519760132e-02,-5.127031356096267700e-03,-4.770063236355781555e-02,1.959320530295372009e-02,7.328031212091445923e-02,1.781790517270565033e-02,-6.751565635204315186e-02,5.151320621371269226e-02,4.401810467243194580e-02,6.290850788354873657e-02,1.313520781695842743e-02,8.181651681661605835e-02,1.218360587954521179e-01,1.309716999530792236e-01,9.830750524997711182e-02,8.599143475294113159e-02,8.375661820173263550e-02,-2.407502941787242889e-02,-5.839275941252708435e-02,-4.803701862692832947e-02,-3.150086477398872375e-02,1.352635174989700317e-01,1.263079792261123657e-01,9.842434525489807129e-02,-3.952514007687568665e-02,-1.245040223002433777e-01,-1.262184083461761475e-01,-1.508717834949493408e-01,-5.585056170821189880e-02,-5.718491226434707642e-02,-8.624380826950073242e-02,4.029933735728263855e-02,-6.674560718238353729e-03,-2.654875256121158600e-02,-5.001484416425228119e-03,-3.647167608141899109e-02,1.477633882313966751e-02,3.922170028090476990e-02,5.636372044682502747e-02,8.458889275789260864e-02,1.421973407268524170e-01,1.153664216399192810e-01,2.739824727177619934e-02,-3.194753080606460571e-02,-6.270659714937210083e-02,-1.586859226226806641e-01,-2.744596302509307861e-01,-2.587921321392059326e-01,-9.597596526145935059e-02,1.022867858409881592e-01,2.012801319360733032e-01,5.237209051847457886e-02,-9.979581832885742188e-02,-1.678605824708938599e-01,-2.097744494676589966e-01,-1.613148301839828491e-01,-5.002679675817489624e-02,-4.179425910115242004e-02,-6.981212645769119263e-02,1.524404715746641159e-02,2.864846587181091309e-02,-2.314101718366146088e-02,3.431982174515724182e-02,-4.641750827431678772e-02,-3.281096694990992546e-03,-1.670870115049183369e-03,6.187703460454940796e-02,3.259693831205368042e-02,4.135132580995559692e-02,-1.641633175313472748e-02,-1.979602314531803131e-02,-3.800754621624946594e-02,-1.038687005639076233e-01,-2.690141797065734863e-01,-3.805623352527618408e-01,-3.105013966560363770e-01,-6.972277909517288208e-02,1.297219544649124146e-01,1.762843877077102661e-01,6.292741000652313232e-02,-3.911935538053512573e-02,-6.558654457330703735e-02,-9.825746715068817139e-02,-3.643131256103515625e-02,-4.363875836133956909e-02,2.943359687924385071e-02,4.336684197187423706e-02,9.585705585777759552e-03,2.361329505220055580e-03,-2.347868308424949646e-02,-1.988585107028484344e-03,-1.281231045722961426e-01,7.727579213678836823e-03,-1.379009056836366653e-02,6.136144977062940598e-03,7.283434271812438965e-02,2.365405857563018799e-02,1.456361077725887299e-02,5.532171949744224548e-02,2.750651910901069641e-02,-1.126628369092941284e-02,-1.742049306631088257e-01,-2.396309673786163330e-01,-1.928558200597763062e-01,7.595732808113098145e-02,2.378316223621368408e-01,2.426171451807022095e-01,5.688750743865966797e-02,-4.513662308454513550e-02,-5.821291729807853699e-02,-7.123225182294845581e-02,-4.432342946529388428e-02,-7.091335207223892212e-02,-4.954829812049865723e-02,-9.863403392955660820e-04,-8.601475507020950317e-02,-3.628905117511749268e-02,-7.927355915307998657e-02,1.470104325562715530e-02,-2.080317214131355286e-02,1.743367500603199005e-02,-1.136070769280195236e-02,-1.298293564468622208e-02,-2.690311148762702942e-02,-3.508448228240013123e-02,1.066630780696868896e-01,2.272897064685821533e-01,1.972505748271942139e-01,7.868089526891708374e-02,-1.581737548112869263e-01,-1.882160156965255737e-01,-6.513559818267822266e-02,2.257474660873413086e-01,3.129632472991943359e-01,2.538805305957794189e-01,1.064088046550750732e-01,2.223766222596168518e-02,-4.349837079644203186e-02,-6.968149542808532715e-02,-2.609649114310741425e-02,4.334657639265060425e-02,3.922023996710777283e-02,-4.748556762933731079e-03,-8.891458809375762939e-02,5.979621037840843201e-02,-1.138521637767553329e-02,3.376447409391403198e-02,-2.769416384398937225e-02,-1.057062577456235886e-02,-5.409192666411399841e-02,-9.057882428169250488e-02,-4.865153227001428604e-03,-2.019611932337284088e-02,1.171182394027709961e-01,2.617163658142089844e-01,2.218987196683883667e-01,1.037311777472496033e-01,-8.901629596948623657e-02,-1.157170683145523071e-01,5.258958786725997925e-02,3.008134365081787109e-01,3.457183241844177246e-01,2.361948192119598389e-01,7.267171144485473633e-02,-1.050145179033279419e-02,-8.063822239637374878e-02,-6.436578929424285889e-02,-6.980796903371810913e-02,4.222890734672546387e-02,7.540379464626312256e-02,-4.490995407104492188e-02,3.299270058050751686e-03,7.061503827571868896e-02,1.295236125588417053e-02,4.688372462987899780e-02,-1.068861223757266998e-02,-2.179792895913124084e-02,-5.385958775877952576e-02,-1.020095944404602051e-01,-1.225565448403358459e-01,-1.649554818868637085e-02,1.449252963066101074e-01,1.600276529788970947e-01,1.473844945430755615e-01,1.330632949247956276e-03,-2.052020877599716187e-01,-1.061994135379791260e-01,6.270624697208404541e-02,2.533404529094696045e-01,2.303312122821807861e-01,2.146148830652236938e-01,6.378670781850814819e-02,8.243069052696228027e-03,-6.196690723299980164e-02,-7.064083963632583618e-02,-3.665484488010406494e-02,-1.138348365202546120e-03,-8.823881298303604126e-02,2.806547470390796661e-02,-9.237598627805709839e-02,5.190631002187728882e-02,-2.352808415889739990e-02,-3.949609771370887756e-02,-3.704560687765479088e-03,-6.364209949970245361e-02,-1.369405090808868408e-01,-2.026403397321701050e-01,-1.613795161247253418e-01,-8.876562863588333130e-02,5.129884928464889526e-02,8.350306749343872070e-02,-2.661073766648769379e-02,-1.132643595337867737e-01,-2.438898533582687378e-01,-1.095349490642547607e-01,8.010087907314300537e-02,1.559336185455322266e-01,1.581296771764755249e-01,1.294841915369033813e-01,-2.145198173820972443e-02,-3.745223954319953918e-02,-4.180072993040084839e-02,-8.983589708805084229e-02,1.641594432294368744e-02,8.260921388864517212e-02,2.436891384422779083e-02,4.052772372961044312e-02,-1.637059450149536133e-02,6.594124436378479004e-02,-8.343399316072463989e-02,-4.946646466851234436e-02,7.691006362438201904e-02,-4.026104882359504700e-02,-1.145452111959457397e-01,-1.964661031961441040e-01,-1.776520162820816040e-01,-3.766812384128570557e-02,7.426070421934127808e-02,7.563890516757965088e-02,-1.959352567791938782e-02,-8.223652839660644531e-02,-1.550191044807434082e-01,-4.725633189082145691e-02,7.473806291818618774e-02,9.355513751506805420e-02,3.857488557696342468e-02,-4.820321500301361084e-02,-6.148919090628623962e-02,-1.592591218650341034e-02,-3.043014556169509888e-02,1.454972662031650543e-02,-2.284224145114421844e-02,8.730138838291168213e-02,6.161663308739662170e-02,-5.440936237573623657e-02,-3.866233676671981812e-02,-3.523568063974380493e-02,-4.841523244976997375e-02,9.034014074131846428e-04,4.582992568612098694e-02,-1.696610637009143829e-02,-7.835796475410461426e-02,-1.421614438295364380e-01,-8.261203020811080933e-02,4.034230858087539673e-02,1.935549378395080566e-01,1.644303500652313232e-01,1.965708564966917038e-03,2.915754355490207672e-02,5.350714549422264099e-03,1.268287152051925659e-01,1.115989014506340027e-01,6.438472121953964233e-02,-7.087303698062896729e-02,-8.220905810594558716e-02,-5.297055840492248535e-02,3.642638027667999268e-02,8.882692456245422363e-02,-1.978021487593650818e-02,-1.425395067781209946e-02,1.040282845497131348e-01,4.147215932607650757e-02,1.266339235007762909e-02,-1.867335475981235504e-02,-4.510327801108360291e-02,-3.882665187120437622e-02,6.279816478490829468e-02,1.305380463600158691e-01,-2.702726051211357117e-03,-6.156019866466522217e-02,-1.237133517861366272e-01,-1.785567589104175568e-02,1.726614683866500854e-01,2.412523180246353149e-01,2.746653556823730469e-01,1.072120890021324158e-01,9.836269170045852661e-02,4.293102398514747620e-02,1.343210786581039429e-01,8.159273117780685425e-02,-1.759021542966365814e-02,-9.267204999923706055e-02,-9.441403299570083618e-02,-1.311219856142997742e-02,2.175206132233142853e-02,3.076174855232238770e-02,4.771752282977104187e-02,2.284150384366512299e-02,5.510623008012771606e-02,-6.213836371898651123e-02,-7.266041636466979980e-02,4.566560685634613037e-02,6.218487024307250977e-02,-5.751079320907592773e-02,2.401841618120670319e-02,6.866153329610824585e-02,-2.687528356909751892e-02,-4.085561260581016541e-02,-1.067683398723602295e-01,-1.273567322641611099e-02,2.257132530212402344e-01,3.419635891914367676e-01,2.962083518505096436e-01,2.319828420877456665e-01,1.507646143436431885e-01,1.514501273632049561e-01,1.580650210380554199e-01,4.051491245627403259e-02,-2.050060220062732697e-02,-7.292665541172027588e-02,1.247441675513982773e-02,9.528396278619766235e-02,1.043733507394790649e-01,8.064436167478561401e-02,1.066416576504707336e-01,7.857183367013931274e-02,1.156453937292098999e-01,8.228892087936401367e-02,-1.472367718815803528e-02,-6.565000861883163452e-02,3.274167329072952271e-02,5.830302461981773376e-02,2.126922272145748138e-02,9.735764563083648682e-02,7.804991304874420166e-02,-8.960843086242675781e-03,-3.037712164223194122e-02,3.745005698874592781e-03,2.135651558637619019e-01,3.587554693222045898e-01,3.765328526496887207e-01,3.452196419239044189e-01,2.251446843147277832e-01,1.876314282417297363e-01,1.089126169681549072e-01,1.244168169796466827e-02,1.563720591366291046e-02,3.879988566040992737e-02,2.071575969457626343e-01,1.274450868368148804e-01,1.530530899763107300e-01,9.787937253713607788e-02,1.926707327365875244e-01,1.492394506931304932e-01,7.366803940385580063e-03,-1.971063390374183655e-02,6.949508935213088989e-02,6.875491142272949219e-02,-2.826559543609619141e-02,1.313595101237297058e-02,6.592525541782379150e-02,4.786970838904380798e-02,8.053155243396759033e-02,3.069256804883480072e-02,-7.074710726737976074e-02,-2.349235489964485168e-02,1.123891919851303101e-01,2.513833045959472656e-01,2.898816764354705811e-01,3.274381160736083984e-01,2.548930943012237549e-01,1.355721503496170044e-01,7.422473281621932983e-02,3.173210471868515015e-02,4.708372056484222412e-02,1.535098403692245483e-01,2.411564737558364868e-01,1.509038209915161133e-01,1.338890790939331055e-01,1.299937665462493896e-01,1.858628094196319580e-01,1.024740487337112427e-01,5.097404122352600098e-02,-7.916610687971115112e-02,6.929476559162139893e-02,-5.811465159058570862e-02,-6.359008699655532837e-02,-7.752503454685211182e-02,-8.053241297602653503e-03,6.398300081491470337e-02,1.578030758537352085e-03,-1.110687945038080215e-02,-2.944435365498065948e-02,-1.124962791800498962e-01,-1.351728588342666626e-01,1.268708612769842148e-02,1.011422500014305115e-01,2.252991497516632080e-01,2.298195362091064453e-01,1.955164968967437744e-01,8.984991163015365601e-02,7.159338146448135376e-02,1.654363423585891724e-01,2.189806997776031494e-01,2.032901048660278320e-01,1.998184621334075928e-01,1.430405974388122559e-01,1.378863751888275146e-01,9.434927999973297119e-02,-7.294104900211095810e-03,3.201898187398910522e-02,-4.097531363368034363e-02,6.933093070983886719e-02,-5.197331681847572327e-02,-6.710779666900634766e-02,-9.460318833589553833e-04,6.776793301105499268e-02,8.062990009784698486e-02,-1.371641270816326141e-02,-4.169066902250051498e-03,-4.264644533395767212e-02,-1.711518913507461548e-01,-2.077427357435226440e-01,-2.180445194244384766e-01,-1.421288698911666870e-01,-1.664836332201957703e-02,4.959025979042053223e-02,5.549912527203559875e-02,9.476386010646820068e-02,8.666725456714630127e-02,9.726557135581970215e-02,1.257248669862747192e-01,9.295305609703063965e-02,6.857904791831970215e-02,2.086515538394451141e-02,7.738043367862701416e-02,9.627415798604488373e-03,8.643001317977905273e-03,-8.412573486566543579e-02,-9.368824213743209839e-02,1.075679901987314224e-02,-4.115854948759078979e-02,-4.607946611940860748e-03,5.425212904810905457e-02,6.062569469213485718e-02,3.530218824744224548e-02,3.132251277565956116e-02,-7.967469841241836548e-02,-1.234054788947105408e-01,-1.634758263826370239e-01,-2.199951559305191040e-01,-2.330867648124694824e-01,-1.820191442966461182e-01,-1.186446398496627808e-01,-7.186654210090637207e-02,-1.155773922801017761e-02,-1.103688869625329971e-02,1.069080643355846405e-02,5.431110411882400513e-02,7.467747479677200317e-02,-2.429155260324478149e-02,4.398727416992187500e-02,5.765740945935249329e-02,4.674904048442840576e-02,-5.588756874203681946e-02,1.171363145112991333e-02,7.390496879816055298e-02,-2.960216812789440155e-02,-7.799620926380157471e-02,-9.051671624183654785e-02,1.701131649315357208e-02,5.188802629709243774e-02,-1.890023425221443176e-02,7.058918476104736328e-02,4.825497046113014221e-02,-5.454345955513417721e-05,-6.130499020218849182e-02,-1.797647215425968170e-02,-3.434555605053901672e-02,-4.434340447187423706e-02,-7.265584170818328857e-02,-1.271671801805496216e-01,-4.099742695689201355e-02,-1.127334758639335632e-01,-1.080832779407501221e-01,-1.164354756474494934e-01,-2.957124821841716766e-02,-3.905664011836051941e-02,1.032749097794294357e-02,-3.213195875287055969e-02,-7.906966842710971832e-03,2.614374272525310516e-02,1.398877426981925964e-02,-4.899910185486078262e-03,-4.879192262887954712e-02,6.581413000822067261e-02,3.247662261128425598e-02,1.784631796181201935e-02,2.634314820170402527e-02,-7.926919497549533844e-03,6.975089013576507568e-02,-7.902099192142486572e-02,-3.504281165078282356e-03,2.242733957245945930e-03,-6.049870699644088745e-02,-9.958279132843017578e-02,-1.128610447049140930e-01,-4.461988061666488647e-02,-1.184148862957954407e-01,-8.308568038046360016e-03,-4.386157169938087463e-02,-1.354666650295257568e-01,-1.119299307465553284e-01,-7.039185613393783569e-02,-7.622653990983963013e-02,-5.988467484712600708e-02,-3.244535624980926514e-02,4.081209003925323486e-02,-2.497548796236515045e-02,-7.192112505435943604e-02,6.470046937465667725e-02,5.209578201174736023e-02,5.332436412572860718e-02,4.450918734073638916e-02,-9.024988114833831787e-02,3.772559762001037598e-02,6.340849399566650391e-02,3.896723315119743347e-02,-7.665527611970901489e-02,6.306512653827667236e-02,-6.924609839916229248e-02,-6.097709760069847107e-02,2.221786789596080780e-02,-8.212157338857650757e-02,-2.997464872896671295e-02,6.752506643533706665e-02,-5.640210583806037903e-02,-1.669174991548061371e-02,-1.311521418392658234e-02,-1.006266027688980103e-01,-5.370574444532394409e-02,-4.096465930342674255e-02,-7.735696434974670410e-02,1.726853474974632263e-02,-1.777674444019794464e-02,-7.321650534868240356e-02,-3.435970097780227661e-02,6.608568876981735229e-02,6.677042692899703979e-03,-9.159558266401290894e-02,-7.518442720174789429e-02,4.267460107803344727e-02,-8.454861119389533997e-03
-3.918277844786643982e-02,-9.837995469570159912e-02,-1.836197227239608765e-01,-1.028497591614723206e-01,-1.189147531986236572e-01,-6.235637143254280090e-02,-1.619111448526382446e-01,-8.122619241476058960e-02,-1.369523406028747559e-01,-1.840215474367141724e-01,-1.868084371089935303e-01,-1.874972283840179443e-01,-1.333426684141159058e-01,-7.666611671447753906e-02,-1.300573498010635376e-01,-9.972821176052093506e-02,-1.876255720853805542e-01,-8.782655000686645508e-02,-1.975313872098922729e-01,-1.435676217079162598e-01,-2.003110796213150024e-01,-1.367946416139602661e-01,-9.145438671112060547e-02,-1.967538595199584961e-01,-1.509653180837631226e-01,-1.263248771429061890e-01,-1.318684667348861694e-01,-1.483931243419647217e-01,-1.216000318527221680e-01,-1.292055547237396240e-01,-1.290564537048339844e-01,-1.888822168111801147e-01,-1.150742396712303162e-01,-7.302622497081756592e-02,-2.223989218473434448e-01,-1.578546464443206787e-01,-1.981363147497177124e-01,-6.191907450556755066e-02,-5.683394148945808411e-02,-7.762944698333740234e-02,-1.394822001457214355e-01,-7.845224440097808838e-02,-1.097544953227043152e-01,-2.533664740622043610e-02,-6.257349997758865356e-02,-1.583730131387710571e-01,-1.080262735486030579e-01,-1.790825724601745605e-01,-1.711912155151367188e-01,-3.622958809137344360e-02,-1.954409033060073853e-01,-1.515098661184310913e-01,-5.137481912970542908e-02,-1.760214567184448242e-01,-2.046600133180618286e-01,-9.398365020751953125e-02,-1.782051175832748413e-01,-5.680687353014945984e-02,-1.179432794451713562e-01,-1.558223962783813477e-01,-1.207601949572563171e-01,-1.079411283135414124e-01,-1.252530366182327271e-01,-8.420269936323165894e-02,-6.287118047475814819e-02,-9.183038771152496338e-02,-3.348859492689371109e-03,-6.348120421171188354e-02,-7.798437029123306274e-02,-5.314692482352256775e-02,-9.888762980699539185e-02,-1.091639995574951172e-01,-1.397473961114883423e-01,-1.569601446390151978e-01,-1.237485110759735107e-01,-1.024575009942054749e-01,-2.357936091721057892e-02,-7.018667459487915039e-02,-5.702866986393928528e-02,-8.172837644815444946e-02,-1.019020900130271912e-01,-9.799189865589141846e-02,-1.546662598848342896e-01,-1.615769118070602417e-01,-8.309408277273178101e-02,-6.881088763475418091e-02,-1.229282170534133911e-01,-1.992228925228118896e-01,-1.501569747924804688e-01,-1.079602390527725220e-01,-1.073985770344734192e-01,-1.048507094383239746e-01,-2.449137717485427856e-02,1.272501982748508453e-02,-2.336383424699306488e-02,-2.113252691924571991e-02,1.642567478120326996e-02,-4.852131381630897522e-02,-6.035951524972915649e-02,-4.902797564864158630e-02,-7.204729318618774414e-02,-8.931899815797805786e-02,-1.580890566110610962e-01,-1.409482359886169434e-01,-1.407912224531173706e-01,-1.470349580049514771e-01,-6.235844269394874573e-02,-1.578335314989089966e-01,-5.295529589056968689e-02,-1.899733990430831909e-01,-5.511889234185218811e-02,-1.643550843000411987e-01,-9.339255839586257935e-02,-1.517136394977569580e-01,-1.813236773014068604e-01,-1.523037999868392944e-01,-6.416576355695724487e-02,-4.399581253528594971e-02,-1.821128875017166138e-01,-1.822720468044281006e-02,-3.758651390671730042e-02,-3.512264788150787354e-02,-2.946231886744499207e-02,3.689930588006973267e-02,-7.311727851629257202e-02,-5.958075821399688721e-02,-5.104991048574447632e-02,-4.277450032532215118e-03,-4.445388540625572205e-02,-4.994320869445800781e-02,-9.352632611989974976e-02,-5.518272891640663147e-02,-4.184780642390251160e-02,-1.158265545964241028e-01,-7.905478030443191528e-02,-5.460048839449882507e-02,-3.169906511902809143e-02,-7.511783391237258911e-02,-4.170054197311401367e-02,-1.877005845308303833e-01,-1.926346421241760254e-01,-4.421067610383033752e-02,-8.696456253528594971e-02,-5.802124738693237305e-02,-8.130947500467300415e-02,-9.817332774400711060e-02,-1.066623553633689880e-01,-7.993920892477035522e-02,-6.059568002820014954e-02,-4.483319073915481567e-02,-9.047362953424453735e-03,1.097898930311203003e-02,-2.769891172647476196e-02,-7.357257604598999023e-02,-9.476994723081588745e-02,-6.629772484302520752e-02,-4.611704126000404358e-02,7.389390841126441956e-03,2.271332591772079468e-02,-1.172009389847517014e-02,-8.123699575662612915e-02,-8.871454745531082153e-02,-1.293111592531204224e-01,-1.987176015973091125e-02,-1.205236837267875671e-01,-4.861319810152053833e-02,-1.053828448057174683e-01,-8.899158984422683716e-02,-6.478217244148254395e-02,-1.605235785245895386e-01,-1.243768185377120972e-01,-1.125040650367736816e-01,-1.083923056721687317e-01,-9.241682291030883789e-02,-1.349066104739904404e-02,-3.038725070655345917e-02,-2.247208543121814728e-02,4.658016562461853027e-02,1.341839600354433060e-02,-1.612500846385955811e-02,7.348118349909782410e-03,-5.432841181755065918e-02,-1.334028691053390503e-01,-1.259614527225494385e-01,-3.440270200371742249e-02,4.836471378803253174e-02,1.023203805088996887e-01,1.210733428597450256e-01,2.741853706538677216e-02,-1.943241246044635773e-02,-7.402249425649642944e-02,-6.130169704556465149e-02,-8.319785445928573608e-02,-1.117052510380744934e-01,-1.101086437702178955e-01,-7.130865752696990967e-02,-1.545889526605606079e-01,-8.784569054841995239e-02,-1.300416588783264160e-01,-1.523216366767883301e-01,-1.680756807327270508e-01,-3.926555439829826355e-02,-4.327790439128875732e-02,5.104714632034301758e-02,6.303141266107559204e-02,9.367375075817108154e-02,1.182569786906242371e-01,5.115263164043426514e-02,3.190902248024940491e-02,-1.968271844089031219e-02,-1.008267328143119812e-01,-1.222592219710350037e-01,1.121738739311695099e-02,2.204984128475189209e-01,3.085873723030090332e-01,2.547895908355712891e-01,1.385570913553237915e-01,1.002029478549957275e-01,9.061474353075027466e-03,-2.826976589858531952e-02,-3.622850403189659119e-02,-7.956946641206741333e-02,-5.354289337992668152e-02,-9.882404655218124390e-02,-8.054119348526000977e-02,-1.209632754325866699e-01,-9.504517912864685059e-02,-7.891780883073806763e-02,-3.271891549229621887e-02,-8.165502548217773438e-02,2.686923183500766754e-02,3.177846595644950867e-02,9.524097293615341187e-02,9.426183253526687622e-02,1.014319807291030884e-01,7.477223873138427734e-02,9.082143008708953857e-02,1.674981601536273956e-02,-8.477818220853805542e-02,2.537635900080204010e-02,2.029099017381668091e-01,3.688833713531494141e-01,4.258710741996765137e-01,3.487972021102905273e-01,2.768737673759460449e-01,2.201414406299591064e-01,8.076754957437515259e-02,8.012051135301589966e-02,-3.462204709649085999e-02,-1.720848679542541504e-02,-4.844106733798980713e-02,-1.492062211036682129e-01,-1.340536773204803467e-01,-3.285167738795280457e-02,-7.147339731454849243e-02,-6.776884198188781738e-02,-1.621612906455993652e-02,-3.068092837929725647e-02,4.269474744796752930e-02,8.938752114772796631e-02,1.297123134136199951e-01,6.048200279474258423e-02,-2.669860981404781342e-02,-2.139667980372905731e-02,-7.700873911380767822e-02,-1.261980384588241577e-01,-1.161337271332740784e-01,2.679428085684776306e-02,2.152539491653442383e-01,3.581177890300750732e-01,4.426143765449523926e-01,3.841851949691772461e-01,2.764435708522796631e-01,1.477704495191574097e-01,5.179093778133392334e-02,1.120589673519134521e-02,-2.277263626456260681e-02,-9.666193276643753052e-02,-5.220209434628486633e-02,-1.274259686470031738e-01,-1.536703854799270630e-01,-1.301034837961196899e-01,-5.912585183978080750e-02,-1.041435599327087402e-01,-2.335937134921550751e-02,-5.810312926769256592e-02,1.018483862280845642e-01,6.881838291883468628e-02,1.976439263671636581e-03,-5.933339893817901611e-02,-1.247937381267547607e-01,-1.896721273660659790e-01,-1.507371217012405396e-01,-1.725286096334457397e-01,-1.988237351179122925e-01,-2.777161076664924622e-02,1.798656880855560303e-01,3.305880427360534668e-01,2.898159921169281006e-01,2.393555343151092529e-01,2.152110785245895386e-01,1.321634799242019653e-01,7.263174653053283691e-02,2.354757301509380341e-02,-2.802116982638835907e-02,-2.574818022549152374e-02,-1.774410754442214966e-01,-5.067450553178787231e-02,-1.060499325394630432e-01,-8.611457049846649170e-02,-7.338140904903411865e-02,-1.599880307912826538e-02,-5.433778092265129089e-02,2.651851158589124680e-03,1.056736111640930176e-01,5.062836781144142151e-02,-2.709247358143329620e-02,-5.784126743674278259e-02,-1.682580411434173584e-01,-2.254832834005355835e-01,-2.539357841014862061e-01,-2.503479719161987305e-01,-2.074425518512725830e-01,-4.886087402701377869e-02,9.196022897958755493e-02,1.620556116104125977e-01,1.374756097793579102e-01,9.293610602617263794e-02,9.412219375371932983e-02,5.572698265314102173e-02,5.426034703850746155e-02,8.221962489187717438e-03,6.627768743783235550e-03,-5.663314461708068848e-02,-1.067309454083442688e-01,-1.489917188882827759e-01,-1.668720245361328125e-01,-1.125749126076698303e-01,-1.079436019062995911e-01,1.729942858219146729e-02,5.220484733581542969e-02,1.153971776366233826e-01,1.381050795316696167e-01,1.006881371140480042e-01,-3.636656329035758972e-02,-6.132821366190910339e-02,-7.314434647560119629e-02,-1.767514795064926147e-01,-1.964624524116516113e-01,-2.058943510055541992e-01,-1.655436009168624878e-01,-1.018987372517585754e-01,-7.623243331909179688e-02,2.737441333010792732e-03,-6.575199216604232788e-02,3.406481444835662842e-02,3.099859878420829773e-02,8.007510006427764893e-02,3.575465455651283264e-02,1.628881506621837616e-02,2.087850496172904968e-02,-6.488420069217681885e-03,-1.314301639795303345e-01,-1.813474893569946289e-01,-3.242491185665130615e-02,-6.858276575803756714e-02,-9.834565967321395874e-02,-5.895668640732765198e-02,-4.546908661723136902e-03,1.663737893104553223e-01,1.409781575202941895e-01,1.386517435312271118e-01,7.899095863103866577e-02,2.868306078016757965e-02,3.498045727610588074e-02,9.416509419679641724e-03,-6.394387036561965942e-02,-9.818088263273239136e-02,-5.301765725016593933e-02,-1.107235997915267944e-01,-1.118370443582534790e-01,-1.552507430315017700e-01,-1.564715057611465454e-01,-6.192398071289062500e-02,5.038218572735786438e-02,7.818538695573806763e-02,7.518415153026580811e-02,1.838179491460323334e-02,-9.460142813622951508e-03,-8.665250241756439209e-02,-1.004139482975006104e-01,-1.862631440162658691e-01,-7.019585371017456055e-02,-1.551202386617660522e-01,-8.583251386880874634e-02,-9.187831729650497437e-02,5.972382053732872009e-02,1.831387132406234741e-01,2.429500520229339600e-01,1.829297244548797607e-01,1.703364700078964233e-01,1.871274411678314209e-01,1.956177949905395508e-01,2.030391991138458252e-01,1.842805743217468262e-01,1.626470088958740234e-01,4.664883390069007874e-02,-2.223768504336476326e-03,-4.965164139866828918e-02,-1.121464967727661133e-01,-1.581102758646011353e-01,-1.927079819142818451e-02,4.144668206572532654e-02,6.532113254070281982e-02,8.215910196304321289e-02,7.719305157661437988e-02,1.556943263858556747e-02,-4.018283635377883911e-02,-1.242101341485977173e-01,-5.362647026777267456e-02,-9.436153620481491089e-02,-2.474417723715305328e-02,-8.572071790695190430e-02,-4.573694244027137756e-02,2.291511557996273041e-02,2.302555143833160400e-01,2.343913167715072632e-01,2.889447212219238281e-01,2.307490706443786621e-01,2.296612411737442017e-01,2.261143177747726440e-01,2.743938863277435303e-01,2.695963084697723389e-01,2.223204225301742554e-01,1.188028007745742798e-01,7.997545599937438965e-02,5.574287846684455872e-02,-1.370960287749767303e-02,1.515185460448265076e-02,5.691254511475563049e-02,4.348128661513328552e-02,3.796828910708427429e-02,4.328017309308052063e-02,3.459139540791511536e-02,-1.970359869301319122e-02,-4.237629845738410950e-02,-6.940823048353195190e-02,-4.790589585900306702e-02,-1.386455446481704712e-01,-9.156960248947143555e-02,-1.394641548395156860e-01,-1.021438166499137878e-01,7.401634752750396729e-02,2.122941911220550537e-01,2.175120562314987183e-01,2.326672226190567017e-01,1.696639657020568848e-01,1.768913716077804565e-01,1.960495710372924805e-01,2.273045778274536133e-01,2.500272393226623535e-01,1.554422080516815186e-01,1.181116327643394470e-01,1.260098516941070557e-01,2.004235982894897461e-01,1.778904944658279419e-01,1.567465513944625854e-01,9.827919304370880127e-02,9.105289727449417114e-02,7.667917758226394653e-02,2.069802209734916687e-02,-8.340846747159957886e-03,-2.710735052824020386e-02,-7.553943246603012085e-02,-1.724804788827896118e-01,-1.342936903238296509e-01,-3.823186829686164856e-02,-1.801112294197082520e-01,-8.991876989603042603e-02,-1.260094344615936279e-02,1.200576797127723694e-01,2.134921699762344360e-01,2.343288213014602661e-01,1.862721443176269531e-01,6.119415909051895142e-02,2.963684499263763428e-02,5.839630030095577240e-03,6.085259094834327698e-02,4.645866900682449341e-02,1.868108473718166351e-02,2.473639138042926788e-02,1.916853189468383789e-01,2.874348759651184082e-01,2.832919359207153320e-01,2.371186465024948120e-01,1.706177890300750732e-01,8.823005110025405884e-02,3.819619119167327881e-02,5.403816234320402145e-03,-1.755804941058158875e-02,-1.950696855783462524e-02,-4.935382679104804993e-02,-4.060192033648490906e-02,-1.672142148017883301e-01,-1.346781998872756958e-01,-1.864490956068038940e-01,-7.019288092851638794e-02,-2.672987431287765503e-02,1.100543960928916931e-01,1.619579941034317017e-01,1.887750327587127686e-01,5.424986034631729126e-02,-5.628288537263870239e-02,-1.252204924821853638e-01,-6.520392745733261108e-02,-2.054065233096480370e-03,-3.009796142578125000e-02,-9.546516835689544678e-02,-2.114718407392501831e-02,1.118643507361412048e-01,2.617238461971282959e-01,3.099048435688018799e-01,2.682459056377410889e-01,1.436765640974044800e-01,7.967821508646011353e-02,-4.651369526982307434e-02,-5.010402575135231018e-02,-1.064061466604471207e-02,-3.361079434398561716e-04,-8.848498016595840454e-02,-6.246457621455192566e-02,-8.434925973415374756e-02,-1.255727559328079224e-01,-5.443151295185089111e-02,-1.579253375530242920e-01,4.713694751262664795e-02,8.655702322721481323e-02,1.439172327518463135e-01,1.690382212400436401e-01,2.946075052022933960e-02,-1.547094434499740601e-01,-1.477679759263992310e-01,-7.660458236932754517e-02,-3.670505480840802193e-03,-3.856984153389930725e-02,-9.226365387439727783e-02,4.959065839648246765e-02,1.466436833143234253e-01,2.079648077487945557e-01,2.859118878841400146e-01,2.666719257831573486e-01,1.108813881874084473e-01,1.843820139765739441e-02,-7.276730984449386597e-02,-3.576206415891647339e-02,-4.559374228119850159e-02,-5.593708157539367676e-02,-8.894588053226470947e-02,-1.727725565433502197e-01,-1.880462914705276489e-01,-1.386743634939193726e-01,-7.033229619264602661e-02,-8.360627293586730957e-02,-3.195008262991905212e-02,7.675388455390930176e-02,1.752679497003555298e-01,1.212342455983161926e-01,2.134031802415847778e-02,-1.501018553972244263e-01,-1.397726535797119141e-01,-2.683519013226032257e-02,-2.561312285251915455e-04,2.791969478130340576e-02,5.224982276558876038e-03,2.361974865198135376e-02,1.195923686027526855e-01,1.857234835624694824e-01,2.453049868345260620e-01,1.509218811988830566e-01,3.713080659508705139e-02,-7.679703086614608765e-02,-1.411262601613998413e-01,-8.464422821998596191e-02,5.519754253327846527e-03,-4.425442963838577271e-02,-1.680377721786499023e-01,-1.062995195388793945e-01,-1.923791319131851196e-01,-1.092030256986618042e-01,-1.376194953918457031e-01,-1.114937216043472290e-01,1.894050836563110352e-02,7.515454292297363281e-02,8.893566578626632690e-02,8.483877032995223999e-02,3.891985490918159485e-02,-7.713134586811065674e-02,-1.132492423057556152e-01,-2.306990884244441986e-02,5.719231069087982178e-02,5.493825674057006836e-02,3.634773194789886475e-02,-1.975291175767779350e-03,6.787396967411041260e-02,1.475873291492462158e-01,1.086075007915496826e-01,-2.649249043315649033e-03,-9.340954571962356567e-02,-1.807613819837570190e-01,-1.396227180957794189e-01,-8.991762250661849976e-02,-1.115541066974401474e-02,-5.415169987827539444e-03,-1.729606688022613525e-01,-7.943429797887802124e-02,-1.807433813810348511e-01,-1.432519704103469849e-01,-1.913708895444869995e-01,-1.553113013505935669e-01,-1.040023192763328552e-01,5.987682845443487167e-03,3.270108252763748169e-02,9.241524338722229004e-02,6.739697605371475220e-02,-4.354834184050559998e-02,-9.412269294261932373e-02,-2.781258895993232727e-02,-4.742522910237312317e-02,-2.438843622803688049e-02,-1.336302887648344040e-02,-1.413470599800348282e-02,-5.235278978943824768e-02,-5.509280785918235779e-02,-6.271292269229888916e-02,-4.432744160294532776e-02,-1.088411211967468262e-01,-1.113085895776748657e-01,-4.101613536477088928e-02,-5.353744328022003174e-02,-6.072385236620903015e-02,-5.463523045182228088e-02,-4.302901029586791992e-02,-1.475155949592590332e-01,-7.814616709947586060e-02,-5.333551019430160522e-02,-2.037076205015182495e-01,-1.631688773632049561e-01,-4.931609332561492920e-02,1.222323346883058548e-02,4.032772034406661987e-02,-6.755778566002845764e-03,5.140981078147888184e-02,-5.317369475960731506e-03,-7.337584160268306732e-03,-5.856870487332344055e-02,-4.712575301527976990e-02,-3.409679606556892395e-02,-1.425977945327758789e-01,-1.549152135848999023e-01,-1.468959897756576538e-01,-1.368539482355117798e-01,-1.412526369094848633e-01,-7.991719990968704224e-02,-7.425910234451293945e-02,-3.466911241412162781e-02,-5.859564617276191711e-02,-2.210721932351589203e-02,-5.104348994791507721e-03,-3.967377543449401855e-02,-7.366193085908889771e-02,-1.503124535083770752e-01,-4.909786209464073181e-02,-8.747925609350204468e-02,-1.244828775525093079e-01,-5.939334630966186523e-02,-9.774157404899597168e-02,-3.518345952033996582e-02,-1.183116286993026733e-01,-3.168940171599388123e-02,2.452326193451881409e-02,-2.606171928346157074e-02,-2.464991435408592224e-02,-4.635439720004796982e-03,-4.536668583750724792e-02,-6.007301062345504761e-02,-1.200291663408279419e-01,-1.805337071418762207e-01,-1.611601114273071289e-01,-1.069940403103828430e-01,-9.310765564441680908e-02,-4.231259971857070923e-02,-7.818847894668579102e-02,-7.457479089498519897e-02,-1.180331688374280930e-02,-4.008214920759201050e-02,-1.481768786907196045e-01,-1.079155504703521729e-01,-5.618390440940856934e-02,-7.268414646387100220e-02,-1.817070394754409790e-01,-9.713926911354064941e-02,-1.542042493820190430e-01,-1.302532553672790527e-01,-1.583483219146728516e-01,-2.736757881939411163e-02,-1.299674529582262039e-02,-1.074322611093521118e-01,-9.781352430582046509e-02,-1.121325232088565826e-02,-2.614878304302692413e-02,-3.523106500506401062e-02,6.436958163976669312e-02,-6.253190338611602783e-02,-4.140391945838928223e-02,5.503335851244628429e-04,-4.490092769265174866e-02,-4.147744178771972656e-02,1.263327244669198990e-02,1.991389878094196320e-02,-4.855237156152725220e-02,1.035473123192787170e-02,2.106796577572822571e-02,-8.905478566884994507e-02,-1.243584454059600830e-01,-1.147273704409599304e-01,-1.738604456186294556e-01,-1.064572110772132874e-01,-8.231667429208755493e-02,-1.720179319381713867e-01,-1.536073982715606689e-01,-6.584059447050094604e-02,-1.584340035915374756e-01,-1.207329109311103821e-01,-8.770919591188430786e-02,-3.036593832075595856e-02,-1.953838020563125610e-02,-1.371852587908506393e-02,-5.666942521929740906e-02,-1.444860547780990601e-02,-4.968010261654853821e-02,2.617058902978897095e-02,-2.223094180226325989e-02,-5.818955972790718079e-02,-3.968022763729095459e-02,-5.718830227851867676e-02,-7.752658799290657043e-03,4.792829230427742004e-02,-1.270690374076366425e-02,-2.683608978986740112e-02,-9.830570220947265625e-02,-7.434848695993423462e-02,-1.217908859252929688e-01,-1.052616685628890991e-01,-1.223405301570892334e-01,-1.071499660611152649e-01,-1.258674412965774536e-01,-2.003388255834579468e-01,-1.711806654930114746e-01,-1.574892699718475342e-01,-1.395664960145950317e-01,-1.429325193166732788e-01,-1.413300782442092896e-01,-1.128309816122055054e-01,-1.596505492925643921e-01,-6.401445716619491577e-02,-9.452965110540390015e-02,-1.092101819813251495e-02,-1.304793357849121094e-01,-3.822057694196701050e-02,-9.530568122863769531e-02,-1.133034229278564453e-01,-1.087454110383987427e-01,-9.345254302024841309e-02,-7.832235097885131836e-02,-1.437062323093414307e-01,-6.683384627103805542e-02,-5.832795426249504089e-02,-9.543456137180328369e-02,-1.060698032379150391e-01,-4.935875162482261658e-02,-1.941878795623779297e-01,-1.866164356470108032e-01,-1.452210694551467896e-01,-1.376337260007858276e-01
-4.120266065001487732e-02,-3.341517597436904907e-02,-1.033556312322616577e-01,-3.583581373095512390e-02,5.804057791829109192e-02,-1.152309123426675797e-02,2.602721378207206726e-02,-9.670674055814743042e-02,7.300900295376777649e-03,-7.131557166576385498e-02,-1.866604574024677277e-02,-4.023542255163192749e-02,1.565267518162727356e-02,-7.186018675565719604e-02,3.197006508708000183e-02,1.360127143561840057e-02,-1.026226505637168884e-01,-1.016498431563377380e-01,5.177536234259605408e-02,-4.236125200986862183e-02,4.159203916788101196e-02,1.183613017201423645e-02,-4.208161681890487671e-02,-2.458451874554157257e-02,-2.611944638192653656e-02,-1.502653956413269043e-02,-5.598844587802886963e-02,-1.700273901224136353e-02,-6.118470430374145508e-02,-5.587963014841079712e-02,-7.869113236665725708e-02,6.473369896411895752e-02,-3.119043074548244476e-02,-9.429114311933517456e-02,-7.406175881624221802e-02,-8.449510484933853149e-02,-8.122034370899200439e-02,-9.990292787551879883e-02,-4.421220347285270691e-02,-8.832097053527832031e-02,-8.552692085504531860e-02,-7.067636400461196899e-02,-6.389963626861572266e-02,1.831318624317646027e-02,-6.914722174406051636e-02,-4.939211532473564148e-02,-6.166282575577497482e-03,4.661020264029502869e-02,6.431494653224945068e-02,-2.469948306679725647e-02,4.300042614340782166e-02,5.816097557544708252e-02,-6.866641342639923096e-02,-6.830818951129913330e-02,-1.201882958412170410e-02,-1.009094044566154480e-01,-7.692264765501022339e-02,-5.259140394628047943e-03,-1.059589013457298279e-01,-9.425216913223266602e-02,-7.140395045280456543e-02,-4.201101139187812805e-02,4.390009120106697083e-02,4.186033830046653748e-02,-3.567832708358764648e-02,-7.842335104942321777e-02,-8.550697565078735352e-02,-6.823955476284027100e-02,-8.597601950168609619e-02,1.928173587657511234e-03,8.050527423620223999e-03,-1.641036570072174072e-02,1.319867074489593506e-01,1.269214600324630737e-01,1.978640556335449219e-01,2.208053767681121826e-01,9.536425769329071045e-02,9.331230819225311279e-02,1.159107834100723267e-01,3.553207591176033020e-02,-1.673389598727226257e-02,-6.404946744441986084e-02,-2.674744278192520142e-02,4.606388509273529053e-02,-2.241431735455989838e-02,-7.590204477310180664e-02,-6.948421150445938110e-02,-1.747961714863777161e-02,4.574508592486381531e-02,1.481625251471996307e-02,4.973848909139633179e-02,-5.718767270445823669e-02,5.481254309415817261e-02,-1.583882607519626617e-02,-4.591611400246620178e-02,-3.231909126043319702e-02,-7.433765381574630737e-02,-5.797801911830902100e-02,-3.543823957443237305e-02,1.934967562556266785e-02,1.238113641738891602e-01,2.382768988609313965e-01,2.556065618991851807e-01,2.217196226119995117e-01,1.827013790607452393e-01,1.313197314739227295e-01,7.685015350580215454e-02,2.849644236266613007e-02,-3.880283609032630920e-02,6.709428876638412476e-02,5.150870606303215027e-02,2.620706707239151001e-02,7.479891646653413773e-03,5.039541050791740417e-02,6.169679760932922363e-02,-5.367956683039665222e-02,-6.453841179609298706e-02,4.073280841112136841e-02,3.986359387636184692e-02,3.569765016436576843e-02,-4.112816601991653442e-02,2.298332937061786652e-02,-2.199761010706424713e-02,-9.656815975904464722e-02,-9.052030742168426514e-02,-9.991550445556640625e-02,-5.859218910336494446e-02,2.217887900769710541e-02,8.757281303405761719e-02,1.840199083089828491e-01,2.442149072885513306e-01,2.461955398321151733e-01,2.993620336055755615e-01,2.412876039743423462e-01,1.639506518840789795e-01,1.805547475814819336e-01,7.691639661788940430e-02,-2.035572379827499390e-02,6.313429772853851318e-02,3.525438904762268066e-02,-6.987148523330688477e-02,-7.351382076740264893e-02,-8.200378715991973877e-02,4.058679193258285522e-02,-1.459131203591823578e-02,2.315328828990459442e-02,-3.178802505135536194e-02,-5.877101048827171326e-02,-1.212579663842916489e-02,-6.111281365156173706e-02,-1.219412088394165039e-01,-1.429606974124908447e-01,-1.832176446914672852e-01,-1.411105692386627197e-01,-9.549798071384429932e-02,1.410870812833309174e-02,5.014280229806900024e-02,1.074804365634918213e-01,1.477092206478118896e-01,1.963668167591094971e-01,2.049770951271057129e-01,1.483533978462219238e-01,1.111615300178527832e-01,1.355550885200500488e-01,5.723289400339126587e-02,6.023862399160861969e-03,3.184003010392189026e-02,-2.531968057155609131e-02,-8.216536790132522583e-02,5.649808049201965332e-02,-8.612673729658126831e-02,3.845796734094619751e-02,-8.554986864328384399e-02,-8.065246045589447021e-03,-1.999657228589057922e-02,-3.541809320449829102e-02,-1.107506901025772095e-01,-1.759043633937835693e-01,-2.394612729549407959e-01,-2.739659249782562256e-01,-2.133270204067230225e-01,-9.755183011293411255e-02,-3.256127238273620605e-02,2.839051373302936554e-02,-8.719987235963344574e-03,1.025155652314424515e-02,8.200436830520629883e-02,1.486106812953948975e-01,1.865128725767135620e-01,1.964069008827209473e-01,2.056977152824401855e-01,1.305397748947143555e-01,1.465425938367843628e-01,1.231245771050453186e-01,6.439510732889175415e-02,-3.025329671800136566e-02,-5.541641265153884888e-03,5.677411332726478577e-02,-2.013223245739936829e-03,-1.078143045306205750e-01,-5.447718780487775803e-03,-8.607644587755203247e-02,-5.417660623788833618e-02,-1.575898081064224243e-01,-1.894719600677490234e-01,-3.019064366817474365e-01,-3.401667177677154541e-01,-3.280501365661621094e-01,-1.570096313953399658e-01,6.768225133419036865e-02,1.561649441719055176e-01,1.149614229798316956e-01,-5.355628952383995056e-02,-1.283178627490997314e-01,-5.474337190389633179e-02,4.439007118344306946e-02,1.735653579235076904e-01,1.806730777025222778e-01,1.922798901796340942e-01,1.685530096292495728e-01,1.413507312536239624e-01,1.002264395356178284e-01,4.544238373637199402e-02,2.314864285290241241e-02,2.016262896358966827e-02,-4.219964146614074707e-02,-4.027671366930007935e-02,-1.083758845925331116e-01,-5.604210868477821350e-02,-8.788827061653137207e-02,-1.374849230051040649e-01,-1.416722983121871948e-01,-2.377453893423080444e-01,-3.300699293613433838e-01,-3.829933702945709229e-01,-2.118833214044570923e-01,7.772955298423767090e-02,2.452432811260223389e-01,2.855009138584136963e-01,1.000347435474395752e-01,-1.186082586646080017e-01,-2.054834961891174316e-01,-1.336524337530136108e-01,6.972644478082656860e-03,7.676025480031967163e-02,1.295022517442703247e-01,6.583034992218017578e-02,7.526491582393646240e-02,8.810663968324661255e-02,5.418396368622779846e-02,-2.018069662153720856e-02,6.725513190031051636e-02,-4.773111268877983093e-02,-1.790464483201503754e-02,1.417736615985631943e-02,-1.136658862233161926e-01,-6.267554312944412231e-02,-9.747739136219024658e-02,-1.139482185244560242e-01,-1.965722590684890747e-01,-3.095747828483581543e-01,-4.210963249206542969e-01,-3.468356728553771973e-01,-6.619471311569213867e-02,2.643646299839019775e-01,3.628899753093719482e-01,2.470611482858657837e-01,-3.534708544611930847e-02,-2.163441628217697144e-01,-2.213009595870971680e-01,-1.301411986351013184e-01,-2.130797319114208221e-02,7.611954212188720703e-02,9.060397744178771973e-02,6.265085190534591675e-02,8.072220534086227417e-02,7.974217832088470459e-02,8.732002973556518555e-02,6.041602790355682373e-02,3.778143972158432007e-02,-6.165099516510963440e-02,-8.305577933788299561e-02,-9.666042774915695190e-02,-1.207252740859985352e-01,-1.073150485754013062e-01,-1.300942152738571167e-01,-1.392277479171752930e-01,-2.538836002349853516e-01,-3.882426917552947998e-01,-4.052032828330993652e-01,-2.060645520687103271e-01,1.112133190035820007e-01,3.698874711990356445e-01,3.355119228363037109e-01,6.998133659362792969e-02,-2.072080075740814209e-01,-2.614778280258178711e-01,-2.133404016494750977e-01,-3.321005776524543762e-02,2.851628698408603668e-02,4.294740781188011169e-02,1.562787033617496490e-02,3.785863518714904785e-02,4.051151499152183533e-02,1.917348825372755527e-03,-2.307389304041862488e-02,-1.549593359231948853e-02,-7.718194276094436646e-02,3.630207851529121399e-02,4.340914636850357056e-02,3.828444331884384155e-02,-7.021206617355346680e-02,-5.581035092473030090e-02,-1.136347204446792603e-01,-1.415714323520660400e-01,-2.419772297143936157e-01,-3.901433348655700684e-01,-2.988609671592712402e-01,-3.520344942808151245e-02,2.581856548786163330e-01,3.286736309528350830e-01,1.225786730647087097e-01,-1.378478407859802246e-01,-3.025639355182647705e-01,-2.179990708827972412e-01,-5.586103349924087524e-02,8.210901170969009399e-02,7.606728374958038330e-02,3.804566711187362671e-02,1.914442703127861023e-02,8.015019819140434265e-03,4.733542737085372210e-04,1.511664781719446182e-02,-4.005047306418418884e-02,2.072501927614212036e-02,3.778791055083274841e-02,-4.027837142348289490e-02,-4.598300531506538391e-02,-8.778153359889984131e-02,-9.986063092947006226e-02,-8.586332201957702637e-02,-1.309526264667510986e-01,-1.269584596157073975e-01,-2.677755057811737061e-01,-2.891182303428649902e-01,-1.760405451059341431e-01,9.961494803428649902e-02,1.847759485244750977e-01,1.542514562606811523e-01,-4.413210973143577576e-02,-2.059243172407150269e-01,-2.488172650337219238e-01,-1.124301999807357788e-01,4.219330847263336182e-02,1.037670820951461792e-01,6.071309372782707214e-02,-2.047761343419551849e-02,-3.871795535087585449e-02,7.419801317155361176e-03,-1.807086053304374218e-03,2.096217870712280273e-02,4.678338766098022461e-02,1.773395389318466187e-02,-7.552140206098556519e-02,6.825915537774562836e-03,4.031066223978996277e-02,3.054104559123516083e-02,-7.006418425589799881e-03,-3.159606829285621643e-02,-9.064786136150360107e-02,-1.908342838287353516e-01,-2.373126745223999023e-01,-2.226323634386062622e-01,-4.015175253152847290e-02,1.390326768159866333e-01,1.601113080978393555e-01,4.802445694804191589e-02,-1.204650625586509705e-01,-1.710120886564254761e-01,-9.884733706712722778e-02,5.724128335714340210e-02,8.602786809206008911e-02,4.247082397341728210e-02,-2.970401942729949951e-02,-3.515022248029708862e-02,-7.710687071084976196e-02,-4.175135865807533264e-02,6.246828939765691757e-03,-1.856015436351299286e-02,2.240778505802154541e-02,-5.738094076514244080e-02,1.157638267613947392e-03,-6.940814852714538574e-02,-2.042380906641483307e-02,4.411833733320236206e-02,-5.710692331194877625e-02,-1.785365305840969086e-02,-9.823112189769744873e-02,-6.800619512796401978e-02,-1.290075331926345825e-01,-1.255787760019302368e-01,3.257222473621368408e-02,1.596361696720123291e-01,1.362226307392120361e-01,4.555201530456542969e-02,1.271634362637996674e-02,4.853157326579093933e-02,1.520886272192001343e-01,1.829728931188583374e-01,1.005575582385063171e-01,1.868912950158119202e-02,-6.008144468069076538e-02,-2.666075155138969421e-02,-4.994769021868705750e-02,-8.111465722322463989e-02,-2.631017006933689117e-02,3.562047611922025681e-03,2.915031742304563522e-03,1.929797790944576263e-02,-3.674425557255744934e-02,-3.192065283656120300e-02,4.746508598327636719e-02,-1.953967288136482239e-02,-6.424190104007720947e-02,-1.272585056722164154e-02,6.136893294751644135e-03,2.463362179696559906e-02,7.516636513173580170e-03,-5.638428963720798492e-03,7.425334304571151733e-02,1.266101896762847900e-01,8.943235129117965698e-02,7.177284359931945801e-02,1.076333448290824890e-01,2.203440070152282715e-01,2.207249552011489868e-01,1.651851236820220947e-01,3.473024070262908936e-02,-6.708303093910217285e-02,-7.492209970951080322e-02,-3.083999454975128174e-02,-2.640673518180847168e-02,-4.699789732694625854e-02,-4.446344077587127686e-02,-4.903466627001762390e-02,-7.758073508739471436e-02,5.278421565890312195e-02,-5.422071367502212524e-02,2.294418588280677795e-02,3.678612411022186279e-02,-4.857187345623970032e-02,3.610280528664588928e-02,3.586916998028755188e-02,9.242665767669677734e-02,5.592783540487289429e-02,9.813053905963897705e-02,1.026841774582862854e-01,9.131594747304916382e-02,6.124928593635559082e-02,7.414618879556655884e-02,8.688073605298995972e-02,1.484731435775756836e-01,2.110320627689361572e-01,1.429730504751205444e-01,7.776238769292831421e-02,-4.612410441040992737e-02,-5.679040774703025818e-02,-6.587902456521987915e-02,-1.152002625167369843e-02,-1.024517789483070374e-02,-3.649778291583061218e-02,-2.600736171007156372e-02,-2.275067567825317383e-02,-4.777571931481361389e-02,1.786870323121547699e-02,-7.173740863800048828e-02,1.319701224565505981e-02,6.970566511154174805e-02,4.490092396736145020e-02,1.232293397188186646e-01,1.511762589216232300e-01,1.121221557259559631e-01,1.254133433103561401e-01,1.287893801927566528e-01,1.021743118762969971e-01,7.877027243375778198e-02,3.779765218496322632e-02,-4.050448071211576462e-03,7.124296575784683228e-02,5.363593623042106628e-02,5.826787650585174561e-02,-1.055355370044708252e-02,-4.455161467194557190e-02,-5.166385322809219360e-02,-3.794188052415847778e-02,-5.427917093038558960e-02,-1.931804046034812927e-02,-4.021087288856506348e-02,-3.812838718295097351e-02,-4.898238554596900940e-02,-5.297240987420082092e-02,-2.856088057160377502e-02,-8.517663925886154175e-02,-6.483140587806701660e-02,-4.617869853973388672e-02,2.339476533234119415e-02,-1.418697647750377655e-02,9.387966245412826538e-02,1.770128607749938965e-01,1.754362881183624268e-01,1.992441415786743164e-01,1.755133122205734253e-01,1.387093812227249146e-01,2.325435355305671692e-02,5.609229207038879395e-02,1.478379685431718826e-02,1.618842943571507931e-03,-1.232963521033525467e-02,-6.067812070250511169e-02,-6.838724762201309204e-02,-9.704097756184637547e-04,3.336243703961372375e-02,7.508285343647003174e-03,-2.356159500777721405e-02,-1.118310540914535522e-02,3.028240054845809937e-02,2.331675589084625244e-02,3.074454702436923981e-02,-4.349387437105178833e-02,-3.094764053821563721e-02,-8.163848519325256348e-02,-4.526592791080474854e-02,-4.281330108642578125e-02,-3.449160978198051453e-02,-1.031207386404275894e-02,6.420649588108062744e-02,1.513123363256454468e-01,2.055495828390121460e-01,2.568858265876770020e-01,2.197059690952301025e-01,1.596268564462661743e-01,7.489552348852157593e-02,7.538130134344100952e-02,4.973862320184707642e-02,-3.558558598160743713e-02,-1.070632562041282654e-01,-1.376021951436996460e-01,-3.901919722557067871e-02,4.931602627038955688e-02,9.497766196727752686e-02,9.054213017225265503e-02,2.737952582538127899e-02,1.579385250806808472e-02,7.534417510032653809e-02,1.422658096998929977e-02,-9.162135538645088673e-04,-7.553108781576156616e-02,-3.017982654273509979e-02,-8.248694986104965210e-02,-2.770714694634079933e-03,-6.298472732305526733e-02,-1.012844312936067581e-02,5.640349909663200378e-02,1.411529928445816040e-01,1.106133311986923218e-01,1.879839748144149780e-01,2.653404176235198975e-01,2.397539913654327393e-01,2.071849703788757324e-01,1.366324424743652344e-01,1.338203102350234985e-01,5.733556300401687622e-02,-4.554382339119911194e-02,-1.146723031997680664e-01,-1.377808153629302979e-01,3.225007094442844391e-03,1.146011129021644592e-01,1.594002097845077515e-01,1.140190884470939636e-01,2.637349627912044525e-02,8.882157504558563232e-02,4.118647053837776184e-02,2.809953875839710236e-03,6.908708065748214722e-02,-4.235885664820671082e-02,5.820374190807342529e-02,-8.229505270719528198e-02,-1.870200969278812408e-02,-1.011519879102706909e-01,-4.034747183322906494e-02,-5.630718544125556946e-02,7.845667749643325806e-02,1.363620758056640625e-01,1.951550394296646118e-01,2.293682545423507690e-01,2.736341953277587891e-01,2.517244517803192139e-01,1.898484081029891968e-01,1.091540679335594177e-01,7.942767441272735596e-02,-7.208720594644546509e-02,-1.100669577717781067e-01,-1.059617325663566589e-01,3.091432712972164154e-02,1.362358033657073975e-01,1.401773691177368164e-01,5.846132338047027588e-02,5.873444303870201111e-02,8.019536733627319336e-02,7.852207869291305542e-02,8.585738949477672577e-03,4.014590010046958923e-02,5.159241613000631332e-03,8.180244825780391693e-03,6.859864294528961182e-02,-6.261401623487472534e-02,5.397551879286766052e-02,-4.486091062426567078e-02,7.850931584835052490e-02,8.579255640506744385e-02,6.183069571852684021e-02,1.336873918771743774e-01,1.903878003358840942e-01,1.769453287124633789e-01,2.200457751750946045e-01,1.965425312519073486e-01,1.015739664435386658e-01,-4.269130155444145203e-02,-1.699174344539642334e-01,-1.992696374654769897e-01,-1.690077781677246094e-01,-6.427424401044845581e-02,3.332372009754180908e-02,6.967896223068237305e-02,3.409476205706596375e-02,2.096721529960632324e-02,2.515885047614574432e-02,-1.229541469365358353e-02,5.143706500530242920e-02,6.535667343996465206e-04,6.117802858352661133e-02,-1.913033798336982727e-02,4.360423609614372253e-02,-7.276871800422668457e-02,-1.771475560963153839e-02,-3.957783337682485580e-03,-3.653538227081298828e-02,1.740198954939842224e-02,2.947878465056419373e-02,1.061383038759231567e-01,1.486457735300064087e-01,1.207531765103340149e-01,1.440636366605758667e-01,9.712683409452438354e-02,3.010191209614276886e-02,-1.428572982549667358e-01,-2.411250472068786621e-01,-3.149484097957611084e-01,-2.313921749591827393e-01,-1.387585401535034180e-01,-5.106312036514282227e-02,3.541683778166770935e-03,-4.748992621898651123e-02,-5.396806448698043823e-02,-2.026424743235111237e-02,1.527316775172948837e-02,1.716684491839259863e-04,-2.550378907471895218e-03,-2.933233790099620819e-02,-6.966897100210189819e-02,4.245832934975624084e-02,5.968403071165084839e-02,-2.119733951985836029e-02,-2.772990241646766663e-02,-1.636800356209278107e-02,-8.117039501667022705e-02,-2.146711386740207672e-02,7.894453592598438263e-03,6.850700080394744873e-02,5.086415633559226990e-02,8.781930804252624512e-02,-1.199321541935205460e-02,-7.345204800367355347e-02,-2.186059504747390747e-01,-2.933842837810516357e-01,-2.964463233947753906e-01,-2.630019783973693848e-01,-1.731517463922500610e-01,-1.152084916830062866e-01,-1.014058813452720642e-01,-1.621705293655395508e-01,-1.472109705209732056e-01,-1.590413451194763184e-01,-4.247972741723060608e-02,-1.344913803040981293e-02,-3.778168931603431702e-02,2.556383796036243439e-02,-8.231002092361450195e-02,-8.394402265548706055e-02,-5.040490068495273590e-03,5.716810375452041626e-02,3.093254752457141876e-02,-4.425831139087677002e-02,-1.214520819485187531e-02,-4.359110817313194275e-02,-1.435991562902927399e-02,3.821567818522453308e-02,3.093563392758369446e-02,2.868115343153476715e-02,-8.568860590457916260e-02,-1.249652057886123657e-01,-2.018197178840637207e-01,-2.946914732456207275e-01,-2.802469134330749512e-01,-1.943307965993881226e-01,-1.314565390348434448e-01,-1.202186569571495056e-01,-1.497249603271484375e-01,-8.813168108463287354e-02,-1.131631955504417419e-01,-2.156023867428302765e-02,-1.002097651362419128e-01,-9.622749686241149902e-02,-5.098147783428430557e-03,-2.009385079145431519e-02,3.948563337326049805e-02,-3.375883679836988449e-03,5.665431171655654907e-02,-7.524366676807403564e-02,-6.725250184535980225e-02,-2.064695581793785095e-02,-2.801630459725856781e-02,6.473817676305770874e-02,-5.861185863614082336e-02,6.134158745408058167e-02,-4.604586586356163025e-02,-7.092001289129257202e-02,-1.002340316772460938e-01,-1.091612130403518677e-01,-2.201613783836364746e-01,-1.353835761547088623e-01,-1.517375409603118896e-01,-1.513017714023590088e-01,-1.083859652280807495e-01,-1.103450506925582886e-01,-3.564226627349853516e-02,-5.365736782550811768e-02,-1.105551794171333313e-01,-6.709580868482589722e-02,4.105144366621971130e-02,4.006492719054222107e-02,-1.633271574974060059e-03,-6.474745273590087891e-02,3.945066034793853760e-02,3.879871591925621033e-02,6.360891461372375488e-02,7.229542825371026993e-03,-3.450736636295914650e-03,-8.360679447650909424e-02,-7.622104138135910034e-02,5.378911271691322327e-02,6.048806384205818176e-02,-5.423649027943611145e-02,-1.658034138381481171e-02,-5.154937133193016052e-02,-7.620953768491744995e-02,-2.037881687283515930e-02,3.454271703958511353e-02,-7.363628596067428589e-02,-9.536373615264892578e-02,1.428986620157957077e-02,-5.205015838146209717e-02,-4.246392846107482910e-02,-4.259223863482475281e-02,5.352655425667762756e-02,-2.313439175486564636e-02,-4.957843944430351257e-02,2.682048454880714417e-02,-8.767968416213989258e-02,-6.831879913806915283e-02,-7.065947167575359344e-03,-5.950445774942636490e-03,5.180679261684417725e-02,-8.685291744768619537e-03
-1.245768964290618896e-01,-9.278094768524169922e-02,-2.475745417177677155e-02,-1.420273780822753906e-01,-1.123804152011871338e-01,-1.010065749287605286e-01,-3.417208790779113770e-02,-3.952305763959884644e-02,-5.986274406313896179e-02,-8.148785680532455444e-02,-3.810393065214157104e-02,-8.410298824310302734e-02,-1.056465283036231995e-01,-1.776557713747024536e-01,-1.617400348186492920e-01,-1.521693821996450424e-02,-7.344219088554382324e-02,-1.594205498695373535e-01,-1.381927728652954102e-01,-6.285583227872848511e-02,-5.330443754792213440e-02,-8.867020905017852783e-02,-2.085106447339057922e-02,5.210814066231250763e-03,-1.246830821037292480e-01,-8.159914612770080566e-02,-1.444701105356216431e-01,-5.342698842287063599e-02,-1.564721018075942993e-01,-4.429406300187110901e-02,-3.850146010518074036e-02,-1.060299873352050781e-01,-1.427571475505828857e-01,-2.049567364156246185e-02,-7.934931665658950806e-02,-8.137109130620956421e-02,-1.082858890295028687e-01,-1.369499862194061279e-01,-5.490180570632219315e-03,-5.743988603353500366e-02,-7.180836517363786697e-03,2.188872359693050385e-02,7.460599299520254135e-03,-9.414909034967422485e-02,-1.102822646498680115e-01,-4.002806264907121658e-03,-2.361945994198322296e-02,-1.010004207491874695e-01,-7.761294394731521606e-02,-2.678270451724529266e-02,-1.509384158998727798e-02,-3.605844825506210327e-02,-4.584457725286483765e-02,-1.120233088731765747e-01,-1.378506720066070557e-01,-1.127082258462905884e-01,-3.975022584199905396e-02,-2.941440604627132416e-02,-9.162636846303939819e-02,-1.246982999145984650e-02,-1.271440982818603516e-01,-1.322602182626724243e-01,-1.450958400964736938e-01,-7.226672489196062088e-03,-7.140089571475982666e-02,1.287769153714179993e-02,2.310841344296932220e-02,3.026145882904529572e-02,1.141232624650001526e-01,1.021277382969856262e-01,3.718536347150802612e-02,9.066606312990188599e-02,4.463557526469230652e-02,-4.627806600183248520e-03,8.603648096323013306e-02,4.119943827390670776e-02,-2.148966537788510323e-03,1.423463970422744751e-02,-1.616249419748783112e-02,1.554408017545938492e-02,-8.157829195261001587e-02,-1.279479265213012695e-01,-9.797847270965576172e-02,-1.149155497550964355e-01,-8.886552602052688599e-02,-8.263178169727325439e-02,-2.100468613207340240e-02,-1.365292370319366455e-01,-1.160746738314628601e-01,-1.480404939502477646e-02,-5.363195668905973434e-03,-2.850920893251895905e-02,5.069765076041221619e-02,2.964401850476861000e-03,4.919559508562088013e-02,6.624430418014526367e-02,-1.245775539427995682e-02,-1.232790853828191757e-02,-1.903348602354526520e-02,-9.848887473344802856e-02,-1.174842491745948792e-01,-9.569958597421646118e-02,-6.604209542274475098e-02,-1.837051659822463989e-02,-9.770519100129604340e-03,-1.938195340335369110e-02,-8.313754945993423462e-02,-1.560166291892528534e-02,-3.457732126116752625e-02,-3.915853053331375122e-02,-1.498426049947738647e-01,-3.529424592852592468e-02,-5.273727327585220337e-02,-2.256319299340248108e-02,-3.018631786108016968e-02,-9.089171141386032104e-02,-1.051542982459068298e-01,-8.208674192428588867e-02,1.528631430119276047e-02,-5.774522200226783752e-03,-3.071596659719944000e-02,2.525264210999011993e-02,-1.285553630441427231e-02,-5.437393113970756531e-02,-4.715665802359580994e-02,-1.016517281532287598e-01,-1.657588928937911987e-01,-2.147718071937561035e-01,-2.506352961063385010e-01,-2.414892315864562988e-01,-2.086912840604782104e-01,-1.628727316856384277e-01,-1.264012008905410767e-01,-1.217861622571945190e-01,-1.029909402132034302e-01,-6.585562974214553833e-02,-1.144238188862800598e-01,-1.177995502948760986e-01,-8.485072106122970581e-02,-7.048930227756500244e-02,-1.547255665063858032e-01,-3.343518823385238647e-02,-1.412072032690048218e-01,-1.125457435846328735e-01,-5.005615949630737305e-02,-2.442606911063194275e-02,6.834180653095245361e-02,2.742436714470386505e-03,6.597901135683059692e-02,6.660043448209762573e-02,4.379183426499366760e-02,7.350928336381912231e-02,-1.302798558026552200e-02,-3.482038527727127075e-02,-1.171126291155815125e-01,-1.575060039758682251e-01,-1.885969042778015137e-01,-2.296010404825210571e-01,-2.775478065013885498e-01,-2.372331619262695312e-01,-2.135074287652969360e-01,-1.709965318441390991e-01,-7.465383410453796387e-02,-1.736543141305446625e-02,-2.314163371920585632e-03,-1.365762948989868164e-01,-1.403972804546356201e-01,-1.077262461185455322e-01,-4.509659111499786377e-02,-8.772642910480499268e-02,-7.650870084762573242e-02,1.161907147616147995e-02,2.845021337270736694e-02,3.637870401144027710e-02,4.113289341330528259e-02,9.149187058210372925e-02,9.907697886228561401e-02,1.463471800088882446e-01,1.712671220302581787e-01,1.455129683017730713e-01,1.059468463063240051e-01,5.548573285341262817e-02,1.968531869351863861e-02,1.309347245842218399e-02,-5.109415203332901001e-02,-1.427265852689743042e-01,-2.403928041458129883e-01,-2.680739462375640869e-01,-2.233235836029052734e-01,-1.215716227889060974e-01,-1.089089643210172653e-02,1.488423347473144531e-02,-6.785660516470670700e-03,-4.526672139763832092e-02,-3.108891099691390991e-02,-1.153848692774772644e-01,-1.170909255743026733e-01,-6.675709784030914307e-02,-9.869432449340820312e-02,-3.862166777253150940e-02,-3.685547504574060440e-03,3.162561729550361633e-02,6.589500606060028076e-02,1.223378926515579224e-01,1.711664199829101562e-01,1.757158786058425903e-01,1.855244785547256470e-01,1.308226138353347778e-01,1.090634241700172424e-01,1.137414947152137756e-01,1.123304888606071472e-01,1.645731031894683838e-01,1.309694200754165649e-01,-3.930270299315452576e-02,-1.554883569478988647e-01,-2.460652440786361694e-01,-1.910977214574813843e-01,-9.364928305149078369e-02,1.062016095966100693e-02,6.436645239591598511e-02,-9.095128625631332397e-03,-7.243133336305618286e-02,-1.304275989532470703e-01,-1.637910492718219757e-02,-1.494571864604949951e-01,-1.283960640430450439e-01,-7.671090215444564819e-02,-4.270626604557037354e-02,1.556511386297643185e-03,2.846597880125045776e-02,4.614852368831634521e-02,1.468748897314071655e-01,1.884239614009857178e-01,1.632263064384460449e-01,1.465951204299926758e-01,8.581133186817169189e-02,4.072007909417152405e-02,5.793624743819236755e-02,1.471982747316360474e-01,2.016607224941253662e-01,1.525266170501708984e-01,1.048451475799083710e-02,-1.390469223260879517e-01,-1.819947212934494019e-01,-1.559434086084365845e-01,-5.365682765841484070e-02,-2.296920493245124817e-02,3.090212866663932800e-02,1.301283016800880432e-02,-1.986174844205379486e-02,-1.195163652300834656e-01,-9.897416830062866211e-02,-9.616008400917053223e-02,-1.178085431456565857e-01,-8.246568590402603149e-02,-7.457613945007324219e-02,-3.249150142073631287e-02,1.492413692176342010e-02,8.162697404623031616e-02,1.229850500822067261e-01,2.043775618076324463e-01,1.380214989185333252e-01,5.915054678916931152e-02,1.422889437526464462e-02,-6.420404650270938873e-03,1.328302547335624695e-02,1.024657040834426880e-01,1.460926532745361328e-01,9.539555013179779053e-02,-7.113189250230789185e-02,-1.811873167753219604e-01,-2.086464166641235352e-01,-1.328063160181045532e-01,-5.034467205405235291e-02,-4.202156513929367065e-02,1.754425838589668274e-02,-6.085431575775146484e-02,-6.681498140096664429e-02,-6.859610229730606079e-02,1.194504648447036743e-02,-9.676796197891235352e-02,-9.830570966005325317e-02,-7.061985135078430176e-02,-7.372812926769256592e-02,1.693174801766872406e-02,2.102846838533878326e-02,5.809009075164794922e-02,1.535310447216033936e-01,1.747927665710449219e-01,1.517833769321441650e-01,7.392988353967666626e-02,2.315808087587356567e-03,-5.739598069339990616e-03,1.790031907148659229e-03,4.343514516949653625e-02,5.242709070444107056e-02,-4.845897480845451355e-02,-1.871538013219833374e-01,-2.002272009849548340e-01,-1.166201904416084290e-01,-7.144358754158020020e-02,-3.766613081097602844e-02,-5.117077380418777466e-02,-3.560623899102210999e-02,-7.082115113735198975e-02,-1.144180819392204285e-01,-4.137980565428733826e-02,-5.520068481564521790e-02,-8.180415630340576172e-02,-3.182503953576087952e-02,-3.607112541794776917e-02,-5.126292258501052856e-02,-2.250038087368011475e-02,4.525442793965339661e-02,7.845424115657806396e-02,1.373911648988723755e-01,1.744973808526992798e-01,1.883334219455718994e-01,1.150332242250442505e-01,3.725699335336685181e-02,2.087610401213169098e-02,-6.479677557945251465e-02,-9.126496315002441406e-02,-1.322390586137771606e-01,-1.905749589204788208e-01,-2.349722832441329956e-01,-1.417290121316909790e-01,-5.566762760281562805e-02,2.459262032061815262e-03,-1.626625843346118927e-02,-8.617741614580154419e-02,-9.800748527050018311e-02,-7.776855677366256714e-02,-1.064759418368339539e-01,-1.228686124086380005e-01,-7.184572517871856689e-02,-1.516819894313812256e-01,-1.407254189252853394e-01,-5.434613674879074097e-02,-8.947981894016265869e-02,-6.710036844015121460e-02,3.303288668394088745e-02,7.671222090721130371e-02,1.141908094286918640e-01,1.835889816284179688e-01,2.244432568550109863e-01,1.763821691274642944e-01,8.506196737289428711e-02,1.522341649979352951e-02,-9.172133356332778931e-02,-1.458280384540557861e-01,-1.866751611232757568e-01,-1.915908753871917725e-01,-1.312857419252395630e-01,-5.148954689502716064e-02,9.640949778258800507e-03,1.114993449300527573e-02,-6.026843190193176270e-02,-6.018796190619468689e-02,-5.445161461830139160e-02,-3.062814474105834961e-02,-1.863160170614719391e-02,-9.758840501308441162e-02,-3.551016002893447876e-02,-1.401315778493881226e-01,-1.234547346830368042e-01,-6.050746142864227295e-02,-5.669794604182243347e-02,-4.978301934897899628e-03,3.010582923889160156e-02,2.477447688579559326e-02,1.205189153552055359e-01,1.734653115272521973e-01,2.447053492069244385e-01,2.497257888317108154e-01,1.599313169717788696e-01,6.109305098652839661e-02,-4.835323616862297058e-02,-9.605924040079116821e-02,-9.829983115196228027e-02,-6.735667586326599121e-02,1.304533449001610279e-03,2.462078072130680084e-02,5.073045194149017334e-02,1.123687438666820526e-02,-1.993794366717338562e-02,6.288476288318634033e-03,1.012330595403909683e-02,-2.773815579712390900e-02,4.172509536147117615e-02,-1.003142148256301880e-01,-7.429572939872741699e-02,-1.101228296756744385e-01,-7.562223821878433228e-02,-1.203010231256484985e-01,-3.831305727362632751e-02,-6.753469258546829224e-02,-2.836892008781433105e-02,1.931067556142807007e-02,7.200543582439422607e-02,1.763509213924407959e-01,2.717505395412445068e-01,2.806414663791656494e-01,2.857238948345184326e-01,1.876744329929351807e-01,1.228886768221855164e-01,1.040765419602394104e-01,1.236061453819274902e-01,1.397902965545654297e-01,1.159169822931289673e-01,1.078770086169242859e-01,3.045795671641826630e-02,7.371593266725540161e-03,3.985708579421043396e-03,7.290962617844343185e-03,2.538874559104442596e-02,6.557383388280868530e-02,-3.770540654659271240e-02,-5.161907523870468140e-02,-1.710701137781143188e-01,-7.126058638095855713e-02,-9.945312887430191040e-02,-1.305212676525115967e-01,-3.380512446165084839e-02,-9.574952721595764160e-02,-4.855322092771530151e-02,-1.580752246081829071e-02,6.371819972991943359e-02,1.769758462905883789e-01,2.568872869014739990e-01,2.995478212833404541e-01,2.859849035739898682e-01,2.665031254291534424e-01,2.457554638385772705e-01,2.686349749565124512e-01,2.753660082817077637e-01,2.310584187507629395e-01,1.887886226177215576e-01,9.112345427274703979e-02,3.532421588897705078e-02,1.229345705360174179e-02,1.298663578927516937e-02,5.304561555385589600e-02,7.851427793502807617e-02,7.705160975456237793e-02,9.989781677722930908e-02,-5.865105241537094116e-02,-8.531109243631362915e-02,-3.529195487499237061e-02,-1.092328876256942749e-01,-9.246563911437988281e-02,-1.453037280589342117e-02,-1.138882637023925781e-01,-9.099667519330978394e-02,-8.123499900102615356e-02,3.351064771413803101e-02,1.587548255920410156e-01,2.001321464776992798e-01,2.172796577215194702e-01,1.929147988557815552e-01,1.977602243423461914e-01,2.224012762308120728e-01,2.307805120944976807e-01,2.199475914239883423e-01,2.016867250204086304e-01,1.488335877656936646e-01,6.827292591333389282e-02,1.297771092504262924e-02,2.049571461975574493e-02,4.818354547023773193e-02,8.310743421316146851e-02,1.383411288261413574e-01,1.091265454888343811e-01,2.547816000878810883e-02,-1.379628181457519531e-01,-2.230898244306445122e-03,-1.560211628675460815e-01,-1.090786382555961609e-01,-7.549221813678741455e-02,-7.926666736602783203e-02,-1.402401477098464966e-01,-1.842708438634872437e-01,-1.143329143524169922e-01,4.859525244683027267e-03,9.675763547420501709e-02,1.323941648006439209e-01,9.759353101253509521e-02,1.047240793704986572e-01,1.588726341724395752e-01,1.377816051244735718e-01,1.396222263574600220e-01,7.114611566066741943e-02,8.084989339113235474e-02,8.193057775497436523e-02,6.308835744857788086e-02,1.872700266540050507e-02,3.542750701308250427e-02,1.174492985010147095e-01,1.174423992633819580e-01,1.467486172914505005e-01,1.175242438912391663e-01,6.308971345424652100e-02,1.870739646255970001e-02,-9.854751080274581909e-02,-1.230468302965164185e-01,-5.883608385920524597e-02,-7.090337574481964111e-02,-1.589712202548980713e-01,-2.007697969675064087e-01,-1.987396478652954102e-01,-9.141349792480468750e-02,-1.701342500746250153e-02,8.027635514736175537e-02,8.702673763036727905e-02,8.459496498107910156e-02,8.337409794330596924e-02,1.496318280696868896e-01,1.273830831050872803e-01,3.562072291970252991e-02,-5.971988290548324585e-02,-3.373459354043006897e-02,2.583760768175125122e-02,5.100154131650924683e-02,5.533522740006446838e-02,9.932206571102142334e-02,1.749438643455505371e-01,2.073898166418075562e-01,1.474835127592086792e-01,5.468910560011863708e-02,1.003647148609161377e-01,-8.799544721841812134e-02,-4.357025399804115295e-02,-4.383179545402526855e-02,-1.403978019952774048e-01,-5.943525582551956177e-02,-1.485061049461364746e-01,-2.494460940361022949e-01,-2.303852289915084839e-01,-1.707934141159057617e-01,-2.784305997192859650e-02,5.697656422853469849e-02,1.059892177581787109e-01,1.017139777541160583e-01,1.249132156372070312e-01,1.726663559675216675e-01,7.282650470733642578e-02,-6.581430882215499878e-02,-1.500305533409118652e-01,-1.064619570970535278e-01,-2.519528567790985107e-02,7.563278079032897949e-02,1.036780402064323425e-01,1.725149452686309814e-01,2.308860570192337036e-01,1.720411628484725952e-01,1.218215078115463257e-01,2.358961151912808418e-03,-2.717019524425268173e-03,-1.378268450498580933e-01,-1.503926813602447510e-01,-1.496103554964065552e-01,-1.695941537618637085e-01,-1.601443886756896973e-01,-1.963989734649658203e-01,-3.090706765651702881e-01,-3.067135512828826904e-01,-2.145181298255920410e-01,-1.089230552315711975e-01,7.176999002695083618e-03,9.177865087985992432e-02,1.259429007768630981e-01,1.589926928281784058e-01,1.582703888416290283e-01,4.232769459486007690e-02,-1.315977126359939575e-01,-1.941453814506530762e-01,-1.336713582277297974e-01,-1.575383171439170837e-02,9.399410337209701538e-02,1.634850054979324341e-01,2.549344301223754883e-01,2.021195143461227417e-01,1.564346402883529663e-01,1.355843096971511841e-01,1.535867527127265930e-02,1.431466825306415558e-02,-5.560779199004173279e-02,-1.069400385022163391e-01,-1.578150242567062378e-01,-1.315224617719650269e-01,-1.617222577333450317e-01,-2.281095981597900391e-01,-2.425082772970199585e-01,-3.301857411861419678e-01,-3.068241775035858154e-01,-2.027848958969116211e-01,-1.207806617021560669e-01,-1.721993833780288696e-02,4.871439188718795776e-02,9.469041228294372559e-02,4.882830381393432617e-02,-7.873313874006271362e-02,-2.014159262180328369e-01,-1.896055489778518677e-01,-9.883490204811096191e-02,4.659987613558769226e-02,1.765914112329483032e-01,2.500159740447998047e-01,2.257550656795501709e-01,1.973963528871536255e-01,1.078415438532829285e-01,5.739485472440719604e-02,-2.092174068093299866e-02,1.107484567910432816e-02,4.994282498955726624e-03,-1.403369158506393433e-01,-4.368981719017028809e-02,-1.385316699743270874e-01,-7.001083344221115112e-02,-1.310252547264099121e-01,-2.310584783554077148e-01,-2.700562179088592529e-01,-3.085994422435760498e-01,-3.052769899368286133e-01,-2.459926307201385498e-01,-1.493200808763504028e-01,-9.642545878887176514e-02,-7.511983811855316162e-02,-1.091581657528877258e-01,-1.437771022319793701e-01,-2.011481523513793945e-01,-1.396446079015731812e-01,4.060781560838222504e-03,1.493960022926330566e-01,2.515709996223449707e-01,2.941174507141113281e-01,2.144118100404739380e-01,1.424453705549240112e-01,1.212284713983535767e-01,1.088398545980453491e-01,-5.147478356957435608e-02,-5.365316569805145264e-02,-5.144636332988739014e-02,-1.257139146327972412e-01,-8.881984278559684753e-03,-1.212064102292060852e-01,-8.989783935248851776e-03,-5.738062784075737000e-02,-1.986983120441436768e-01,-2.516273558139801025e-01,-2.755532860755920410e-01,-2.686899900436401367e-01,-2.499825507402420044e-01,-2.166974842548370361e-01,-1.851486712694168091e-01,-1.531210690736770630e-01,-1.337778717279434204e-01,-1.296773105859756470e-01,-4.767187684774398804e-02,1.472028717398643494e-02,1.338463127613067627e-01,2.464056313037872314e-01,2.707051634788513184e-01,2.738758623600006104e-01,2.160764783620834351e-01,1.575658172369003296e-01,2.888231538236141205e-02,-3.682024404406547546e-02,-9.415099769830703735e-02,-4.096274450421333313e-02,-6.284253299236297607e-02,-1.114735379815101624e-01,-8.714893460273742676e-02,-1.121208164840936661e-02,-1.253988891839981079e-01,-1.546959429979324341e-01,-1.551732569932937622e-01,-1.125733703374862671e-01,-1.748819351196289062e-01,-1.516849249601364136e-01,-1.665469855070114136e-01,-1.447641998529434204e-01,-1.244336441159248352e-01,-8.461036533117294312e-02,-4.917774349451065063e-02,7.992524188011884689e-04,4.386110231280326843e-02,1.324136257171630859e-01,1.904742419719696045e-01,2.141551822423934937e-01,2.314205616712570190e-01,1.916970014572143555e-01,1.795539855957031250e-01,1.470836102962493896e-01,7.508340477943420410e-02,-2.997779473662376404e-02,-1.391246467828750610e-01,-1.103663221001625061e-01,-1.518259793519973755e-01,-3.241340070962905884e-02,-6.157349795103073120e-03,-3.692366182804107666e-02,-8.786686509847640991e-02,-8.613312989473342896e-02,-3.216287121176719666e-02,-6.103044375777244568e-02,-3.372913599014282227e-02,-9.876178205013275146e-02,-8.488647639751434326e-02,-3.224151208996772766e-02,-2.962275408208370209e-03,3.620409965515136719e-02,-2.076464705169200897e-02,-2.864012867212295532e-02,5.260599032044410706e-02,1.097899153828620911e-01,1.267756223678588867e-01,2.023824453353881836e-01,1.830040514469146729e-01,1.715478003025054932e-01,1.549447625875473022e-01,1.953846588730812073e-02,3.640818642452359200e-03,-3.133286535739898682e-02,-1.226506531238555908e-01,-1.831343048252165318e-03,-1.373288929462432861e-01,-1.518380343914031982e-01,-5.908207222819328308e-02,-1.225813664495944977e-02,-6.233316659927368164e-02,2.824473194777965546e-03,-5.235693231225013733e-02,-1.423320323228836060e-01,-1.760396361351013184e-02,-6.162393838167190552e-02,-1.261620670557022095e-01,-1.252246201038360596e-01,-1.366490423679351807e-01,-9.421442449092864990e-02,-6.815162301063537598e-02,-4.132053628563880920e-02,-2.353028394281864166e-02,-1.672323234379291534e-02,1.311658695340156555e-02,8.028651028871536255e-02,4.376590251922607422e-03,1.096154004335403442e-02,5.369744263589382172e-03,-6.849357485771179199e-02,-1.063041239976882935e-01,-9.871789067983627319e-02,-5.396649241447448730e-02,-1.192209050059318542e-01,-1.197383999824523926e-01,-6.734412163496017456e-02,-1.460708975791931152e-01,-9.161458909511566162e-02,-2.079329080879688263e-02,-1.297976672649383545e-01,-2.959293685853481293e-02,-3.778479620814323425e-02,-3.853510692715644836e-02,-1.503307074308395386e-01,-3.305155411362648010e-02,-3.318941220641136169e-02,-9.579453617334365845e-02,-6.419617217034101486e-03,7.171826902776956558e-03,-7.991582155227661133e-02,-8.003652840852737427e-02,5.753445439040660858e-03,-1.020077690482139587e-01,-2.582933381199836731e-02,-1.120183542370796204e-01,2.781999530270695686e-03,-5.199773237109184265e-02,-6.853920221328735352e-02,-1.533095836639404297e-01,-1.338909119367599487e-01,-1.589622162282466888e-02,-1.544931232929229736e-01,-1.014604121446609497e-01,-1.204912960529327393e-01
