-4.299497976899147034e-02,1.571825891733169556e-02,-2.850271761417388916e-03,-3.765834122896194458e-02,3.534581512212753296e-02,5.269110202789306641e-03,-4.652711004018783569e-02,8.457501977682113647e-02,-1.888666301965713501e-02,-5.208648741245269775e-02,2.920395880937576294e-02,-3.890721872448921204e-02,4.133697599172592163e-02,6.213957816362380981e-02,5.616494268178939819e-02,-4.085594043135643005e-02,9.800061583518981934e-03,-2.223953604698181152e-02,-5.552062392234802246e-02,-7.135281711816787720e-02,-4.607987031340599060e-02,-3.102331236004829407e-02,8.021267503499984741e-02,-7.951347529888153076e-02,-6.515510380268096924e-03,-4.755310341715812683e-02,-6.111475825309753418e-02,-4.473758488893508911e-02,-4.443856701254844666e-02,-4.651711136102676392e-02,-2.978269755840301514e-02,2.693548798561096191e-03
-4.942657053470611572e-02,-3.904388844966888428e-02,2.108746021986007690e-02,-3.520828485488891602e-02,-6.028521060943603516e-02,-4.770117998123168945e-02,-7.014020532369613647e-02,-7.782030105590820312e-02,3.494870662689208984e-02,-5.962163209915161133e-02,1.338742673397064209e-02,-2.815719693899154663e-02,2.814181894063949585e-02,3.588899970054626465e-02,-8.525877445936203003e-02,3.176540136337280273e-03,2.898260951042175293e-02,1.143557578325271606e-02,1.233874261379241943e-02,4.964769631624221802e-02,-3.222175315022468567e-02,-1.976773142814636230e-03,4.106379300355911255e-02,2.652110904455184937e-02,-6.251954287290573120e-02,4.066898673772811890e-02,5.165823549032211304e-02,3.662204742431640625e-02,7.779903709888458252e-03,-1.202128827571868896e-02,-3.403908014297485352e-02,-3.668495267629623413e-02
4.370635002851486206e-02,-5.023844540119171143e-03,7.266586273908615112e-02,1.824759691953659058e-02,2.880474925041198730e-02,-8.346012979745864868e-02,-2.213197946548461914e-02,1.040897518396377563e-02,7.029540091753005981e-02,-3.137466683983802795e-02,-7.539202272891998291e-02,-5.634650588035583496e-03,7.481057196855545044e-02,8.195150643587112427e-02,-6.467311084270477295e-02,-4.230149090290069580e-02,-5.563591048121452332e-02,5.828093737363815308e-02,-7.670867443084716797e-02,-4.884073883295059204e-02,5.865447968244552612e-02,-3.057697415351867676e-02,-5.229945480823516846e-02,6.835506111383438110e-02,-3.333872184157371521e-02,-2.380527555942535400e-03,7.445593923330307007e-02,-4.742428287863731384e-02,-1.662387698888778687e-02,-5.046894028782844543e-02,8.027673512697219849e-02,-5.230797827243804932e-02
-6.450604647397994995e-02,-5.798473954200744629e-03,3.815820068120956421e-02,-7.410138100385665894e-02,7.535321265459060669e-02,-3.560528159141540527e-03,6.848297268152236938e-02,1.994977891445159912e-02,3.136115521192550659e-02,1.846395432949066162e-02,6.271483749151229858e-02,-5.127466470003128052e-02,1.953073590993881226e-02,-4.769435152411460876e-02,3.209093213081359863e-02,-4.916987195611000061e-02,1.572733372449874878e-02,-7.144802808761596680e-02,-5.460008978843688965e-04,6.108028441667556763e-02,3.685361891984939575e-02,-6.849784404039382935e-02,-2.089620381593704224e-02,-2.685113623738288879e-02,-5.897134542465209961e-02,-6.164710223674774170e-02,5.016200989484786987e-02,-4.590513184666633606e-02,2.146725356578826904e-02,-4.343144223093986511e-02,7.625233381986618042e-02,2.954049408435821533e-02
-6.753221899271011353e-02,5.409374088048934937e-02,-5.196533352136611938e-02,-6.265714764595031738e-02,6.426208466291427612e-02,-4.945940151810646057e-02,-3.684682771563529968e-02,-7.493239641189575195e-02,-1.647994667291641235e-02,7.442394644021987915e-02,-2.292660623788833618e-02,4.609107226133346558e-02,5.159664899110794067e-02,-4.663840681314468384e-02,3.301960974931716919e-02,3.404818475246429443e-03,5.568442493677139282e-02,7.921957224607467651e-02,2.704221010208129883e-02,4.449681192636489868e-02,-5.010568723082542419e-02,-7.854221016168594360e-02,7.246469706296920776e-02,-2.955022454261779785e-02,-2.428875863552093506e-02,-6.287361681461334229e-02,-4.314549267292022705e-03,-4.053860902786254883e-05,3.848629444837570190e-02,1.404313743114471436e-02,-8.899413049221038818e-03,-8.289566636085510254e-02
5.170295387506484985e-02,7.388066500425338745e-02,-3.980870544910430908e-02,7.531918585300445557e-03,-5.062552168965339661e-02,-9.524554014205932617e-03,8.923470973968505859e-03,-3.687992691993713379e-02,3.762374818325042725e-02,7.151969522237777710e-02,-1.886302977800369263e-02,7.122420519590377808e-02,-5.226527154445648193e-02,2.481576800346374512e-02,6.551988422870635986e-03,-1.545660942792892456e-02,3.853233158588409424e-02,5.812806636095046997e-02,-1.821742206811904907e-02,-6.170332431793212891e-02,-5.898463353514671326e-02,5.968625098466873169e-02,7.563365250825881958e-02,2.597823739051818848e-03,-4.346251860260963440e-02,-2.869381755590438843e-02,7.904268056154251099e-02,-4.913728311657905579e-02,4.159947484731674194e-02,4.219353944063186646e-02,3.328360617160797119e-03,-2.521938085556030273e-02
-1.197277009487152100e-02,-3.228241205215454102e-02,1.024726033210754395e-02,-2.919545769691467285e-02,-1.392736285924911499e-02,-8.563854545354843140e-02,1.236585527658462524e-02,-5.753924697637557983e-02,-1.422092318534851074e-04,3.386773169040679932e-03,-4.699534177780151367e-02,5.572763830423355103e-02,4.354491084814071655e-02,-4.478579014539718628e-02,-2.564219012856483459e-02,-4.310736060142517090e-02,-8.397798240184783936e-02,-4.927759245038032532e-02,1.127292215824127197e-02,8.200287073850631714e-02,-7.993801683187484741e-02,1.978953927755355835e-02,8.082164078950881958e-02,-4.941689968109130859e-02,5.435775965452194214e-02,1.657104492187500000e-02,4.184051603078842163e-02,4.119259864091873169e-02,-2.265579998493194580e-02,3.325318545103073120e-02,3.519575297832489014e-02,-5.175426602363586426e-02
-1.251059770584106445e-02,6.880500167608261108e-02,-5.383211746811866760e-02,2.966748923063278198e-02,-1.101281493902206421e-02,6.321982294321060181e-02,-5.094293877482414246e-02,-4.669111222028732300e-02,8.023389428853988647e-02,-6.296142935752868652e-03,6.691993027925491333e-02,4.407962411642074585e-02,6.079048663377761841e-02,-7.400034368038177490e-02,-4.788836836814880371e-02,3.644373267889022827e-02,6.758063286542892456e-02,7.424824684858322144e-02,4.838753491640090942e-02,4.245816916227340698e-02,4.193616658449172974e-02,4.037078469991683960e-02,-7.744506001472473145e-04,1.898977905511856079e-02,-7.832421362400054932e-02,1.307293772697448730e-02,2.393049746751785278e-02,-3.662562370300292969e-02,-3.405267745256423950e-02,4.865249246358871460e-02,3.243613243103027344e-02,-2.409741282463073730e-04
-1.562312245368957520e-04,-4.399909824132919312e-02,3.649860620498657227e-02,-2.262631803750991821e-02,4.815604537725448608e-02,-5.688083916902542114e-02,4.193005710840225220e-02,8.125367015600204468e-02,-2.062223106622695923e-02,1.185644418001174927e-02,-4.700219258666038513e-02,-2.381786704063415527e-02,1.277989149093627930e-02,-1.015295088291168213e-02,5.665167421102523804e-02,4.031561315059661865e-03,2.539573609828948975e-02,3.449938446283340454e-02,-2.162636816501617432e-02,-1.881976425647735596e-02,-7.735769450664520264e-02,-7.936358451843261719e-05,-5.586531385779380798e-02,6.868059188127517700e-02,8.678123354911804199e-03,2.392835170030593872e-02,6.431908160448074341e-02,1.793438941240310669e-02,6.719812750816345215e-03,4.205154627561569214e-02,-6.901703774929046631e-03,3.843513876199722290e-02
1.551571488380432129e-02,6.294158846139907837e-02,8.458922058343887329e-02,7.874497026205062866e-02,-4.826660454273223877e-02,-7.600165158510208130e-02,-5.160647630691528320e-02,9.848572313785552979e-03,-1.271013170480728149e-02,-5.371122807264328003e-02,-6.094098091125488281e-02,-6.413177400827407837e-02,-4.167356714606285095e-02,-8.568070828914642334e-03,-8.716724812984466553e-03,-6.020672619342803955e-02,-6.766745448112487793e-02,-5.232752487063407898e-02,-8.506353199481964111e-02,4.098647087812423706e-02,6.096965819597244263e-02,-7.585144788026809692e-02,1.934945583343505859e-03,8.153913170099258423e-02,-5.977964773774147034e-02,-5.096209421753883362e-02,3.379123657941818237e-02,-1.214456558227539062e-02,-7.870192080736160278e-02,6.288745254278182983e-02,5.899813026189804077e-02,3.024823963642120361e-03
4.913850873708724976e-02,1.143048703670501709e-02,-2.116553485393524170e-02,-1.472823321819305420e-03,1.723527908325195312e-02,7.541956752538681030e-02,7.925052195787429810e-02,5.963694304227828979e-02,-6.131926178932189941e-02,-3.588223084807395935e-02,-2.552643418312072754e-03,4.727082699537277222e-02,-5.455972626805305481e-02,-8.209263533353805542e-02,-1.510885357856750488e-02,2.417024224996566772e-02,7.367085665464401245e-02,3.451680392026901245e-02,1.442906260490417480e-02,7.294472306966781616e-02,-4.715372249484062195e-02,-4.775437340140342712e-02,-1.273217052221298218e-02,2.801735699176788330e-02,-8.279133588075637817e-02,1.559428125619888306e-02,-4.889745265245437622e-02,-8.392893522977828979e-02,7.895090430974960327e-02,8.216848224401473999e-02,6.478068977594375610e-02,-3.272850438952445984e-02
6.533671170473098755e-02,-5.185215547680854797e-02,6.197155267000198364e-02,-4.026878252625465393e-02,-5.875252932310104370e-02,-1.765319705009460449e-02,-7.476411759853363037e-03,-7.397145777940750122e-02,-4.127331078052520752e-02,-3.813798353075981140e-02,-7.383345812559127808e-02,-2.007886767387390137e-03,4.338689893484115601e-02,5.226316303014755249e-02,3.895362466573715210e-02,8.209476619958877563e-02,4.061108082532882690e-02,5.896791070699691772e-02,6.874292343854904175e-02,1.390381157398223877e-02,6.866667419672012329e-02,-1.251117140054702759e-02,8.403740823268890381e-03,-4.652479663491249084e-02,-1.429656147956848145e-02,5.292996019124984741e-02,-4.959791898727416992e-03,-1.264481246471405029e-02,-5.291784927248954773e-02,-4.057727754116058350e-03,6.703325361013412476e-02,1.140650361776351929e-02
-8.168046176433563232e-02,3.987054899334907532e-02,7.653859257698059082e-02,-2.696726936846971512e-03,6.032880768179893494e-02,-1.802955195307731628e-02,-8.002492040395736694e-02,2.489611878991127014e-02,-4.877983406186103821e-02,-3.860243782401084900e-02,8.444854617118835449e-02,7.453002035617828369e-02,-8.547324687242507935e-03,-3.560483455657958984e-02,-4.540809616446495056e-02,-2.038111165165901184e-02,-6.738150864839553833e-02,7.244032621383666992e-02,-6.950170546770095825e-02,7.000022567808628082e-03,-7.175036519765853882e-02,-1.956402696669101715e-02,-7.466889917850494385e-02,-6.173968687653541565e-02,1.401364151388406754e-02,-5.963955540210008621e-03,-2.417150326073169708e-02,-3.172291442751884460e-02,-3.228833526372909546e-02,3.510306403040885925e-02,7.350963354110717773e-02,2.017657272517681122e-02
6.822782754898071289e-02,-3.981463983654975891e-02,-7.895632833242416382e-02,-8.341772109270095825e-02,-1.883691176772117615e-02,7.523135840892791748e-02,-7.827877253293991089e-02,-1.263550017029047012e-02,-3.834735974669456482e-02,-5.375557392835617065e-02,4.921062663197517395e-02,4.954411834478378296e-02,7.272059470415115356e-02,9.380527772009372711e-03,-2.820408903062343597e-02,2.298455871641635895e-02,5.517960339784622192e-02,-7.322286069393157959e-02,7.973544299602508545e-03,4.704153537750244141e-02,-7.270598411560058594e-02,-4.877804592251777649e-02,-3.331014141440391541e-02,-2.707489207386970520e-02,3.955942019820213318e-02,4.062744975090026855e-02,6.595281511545181274e-02,-1.753771118819713593e-02,5.142738297581672668e-02,-3.147991001605987549e-02,2.257396467030048370e-02,-7.758776098489761353e-02
5.343427881598472595e-02,3.804832324385643005e-02,-3.341655060648918152e-02,-3.244724497199058533e-02,5.351260304450988770e-02,-5.807962268590927124e-02,6.633821874856948853e-02,-5.229168757796287537e-02,-5.953131616115570068e-02,-2.938666939735412598e-02,-1.031226944178342819e-02,-2.867481112480163574e-02,-1.121983770281076431e-02,1.398446038365364075e-03,-1.092713233083486557e-02,5.687668919563293457e-02,3.416277095675468445e-02,-4.570815144688822329e-05,2.217252925038337708e-02,2.792134322226047516e-02,-6.740007083863019943e-03,8.365358226001262665e-04,-6.801280379295349121e-02,2.945504523813724518e-02,-8.169090375304222107e-03,-5.597713589668273926e-02,-6.276415288448333740e-02,-8.461952954530715942e-02,2.578632533550262451e-02,7.705504447221755981e-02,3.831480070948600769e-02,-4.617426916956901550e-02
-7.529679685831069946e-02,-8.570291101932525635e-02,4.816163703799247742e-02,-5.663606151938438416e-02,-2.485453337430953979e-02,-6.061211228370666504e-03,-1.972448825836181641e-02,-7.561520487070083618e-02,-2.930326387286186218e-02,-2.376553229987621307e-02,-4.723381623625755310e-02,2.168072760105133057e-02,-4.113521426916122437e-02,-7.554882019758224487e-02,-4.420627653598785400e-02,-7.225453853607177734e-02,4.112411290407180786e-02,-2.253709547221660614e-02,-5.966393277049064636e-02,-2.192824147641658783e-03,-3.364861756563186646e-02,-1.563785038888454437e-02,-1.848379708826541901e-02,2.854051813483238220e-02,4.865061119198799133e-02,-7.883275300264358521e-02,8.398566395044326782e-02,-8.306970447301864624e-02,4.453253746032714844e-02,1.506764907389879227e-02,5.715765431523323059e-02,-5.562757607549428940e-03
-1.192640513181686401e-02,-9.439609944820404053e-03,-4.910479858517646790e-02,-2.763372287154197693e-02,6.783575564622879028e-02,5.710402876138687134e-02,-6.626361608505249023e-02,-1.036076247692108154e-02,-7.969117909669876099e-02,4.059924930334091187e-02,-2.182639390230178833e-02,-8.619181811809539795e-03,1.940815150737762451e-02,-1.753323525190353394e-02,-6.075835227966308594e-02,6.208112090826034546e-02,1.168906688690185547e-02,-3.686234727501869202e-02,-5.773174762725830078e-02,-4.912589490413665771e-02,-3.058353811502456665e-02,-1.839995384216308594e-04,-2.280920743942260742e-03,-6.278854608535766602e-02,4.946496337652206421e-02,-5.659863352775573730e-03,6.378606706857681274e-02,7.124503701925277710e-02,8.314295858144760132e-02,8.965484797954559326e-03,-1.558645069599151611e-02,3.730195760726928711e-02
-6.811708211898803711e-03,-2.455138787627220154e-02,6.177128106355667114e-02,8.371930569410324097e-02,-6.092080473899841309e-02,-6.742028892040252686e-02,-5.409402772784233093e-02,-7.153278589248657227e-02,8.484862744808197021e-03,6.665015965700149536e-02,2.957614511251449585e-02,2.196527272462844849e-02,-7.463750988245010376e-02,-4.131712391972541809e-02,-3.405465930700302124e-02,2.649800479412078857e-02,-8.480147272348403931e-02,5.295623093843460083e-02,6.521879881620407104e-02,4.576102644205093384e-02,-4.071154445409774780e-02,-3.650469705462455750e-02,6.870725005865097046e-02,-7.230386137962341309e-02,-2.924400940537452698e-02,-3.628194332122802734e-03,-2.719429507851600647e-02,-8.286248147487640381e-02,6.459663063287734985e-02,-4.422030597925186157e-02,6.757474690675735474e-02,5.766684561967849731e-02
-6.017312407493591309e-04,-8.664652705192565918e-04,5.124784260988235474e-02,-2.880652621388435364e-02,5.073764175176620483e-02,-4.499348625540733337e-02,5.035217851400375366e-02,3.419349342584609985e-02,-2.323111891746520996e-02,-3.883811831474304199e-02,-2.103117853403091431e-02,3.793601691722869873e-02,3.755315393209457397e-02,-8.553180843591690063e-02,1.949787139892578125e-03,3.115916252136230469e-02,7.639070600271224976e-02,3.614657372236251831e-02,-2.145228534936904907e-02,-5.670663714408874512e-02,7.447976619005203247e-02,-3.274778276681900024e-02,3.584641218185424805e-02,2.365536987781524658e-03,-9.035572409629821777e-03,5.655574053525924683e-02,-2.374479919672012329e-02,6.966357678174972534e-02,-5.997592955827713013e-02,5.008473247289657593e-02,-5.581577867269515991e-02,5.609739571809768677e-02
-8.215442299842834473e-02,7.611032575368881226e-02,4.214274138212203979e-02,-5.233312398195266724e-02,2.591295540332794189e-02,-2.774219959974288940e-02,5.856434255838394165e-02,7.361664623022079468e-02,-5.806740373373031616e-02,-5.988113209605216980e-02,-5.533406883478164673e-02,-7.483888417482376099e-02,2.567471563816070557e-02,-5.213581025600433350e-03,6.879914551973342896e-02,8.569213002920150757e-02,-4.917156696319580078e-02,-5.399454385042190552e-02,2.496047317981719971e-02,-1.395473629236221313e-02,-6.240534037351608276e-02,-8.535418659448623657e-02,3.577291965484619141e-03,-3.291293978691101074e-03,3.324893116950988770e-02,6.358432024717330933e-02,7.975447922945022583e-02,-2.726887539029121399e-02,5.655559152364730835e-02,-7.732357084751129150e-02,2.430389076471328735e-02,-2.471238374710083008e-03
1.631207764148712158e-02,-5.958011001348495483e-02,-6.863722950220108032e-02,-3.186035901308059692e-02,-3.468401357531547546e-02,6.544502824544906616e-02,-3.319483622908592224e-02,7.581452280282974243e-02,7.184685021638870239e-02,-5.707132071256637573e-02,6.712322682142257690e-02,4.664879292249679565e-02,7.775958627462387085e-02,1.481024920940399170e-02,-6.717039644718170166e-02,-1.386690884828567505e-02,6.922868639230728149e-02,-7.458686828613281250e-02,3.254129737615585327e-02,-2.401255071163177490e-03,-4.876840859651565552e-02,6.472850590944290161e-02,2.106589078903198242e-02,5.788677185773849487e-02,6.909879297018051147e-02,3.276675939559936523e-03,1.617712527513504028e-02,8.344040066003799438e-02,2.163213491439819336e-02,1.803295314311981201e-02,-2.157489210367202759e-02,6.064064800739288330e-03
1.889508217573165894e-02,2.901335805654525757e-02,4.765517264604568481e-02,-2.726670727133750916e-02,-3.138875216245651245e-02,-4.204826802015304565e-02,-1.284290105104446411e-02,2.898287773132324219e-02,1.197790354490280151e-02,-3.237351030111312866e-02,-8.321279287338256836e-02,3.473912924528121948e-02,1.611606031656265259e-02,-1.547298580408096313e-02,5.878587812185287476e-02,-7.624834775924682617e-03,-6.711350381374359131e-02,-1.422403007745742798e-02,-3.657688573002815247e-02,-4.441251978278160095e-02,-6.951078772544860840e-02,-2.702358365058898926e-02,7.941722124814987183e-02,5.023670941591262817e-02,-8.306353539228439331e-02,2.578605711460113525e-02,-8.098419010639190674e-02,-5.460617691278457642e-02,6.984753161668777466e-02,-6.171534955501556396e-02,-4.649666696786880493e-02,8.263935893774032593e-02
-5.184812471270561218e-02,6.094468384981155396e-02,8.913479745388031006e-03,-6.817933917045593262e-02,-7.212860882282257080e-02,5.280395597219467163e-02,-6.000179424881935120e-02,5.741288512945175171e-02,-2.427641302347183228e-02,-7.711205631494522095e-02,5.133368819952011108e-02,1.261721551418304443e-02,1.899842917919158936e-02,-2.016067504882812500e-03,1.203566044569015503e-02,-3.973504528403282166e-02,-2.237663418054580688e-02,1.168528199195861816e-02,-2.011527866125106812e-02,-4.752564430236816406e-02,6.571426987648010254e-03,2.451530098915100098e-02,-2.066941559314727783e-02,-4.275850951671600342e-03,1.018261164426803589e-02,5.289172381162643433e-02,3.165225684642791748e-02,4.385390132665634155e-02,-2.462153136730194092e-02,4.808541387319564819e-02,-7.966010272502899170e-02,1.294843107461929321e-02
6.650919467210769653e-02,7.520089298486709595e-02,5.682138353586196899e-02,-3.084540367126464844e-06,-6.906234472990036011e-02,-6.059756129980087280e-02,2.859071642160415649e-02,-3.019487112760543823e-02,5.393441766500473022e-02,4.333289712667465210e-02,1.702247560024261475e-02,-5.701444298028945923e-02,5.512144416570663452e-02,-6.122135370969772339e-02,3.017142415046691895e-02,8.007229119539260864e-02,-2.671763673424720764e-02,-1.771017909049987793e-02,1.452885568141937256e-03,5.146355181932449341e-02,2.467360347509384155e-02,5.984776467084884644e-02,4.096896201372146606e-02,1.406004279851913452e-02,-8.169301599264144897e-02,6.674096733331680298e-02,1.994853466749191284e-02,2.628275007009506226e-02,-8.094714581966400146e-02,1.995460689067840576e-02,7.508585602045059204e-02,-8.237265050411224365e-03
-1.937779039144515991e-02,-5.368446931242942810e-02,-3.235496953129768372e-02,-6.912284344434738159e-02,-8.259748667478561401e-02,2.290306985378265381e-02,7.196585088968276978e-02,5.737248808145523071e-02,-2.443812415003776550e-02,1.042937487363815308e-02,-3.649428859353065491e-02,-3.014365956187248230e-02,5.860578268766403198e-02,4.262087494134902954e-02,-2.907133847475051880e-02,3.024140000343322754e-02,2.027092128992080688e-02,-6.643612682819366455e-02,3.516521304845809937e-02,-7.957500964403152466e-02,6.480433046817779541e-03,6.075178831815719604e-02,-8.215744793415069580e-02,-6.670592725276947021e-02,-3.478899598121643066e-02,-1.084032654762268066e-02,3.140987455844879150e-02,-3.749560564756393433e-02,3.722118586301803589e-02,1.484612375497817993e-02,4.710257053375244141e-05,-6.193223968148231506e-02
-1.264667510986328125e-02,-8.113496750593185425e-02,-4.667862132191658020e-02,5.947879701852798462e-02,1.397029310464859009e-02,-5.176540836691856384e-02,3.578192740678787231e-02,7.979054003953933716e-02,4.337564855813980103e-02,-7.315963506698608398e-03,-3.466205671429634094e-02,5.816067010164260864e-02,-2.818042039871215820e-02,5.634365230798721313e-02,-6.515298038721084595e-02,3.979756683111190796e-02,5.160052329301834106e-02,-1.532308757305145264e-02,7.755892723798751831e-02,6.945272535085678101e-02,4.337368160486221313e-02,-4.599253088235855103e-02,6.545305997133255005e-02,-4.293967783451080322e-02,-1.065558940172195435e-02,5.589900165796279907e-02,7.535722106695175171e-02,7.262694090604782104e-02,-6.053708493709564209e-02,-3.518624603748321533e-02,-1.094984263181686401e-02,5.163518339395523071e-02
5.307600647211074829e-02,-2.364738285541534424e-02,8.154743164777755737e-02,7.111414521932601929e-02,1.424739509820938110e-02,6.348822265863418579e-02,-1.392879337072372437e-02,-3.471789136528968811e-02,6.935604661703109741e-02,-5.386073887348175049e-02,-8.983679115772247314e-03,8.542694896459579468e-02,7.052325457334518433e-02,-4.240769892930984497e-02,3.439240157604217529e-02,1.708440482616424561e-03,-6.777239590883255005e-02,-7.038020342588424683e-02,7.778679579496383667e-02,-8.188633620738983154e-02,9.952083230018615723e-03,1.160582154989242554e-02,-7.671889662742614746e-02,-8.432144671678543091e-02,1.522131264209747314e-03,3.042952716350555420e-02,-6.830932199954986572e-02,1.855468750000000000e-02,9.732410311698913574e-03,-2.726850658655166626e-02,4.614142328500747681e-02,7.668808102607727051e-04
4.679597169160842896e-02,-5.602647364139556885e-02,-1.690588146448135376e-02,3.669294714927673340e-02,8.173192292451858521e-02,-5.883639305830001831e-02,-2.280642837285995483e-02,-1.794068515300750732e-02,-6.159184128046035767e-02,-1.609867811203002930e-02,8.527897298336029053e-03,-2.775158360600471497e-02,2.886530011892318726e-02,4.421306401491165161e-02,-6.211102753877639771e-02,-6.723563373088836670e-02,6.381242722272872925e-02,-7.116203010082244873e-02,-1.553769409656524658e-02,-8.914694190025329590e-04,2.578519284725189209e-02,3.930688649415969849e-02,5.564091354608535767e-02,-6.151014938950538635e-02,1.149173825979232788e-02,4.748762398958206177e-02,-1.817616075277328491e-02,6.734075397253036499e-02,6.697455793619155884e-02,-1.047760248184204102e-02,-6.538242846727371216e-02,1.134300976991653442e-02
8.212339133024215698e-02,-3.905564546585083008e-03,-5.913657695055007935e-02,-2.158313244581222534e-02,-1.600899547338485718e-02,8.006282150745391846e-03,-3.873685747385025024e-02,2.315275371074676514e-02,-2.271287888288497925e-02,-4.566926881670951843e-02,-6.444863975048065186e-02,5.115162581205368042e-02,-6.100830435752868652e-02,-2.717380970716476440e-02,-3.329405188560485840e-02,4.023835808038711548e-02,1.066323369741439819e-02,2.224154025316238403e-02,-1.105906069278717041e-02,2.859967201948165894e-02,6.843625754117965698e-02,-4.093945771455764771e-02,6.453634053468704224e-02,7.747507840394973755e-02,-4.460293799638748169e-02,-4.720667377114295959e-02,8.308254927396774292e-02,-5.060483142733573914e-02,-1.407018303871154785e-02,-3.549971804022789001e-02,-2.594519406557083130e-02,2.268413454294204712e-02
-7.030782848596572876e-02,-8.092676103115081787e-02,1.890659332275390625e-04,-6.119839474558830261e-02,-5.820205062627792358e-02,-5.182093754410743713e-02,1.424549520015716553e-02,-8.310531824827194214e-02,2.858448028564453125e-02,3.823601454496383667e-02,4.005857557058334351e-02,-7.171936333179473877e-03,4.220458120107650757e-02,5.779013782739639282e-02,-1.468641310930252075e-02,-6.409548223018646240e-03,6.396757811307907104e-02,8.357597142457962036e-02,8.231438696384429932e-03,7.413118332624435425e-02,6.980740278959274292e-02,4.787879437208175659e-02,-4.185282438993453979e-02,5.380829423666000366e-02,8.262524753808975220e-02,-1.597875356674194336e-02,3.109468519687652588e-02,1.100694388151168823e-02,-2.656236290931701660e-02,1.483760774135589600e-03,-3.609217330813407898e-02,-7.776702940464019775e-02
4.960010200738906860e-02,6.571941077709197998e-03,-7.951803505420684814e-03,-3.399059176445007324e-03,-2.928205952048301697e-02,-8.010967075824737549e-02,1.480437815189361572e-02,-1.312756538391113281e-02,4.016239196062088013e-02,-4.710077494382858276e-02,5.822683125734329224e-02,5.967583507299423218e-02,-7.834547758102416992e-02,-1.760031282901763916e-02,-4.353691637516021729e-02,7.435091584920883179e-02,-4.064311832189559937e-02,7.559096068143844604e-02,6.184827536344528198e-02,4.042791575193405151e-02,-7.784845679998397827e-02,1.920036971569061279e-03,5.944512039422988892e-02,2.115114778280258179e-02,-6.365505605936050415e-02,-7.765497267246246338e-02,-8.078382164239883423e-02,-4.319075495004653931e-02,5.451828986406326294e-02,3.970883041620254517e-02,2.387621998786926270e-02,7.888882607221603394e-02
5.799727886915206909e-02,-1.289396733045578003e-02,-1.339793950319290161e-02,4.866207391023635864e-02,-6.180487200617790222e-02,6.034963577985763550e-02,1.802714169025421143e-02,-6.601666659116744995e-02,4.693987220525741577e-02,-3.554929420351982117e-02,-7.494127005338668823e-02,6.664483994245529175e-02,-4.042632877826690674e-02,2.174388617277145386e-02,4.624221473932266235e-02,1.184505969285964966e-02,2.756232768297195435e-02,-2.611539140343666077e-02,6.108581274747848511e-02,-7.958940416574478149e-02,4.360086470842361450e-02,8.678779006004333496e-03,-1.772395521402359009e-02,-6.383800506591796875e-02,-2.743140608072280884e-02,6.714947521686553955e-03,8.272772282361984253e-02,2.386345714330673218e-02,4.069434851408004761e-02,-8.286653459072113037e-02,6.732381135225296021e-02,6.172537058591842651e-02
6.952699273824691772e-02,4.218894988298416138e-02,-8.829836733639240265e-03,-5.356075242161750793e-03,1.880222372710704803e-02,-3.416165709495544434e-02,-6.039706524461507797e-03,7.672450691461563110e-02,7.439044117927551270e-02,1.592332869768142700e-02,-8.834506152197718620e-04,-3.604882210493087769e-02,-4.146379232406616211e-02,1.831057667732238770e-02,3.659852594137191772e-02,-4.990200512111186981e-03,-1.338378060609102249e-03,-6.911565363407135010e-02,-8.357034623622894287e-02,5.492569878697395325e-02,-7.275954633951187134e-02,-1.231358293443918228e-02,7.476772367954254150e-02,5.558832362294197083e-02,-7.364381849765777588e-02,-1.149153988808393478e-02,1.356975547969341278e-02,4.116204753518104553e-02,-6.726664304733276367e-02,5.059900134801864624e-02,3.984253481030464172e-02,-4.238552227616310120e-02
5.835450068116188049e-02,-8.056898415088653564e-02,3.526049840729683638e-04,8.040634542703628540e-02,-2.788227237761020660e-02,-3.696151822805404663e-02,-2.764152921736240387e-02,-8.392789214849472046e-02,5.688873678445816040e-02,2.825453877449035645e-03,7.074864953756332397e-02,-7.802114635705947876e-02,-4.110281914472579956e-02,7.520938664674758911e-02,2.183215320110321045e-02,6.058149784803390503e-02,3.602273017168045044e-02,-2.912308834493160248e-02,-4.940212238579988480e-03,-7.531023770570755005e-02,-5.165738612413406372e-02,2.951130084693431854e-02,7.967924326658248901e-02,-3.469770774245262146e-02,-3.063347004354000092e-02,-6.799008697271347046e-02,-6.312555074691772461e-02,-6.251814961433410645e-02,3.147105872631072998e-02,-3.217817842960357666e-02,5.615810677409172058e-02,-3.275222703814506531e-02
-1.410229504108428955e-02,7.652135938405990601e-02,8.590202778577804565e-03,5.775537341833114624e-02,-6.207446008920669556e-02,3.061919286847114563e-02,-3.197104856371879578e-02,-6.797920167446136475e-02,-6.451573967933654785e-02,-2.818859741091728210e-02,4.716164991259574890e-02,-1.880053430795669556e-02,3.179040923714637756e-02,3.729379549622535706e-02,6.424422562122344971e-02,4.824048653244972229e-02,7.540572434663772583e-02,-8.125327527523040771e-02,8.090099692344665527e-02,3.455863799899816513e-03,-3.704025875777006149e-03,7.552016526460647583e-02,-2.211741730570793152e-02,5.949274823069572449e-02,-3.125099092721939087e-02,2.644859999418258667e-02,-4.336551204323768616e-02,7.808610796928405762e-02,7.513485848903656006e-02,-2.778732031583786011e-02,3.938622400164604187e-02,6.862244755029678345e-02
-2.031963318586349487e-02,-7.269106060266494751e-02,1.734915561974048615e-02,6.336256116628646851e-02,1.696825772523880005e-02,-6.892622448503971100e-03,-9.184700436890125275e-03,1.943913660943508148e-02,-8.750423043966293335e-02,3.061808645725250244e-02,-4.778442531824111938e-02,2.145733684301376343e-02,-5.121633410453796387e-02,-2.256486751139163971e-02,2.622435986995697021e-02,-7.368560880422592163e-02,7.819437235593795776e-02,7.194284349679946899e-02,3.842619433999061584e-02,-2.614836767315864563e-02,1.878429017961025238e-02,-2.224503457546234131e-02,-2.225471660494804382e-02,-8.066768199205398560e-02,2.400318905711174011e-02,4.180560261011123657e-02,2.609238587319850922e-02,-1.776140928268432617e-02,2.921590395271778107e-02,5.306735262274742126e-02,-4.500614106655120850e-02,-8.115215599536895752e-02
-2.893194556236267090e-02,-6.199213862419128418e-02,-3.290305286645889282e-02,-6.837435066699981689e-02,-6.623367965221405029e-02,3.063171356916427612e-02,3.356115426868200302e-03,1.691741310060024261e-02,-1.143753412179648876e-03,-5.667795985937118530e-02,6.899655610322952271e-02,1.814737915992736816e-02,3.826111927628517151e-02,-1.069224812090396881e-02,-5.448317155241966248e-02,9.282243438065052032e-03,4.809107258915901184e-02,5.085361748933792114e-02,5.444480851292610168e-02,6.033858284354209900e-02,2.453112788498401642e-02,-6.026665121316909790e-02,-3.333576023578643799e-02,-6.449867784976959229e-02,1.038571354001760483e-02,6.140099465847015381e-02,-4.160776361823081970e-02,-2.487440221011638641e-02,8.350646495819091797e-02,5.272895470261573792e-02,-6.495159119367599487e-02,7.064002007246017456e-02
7.987112551927566528e-02,7.392864674329757690e-02,7.474000006914138794e-02,7.406381517648696899e-02,5.166268721222877502e-02,7.675123214721679688e-02,3.785925358533859253e-02,-3.560311347246170044e-02,1.235906034708023071e-02,5.947794392704963684e-02,-7.219606637954711914e-02,7.617481797933578491e-02,3.442827239632606506e-02,-7.053036242723464966e-02,5.374497547745704651e-02,6.436037272214889526e-02,3.643127903342247009e-02,7.427489757537841797e-02,5.468198284506797791e-02,5.235051363706588745e-02,4.806948825716972351e-02,6.967137753963470459e-02,6.290086358785629272e-02,-2.338291332125663757e-02,8.476325869560241699e-02,4.305415228009223938e-02,-2.360696904361248016e-02,3.525945171713829041e-02,-3.259727358818054199e-02,4.487520083785057068e-02,3.836899250745773315e-02,-2.888762764632701874e-02
-6.002203095704317093e-03,4.267273098230361938e-02,-1.553637161850929260e-02,-6.129327416419982910e-02,3.711150027811527252e-03,3.694326803088188171e-02,4.623094946146011353e-02,8.588927239179611206e-02,-1.853003166615962982e-02,-4.990204423666000366e-02,-1.284882239997386932e-02,6.181378662586212158e-02,-4.685414582490921021e-02,1.433554850518703461e-02,1.299112010747194290e-02,-5.484339594841003418e-02,2.852248214185237885e-02,7.822652906179428101e-02,6.188307702541351318e-02,-5.107823759317398071e-03,6.979670375585556030e-02,5.342006683349609375e-02,7.180175161920487881e-04,-4.032357037067413330e-02,4.224093165248632431e-03,-6.038259714841842651e-02,6.342116743326187134e-02,-1.192587614059448242e-02,7.090516155585646629e-04,-7.300007343292236328e-02,-7.542874664068222046e-02,-1.459126360714435577e-02
-2.265866100788116455e-02,6.045971438288688660e-02,-4.456343874335289001e-02,-7.379587739706039429e-02,6.178442388772964478e-02,-1.639873720705509186e-02,-5.063337460160255432e-02,-8.458857238292694092e-02,-4.063279926776885986e-02,6.383693218231201172e-02,-5.215830728411674500e-02,1.452220836654305458e-03,2.111314050853252411e-02,6.840320676565170288e-02,-8.175584673881530762e-02,5.175141245126724243e-02,-2.524150907993316650e-02,4.579795524477958679e-02,-1.282233186066150665e-02,-4.094782471656799316e-02,7.443873584270477295e-02,-2.873705327510833740e-02,5.534429848194122314e-02,-6.587914377450942993e-02,9.535728022456169128e-03,-4.282838106155395508e-02,8.573877811431884766e-02,2.166415331885218620e-03,-4.618802666664123535e-02,-2.156280726194381714e-02,-7.390555925667285919e-03,-7.503229379653930664e-02
-9.026073664426803589e-02,-3.550432249903678894e-02,-4.633067548274993896e-02,-3.257103264331817627e-02,6.818402558565139771e-02,5.643283575773239136e-02,-3.863302990794181824e-02,2.033904567360877991e-02,3.120638802647590637e-02,8.350470662117004395e-02,4.894806817173957825e-02,3.476280719041824341e-02,-6.055806949734687805e-02,-8.445561677217483521e-02,1.779661164619028568e-03,6.564613431692123413e-02,-5.156449601054191589e-02,-2.534777158871293068e-03,-4.938755929470062256e-02,-3.457318618893623352e-02,3.355611488223075867e-02,-6.281780451536178589e-02,6.793644279241561890e-02,-4.727016761898994446e-02,8.597340434789657593e-02,-6.339285522699356079e-02,7.939954847097396851e-02,3.313158079981803894e-02,8.836742490530014038e-02,-1.638269610702991486e-02,2.887511625885963440e-02,-1.064696162939071655e-02
-4.550758004188537598e-02,7.856930047273635864e-02,3.689601272344589233e-02,6.135503575205802917e-02,5.606065038591623306e-03,7.795162498950958252e-02,5.471188202500343323e-02,7.017540931701660156e-02,-2.020017057657241821e-02,2.912806905806064606e-02,-6.867115385830402374e-03,-4.400213435292243958e-02,-7.560038566589355469e-02,2.468367107212543488e-02,2.145873196423053741e-02,3.331252606585621834e-03,6.645946949720382690e-02,-6.237125024199485779e-02,-3.194664791226387024e-02,-7.630795240402221680e-02,4.307351261377334595e-02,4.048319905996322632e-02,7.296700030565261841e-02,5.989738926291465759e-02,8.633384853601455688e-02,5.363881960511207581e-02,-4.308607056736946106e-02,1.931921765208244324e-02,3.152232244610786438e-02,-7.906286418437957764e-02,-3.154877573251724243e-02,1.086068991571664810e-02
-1.807593367993831635e-02,-2.358199283480644226e-02,-5.850096698850393295e-03,3.709472343325614929e-02,-4.701860621571540833e-02,-9.289291687309741974e-03,3.706183657050132751e-02,2.716980408877134323e-03,1.005818787962198257e-02,-3.649130463600158691e-02,-6.209156662225723267e-02,3.417651727795600891e-02,4.770803265273571014e-03,-3.173298016190528870e-02,-4.836985468864440918e-02,3.661520779132843018e-02,-1.042937580496072769e-02,3.618675470352172852e-02,8.182852715253829956e-02,-5.833016708493232727e-03,-1.256305444985628128e-02,7.876400649547576904e-02,-7.570607215166091919e-02,-5.513145402073860168e-02,5.600593518465757370e-03,6.935419142246246338e-02,6.367272138595581055e-02,-5.225123465061187744e-02,-7.383231073617935181e-02,-8.342768996953964233e-02,3.196737542748451233e-02,6.783895194530487061e-02
5.269932001829147339e-02,1.260229269973933697e-03,-2.850587479770183563e-02,7.855496555566787720e-02,4.514117538928985596e-02,4.193707928061485291e-02,-2.053777500987052917e-02,6.550610065460205078e-02,3.891469538211822510e-02,2.361316606402397156e-02,3.181277960538864136e-02,-2.364508109167218208e-03,-7.200846821069717407e-02,-1.461424631997942924e-03,4.245852679014205933e-02,7.927836477756500244e-02,3.061694325879216194e-03,-3.940044716000556946e-02,-1.134076435118913651e-02,-2.781395800411701202e-02,-6.758468598127365112e-02,7.606376707553863525e-02,-6.849872320890426636e-02,2.272298187017440796e-02,1.376602239906787872e-02,-4.463566839694976807e-02,2.423680014908313751e-02,7.966472953557968140e-02,6.599430739879608154e-02,-5.079934373497962952e-02,-2.682536467909812927e-02,3.486442193388938904e-02
6.940023973584175110e-03,8.423865074291825294e-04,-1.575605571269989014e-02,-1.234654244035482407e-02,-6.104385852813720703e-02,6.342801451683044434e-02,-4.441180208232253790e-04,4.906852915883064270e-02,-3.659085929393768311e-02,4.904938116669654846e-02,-4.729003645479679108e-03,-4.029008746147155762e-02,-3.491180762648582458e-02,5.453069508075714111e-02,-6.208161264657974243e-02,-2.481707930564880371e-02,-5.484006553888320923e-02,-7.535929232835769653e-02,-5.001275241374969482e-02,1.724084280431270599e-02,3.971465304493904114e-02,-2.558069676160812378e-02,7.931993901729583740e-02,-2.934473194181919098e-02,6.898452341556549072e-02,-6.914567947387695312e-02,-1.233077794313430786e-02,-1.927368529140949249e-02,-5.426082387566566467e-02,-4.244231060147285461e-02,4.302297905087471008e-02,-2.901694737374782562e-03
3.826953098177909851e-02,2.325324155390262604e-02,-6.373339146375656128e-02,-9.498172439634799957e-03,3.381678834557533264e-02,2.682447060942649841e-02,-2.510526031255722046e-02,5.734846368432044983e-02,-4.383983463048934937e-02,-3.279669210314750671e-02,5.865234136581420898e-02,8.370006084442138672e-02,4.021393507719039917e-02,-7.751772552728652954e-02,-5.152817070484161377e-02,-7.317667454481124878e-02,2.599850669503211975e-02,-1.294086035341024399e-02,-6.378775089979171753e-02,6.899974495172500610e-02,-6.024183332920074463e-02,-1.477646455168724060e-02,3.186073899269104004e-02,2.198374643921852112e-02,3.981458023190498352e-02,-8.032727986574172974e-02,-7.497224211692810059e-02,7.735612988471984863e-02,1.297396421432495117e-02,-6.467284262180328369e-02,-4.589118808507919312e-02,6.940750032663345337e-02
-6.635430455207824707e-02,3.889658674597740173e-02,-4.166733846068382263e-02,1.651792414486408234e-02,-5.165667086839675903e-02,-7.663343101739883423e-03,4.688972607254981995e-02,4.962223581969738007e-03,-3.434802591800689697e-02,6.144150346517562866e-02,1.220406312495470047e-02,4.128598421812057495e-02,-2.132933400571346283e-02,6.734015792608261108e-02,3.886836348101496696e-03,-6.302919238805770874e-02,7.536457479000091553e-02,-1.633655838668346405e-02,1.788817532360553741e-02,4.691745340824127197e-02,-1.024736184626817703e-02,-2.766504883766174316e-02,-7.941178232431411743e-02,8.491881936788558960e-02,1.859891973435878754e-02,-4.309829790145158768e-03,-3.787778690457344055e-02,-6.930956151336431503e-03,1.048957183957099915e-02,7.664929330348968506e-02,6.746014952659606934e-02,-2.862048335373401642e-02
5.147529765963554382e-02,-8.599419146776199341e-02,-4.424308985471725464e-02,1.249740738421678543e-02,-7.770380377769470215e-02,4.425710812211036682e-02,-2.290765196084976196e-02,4.329436272382736206e-02,-3.128309920430183411e-02,2.736303210258483887e-02,4.142814874649047852e-02,2.242331765592098236e-02,-7.155042886734008789e-02,-4.083204269409179688e-02,-1.368610188364982605e-02,8.420372381806373596e-03,-6.214421615004539490e-02,7.299274206161499023e-02,3.118083986919373274e-04,3.067202307283878326e-02,5.909248813986778259e-02,-4.690336436033248901e-02,5.821407213807106018e-02,2.175354771316051483e-02,-9.327592328190803528e-03,6.553770601749420166e-02,-2.336745895445346832e-02,-1.875051110982894897e-02,-6.227844208478927612e-02,-2.923496998846530914e-02,1.380835473537445068e-02,-2.327261306345462799e-02
-1.633831486105918884e-02,2.553598582744598389e-02,4.059893265366554260e-02,1.689713820815086365e-02,1.191307604312896729e-02,8.592348545789718628e-02,-8.423051983118057251e-02,2.896108664572238922e-02,-3.799443831667304039e-03,-4.595617577433586121e-02,1.211259514093399048e-02,-7.096060365438461304e-02,-5.497789382934570312e-02,-2.652480825781822205e-02,7.737094908952713013e-02,-4.911955073475837708e-02,-4.868012666702270508e-02,8.636943250894546509e-02,1.209902670234441757e-02,-2.014065161347389221e-02,2.311617322266101837e-02,-3.817690908908843994e-02,-6.887831538915634155e-02,7.291545160114765167e-03,1.730334199965000153e-02,5.905348435044288635e-02,-6.274488568305969238e-02,-7.496024016290903091e-03,1.337687764316797256e-02,-6.302051246166229248e-02,-8.650757954455912113e-04,-4.010009020566940308e-02
5.397948250174522400e-02,-4.186486825346946716e-02,1.032347418367862701e-02,7.077025622129440308e-02,8.386635035276412964e-02,-6.975673884153366089e-02,5.415854603052139282e-02,-3.063614480197429657e-02,5.199887603521347046e-02,2.055566757917404175e-02,7.051358371973037720e-02,6.319262087345123291e-02,-7.803332805633544922e-02,-4.585524555295705795e-03,5.173893272876739502e-02,-6.624515354633331299e-02,-1.784910820424556732e-02,-8.229295164346694946e-02,6.787481904029846191e-02,1.311600953340530396e-02,-8.513083308935165405e-02,-6.838107854127883911e-02,-4.500773269683122635e-03,3.922177851200103760e-02,-6.592276692390441895e-02,-4.507875442504882812e-02,1.419058814644813538e-02,4.667546600103378296e-03,4.550515860319137573e-02,-4.293399676680564880e-02,1.664702035486698151e-02,2.727086469531059265e-02
5.379504710435867310e-02,-1.105606555938720703e-03,9.684687480330467224e-03,3.334694728255271912e-02,-8.067250251770019531e-02,-2.496528625488281250e-02,-6.996299326419830322e-02,2.696524746716022491e-02,-5.203044414520263672e-02,5.711840838193893433e-02,6.744279712438583374e-02,1.579009927809238434e-02,-4.634805396199226379e-02,-6.780044734477996826e-02,-3.643937408924102783e-02,-8.143763244152069092e-02,6.579399108886718750e-02,-5.228230357170104980e-02,-6.818886101245880127e-02,6.898873299360275269e-02,6.644610315561294556e-02,-3.635355830192565918e-02,6.325723975896835327e-02,7.778915762901306152e-02,7.353998720645904541e-02,-1.255264040082693100e-02,-5.555565655231475830e-02,5.958325788378715515e-02,-7.065120339393615723e-02,-2.632598392665386200e-02,7.137879729270935059e-02,-4.930945113301277161e-02
-1.366178737953305244e-03,4.449484869837760925e-03,-6.815546751022338867e-02,2.234127745032310486e-02,-4.260955750942230225e-02,-1.455852203071117401e-02,-1.272147754207253456e-03,-3.917818143963813782e-02,-7.451848685741424561e-02,-7.387853413820266724e-02,-3.861989080905914307e-02,6.951748859137296677e-03,3.898055059835314751e-03,6.727365404367446899e-02,-2.017793618142604828e-02,5.586179718375205994e-02,-2.383182197809219360e-02,-7.999170571565628052e-02,3.000483289361000061e-02,3.872716799378395081e-02,-4.776785150170326233e-03,3.488877788186073303e-02,3.480311855673789978e-02,4.142601042985916138e-02,3.504209686070680618e-03,6.553745269775390625e-02,6.901504099369049072e-02,6.897747516632080078e-02,1.633371575735509396e-03,-5.525062605738639832e-02,3.964392840862274170e-02,-4.332422465085983276e-02
3.021104633808135986e-02,3.148747980594635010e-02,-6.927521526813507080e-02,2.735495567321777344e-03,-8.557017892599105835e-02,-4.382867366075515747e-02,-3.960303962230682373e-02,4.561763256788253784e-02,5.801942199468612671e-02,1.956087350845336914e-02,4.164750128984451294e-02,6.188280135393142700e-02,-1.801089197397232056e-02,-7.928090542554855347e-02,-8.109888434410095215e-02,-1.593224704265594482e-02,1.975931227207183838e-03,5.431687086820602417e-02,6.624997407197952271e-02,8.903890848159790039e-04,-5.089329928159713745e-02,-3.248838707804679871e-02,-2.347722649574279785e-02,-6.195789575576782227e-02,5.433999747037887573e-02,1.693985611200332642e-02,-1.566635072231292725e-02,-3.851009160280227661e-02,-8.117745071649551392e-02,9.777508676052093506e-03,7.451523095369338989e-02,-1.792944222688674927e-02
-3.644910827279090881e-02,-4.101317748427391052e-02,-2.069944888353347778e-02,4.435842484235763550e-02,-7.807686924934387207e-03,-7.222601026296615601e-02,-7.421623170375823975e-02,-4.694846272468566895e-02,-3.878575935959815979e-02,-2.841336280107498169e-02,7.968334108591079712e-02,-7.502893358469009399e-02,7.924491912126541138e-02,8.140183240175247192e-02,4.993256181478500366e-02,1.240763813257217407e-02,7.376544177532196045e-03,-3.822334110736846924e-03,-6.251103430986404419e-02,1.759082078933715820e-02,-1.361734420061111450e-02,-6.932209432125091553e-02,2.103054523468017578e-02,6.428234279155731201e-03,6.763562560081481934e-04,-6.154314428567886353e-02,6.583029776811599731e-02,-7.662636041641235352e-02,-2.951256558299064636e-02,-3.580394759774208069e-02,2.125992625951766968e-02,7.207546383142471313e-02
3.527104854583740234e-02,4.314430803060531616e-02,6.316490471363067627e-03,4.184681922197341919e-02,-6.792523711919784546e-02,-4.881659522652626038e-02,7.819562405347824097e-02,-6.112438440322875977e-02,-4.106870666146278381e-02,-2.244450896978378296e-02,2.706281840801239014e-02,6.148964911699295044e-02,5.930565297603607178e-03,-7.259020209312438965e-02,5.598311871290206909e-02,4.121474921703338623e-03,7.717580348253250122e-02,9.087108075618743896e-03,-2.885992452502250671e-02,4.204141348600387573e-02,7.857992500066757202e-02,-8.399487286806106567e-02,-1.102109253406524658e-02,-4.804817959666252136e-02,2.611996978521347046e-02,7.828995585441589355e-03,-5.421624332666397095e-02,-2.310243993997573853e-02,6.183498352766036987e-02,3.892190009355545044e-02,-7.889160513877868652e-02,-8.038023114204406738e-02
6.000944226980209351e-02,-8.492160588502883911e-02,7.685501128435134888e-02,-6.689521670341491699e-02,8.267327398061752319e-02,-7.989250868558883667e-02,2.150861173868179321e-02,-7.206963002681732178e-02,-4.628212377429008484e-02,3.570107370615005493e-02,-6.988236308097839355e-02,5.861051380634307861e-03,6.747738271951675415e-02,-4.901535436511039734e-02,-5.886787548661231995e-02,4.607338458299636841e-02,-3.730668127536773682e-02,3.316308557987213135e-02,1.295769214630126953e-02,8.313298225402832031e-03,-3.286997973918914795e-02,-1.795362681150436401e-02,-8.455959707498550415e-02,-7.676887512207031250e-02,3.172730654478073120e-02,-1.572810858488082886e-02,1.846358925104141235e-02,-2.448849380016326904e-03,-8.222106844186782837e-02,5.754046142101287842e-03,-1.696608960628509521e-02,-1.625000685453414917e-02
-1.324155926704406738e-02,4.850619286298751831e-02,8.079553395509719849e-02,-7.507605850696563721e-02,1.960276067256927490e-02,3.309672325849533081e-02,-4.603745043277740479e-02,6.410717219114303589e-02,-6.931223720312118530e-02,-4.386792704463005066e-02,-2.457072585821151733e-02,-8.180887252092361450e-02,-2.137498557567596436e-02,5.404574424028396606e-02,4.294536262750625610e-02,2.038000524044036865e-02,5.316054075956344604e-02,2.154680341482162476e-02,-4.665112122893333435e-02,3.721245378255844116e-02,-2.828014642000198364e-02,4.269740730524063110e-02,-1.342490315437316895e-02,4.942671209573745728e-02,-1.513630896806716919e-02,-6.614761054515838623e-02,-2.287512272596359253e-02,7.910335808992385864e-02,-8.189109712839126587e-02,6.135682016611099243e-02,-5.573759973049163818e-02,-6.380352377891540527e-02
2.770791202783584595e-02,3.420496731996536255e-02,3.245594352483749390e-02,-7.958241552114486694e-02,-4.939477890729904175e-02,-5.606623739004135132e-02,-7.687155157327651978e-02,5.806423723697662354e-03,1.435358077287673950e-02,3.567053377628326416e-02,-4.636715352535247803e-02,7.716784626245498657e-02,6.755948811769485474e-02,7.737646251916885376e-02,3.991567343473434448e-02,-4.527610540390014648e-02,-6.706181913614273071e-02,2.744882553815841675e-02,3.182247281074523926e-03,1.851680129766464233e-02,6.037961691617965698e-02,6.441696733236312866e-02,-4.127684608101844788e-02,3.084689378738403320e-03,-4.080209136009216309e-02,-6.217258423566818237e-02,8.057496696710586548e-02,-6.194457411766052246e-03,8.233874291181564331e-02,-2.823044732213020325e-02,7.677679508924484253e-02,-3.071521967649459839e-02
4.001737013459205627e-02,-2.395322080701589584e-03,-5.489751324057579041e-02,-2.206891030073165894e-02,-6.434500217437744141e-02,1.311272475868463516e-02,-8.485240489244461060e-02,6.573227047920227051e-02,-8.274973928928375244e-02,-8.368401229381561279e-02,-6.120231375098228455e-02,7.031466346234083176e-03,-6.043215841054916382e-02,-4.398833215236663818e-02,5.003485828638076782e-02,-2.971259690821170807e-02,5.475505068898200989e-02,7.073413580656051636e-02,-3.112203627824783325e-02,-4.664852097630500793e-02,-4.021576046943664551e-02,-5.992831289768218994e-02,2.222441136837005615e-02,7.439569383859634399e-02,7.583439350128173828e-02,-6.616158038377761841e-02,-7.028521597385406494e-02,6.104771047830581665e-02,-3.665652126073837280e-02,5.487996339797973633e-02,-1.683445274829864502e-02,-3.095298260450363159e-02
6.072952598333358765e-02,-7.039038836956024170e-02,5.002148076891899109e-02,-3.441768512129783630e-02,-3.150632232427597046e-02,-5.821999534964561462e-02,1.270788069814443588e-02,-7.353749871253967285e-02,-2.873797155916690826e-02,3.441124409437179565e-02,3.586648777127265930e-02,-4.946788400411605835e-02,-2.201317995786666870e-02,5.211069807410240173e-02,2.428216300904750824e-02,5.333822593092918396e-02,8.613750338554382324e-03,5.778460949659347534e-02,-5.848738551139831543e-02,-2.646602876484394073e-02,-5.755806714296340942e-02,6.727378070354461670e-02,5.108241364359855652e-02,-6.082668527960777283e-02,-3.886589780449867249e-02,-8.258610963821411133e-02,1.769226044416427612e-02,5.531026050448417664e-02,5.366990342736244202e-02,-6.277534365653991699e-02,5.813775211572647095e-02,3.155233338475227356e-02
3.835081309080123901e-02,5.896532535552978516e-02,-7.758326083421707153e-02,5.726998671889305115e-02,-6.708958745002746582e-02,-5.843403935432434082e-02,1.795973256230354309e-02,-6.997150182723999023e-02,2.507264725863933563e-02,1.881375443190336227e-03,1.068996544927358627e-02,-2.945685759186744690e-02,-4.314045235514640808e-02,8.797924965620040894e-03,3.325327998027205467e-03,3.473504632711410522e-02,5.491638928651809692e-02,-4.718060046434402466e-02,-8.888348005712032318e-03,-5.286348983645439148e-02,8.523572236299514771e-02,-4.965053498744964600e-02,-7.799713313579559326e-02,-2.051524445414543152e-02,6.605488061904907227e-02,-8.488777279853820801e-02,-4.502052441239356995e-02,-6.705636531114578247e-02,-5.991932749748229980e-02,-4.044229164719581604e-03,1.878437236882746220e-03,3.725074231624603271e-02
4.127674549818038940e-02,8.113645762205123901e-02,-5.848613381385803223e-02,-3.995943348854780197e-03,-1.877463608980178833e-02,-4.694963619112968445e-02,1.510366052389144897e-02,-4.669170081615447998e-02,1.460629515349864960e-02,1.632009446620941162e-02,-5.170965194702148438e-02,-6.352397054433822632e-02,-1.720564626157283783e-02,-2.157136239111423492e-02,4.374893754720687866e-02,-4.390234872698783875e-02,3.258699551224708557e-02,-6.592993438243865967e-02,1.639166288077831268e-02,8.121532201766967773e-02,-8.615922182798385620e-03,-2.283235453069210052e-02,7.323154807090759277e-02,-2.900214493274688721e-02,3.203208371996879578e-02,6.988330930471420288e-02,-7.105540484189987183e-02,-2.364994399249553680e-02,-3.404595330357551575e-02,-8.422866463661193848e-03,-1.199268084019422531e-02,7.163555920124053955e-02
2.107900194823741913e-02,7.757017016410827637e-02,5.562702193856239319e-03,-4.542757198214530945e-02,8.411069959402084351e-02,6.984899193048477173e-02,4.020338878035545349e-02,-5.358287319540977478e-02,-8.348227292299270630e-02,-8.930334821343421936e-03,5.772295221686363220e-02,5.066568404436111450e-02,-6.731899082660675049e-02,3.290210664272308350e-02,-1.861082622781395912e-03,-7.522687315940856934e-02,-3.644712036475539207e-03,-8.193133771419525146e-02,3.419413790106773376e-02,-6.315856426954269409e-02,-1.906621828675270081e-02,-3.229079593438655138e-04,7.520548254251480103e-02,2.016026899218559265e-02,-4.161394387483596802e-02,5.709429830312728882e-02,-7.841804996132850647e-03,2.541326545178890228e-02,-4.343506693840026855e-02,-3.850003704428672791e-02,5.469704791903495789e-02,-1.274415291845798492e-02
-5.259560421109199524e-04,-6.313628703355789185e-02,-3.098540194332599640e-02,-5.794953554868698120e-02,2.970213629305362701e-02,7.207445055246353149e-02,-6.293082982301712036e-02,-5.481345206499099731e-02,1.427291519939899445e-02,-1.955816708505153656e-02,-2.754946611821651459e-02,2.256515808403491974e-02,-2.021416323259472847e-03,-5.967131629586219788e-02,-1.356624253094196320e-02,6.270043551921844482e-02,-2.282926626503467560e-02,-7.364253699779510498e-02,7.813453674316406250e-02,-7.662927359342575073e-02,-2.888484112918376923e-02,-4.750999622046947479e-03,3.524353960528969765e-03,-7.262001186609268188e-02,-2.451181784272193909e-02,1.796099729835987091e-02,-1.524596288800239563e-02,-3.573609143495559692e-02,-3.906526044011116028e-02,6.760306656360626221e-02,-1.870105229318141937e-02,-4.051250964403152466e-02
-8.832972496747970581e-02,2.552873268723487854e-02,1.436527259647846222e-02,7.760808616876602173e-02,8.085532486438751221e-02,-3.206726629287004471e-03,-7.436487823724746704e-02,5.840987339615821838e-02,4.032456502318382263e-02,-6.365582346916198730e-02,-5.622709542512893677e-02,5.679250136017799377e-02,1.328806485980749130e-02,-7.779730856418609619e-02,4.495431855320930481e-02,8.250009268522262573e-02,1.891480758786201477e-02,-4.932652786374092102e-02,-6.791117787361145020e-02,-8.085796236991882324e-02,-7.062698900699615479e-02,-5.196018517017364502e-02,-3.989444673061370850e-02,8.319640159606933594e-02,-1.911889412440359592e-03,7.710903882980346680e-02,-6.054531410336494446e-02,-2.390034496784210205e-02,-3.453712677583098412e-03,2.305906452238559723e-02,-6.112616509199142456e-02,-3.366393223404884338e-02
-1.660188846290111542e-02,-8.694742619991302490e-02,-4.238527640700340271e-02,6.761462986469268799e-02,7.320938259363174438e-02,4.274730384349822998e-02,6.767334789037704468e-02,4.614702239632606506e-02,-4.887211322784423828e-02,7.610897719860076904e-02,-6.109083443880081177e-02,1.311256922781467438e-02,4.946136847138404846e-02,5.057442933320999146e-02,2.260809764266014099e-02,-7.532203942537307739e-02,7.468791306018829346e-02,-8.894439041614532471e-02,-7.624769955873489380e-02,3.595837205648422241e-02,-1.915302872657775879e-02,-1.006467640399932861e-01,5.345649272203445435e-02,1.990574598312377930e-02,-5.745038017630577087e-02,5.635538697242736816e-02,2.343988278880715370e-03,2.834440395236015320e-02,9.291157871484756470e-02,7.811675965785980225e-02,5.534097179770469666e-02,-3.000595793128013611e-02
5.157780647277832031e-02,-7.257457822561264038e-02,5.646771937608718872e-02,3.906341642141342163e-02,-3.767709434032440186e-02,-1.622376218438148499e-02,1.853515207767486572e-02,-2.576294820755720139e-03,5.102412030100822449e-02,1.488010771572589874e-02,-4.837299883365631104e-02,1.149453688412904739e-02,6.667731702327728271e-02,2.782391384243965149e-03,4.538826644420623779e-02,3.219478204846382141e-02,-5.152407661080360413e-02,5.216124281287193298e-02,8.095748722553253174e-02,6.911701709032058716e-02,4.755957052111625671e-02,-2.966658771038055420e-02,-8.198878914117813110e-02,-1.798659004271030426e-02,6.687953323125839233e-02,4.243758693337440491e-02,-2.030707523226737976e-02,-1.000555679202079773e-01,3.408426418900489807e-02,2.471591904759407043e-02,4.362801089882850647e-03,5.409654229879379272e-02
3.209737688302993774e-02,-7.353938370943069458e-02,-9.072374552488327026e-03,-3.904585167765617371e-02,-6.925946800038218498e-04,-1.487406250089406967e-02,4.417880624532699585e-02,-3.471797332167625427e-02,3.515238687396049500e-02,6.577639281749725342e-02,-5.623555555939674377e-02,9.294772893190383911e-02,8.491546846926212311e-03,3.953930735588073730e-02,4.572237655520439148e-02,-6.386540085077285767e-02,1.336379162967205048e-02,7.436829805374145508e-02,-1.138711581006646156e-03,-1.397353503853082657e-02,7.769989781081676483e-03,-3.852126002311706543e-02,-2.245375700294971466e-02,8.530540391802787781e-03,-1.955469325184822083e-02,-3.935602679848670959e-02,6.989283859729766846e-02,-2.732384763658046722e-02,8.519029244780540466e-03,-5.444306135177612305e-02,8.458152413368225098e-02,-8.223850280046463013e-02
3.583541885018348694e-02,4.344224929809570312e-02,-4.732272401452064514e-02,7.598782330751419067e-02,5.924872308969497681e-02,1.538344472646713257e-02,-1.717433892190456390e-02,-6.722656637430191040e-02,-2.771772071719169617e-02,5.704631656408309937e-02,5.449704453349113464e-02,1.044939234852790833e-01,1.115852817893028259e-01,3.815891104750335217e-04,-4.812442138791084290e-02,2.063653245568275452e-02,-3.666216880083084106e-02,1.357958372682332993e-02,9.024707973003387451e-02,5.368326976895332336e-02,-1.356965303421020508e-02,-2.365822345018386841e-02,-3.666819259524345398e-02,2.782411873340606689e-02,1.468850206583738327e-02,4.006415139883756638e-03,8.029182255268096924e-02,-4.500158503651618958e-02,1.270535681396722794e-02,8.841040544211864471e-03,-5.774287134408950806e-02,5.491011589765548706e-02
-7.963627576828002930e-02,1.576247066259384155e-02,-5.655251070857048035e-02,1.009532250463962555e-02,3.291119122877717018e-03,-5.065271630883216858e-02,5.751375481486320496e-02,7.282949984073638916e-02,-2.600040473043918610e-02,-2.540323324501514435e-02,1.930515654385089874e-02,5.594839528203010559e-02,-2.728271484375000000e-02,-1.117244735360145569e-01,-3.971019294112920761e-03,1.138992328196763992e-02,-6.724085658788681030e-02,3.659756109118461609e-02,1.211675405502319336e-01,-9.933116845786571503e-03,1.022881641983985901e-01,-9.079694002866744995e-02,-3.081406094133853912e-02,-5.478551611304283142e-02,3.142579644918441772e-02,1.161037683486938477e-01,9.040719270706176758e-02,-1.385710574686527252e-02,-6.735716760158538818e-02,4.775106534361839294e-02,1.772766187787055969e-02,3.982996940612792969e-02
2.672530896961688995e-02,-1.200843043625354767e-02,-1.701170392334461212e-02,-1.515469746664166451e-03,3.824749961495399475e-02,-5.437682569026947021e-02,5.276178196072578430e-02,1.788225583732128143e-02,-1.316539943218231201e-01,3.604718670248985291e-02,1.447353791445493698e-02,3.533586487174034119e-02,1.060217525810003281e-02,3.617696464061737061e-02,-8.150360733270645142e-02,7.684396952390670776e-02,-2.108117938041687012e-02,-1.619914732873439789e-02,1.620839089155197144e-01,1.531111896038055420e-01,9.671007096767425537e-02,3.184885531663894653e-02,-8.177690207958221436e-02,3.993686288595199585e-02,-1.735653541982173920e-02,-5.562334880232810974e-02,-6.206519901752471924e-02,-4.367771744728088379e-02,-3.488774597644805908e-02,7.552333176136016846e-02,7.974345237016677856e-02,-9.270068258047103882e-02
6.523312628269195557e-02,5.856699775904417038e-03,7.107684761285781860e-02,5.480883270502090454e-02,-4.169690236449241638e-02,1.128401327878236771e-02,4.460522532463073730e-02,1.171641983091831207e-03,1.564089395105838776e-02,7.016825675964355469e-02,-3.405117243528366089e-02,9.089817851781845093e-02,7.051740586757659912e-02,4.122412577271461487e-02,-1.753188902512192726e-03,-1.660262234508991241e-02,4.373609647154808044e-02,3.391104564070701599e-02,9.263175725936889648e-02,1.299896650016307831e-02,9.857870638370513916e-02,-4.284203797578811646e-02,-1.243547722697257996e-01,3.044432960450649261e-02,4.362952709197998047e-02,4.965316876769065857e-02,-2.840112149715423584e-02,1.626679860055446625e-02,-5.507780238986015320e-02,-1.121632102876901627e-02,-5.705676972866058350e-02,-2.134298905730247498e-02
2.448373660445213318e-02,-9.101552516222000122e-02,1.385862976312637329e-01,3.218775242567062378e-02,8.725843392312526703e-03,7.311693578958511353e-02,2.826995914801955223e-03,6.674178689718246460e-02,-4.618521407246589661e-02,2.124862931668758392e-02,7.611104846000671387e-02,1.639542281627655029e-01,-1.918650977313518524e-02,-5.965579673647880554e-02,3.398180007934570312e-03,-1.395128481090068817e-02,5.037533491849899292e-02,1.861082017421722412e-02,9.655475616455078125e-02,8.276003599166870117e-02,9.215068072080612183e-02,9.551636874675750732e-02,-4.694233089685440063e-02,-1.044458057731389999e-02,-1.754966005682945251e-02,-5.796406418085098267e-03,5.961827561259269714e-02,-4.807521123439073563e-03,-7.631511986255645752e-02,1.261475235223770142e-01,3.613106533885002136e-02,-1.540595013648271561e-02
3.041188418865203857e-02,1.345842797309160233e-02,1.430048644542694092e-01,2.605039067566394806e-02,-8.025066554546356201e-02,-1.152609940618276596e-02,1.615758240222930908e-02,7.000620663166046143e-02,-1.145446076989173889e-01,-7.859991490840911865e-02,1.904239319264888763e-02,4.512778669595718384e-02,1.109134852886199951e-01,-5.767864361405372620e-02,5.677597597241401672e-03,-4.486580193042755127e-02,-2.840318158268928528e-02,8.276945352554321289e-02,3.880383074283599854e-02,-2.970963716506958008e-02,-8.136612176895141602e-02,-4.439789801836013794e-02,-9.387444704771041870e-02,5.128505825996398926e-02,7.658072747290134430e-03,8.911017328500747681e-03,8.548286557197570801e-02,-1.085910350084304810e-01,-7.147611677646636963e-02,2.154028229415416718e-02,3.863316029310226440e-02,1.111641526222229004e-01
-6.931183487176895142e-02,9.441809961572289467e-04,6.653909385204315186e-02,-4.768408089876174927e-02,-2.475220523774623871e-02,-2.819698769599199295e-03,9.814915060997009277e-02,-7.287523895502090454e-02,-1.086156591773033142e-01,3.366731479763984680e-02,5.386108160018920898e-02,6.938631087541580200e-02,5.930177122354507446e-02,8.133362978696823120e-02,-1.021043509244918823e-01,7.067613303661346436e-02,7.566366344690322876e-02,3.902287036180496216e-02,-4.908653348684310913e-02,1.991355605423450470e-02,-5.309937521815299988e-02,-2.762665785849094391e-02,-4.669925943017005920e-02,-5.344727262854576111e-02,3.923864662647247314e-02,4.230718687176704407e-02,-1.151005644351243973e-02,1.542323268949985504e-02,-9.817168861627578735e-02,3.229692205786705017e-02,-3.380827978253364563e-02,5.694295838475227356e-02
-2.440018765628337860e-02,-6.563565880060195923e-02,1.539001166820526123e-01,-1.703315041959285736e-02,2.446590363979339600e-02,-6.098194979131221771e-03,5.796755477786064148e-02,7.924940437078475952e-02,5.184521898627281189e-02,-1.680200733244419098e-02,-5.017952620983123779e-02,1.847889646887779236e-02,8.026051521301269531e-02,8.476810157299041748e-02,-1.100156754255294800e-01,6.427293177694082260e-03,-1.242797449231147766e-02,-6.538693606853485107e-02,2.661259099841117859e-02,5.694220960140228271e-02,4.632867500185966492e-02,3.327107522636651993e-03,3.546060249209403992e-02,2.103692851960659027e-02,-8.020237088203430176e-02,-7.444579154253005981e-02,7.535763829946517944e-02,-3.724500536918640137e-02,7.458502799272537231e-02,5.859973281621932983e-02,-4.064695164561271667e-02,6.948344409465789795e-02
-2.727039717137813568e-02,-8.578719943761825562e-02,-1.828367635607719421e-02,7.343011908233165741e-03,-8.221405558288097382e-03,-2.893943339586257935e-02,2.861220575869083405e-02,-7.723104953765869141e-02,3.978932276368141174e-02,-2.325173700228333473e-03,2.241183258593082428e-02,5.461492761969566345e-02,-6.322605162858963013e-02,-5.517400801181793213e-02,-3.153029829263687134e-02,6.415037787519395351e-04,-7.109183818101882935e-02,7.178592681884765625e-02,-3.457356616854667664e-02,-5.411422997713088989e-02,7.592684123665094376e-03,-1.242194250226020813e-01,7.165624946355819702e-02,8.457437157630920410e-02,-7.972816377878189087e-02,2.004500664770603180e-02,-7.982940971851348877e-02,5.062007158994674683e-02,-4.089407448191195726e-04,-1.179507095366716385e-02,-4.798621311783790588e-02,4.303218796849250793e-03
-8.393823355436325073e-02,4.426197707653045654e-02,1.030923277139663696e-01,-4.804452881217002869e-02,-7.690129801630973816e-03,2.886484935879707336e-02,7.995620369911193848e-02,-1.265395060181617737e-02,-6.631033867597579956e-02,-3.693942725658416748e-02,1.796133443713188171e-02,3.207045421004295349e-02,-6.256564520299434662e-03,-4.168750345706939697e-02,-7.091754674911499023e-02,5.210448801517486572e-02,-5.085822194814682007e-02,-4.615729302167892456e-02,1.800030842423439026e-02,6.346733868122100830e-02,-1.115071680396795273e-02,5.081191286444664001e-02,-8.265523612499237061e-02,-2.098454721271991730e-02,1.085760741261765361e-04,-2.673550508916378021e-02,-7.518113404512405396e-02,-4.612033441662788391e-02,2.414579875767230988e-02,1.210124604403972626e-02,7.370720058679580688e-02,5.979439616203308105e-02
3.969401121139526367e-02,-3.594459220767021179e-02,6.390769034624099731e-02,-6.994862109422683716e-02,-4.482708498835563660e-02,-2.470588870346546173e-02,3.876338154077529907e-02,7.392183691263198853e-02,7.893530279397964478e-02,-2.420902810990810394e-02,3.502129390835762024e-02,1.517397351562976837e-02,1.820894144475460052e-02,2.187623269855976105e-02,6.612822413444519043e-02,-5.435987934470176697e-02,-2.360438928008079529e-02,-1.656608656048774719e-02,2.448390610516071320e-02,7.506095804274082184e-03,1.473166979849338531e-02,-1.709366962313652039e-02,5.422633513808250427e-02,-3.545681014657020569e-02,-5.338409543037414551e-02,-5.043439567089080811e-02,5.408854037523269653e-02,8.199704438447952271e-02,-6.613411754369735718e-02,4.902896657586097717e-02,4.650881513953208923e-02,-5.112574435770511627e-03
-6.942871958017349243e-02,-7.104425225406885147e-03,6.589496880769729614e-02,7.397567480802536011e-02,-3.696031495928764343e-02,2.858778648078441620e-02,7.186368107795715332e-02,2.639870159327983856e-03,7.210525870323181152e-02,-1.820956729352474213e-02,5.022829025983810425e-02,3.957048058509826660e-02,-4.783648625016212463e-02,2.736992575228214264e-02,-7.398780435323715210e-02,-3.522086888551712036e-02,-5.596621427685022354e-03,-5.736067146062850952e-02,-2.306597493588924408e-02,2.568546123802661896e-02,2.895913459360599518e-02,-3.142199292778968811e-02,9.247223846614360809e-03,-1.310258172452449799e-02,5.073564127087593079e-02,7.597582042217254639e-02,4.686743021011352539e-02,3.537228330969810486e-03,-9.875293821096420288e-03,5.534422397613525391e-02,3.633623570203781128e-02,-2.023502252995967865e-02
5.252832174301147461e-02,-8.468794822692871094e-02,-5.429831519722938538e-02,7.991982251405715942e-02,-3.553754463791847229e-02,-3.019928559660911560e-02,2.591434866189956665e-02,-4.340251907706260681e-02,-6.098179891705513000e-02,-3.026647318620234728e-04,2.139152213931083679e-02,4.843329265713691711e-02,-4.431853070855140686e-02,-6.662242114543914795e-02,-5.466249212622642517e-02,-4.552224650979042053e-03,7.357909530401229858e-02,-2.815049374476075172e-03,4.933306947350502014e-02,7.803921401500701904e-02,-3.736408799886703491e-02,-3.750048950314521790e-02,1.731257326900959015e-02,-5.602199956774711609e-02,3.006102330982685089e-02,-6.351529806852340698e-02,-5.913418531417846680e-02,-1.544630713760852814e-02,-1.231093774549663067e-03,1.097057573497295380e-02,-5.103751271963119507e-02,7.777772843837738037e-02
-5.962271615862846375e-02,4.976347088813781738e-02,2.535130456089973450e-02,5.315113067626953125e-02,4.724206775426864624e-02,5.172228068113327026e-02,-2.337044104933738708e-02,4.407625645399093628e-02,-8.813538588583469391e-03,-5.624201893806457520e-02,-7.266530394554138184e-02,1.192798465490341187e-02,3.264518827199935913e-02,-5.156555399298667908e-02,2.159077301621437073e-02,-5.447073839604854584e-03,5.179867893457412720e-02,6.049786880612373352e-02,7.486049085855484009e-02,7.653451710939407349e-02,5.703494697809219360e-02,4.570754244923591614e-03,-4.320954158902168274e-02,4.400980100035667419e-02,-6.227682903409004211e-02,7.241038978099822998e-02,8.404415845870971680e-02,-5.074729770421981812e-02,4.813700914382934570e-02,6.320136040449142456e-02,1.477436441928148270e-02,-7.654505223035812378e-02
1.216128468513488770e-02,-3.514036908745765686e-02,-2.189825475215911865e-02,8.026578277349472046e-02,8.201178163290023804e-02,1.667851954698562622e-02,8.009449392557144165e-02,-5.335107445716857910e-03,2.128225564956665039e-02,-7.380526512861251831e-02,7.937061041593551636e-02,-8.732400834560394287e-03,5.124591290950775146e-03,-1.511745154857635498e-03,4.863023757934570312e-03,6.997332721948623657e-02,-6.288886815309524536e-02,2.769460529088973999e-02,-8.364660292863845825e-02,-3.135344758629798889e-02,-6.974974274635314941e-02,1.683463156223297119e-02,-7.666622847318649292e-02,-4.011994972825050354e-02,-5.327272042632102966e-02,4.554460197687149048e-02,6.811771541833877563e-02,1.759047806262969971e-02,-4.160948097705841064e-03,-6.772625446319580078e-02,3.384006023406982422e-02,-5.193474888801574707e-02
-1.883448660373687744e-02,-6.038083136081695557e-02,7.306792587041854858e-02,5.776398628950119019e-02,6.601646542549133301e-03,6.818871945142745972e-02,-4.296749830245971680e-04,1.597893983125686646e-02,6.677656620740890503e-02,7.834304124116897583e-02,-4.176072031259536743e-02,9.317658841609954834e-03,-7.317691296339035034e-02,-1.926919072866439819e-02,7.648938149213790894e-02,6.985329836606979370e-02,-6.778016686439514160e-02,6.447946280241012573e-02,-6.454726308584213257e-02,-2.162914723157882690e-02,-3.834870457649230957e-02,7.066158205270767212e-02,-1.740179955959320068e-02,2.873355895280838013e-02,-6.981134414672851562e-02,-2.901665121316909790e-02,2.734944224357604980e-02,7.702708244323730469e-03,3.707563877105712891e-02,5.330694466829299927e-02,6.245518475770950317e-02,-7.524778693914413452e-02
-5.019976943731307983e-02,7.516039162874221802e-02,-1.739488542079925537e-02,-2.282039821147918701e-02,5.288265645503997803e-03,8.534707129001617432e-03,-3.164101392030715942e-02,-1.684769988059997559e-03,-3.091144189238548279e-02,-4.391466453671455383e-02,-6.385953724384307861e-02,-7.789909839630126953e-02,-4.223264753818511963e-03,-1.475927978754043579e-02,2.887726575136184692e-02,-5.627977848052978516e-02,2.945838868618011475e-02,-8.216676861047744751e-02,-4.179312661290168762e-02,8.538492769002914429e-02,7.826653867959976196e-02,6.337598711252212524e-02,-7.154562324285507202e-02,1.904068887233734131e-02,-8.567419648170471191e-02,1.999694854021072388e-02,4.392681270837783813e-02,-4.442642256617546082e-02,-1.560182869434356689e-02,-6.325037777423858643e-02,-2.511468529701232910e-02,5.299512296915054321e-02
1.804977655410766602e-02,1.318981498479843140e-02,-1.299621164798736572e-02,5.680681020021438599e-02,-2.050692588090896606e-02,-7.970305532217025757e-02,4.312574118375778198e-02,-7.541013509035110474e-02,9.760439395904541016e-03,6.530925631523132324e-03,-4.953191801905632019e-02,3.300104290246963501e-02,2.015737444162368774e-02,1.244450360536575317e-02,-2.079905569553375244e-02,-2.748740091919898987e-02,1.149807870388031006e-02,2.588326483964920044e-02,6.416871398687362671e-02,-6.547549366950988770e-02,-8.221687376499176025e-02,-4.345881938934326172e-02,-6.501937657594680786e-02,2.945808321237564087e-02,-3.857467323541641235e-02,-7.396039366722106934e-02,-3.798817098140716553e-02,2.601045370101928711e-02,5.346409976482391357e-03,2.469325065612792969e-02,-3.869093954563140869e-02,8.457479625940322876e-02
6.773663312196731567e-02,-6.995965540409088135e-02,-4.293642193078994751e-02,7.129403203725814819e-02,-2.789119724184274673e-03,4.594126716256141663e-03,3.524306043982505798e-02,-7.870575413107872009e-03,-2.273615449666976929e-02,-4.893224686384201050e-02,-3.903071209788322449e-02,-8.378209918737411499e-02,3.074947744607925415e-02,-5.176321417093276978e-02,-4.505347087979316711e-02,-1.535076764412224293e-03,4.704811424016952515e-02,-6.289166957139968872e-02,4.895391687750816345e-02,-2.937458828091621399e-02,6.363254785537719727e-02,8.999598212540149689e-03,1.611600443720817566e-02,-2.169273048639297485e-02,-1.957393623888492584e-02,-2.223449759185314178e-02,7.856466621160507202e-02,2.423387765884399414e-02,-5.284218490123748779e-02,3.223615000024437904e-03,1.411120465490967035e-04,5.932263098657131195e-03
2.418604306876659393e-02,1.717838272452354431e-02,-2.133550355210900307e-03,-5.214143171906471252e-02,-8.441082388162612915e-02,-6.902898848056793213e-02,-3.491021692752838135e-02,2.710608951747417450e-02,-1.440180931240320206e-02,-6.738662719726562500e-03,-8.031510561704635620e-02,-3.322486951947212219e-02,-8.226563781499862671e-02,1.785043813288211823e-02,2.330620773136615753e-02,5.974485352635383606e-02,2.669757045805454254e-02,-2.916477434337139130e-02,8.454835414886474609e-02,-4.164119809865951538e-02,2.273090369999408722e-02,-2.382540516555309296e-02,-3.050683625042438507e-02,-6.219806894659996033e-02,4.082950577139854431e-02,5.934843793511390686e-02,3.096393682062625885e-02,-6.671040505170822144e-02,3.835546970367431641e-02,1.519828941673040390e-02,8.823244133964180946e-04,-6.774806976318359375e-02
-7.672552764415740967e-02,4.051453992724418640e-02,6.181578710675239563e-02,-3.644376993179321289e-02,5.416493117809295654e-02,3.328929841518402100e-02,-8.038391917943954468e-02,9.141518734395503998e-03,-5.551603436470031738e-02,3.732761368155479431e-02,3.564561158418655396e-02,4.985964298248291016e-02,-5.139659345149993896e-02,6.164076621644198895e-04,3.068703785538673401e-02,7.965198159217834473e-02,2.093045786023139954e-02,-2.022031880915164948e-02,8.505867421627044678e-02,2.689088694751262665e-02,-4.891642555594444275e-02,-8.149181492626667023e-03,-3.954545408487319946e-02,-3.194956807419657707e-03,-4.609429091215133667e-02,7.468568626791238785e-03,-4.688077047467231750e-02,4.910039529204368591e-02,1.907494151964783669e-03,3.284155577421188354e-02,-7.563096284866333008e-02,-5.344651266932487488e-02
-6.221837922930717468e-02,4.072318226099014282e-02,4.120700061321258545e-02,2.177132852375507355e-02,3.802080871537327766e-03,7.312618196010589600e-02,-3.843935206532478333e-02,-3.221026062965393066e-02,5.882373824715614319e-02,-2.312145940959453583e-02,2.170591056346893311e-02,7.147561758756637573e-02,1.120378728955984116e-02,-5.063713714480400085e-02,1.537181902676820755e-02,5.338313430547714233e-02,3.684205189347267151e-02,-4.694870114326477051e-02,-5.562150850892066956e-02,3.334457054734230042e-02,3.168683499097824097e-02,-6.164053454995155334e-02,7.658003270626068115e-02,6.867253780364990234e-02,1.982011459767818451e-02,-1.835715607739984989e-03,7.522691041231155396e-03,-1.128419025917537510e-04,-2.026960253715515137e-02,-7.607030868530273438e-02,-1.959714666008949280e-02,-2.903904207050800323e-02
2.314152941107749939e-02,4.091347381472587585e-02,5.999516323208808899e-02,-2.461266331374645233e-02,-4.372651875019073486e-02,4.341064020991325378e-02,4.593231528997421265e-02,-8.235205896198749542e-03,2.161747775971889496e-02,4.957856982946395874e-02,-6.040253117680549622e-02,-4.236255586147308350e-02,8.026455342769622803e-02,1.691484637558460236e-02,-5.068010464310646057e-02,-2.012567408382892609e-02,-6.039525568485260010e-02,2.932384237647056580e-02,-4.144449252635240555e-03,-5.775070935487747192e-02,3.402668982744216919e-02,-3.821324557065963745e-02,3.418653830885887146e-02,7.971844077110290527e-02,1.729193888604640961e-02,-6.027008593082427979e-02,5.225957185029983521e-02,4.845888353884220123e-03,4.419101774692535400e-02,-4.124928265810012817e-02,-6.226097792387008667e-02,-1.934869214892387390e-03
-3.148973360657691956e-02,-3.682801872491836548e-02,1.648134551942348480e-02,-3.333955258131027222e-02,-5.816063284873962402e-02,3.220587968826293945e-02,4.597049579024314880e-02,-6.410407274961471558e-02,-1.787363365292549133e-02,2.219810523092746735e-02,-7.820844650268554688e-02,-1.649245433509349823e-02,-3.664766997098922729e-02,-6.043680384755134583e-02,2.105770632624626160e-02,8.316060155630111694e-02,5.189729388803243637e-03,-4.406363144516944885e-02,2.735048532485961914e-02,-5.891242530196905136e-03,7.109548151493072510e-02,-6.170234456658363342e-02,6.553643941879272461e-02,4.311427474021911621e-02,-8.602830767631530762e-02,-6.685225293040275574e-03,3.264802321791648865e-02,4.065621271729469299e-02,8.239001035690307617e-02,-7.732905447483062744e-02,2.547491528093814850e-02,2.512640878558158875e-02
5.010107066482305527e-03,-8.434755355119705200e-02,6.637455523014068604e-02,9.575156867504119873e-02,6.248744204640388489e-02,-7.523971796035766602e-02,1.505079586058855057e-02,1.370483450591564178e-02,-4.455688595771789551e-02,1.931816525757312775e-02,-5.747258290648460388e-02,3.298055753111839294e-02,-1.484632212668657303e-02,8.417022228240966797e-02,-9.533972479403018951e-03,8.144085109233856201e-02,-9.317549876868724823e-03,-1.685521751642227173e-02,-1.583447447046637535e-03,4.845575895160436630e-03,-1.922990754246711731e-02,2.026266232132911682e-02,1.069999486207962036e-02,-2.869182825088500977e-02,-3.133906424045562744e-02,-6.637337803840637207e-02,3.338060900568962097e-02,-8.597850799560546875e-02,7.369749248027801514e-02,-4.200730007141828537e-03,5.031153187155723572e-02,-1.452892553061246872e-02
-2.484017424285411835e-02,8.144240081310272217e-02,-5.295451730489730835e-02,9.753286093473434448e-02,2.488715946674346924e-02,1.061700563877820969e-02,8.479920774698257446e-02,8.270970731973648071e-02,-1.420642286539077759e-01,-3.085446916520595551e-02,5.217311158776283264e-02,6.575538218021392822e-02,8.114817738533020020e-02,3.703824058175086975e-02,-5.869070068001747131e-02,9.092670679092407227e-02,4.427482560276985168e-02,1.648176647722721100e-02,-3.947094827890396118e-02,-6.286512315273284912e-02,1.667086221277713776e-02,-1.332563459873199463e-01,5.189754441380500793e-02,-4.400186240673065186e-02,-1.418555714190006256e-02,8.056611567735671997e-02,1.370705664157867432e-02,3.675040230154991150e-02,9.516631811857223511e-02,-5.797532945871353149e-02,8.296889811754226685e-02,-9.011856280267238617e-03
-2.125251851975917816e-02,7.217462360858917236e-02,-1.611761935055255890e-02,-5.847907625138759613e-03,-5.503180995583534241e-02,-1.461610794067382812e-01,5.233094468712806702e-02,-5.233214423060417175e-02,-1.662774570286273956e-02,-1.110121048986911774e-02,1.911931484937667847e-02,6.250567734241485596e-02,1.795179769396781921e-02,6.556633859872817993e-02,-4.680397361516952515e-02,7.761265337467193604e-02,9.247942268848419189e-02,-1.250341087579727173e-01,3.924080636352300644e-03,9.551633894443511963e-02,5.218940600752830505e-02,-1.041923239827156067e-01,-8.354041725397109985e-02,5.108025297522544861e-02,-6.495191901922225952e-02,1.003431975841522217e-01,-8.381671458482742310e-02,-2.889670245349407196e-02,1.466507613658905029e-01,-4.274491593241691589e-02,-7.061356306076049805e-02,-4.117999225854873657e-02
-7.123863697052001953e-02,-4.267268348485231400e-03,3.885579109191894531e-02,9.634219110012054443e-02,3.332676738500595093e-02,-8.391128480434417725e-02,8.483239263296127319e-02,-5.353897809982299805e-02,-1.368477344512939453e-01,-1.017396058887243271e-02,-6.303196307271718979e-03,-3.787136077880859375e-02,4.507868364453315735e-02,7.546378672122955322e-02,3.941682726144790649e-02,1.228683814406394958e-02,7.235678285360336304e-02,-1.638955809175968170e-02,1.654013246297836304e-02,7.013939321041107178e-02,1.028139740228652954e-01,-1.310781389474868774e-01,-1.056884303689002991e-01,-9.599011391401290894e-02,6.857857853174209595e-02,1.206850260496139526e-01,7.534413784742355347e-02,-9.483402222394943237e-02,1.493120938539505005e-02,1.204782053828239441e-01,-9.785152971744537354e-03,-1.558775156736373901e-01
9.664629399776458740e-02,1.051000654697418213e-01,-1.077560987323522568e-02,3.356298059225082397e-02,-7.288099080324172974e-02,-5.238992348313331604e-02,7.466480135917663574e-02,5.080560967326164246e-02,-1.015197485685348511e-01,4.789915680885314941e-02,2.853223495185375214e-02,2.618803456425666809e-02,1.379627138376235962e-01,1.453587040305137634e-02,-2.961879130452871323e-03,5.353583022952079773e-02,1.055357828736305237e-01,3.200990380719304085e-03,6.574958562850952148e-02,1.203124076128005981e-01,1.285211443901062012e-01,-9.090323001146316528e-02,-1.324359923601150513e-01,-2.354735694825649261e-02,-2.882749773561954498e-02,6.683949381113052368e-02,-4.977799206972122192e-02,-1.070304438471794128e-01,4.388041049242019653e-02,-2.027404122054576874e-02,-3.402608633041381836e-02,-1.435887962579727173e-01
2.669801004230976105e-03,9.081432968378067017e-02,-3.708745911717414856e-02,1.096839830279350281e-02,-2.482910826802253723e-02,3.977069631218910217e-02,1.043422445654869080e-01,-8.382607251405715942e-02,-1.681012064218521118e-01,-1.763882301747798920e-02,4.427907243371009827e-02,9.483261406421661377e-02,5.514730885624885559e-02,3.207929804921150208e-02,4.159606248140335083e-02,-9.192208945751190186e-02,9.644600003957748413e-02,-4.539399966597557068e-02,1.466681063175201416e-01,4.278562590479850769e-02,4.333281517028808594e-02,-7.970643788576126099e-02,-1.623748987913131714e-01,-4.368861764669418335e-02,1.128743216395378113e-01,1.166970580816268921e-01,5.589661747217178345e-02,4.821666050702333450e-03,1.921883970499038696e-02,8.223533630371093750e-02,-2.597184665501117706e-02,-1.307101547718048096e-01
1.173300892114639282e-01,-3.629144653677940369e-02,2.971388772130012512e-02,1.303597688674926758e-01,-5.476367101073265076e-02,-4.289585351943969727e-02,3.265079809352755547e-03,-9.112250804901123047e-02,-1.065206527709960938e-01,8.038752526044845581e-02,-7.644128054380416870e-02,4.079772159457206726e-02,6.104296073317527771e-02,-8.874915540218353271e-02,-4.096819832921028137e-02,-5.575817450881004333e-02,-1.046362798660993576e-02,-8.829700760543346405e-03,2.460434436798095703e-01,-2.859381400048732758e-02,7.095891982316970825e-02,-9.697300940752029419e-02,-8.095478266477584839e-02,-1.271621286869049072e-01,1.260439157485961914e-01,6.495188921689987183e-02,5.338427610695362091e-03,-1.295166462659835815e-01,-1.093066856265068054e-01,1.017267405986785889e-01,9.682372212409973145e-02,-1.431895792484283447e-01
9.845556318759918213e-02,-1.805211976170539856e-02,6.415867060422897339e-02,-4.425967484712600708e-02,-9.077642858028411865e-02,5.219994857907295227e-02,5.566179752349853516e-02,-9.237737208604812622e-02,-3.197719156742095947e-02,-3.595595946535468102e-03,2.965520322322845459e-02,1.899259388446807861e-01,4.323524236679077148e-02,-4.243855178356170654e-02,-8.342923223972320557e-02,1.194676477462053299e-02,4.716276377439498901e-02,-6.942795962095260620e-02,2.768880426883697510e-01,9.061624109745025635e-02,1.755287498235702515e-02,-9.688905626535415649e-02,-8.675629645586013794e-02,-5.353409424424171448e-02,8.946800231933593750e-02,1.572794467210769653e-01,-2.286333777010440826e-02,-1.492628008127212524e-01,-1.825863718986511230e-01,1.404093354940414429e-01,-6.522192806005477905e-02,-8.570405095815658569e-02
2.456122636795043945e-01,-1.106666214764118195e-02,9.035302698612213135e-02,3.864109888672828674e-02,-8.134371042251586914e-02,4.721782356500625610e-02,8.036616444587707520e-02,3.516289591789245605e-02,-1.513345390558242798e-01,7.231257110834121704e-02,-6.211331486701965332e-02,2.110013812780380249e-01,1.326856464147567749e-01,-4.896164312958717346e-02,-5.338501557707786560e-02,2.915816009044647217e-02,-1.191035192459821701e-02,-2.175933867692947388e-02,1.440671831369400024e-01,2.295505069196224213e-02,-2.107967250049114227e-02,-7.180260866880416870e-02,-5.169501528143882751e-02,-1.464563328772783279e-02,1.026536524295806885e-01,5.090515688061714172e-02,1.609367132186889648e-02,-5.044475942850112915e-02,-1.430758982896804810e-01,8.601853996515274048e-02,-2.819533646106719971e-02,-1.004390865564346313e-01
1.843082457780838013e-01,-1.928856410086154938e-02,3.190817832946777344e-01,-6.860610842704772949e-02,-8.589836955070495605e-02,1.363503336906433105e-01,1.449928991496562958e-02,6.334596127271652222e-02,-8.035640418529510498e-02,-3.424314316362142563e-03,7.267770357429981232e-03,1.923698633909225464e-01,-2.900942787528038025e-02,3.408960253000259399e-02,-1.034025847911834717e-02,9.885409474372863770e-02,5.690010264515876770e-02,1.607085764408111572e-02,1.170195192098617554e-01,2.178058773279190063e-02,5.097098276019096375e-02,-4.966674372553825378e-02,-1.501238495111465454e-01,2.169154398143291473e-02,7.332535833120346069e-02,-3.130247071385383606e-02,-3.259358182549476624e-02,-9.387619793415069580e-02,-1.038709282875061035e-01,1.542769074440002441e-01,-1.407688111066818237e-02,1.045887619256973267e-01
8.898836374282836914e-02,3.508397191762924194e-02,3.207063376903533936e-01,4.733644053339958191e-02,-1.751198470592498779e-01,2.099707424640655518e-01,5.420765280723571777e-02,4.746025893837213516e-03,2.608856745064258575e-02,3.828362748026847839e-02,-9.520055353641510010e-02,1.439500302076339722e-01,-4.644211009144783020e-02,8.784195780754089355e-02,-5.688902735710144043e-02,4.950813204050064087e-02,2.613781020045280457e-02,4.435443785041570663e-03,1.051854789257049561e-01,-1.351015642285346985e-02,-5.551991984248161316e-02,-9.732667356729507446e-02,-1.454311162233352661e-01,2.482578624039888382e-03,-5.101010948419570923e-02,6.875625997781753540e-02,4.755253717303276062e-02,-5.471126735210418701e-02,-1.086636539548635483e-02,1.086453050374984741e-01,-7.151335477828979492e-02,4.212797805666923523e-02
1.168618947267532349e-01,-7.069548964500427246e-02,2.770281136035919189e-01,1.934178173542022705e-03,-7.870023697614669800e-02,3.986233472824096680e-02,9.962233901023864746e-02,6.683198362588882446e-02,-2.505918731912970543e-03,-8.308382332324981689e-02,-2.983553521335124969e-02,3.275448828935623169e-02,-4.627536237239837646e-02,4.816023632884025574e-02,4.208546876907348633e-02,6.377340853214263916e-02,-2.984566055238246918e-02,9.830591082572937012e-02,6.249188259243965149e-02,-9.067804366350173950e-02,4.144216701388359070e-02,-8.532109856605529785e-02,-1.175644174218177795e-01,4.923368245363235474e-02,-3.272918984293937683e-02,6.196307018399238586e-02,-4.540989920496940613e-02,-1.101715117692947388e-01,7.114884909242391586e-03,5.023909732699394226e-02,2.827179152518510818e-03,1.353477388620376587e-01
-6.219074875116348267e-02,-1.061116084456443787e-01,1.883442401885986328e-01,5.605455487966537476e-03,-6.365919951349496841e-03,3.351425006985664368e-02,7.082829624414443970e-02,2.195713669061660767e-02,-4.162761941552162170e-02,8.057819306850433350e-02,1.298605464398860931e-02,-4.332086443901062012e-02,2.859940938651561737e-02,2.187059260904788971e-02,-6.209171935915946960e-02,-7.066527381539344788e-03,-7.062502205371856689e-02,2.114490792155265808e-02,-1.080687567591667175e-01,-5.670819431543350220e-02,7.561772316694259644e-02,-1.768581867218017578e-01,3.969429526478052139e-03,5.388219654560089111e-02,-8.367279171943664551e-02,1.013851538300514221e-02,-9.310823865234851837e-03,-1.139146462082862854e-02,-6.232011690735816956e-02,1.187622733414173126e-02,2.139933221042156219e-02,6.179537996649742126e-02
-5.538828670978546143e-02,-9.000592865049839020e-03,1.171904727816581726e-01,-4.625913500785827637e-02,-2.598926797509193420e-02,3.657304123044013977e-02,4.776296392083168030e-02,9.420278482139110565e-03,7.254122942686080933e-02,-3.990299999713897705e-02,-9.176301211118698120e-02,-7.626084983348846436e-02,-6.165932118892669678e-02,-5.237469822168350220e-02,4.388644918799400330e-02,7.307695597410202026e-02,1.829498633742332458e-02,-3.928234800696372986e-02,-5.715388804674148560e-02,-5.354935303330421448e-02,-5.230695381760597229e-02,-1.114589273929595947e-01,-1.933127455413341522e-02,6.340294331312179565e-02,-3.214139491319656372e-02,-7.318683713674545288e-02,-4.751252010464668274e-02,-9.210529178380966187e-02,-5.956179276108741760e-02,-2.100789733231067657e-02,-2.358992397785186768e-02,5.803658813238143921e-02
5.788250640034675598e-02,-8.048747479915618896e-02,9.912124276161193848e-02,2.837539836764335632e-02,-2.351474761962890625e-02,-3.375182300806045532e-02,6.370325386524200439e-02,-6.753658503293991089e-02,5.775079131126403809e-03,5.324363708496093750e-03,8.103077299892902374e-03,7.215352356433868408e-02,4.826179146766662598e-02,-8.448484353721141815e-03,-1.740540564060211182e-02,3.719419613480567932e-02,6.223476305603981018e-02,8.579241484403610229e-02,-1.803923211991786957e-02,4.385434091091156006e-02,-5.306031927466392517e-02,-1.061709597706794739e-01,2.486120164394378662e-02,7.835143804550170898e-02,5.733270570635795593e-02,-1.254653465002775192e-02,6.537007540464401245e-02,-3.631712123751640320e-02,8.658082783222198486e-02,3.430749103426933289e-02,2.237927168607711792e-02,5.853809788823127747e-02
5.346440151333808899e-02,3.787247091531753540e-02,3.076440468430519104e-02,4.008091986179351807e-02,-6.492821127176284790e-02,2.584881894290447235e-02,-7.145443558692932129e-02,2.734521031379699707e-02,3.552911570295691490e-03,3.467632830142974854e-02,1.745037361979484558e-02,-5.347458645701408386e-02,-1.377969328314065933e-02,-5.115016549825668335e-02,-4.938461259007453918e-02,4.374995827674865723e-02,-3.417105600237846375e-02,-5.783420638181269169e-04,-3.176341578364372253e-02,6.948904693126678467e-02,-7.287254929542541504e-02,-3.096822649240493774e-02,4.881713166832923889e-02,3.272527456283569336e-02,-3.548171371221542358e-02,6.994727998971939087e-03,3.067320212721824646e-02,-5.052450671792030334e-02,2.217161236330866814e-03,4.189206659793853760e-02,-7.698432356119155884e-02,-5.837781354784965515e-04
2.109227702021598816e-02,-8.734671398997306824e-03,-5.506903305649757385e-02,2.510828338563442230e-02,-1.844343030825257301e-03,-5.810693278908729553e-02,3.470747917890548706e-02,1.754544675350189209e-02,-4.306859150528907776e-02,1.722843199968338013e-02,-3.624841198325157166e-02,2.562983334064483643e-02,-5.173771176487207413e-03,4.053479433059692383e-02,5.375853180885314941e-02,2.832725830376148224e-02,8.313788473606109619e-02,-7.475781440734863281e-02,5.208468995988368988e-03,5.059780552983283997e-03,-3.554620966315269470e-02,5.549678578972816467e-02,-1.862688222900032997e-03,-7.027686387300491333e-02,7.098940201103687286e-03,4.462919011712074280e-02,-7.548113912343978882e-02,7.241765409708023071e-02,-1.886103674769401550e-02,5.027955770492553711e-02,-3.100782074034214020e-02,2.580187283456325531e-02
-7.629556208848953247e-02,2.366264350712299347e-02,2.185511775314807892e-02,-4.290920495986938477e-02,3.352354839444160461e-02,-2.468345686793327332e-02,8.118723332881927490e-02,-1.039531826972961426e-02,2.327357418835163116e-02,6.445158272981643677e-02,7.295183371752500534e-03,-5.946820601820945740e-02,7.175213843584060669e-02,7.137020677328109741e-02,-3.433097526431083679e-02,-2.804815955460071564e-02,-3.607621416449546814e-02,2.883275598287582397e-02,2.855835296213626862e-02,-5.008175224065780640e-02,-1.984629407525062561e-02,5.475178733468055725e-02,-5.563317239284515381e-02,-3.665483370423316956e-02,-8.188442885875701904e-02,-2.589504420757293701e-02,-7.211624085903167725e-02,-1.782161369919776917e-02,-4.362868145108222961e-03,-7.476254366338253021e-03,2.327753417193889618e-02,-9.398336522281169891e-03
8.282291702926158905e-03,5.515952408313751221e-02,4.041682183742523193e-02,8.363600820302963257e-02,1.191974431276321411e-02,5.306975916028022766e-02,7.902067154645919800e-02,1.693025045096874237e-02,2.159760892391204834e-02,-4.220246151089668274e-02,-8.539039641618728638e-02,2.762087620794773102e-02,-6.908317096531391144e-03,-5.402405560016632080e-02,2.141430741176009178e-03,7.228077203035354614e-02,-7.971160858869552612e-02,5.680551379919052124e-02,1.917169615626335144e-02,-1.070376951247453690e-02,2.739295363426208496e-03,-2.090611867606639862e-02,2.106607332825660706e-02,6.364775449037551880e-02,-4.263678938150405884e-02,-3.498359769582748413e-02,6.289627403020858765e-02,-6.925955414772033691e-02,-9.107586927711963654e-03,3.505100309848785400e-02,-3.898039925843477249e-03,-4.469301924109458923e-02
5.408444255590438843e-02,3.613563627004623413e-02,2.919848263263702393e-02,-5.374739319086074829e-02,2.052433788776397705e-03,8.142276853322982788e-02,-4.504768177866935730e-02,-2.363516017794609070e-02,3.429111838340759277e-02,6.097074598073959351e-02,4.769510775804519653e-02,2.821985632181167603e-02,4.460694640874862671e-02,4.962570220232009888e-02,6.711024791002273560e-02,-7.086157798767089844e-02,-5.502634495496749878e-02,-8.199571073055267334e-02,-7.271550595760345459e-02,8.420836180448532104e-02,-4.470759257674217224e-02,-8.201353996992111206e-02,7.645975798368453979e-02,-6.046835333108901978e-02,5.576188117265701294e-02,7.436623424291610718e-02,8.056447654962539673e-02,-4.690199345350265503e-02,-1.930895447731018066e-02,-1.048263162374496460e-02,3.504060208797454834e-03,-2.728036418557167053e-02
2.966745197772979736e-02,2.919968962669372559e-02,-7.102693617343902588e-02,-5.816064774990081787e-02,3.432282805442810059e-02,-5.429290235042572021e-03,2.212490141391754150e-02,2.091478556394577026e-02,-2.147377282381057739e-02,-3.247017040848731995e-02,-4.723807796835899353e-02,6.352574378252029419e-02,-4.637657850980758667e-02,7.613020390272140503e-02,4.276173561811447144e-02,2.212040871381759644e-02,-7.476481050252914429e-02,7.906431704759597778e-02,-5.188433453440666199e-02,7.082268595695495605e-03,-8.062203973531723022e-02,6.945516914129257202e-02,-6.310310214757919312e-02,-7.382736355066299438e-02,-4.717985168099403381e-02,-5.942242592573165894e-02,-3.365924954414367676e-02,6.671672314405441284e-02,-6.340652704238891602e-03,2.189549803733825684e-02,5.338894575834274292e-02,-1.332734525203704834e-02
-1.359712053090333939e-02,-3.175554424524307251e-02,3.161763027310371399e-02,5.475507676601409912e-02,-8.497917652130126953e-02,1.594705507159233093e-02,-1.797826029360294342e-02,6.543871760368347168e-02,7.737160194665193558e-03,-1.421734690666198730e-03,-5.608520656824111938e-02,5.391507595777511597e-02,-7.283437997102737427e-02,6.342545151710510254e-02,7.813923060894012451e-02,-5.951706320047378540e-02,5.173287168145179749e-02,-7.616687566041946411e-02,-8.667959831655025482e-03,-1.997021213173866272e-02,-2.359847910702228546e-02,4.890842363238334656e-02,-2.199148759245872498e-02,6.152864173054695129e-02,4.126299545168876648e-02,4.174549505114555359e-02,2.257229946553707123e-02,-3.465576842427253723e-02,8.038026094436645508e-02,-7.739228755235671997e-02,6.073665618896484375e-02,8.227074891328811646e-02
-1.629112288355827332e-02,-4.616398736834526062e-02,5.121624469757080078e-02,3.146350756287574768e-02,4.506171122193336487e-02,2.216900326311588287e-02,6.125051155686378479e-02,6.467863172292709351e-02,-7.685496658086776733e-02,1.086134463548660278e-02,-5.425878614187240601e-02,-7.085244357585906982e-02,-8.177077025175094604e-02,-1.926775835454463959e-02,2.240192145109176636e-02,3.206464694812893867e-03,-7.909215986728668213e-03,3.132136166095733643e-02,-6.355314701795578003e-02,6.940373033285140991e-02,6.285886466503143311e-02,-8.344770967960357666e-02,-1.697692438028752804e-03,6.926647573709487915e-02,2.205182798206806183e-02,-1.729217171669006348e-02,6.017915531992912292e-02,7.612030953168869019e-02,-2.797449007630348206e-02,8.902081288397312164e-03,-6.707510352134704590e-02,5.073910206556320190e-02
-2.377344667911529541e-02,-1.657279208302497864e-02,5.237797275185585022e-02,8.278122544288635254e-02,3.906772658228874207e-02,5.248135700821876526e-02,-4.058735072612762451e-02,8.300111442804336548e-02,7.206200063228607178e-02,2.740938588976860046e-02,3.227019682526588440e-02,2.123800292611122131e-02,5.717894434928894043e-02,4.506656527519226074e-02,-3.571202605962753296e-02,-5.320206284523010254e-02,2.870382508262991905e-03,-1.769891381263732910e-02,-5.035074055194854736e-02,-1.836116611957550049e-02,8.136110752820968628e-02,6.728774309158325195e-02,4.186794534325599670e-02,-1.840797811746597290e-02,-3.729992732405662537e-02,-4.460621625185012817e-02,-4.392692819237709045e-02,8.325248211622238159e-02,-6.489031761884689331e-02,5.308234691619873047e-02,-3.133739158511161804e-02,7.442332059144973755e-02
2.059224061667919159e-02,3.536512702703475952e-02,-5.776113830506801605e-03,-3.172196075320243835e-02,-2.111678756773471832e-02,-2.782507613301277161e-02,7.589053362607955933e-02,-8.301480859518051147e-02,-5.202500149607658386e-02,-2.069862000644207001e-02,-3.983884677290916443e-02,3.741162642836570740e-02,8.270781487226486206e-02,-7.646299153566360474e-02,-7.905541360378265381e-02,8.010193705558776855e-02,-8.455998264253139496e-03,8.217179775238037109e-02,9.458189830183982849e-03,-7.267576456069946289e-02,-1.324587035924196243e-02,-2.586611732840538025e-02,8.209835737943649292e-02,-4.178334772586822510e-02,3.305315598845481873e-02,4.499259963631629944e-02,-5.393656343221664429e-02,6.716126948595046997e-02,-2.478859387338161469e-02,-5.860603228211402893e-02,-2.062371233478188515e-03,3.461364656686782837e-02
-4.507278278470039368e-02,2.985379286110401154e-02,-2.813586592674255371e-02,-7.074305415153503418e-02,-2.983772940933704376e-02,-9.465473704040050507e-03,4.243633151054382324e-02,-1.856601797044277191e-02,-5.735041573643684387e-02,-3.589051589369773865e-02,-1.022692583501338959e-02,-1.048522349447011948e-02,5.025194585323333740e-02,-7.112652063369750977e-02,5.887377634644508362e-02,7.205130159854888916e-02,8.308974653482437134e-02,-8.724841289222240448e-03,-7.272919267416000366e-02,1.085893623530864716e-02,-2.135682664811611176e-02,1.456952560693025589e-02,-7.781059294939041138e-02,-2.023786492645740509e-02,-7.231751084327697754e-02,-7.849845290184020996e-02,7.124253362417221069e-02,-9.328489005565643311e-02,1.835122471675276756e-03,4.131512343883514404e-02,-5.132044479250907898e-02,1.912468113005161285e-02
5.728029459714889526e-02,-7.837211340665817261e-02,7.563757896423339844e-02,-1.289998833090066910e-02,7.081452012062072754e-02,2.848066762089729309e-02,1.397664286196231842e-02,-8.081629872322082520e-02,-7.482515275478363037e-02,5.720999464392662048e-02,-5.308407545089721680e-02,7.938063144683837891e-02,7.139378041028976440e-02,8.812033385038375854e-02,-1.920540118589997292e-03,-5.177076905965805054e-02,-5.174298211932182312e-02,-9.927807748317718506e-02,2.238940261304378510e-02,-2.169272862374782562e-02,-6.694106012582778931e-02,6.006337702274322510e-02,-1.008996646851301193e-02,7.628497481346130371e-02,-7.787488400936126709e-02,-5.009827017784118652e-02,-6.443227082490921021e-02,-3.103954531252384186e-02,-2.006869018077850342e-02,4.553036391735076904e-02,-3.504889830946922302e-02,-2.970310673117637634e-02
3.419734537601470947e-02,-7.419395446777343750e-02,3.489033877849578857e-02,1.760163903236389160e-02,1.449910341762006283e-03,-5.449717864394187927e-02,1.762783527374267578e-02,-4.930236563086509705e-02,-9.802925586700439453e-02,4.381843283772468567e-02,-7.547528296709060669e-02,-1.186580304056406021e-02,1.190838217735290527e-01,-3.453481942415237427e-02,5.981308221817016602e-02,9.607542306184768677e-02,2.698457101359963417e-03,-1.048153545707464218e-02,-1.065929383039474487e-01,1.027797907590866089e-02,3.779009357094764709e-02,-1.047228053212165833e-01,1.978054828941822052e-02,-5.938624497503042221e-03,-6.523180007934570312e-02,1.947713829576969147e-02,-4.470360279083251953e-02,1.698664505966007710e-03,4.232955724000930786e-02,-1.334100216627120972e-02,7.577069103717803955e-02,-1.398392207920551300e-02
4.208376631140708923e-02,4.861748963594436646e-02,2.772839367389678955e-02,5.367335677146911621e-02,4.910731315612792969e-02,-1.344162672758102417e-01,6.044824048876762390e-02,-4.932520166039466858e-02,-4.572091251611709595e-02,-1.264557614922523499e-02,-3.804503753781318665e-02,-6.056196987628936768e-02,1.067347079515457153e-01,3.549842163920402527e-03,6.584050133824348450e-03,9.479322284460067749e-02,3.188545629382133484e-02,-4.255516454577445984e-03,-3.126773983240127563e-02,-9.469995647668838501e-02,4.652729257941246033e-02,-1.368508040904998779e-01,3.886193782091140747e-02,7.190486788749694824e-02,-8.774339221417903900e-03,1.244142837822437286e-02,-3.120941109955310822e-02,1.690755039453506470e-02,1.199418082833290100e-01,4.088667780160903931e-02,7.530777156352996826e-02,-1.343710422515869141e-01
9.364052116870880127e-02,5.354261398315429688e-02,3.554162383079528809e-02,1.217072159051895142e-01,6.080369278788566589e-02,-7.229386270046234131e-02,9.155686199665069580e-02,5.347826704382896423e-02,-1.210308149456977844e-01,-6.240440160036087036e-02,1.834874600172042847e-02,2.612701803445816040e-02,2.482903935015201569e-02,1.330152153968811035e-01,-4.137654229998588562e-02,-5.826881970278918743e-04,4.748075082898139954e-02,-1.080309078097343445e-01,-3.356358036398887634e-02,3.693719580769538879e-02,1.632468029856681824e-02,-5.867924913763999939e-02,8.876364678144454956e-03,-5.737650394439697266e-02,-9.595526009798049927e-02,8.437941223382949829e-02,4.242251813411712646e-02,-2.402342297136783600e-02,4.062754288315773010e-02,3.071455284953117371e-02,1.984797045588493347e-02,-1.353829056024551392e-01
