-1.951902359724044800e-02,4.328758642077445984e-02,6.879962235689163208e-02,-2.264956571161746979e-02,-8.240526169538497925e-02,4.379083588719367981e-02,-6.924723833799362183e-02,5.814952030777931213e-02,-8.865769952535629272e-02,-4.507299140095710754e-02,5.313408374786376953e-02,3.282781317830085754e-02,-9.853827208280563354e-02,-3.722515888512134552e-03,6.179491430521011353e-02,1.900733262300491333e-02,-5.320950970053672791e-02,-1.696694828569889069e-02,-5.688322708010673523e-02,5.621489603072404861e-03,4.257471486926078796e-02,-6.979041546583175659e-02,5.444804206490516663e-02,-2.663485007360577583e-03,4.689711704850196838e-02,1.418699789792299271e-02,-6.140531599521636963e-02,-6.405388563871383667e-02,2.687147259712219238e-02,-2.134959027171134949e-02,-7.251324504613876343e-02,1.867599668912589550e-03,6.933794915676116943e-02,-1.656341738998889923e-02,-5.284733325242996216e-02,-7.695083320140838623e-02,-7.229998707771301270e-02,3.762027015909552574e-03,-7.304927706718444824e-02,-2.707110345363616943e-02,7.691011577844619751e-02,2.222032286226749420e-03,2.607647329568862915e-03,1.692528463900089264e-02,-8.610690012574195862e-03,6.771621108055114746e-02,-3.236670419573783875e-02,3.906258568167686462e-02,-4.298225045204162598e-02,3.794836997985839844e-02,-9.799309819936752319e-02,-8.875709772109985352e-02,-6.783857941627502441e-02,-6.623444706201553345e-02,3.376119583845138550e-02,-1.161425840109586716e-02,6.529700756072998047e-02,-6.220598891377449036e-02,-2.241317369043827057e-02,5.981888249516487122e-02,5.122989416122436523e-02,5.870643258094787598e-02,4.211340099573135376e-02,3.169026598334312439e-02,5.089914775453507900e-04,-2.471091784536838531e-02,-1.154274586588144302e-02,6.934417039155960083e-02,4.485747218132019043e-02,1.556109189987182617e-01,1.294336915016174316e-01,1.456434577703475952e-01,1.138706654310226440e-01,1.701948791742324829e-01,1.120418682694435120e-01,1.166512370109558105e-01,9.694767743349075317e-02,1.158035248517990112e-01,8.504593372344970703e-02,-7.336279377341270447e-03,-7.888839393854141235e-02,-8.056861162185668945e-02,-2.994588948786258698e-02,-6.644343584775924683e-02,-4.351091384887695312e-02,1.114248577505350113e-02,1.935073174536228180e-02,-4.816124960780143738e-02,7.354378234595060349e-03,7.613316178321838379e-02,-4.333640635013580322e-02,3.027863986790180206e-02,9.720584750175476074e-02,3.473922982811927795e-02,3.957398980855941772e-02,1.071614399552345276e-01,1.878495961427688599e-01,1.747858375310897827e-01,2.508631050586700439e-01,3.073438405990600586e-01,3.381125032901763916e-01,3.348878324031829834e-01,2.663487792015075684e-01,2.466399073600769043e-01,1.627128720283508301e-01,1.042984426021575928e-01,2.996882051229476929e-02,-4.119271785020828247e-02,7.944539934396743774e-02,-2.594557031989097595e-02,4.926525522023439407e-03,-4.375520348548889160e-02,-2.280584163963794708e-02,-8.253482729196548462e-02,1.267377287149429321e-02,-6.220165640115737915e-02,3.234267979860305786e-02,1.157171353697776794e-01,6.711360812187194824e-02,1.286139935255050659e-01,9.789518266916275024e-02,7.226402312517166138e-02,3.867581486701965332e-02,8.306900411844253540e-02,7.724943757057189941e-02,1.647230982780456543e-01,2.581970393657684326e-01,3.538062870502471924e-01,4.252530038356781006e-01,4.462156593799591064e-01,3.765192031860351562e-01,2.808185219764709473e-01,1.734594404697418213e-01,4.463567957282066345e-02,-2.042896486818790436e-02,-6.006662175059318542e-02,-2.323706867173314095e-03,1.740360073745250702e-02,-8.639929443597793579e-02,-1.003082320094108582e-01,-3.253840655088424683e-02,-9.309994429349899292e-02,-6.423708051443099976e-02,5.550390481948852539e-02,-1.443636883050203323e-02,4.287403076887130737e-02,1.027470976114273071e-01,4.397287592291831970e-02,1.864514499902725220e-02,-1.352922804653644562e-02,1.441176421940326691e-02,6.595160812139511108e-02,1.124569252133369446e-01,1.607862412929534912e-01,2.189839780330657959e-01,3.036786019802093506e-01,3.848645389080047607e-01,4.484895467758178711e-01,4.135292768478393555e-01,3.509770631790161133e-01,2.122972309589385986e-01,9.238046407699584961e-02,-4.493729770183563232e-02,-7.663293182849884033e-02,-5.759795382618904114e-02,-8.674060553312301636e-02,5.046636611223220825e-02,-6.570878624916076660e-02,-1.106365304440259933e-02,-1.889275573194026947e-02,-8.850887417793273926e-02,-9.890803135931491852e-03,9.955132752656936646e-02,8.213958144187927246e-02,8.520681411027908325e-02,8.885770803317427635e-04,2.409786917269229889e-02,4.495781660079956055e-02,9.824619442224502563e-02,1.336108595132827759e-01,1.787777990102767944e-01,1.683599948883056641e-01,1.794078499078750610e-01,2.104908227920532227e-01,2.962917089462280273e-01,3.594972789287567139e-01,3.654962182044982910e-01,3.487386703491210938e-01,2.191824018955230713e-01,7.458156347274780273e-02,-4.586913436651229858e-02,-1.025802791118621826e-01,-9.923155605792999268e-02,-1.109380647540092468e-01,1.839034492149949074e-03,-6.535167992115020752e-02,5.314363539218902588e-02,-5.522191897034645081e-02,7.343842834234237671e-02,-3.029488772153854370e-02,9.667358244769275188e-04,1.523334980010986328e-01,1.115645244717597961e-01,7.147977501153945923e-02,8.644443005323410034e-02,1.439493000507354736e-01,2.052007019519805908e-01,2.361530661582946777e-01,2.257656604051589966e-01,1.757479459047317505e-01,1.327860802412033081e-01,1.054024621844291687e-01,1.054934859275817871e-01,1.621496826410293579e-01,2.328030318021774292e-01,2.768732607364654541e-01,1.748877614736557007e-01,2.929907664656639099e-02,-9.715365618467330933e-02,-1.968643665313720703e-01,-1.734472811222076416e-01,-1.455977559089660645e-01,-3.628036379814147949e-02,-4.969606921076774597e-02,1.799046061933040619e-02,7.478433847427368164e-02,2.069268375635147095e-02,-3.720293566584587097e-02,1.031726747751235962e-01,1.112114489078521729e-01,1.289074718952178955e-01,1.126336604356765747e-01,1.547381281852722168e-01,1.928067058324813843e-01,2.330734878778457642e-01,2.062675654888153076e-01,1.532777249813079834e-01,9.766341745853424072e-02,2.091057039797306061e-02,-2.788518369197845459e-02,-4.866098985075950623e-02,2.820456400513648987e-02,1.636937856674194336e-01,2.239216566085815430e-01,1.609621495008468628e-01,1.923810504376888275e-02,-1.281918883323669434e-01,-1.900913268327713013e-01,-2.143681049346923828e-01,-1.253173947334289551e-01,-8.281195908784866333e-02,-8.491133898496627808e-02,3.720145300030708313e-02,-4.309541080147027969e-03,-2.517404034733772278e-02,2.296189777553081512e-02,4.826088622212409973e-02,8.993630111217498779e-02,1.309751123189926147e-01,1.321707069873809814e-01,1.648159176111221313e-01,1.705243885517120361e-01,1.428025960922241211e-01,7.079128921031951904e-02,-4.408101551234722137e-03,-4.940637201070785522e-02,-9.900871664285659790e-02,-1.787777841091156006e-01,-1.793384552001953125e-01,-2.895237877964973450e-02,1.701552122831344604e-01,2.543182969093322754e-01,1.481532156467437744e-01,-1.751797460019588470e-02,-1.513418108224868774e-01,-2.319745272397994995e-01,-1.985276341438293457e-01,-1.006056964397430420e-01,-5.152024328708648682e-02,-6.906455755233764648e-02,1.241728290915489197e-02,3.239229694008827209e-02,-1.660301163792610168e-02,5.408129468560218811e-02,2.708374150097370148e-02,8.052383363246917725e-02,1.232335492968559265e-01,1.167125925421714783e-01,8.931446820497512817e-02,6.165365874767303467e-02,2.040999941527843475e-02,-8.579916320741176605e-03,-9.202902205288410187e-03,-2.565566450357437134e-02,-1.144810467958450317e-01,-1.947066783905029297e-01,-1.669220626354217529e-01,1.381724327802658081e-02,2.162656933069229126e-01,2.769639492034912109e-01,1.475699096918106079e-01,-1.007139566354453564e-03,-1.084653586149215698e-01,-1.547606289386749268e-01,-1.085904836654663086e-01,-6.182904541492462158e-02,2.753791213035583496e-02,4.436494037508964539e-02,7.759162690490484238e-03,2.836436731740832329e-03,-2.098427712917327881e-02,1.331166550517082214e-02,-5.219566076993942261e-02,8.235352486371994019e-02,9.884103387594223022e-02,5.944191664457321167e-02,3.529452532529830933e-02,1.177141908556222916e-02,3.972604125738143921e-02,1.013432666659355164e-01,1.447748988866806030e-01,9.146115183830261230e-02,-2.649640478193759918e-02,-1.196587383747100830e-01,-7.268656790256500244e-02,1.198435723781585693e-01,2.909558415412902832e-01,3.104153573513031006e-01,1.574345380067825317e-01,4.959711804986000061e-03,-7.888083159923553467e-02,-1.222640052437782288e-01,-9.536536037921905518e-02,-7.210874557495117188e-02,-4.455007612705230713e-02,-5.597554147243499756e-03,-8.719653636217117310e-02,-3.414738550782203674e-02,-7.519099861383438110e-02,2.591287344694137573e-02,1.841034926474094391e-02,1.000455692410469055e-01,8.919910341501235962e-02,1.227436703629791737e-03,-6.888870894908905029e-02,-8.169907145202159882e-03,1.487463861703872681e-01,2.886018455028533936e-01,3.141944110393524170e-01,2.023613154888153076e-01,-1.952755264937877655e-03,-9.073462337255477905e-02,1.721833716146647930e-03,2.154020816087722778e-01,3.613486886024475098e-01,3.663670718669891357e-01,1.939900964498519897e-01,4.180147871375083923e-02,-6.849217414855957031e-02,-1.160385385155677795e-01,-1.080725714564323425e-01,3.308774903416633606e-02,4.006035625934600830e-02,-6.884116213768720627e-03,-9.148693829774856567e-02,6.014304608106613159e-02,-8.885222487151622772e-03,3.317835554480552673e-02,2.610054798424243927e-02,9.042691439390182495e-02,1.794954575598239899e-02,-8.817514032125473022e-02,-1.032319068908691406e-01,-3.483202308416366577e-03,2.172940522432327271e-01,3.638752102851867676e-01,3.506774604320526123e-01,1.698420643806457520e-01,-4.793388769030570984e-02,-9.658082574605941772e-02,4.762334749102592468e-02,2.661091387271881104e-01,4.111910462379455566e-01,3.958432674407958984e-01,2.127816230058670044e-01,6.390441954135894775e-02,-5.955195426940917969e-02,-1.132900491356849670e-01,-1.341769844293594360e-01,3.019549697637557983e-02,7.485495507717132568e-02,-4.704514890909194946e-02,6.143294740468263626e-04,6.674385070800781250e-02,1.745004206895828247e-02,5.383131280541419983e-02,5.068574473261833191e-02,7.965619862079620361e-02,-1.417215913534164429e-02,-1.541025042533874512e-01,-1.778826713562011719e-01,-9.759681299328804016e-03,1.955663114786148071e-01,2.769446969032287598e-01,2.125066220760345459e-01,2.967166900634765625e-02,-1.319866478443145752e-01,-9.989510476589202881e-02,3.333913534879684448e-02,2.175817191600799561e-01,3.306528925895690918e-01,3.431992828845977783e-01,2.050920128822326660e-01,5.186813324689865112e-02,-4.863337054848670959e-02,-9.113049507141113281e-02,-9.992998093366622925e-02,-2.106609940528869629e-02,-8.287181705236434937e-02,2.587350085377693176e-02,-9.509868919849395752e-02,4.974216222763061523e-02,-1.924089342355728149e-02,-1.870810613036155701e-02,7.261495292186737061e-02,5.089768022298812866e-02,-6.430293619632720947e-02,-2.029722630977630615e-01,-2.185162752866744995e-01,-7.112977653741836548e-02,9.626432508230209351e-02,1.241815537214279175e-01,4.922297969460487366e-02,-6.663822382688522339e-02,-1.298229098320007324e-01,-7.999123632907867432e-02,2.178349718451499939e-02,1.175697594881057739e-01,2.170297652482986450e-01,2.405721992254257202e-01,1.275356113910675049e-01,3.448374569416046143e-02,-1.673697307705879211e-02,-8.110483735799789429e-02,-6.821208447217941284e-02,5.859381705522537231e-02,2.670381590723991394e-02,3.945383429527282715e-02,-2.104211598634719849e-02,6.460708379745483398e-02,-6.643294543027877808e-02,6.872156518511474133e-04,1.374620944261550903e-01,4.022167995572090149e-02,-9.002511203289031982e-02,-2.064591944217681885e-01,-2.147489488124847412e-01,-7.715082168579101562e-02,5.283086374402046204e-02,7.010015100240707397e-02,8.678479120135307312e-03,-1.872344873845577240e-02,-2.583679743111133575e-02,2.000318607315421104e-03,4.257079586386680603e-02,5.381363257765769958e-02,6.613218784332275391e-02,6.582158803939819336e-02,5.419677868485450745e-02,2.316345460712909698e-02,-5.818556528538465500e-03,-1.152725052088499069e-02,-6.605155020952224731e-02,5.438018590211868286e-02,5.985086038708686829e-02,-5.422708392143249512e-02,-4.100818932056427002e-02,-3.493582457304000854e-02,-2.909841947257518768e-02,4.560755565762519836e-02,1.413863748311996460e-01,4.416862502694129944e-02,-7.861556112766265869e-02,-1.717292815446853638e-01,-1.318442672491073608e-01,-8.158415555953979492e-03,1.356415301561355591e-01,1.721522063016891479e-01,1.276345103979110718e-01,1.262757182121276855e-01,1.417585909366607666e-01,1.540721952915191650e-01,9.853116422891616821e-02,2.100274153053760529e-02,-5.346976593136787415e-02,-3.777481243014335632e-02,2.190208761021494865e-03,5.604176223278045654e-02,6.751402467489242554e-02,8.989004418253898621e-03,-1.936620660126209259e-02,7.377737015485763550e-02,4.317520931363105774e-02,9.319886565208435059e-03,-2.054335735738277435e-02,-4.800110682845115662e-02,-8.726380765438079834e-03,1.180387586355209351e-01,1.930376142263412476e-01,3.837593272328376770e-02,-7.153489440679550171e-02,-1.467521041631698608e-01,-7.275497168302536011e-02,9.771984815597534180e-02,2.510971724987030029e-01,3.287474513053894043e-01,2.896349728107452393e-01,2.828807234764099121e-01,2.564422786235809326e-01,2.320481985807418823e-01,1.199892088770866394e-01,-2.679700963199138641e-02,-1.041811034083366394e-01,-6.094245985150337219e-02,3.074645437300205231e-02,6.385992467403411865e-02,8.682568371295928955e-02,7.614421844482421875e-02,3.925221040844917297e-02,5.989677086472511292e-02,-4.720373079180717468e-02,-7.392041385173797607e-02,4.165607318282127380e-02,6.285295635461807251e-02,-1.388525683432817459e-02,1.179435476660728455e-01,1.584085077047348022e-01,5.145176127552986145e-02,-5.025418102741241455e-02,-1.206225454807281494e-01,-4.967692494392395020e-02,1.650189459323883057e-01,3.438494503498077393e-01,4.237290024757385254e-01,4.359017908573150635e-01,3.908970057964324951e-01,3.532730340957641602e-01,2.641249597072601318e-01,9.209819138050079346e-02,-3.708496689796447754e-02,-5.660133808851242065e-02,1.845781877636909485e-02,1.108592376112937927e-01,1.636204719543457031e-01,1.520288735628128052e-01,1.488606035709381104e-01,1.002857834100723267e-01,1.264324039220809937e-01,9.429242461919784546e-02,-1.690361835062503815e-02,-6.764160841703414917e-02,3.061494603753089905e-02,9.006053209304809570e-02,1.027472466230392456e-01,1.692853271961212158e-01,1.037726029753684998e-01,-1.878530718386173248e-02,-8.978693187236785889e-02,-3.411589562892913818e-02,1.763896793127059937e-01,3.623174428939819336e-01,4.798490405082702637e-01,5.142977833747863770e-01,4.612725079059600830e-01,3.765044212341308594e-01,2.352022677659988403e-01,7.338789105415344238e-02,2.046135999262332916e-02,6.340088695287704468e-02,1.756841540336608887e-01,2.173950523138046265e-01,2.375158369541168213e-01,2.194162905216217041e-01,2.358367294073104858e-01,1.883859783411026001e-01,4.335571080446243286e-02,-7.994242943823337555e-03,6.758477538824081421e-02,6.598070263862609863e-02,-2.853177674114704132e-02,5.109051242470741272e-02,1.398996263742446899e-01,1.439542919397354126e-01,1.071566417813301086e-01,9.912177920341491699e-03,-9.549821913242340088e-02,-7.968803495168685913e-02,4.933583363890647888e-02,2.197881639003753662e-01,3.622832298278808594e-01,4.510804712772369385e-01,4.331966042518615723e-01,3.198646008968353271e-01,1.819585263729095459e-01,9.984025359153747559e-02,9.917291253805160522e-02,2.009429186582565308e-01,2.942018806934356689e-01,2.933445572853088379e-01,2.723246216773986816e-01,2.495609372854232788e-01,2.332257926464080811e-01,1.471677124500274658e-01,8.121333271265029907e-02,-7.232336699962615967e-02,6.685557216405868530e-02,-6.042008101940155029e-02,-6.570938229560852051e-02,-5.181979015469551086e-02,6.777852773666381836e-02,1.464684754610061646e-01,5.415505170822143555e-02,4.403802100569009781e-03,-8.085022121667861938e-02,-1.831609606742858887e-01,-1.722597181797027588e-01,-5.535545945167541504e-02,9.723350405693054199e-02,2.451114058494567871e-01,3.087681531906127930e-01,2.538219690322875977e-01,1.627141535282135010e-01,1.466348022222518921e-01,2.090424150228500366e-01,2.851378619670867920e-01,3.074673414230346680e-01,2.959609627723693848e-01,2.695467174053192139e-01,2.245783507823944092e-01,1.745701134204864502e-01,4.855125024914741516e-02,5.673582479357719421e-02,-4.297292232513427734e-02,6.539066135883331299e-02,-5.370544642210006714e-02,-6.838509440422058105e-02,4.872612655162811279e-03,8.943618088960647583e-02,1.114580929279327393e-01,2.635441906750202179e-02,-1.322817429900169373e-02,-9.583549946546554565e-02,-2.192125320434570312e-01,-2.935332357883453369e-01,-2.809375822544097900e-01,-1.642136871814727783e-01,-2.755893394351005554e-03,1.023865342140197754e-01,1.349598020315170288e-01,1.482084691524505615e-01,1.565511971712112427e-01,1.746880561113357544e-01,2.186229526996612549e-01,2.111804336309432983e-01,1.826750189065933228e-01,1.224916726350784302e-01,1.535106301307678223e-01,6.739254295825958252e-02,3.551768139004707336e-02,-7.660509645938873291e-02,-9.474183619022369385e-02,7.878737524151802063e-03,-4.356198385357856750e-02,-7.368815131485462189e-03,5.280163139104843140e-02,7.053692638874053955e-02,5.579406023025512695e-02,3.955588117241859436e-02,-7.703487575054168701e-02,-1.569714248180389404e-01,-2.643149495124816895e-01,-3.476961255073547363e-01,-3.323118984699249268e-01,-2.515788674354553223e-01,-1.272350698709487915e-01,-3.294695913791656494e-02,1.745895855128765106e-02,3.926195949316024780e-02,6.720059365034103394e-02,1.121811047196388245e-01,1.297800391912460327e-01,5.567448958754539490e-02,7.087218016386032104e-02,8.289335668087005615e-02,5.748011171817779541e-02,-4.339247196912765503e-02,1.419589016586542130e-02,7.417847961187362671e-02,-3.112432546913623810e-02,-8.073575049638748169e-02,-9.233348816633224487e-02,1.293843705207109451e-02,4.942692071199417114e-02,-1.836432702839374542e-02,6.963396072387695312e-02,4.805950820446014404e-02,-6.713201757520437241e-03,-7.728566974401473999e-02,-8.421909809112548828e-02,-1.367989629507064819e-01,-1.378918141126632690e-01,-1.065505892038345337e-01,-1.149532422423362732e-01,-3.775382414460182190e-02,-5.583969503641128540e-02,-6.338516622781753540e-02,-8.215736597776412964e-02,-3.672599093988537788e-03,-1.847865805029869080e-02,-7.715013925917446613e-04,-3.044502064585685730e-02,-1.320995483547449112e-02,2.621008642017841339e-02,1.360002253204584122e-02,-5.501867271959781647e-03,-5.210744962096214294e-02,6.026333943009376526e-02,2.902294509112834930e-02,1.421445608139038086e-02,2.294854447245597839e-02,-1.059112697839736938e-02,6.560356169939041138e-02,-7.902837544679641724e-02,-2.145720180124044418e-03,5.958953624940477312e-05,-7.048697024583816528e-02,-1.076737642288208008e-01,-1.342112720012664795e-01,-6.485465914011001587e-02,-1.289789825677871704e-01,-2.458797395229339600e-02,-6.435310095548629761e-02,-1.521803885698318481e-01,-1.491712480783462524e-01,-1.074204891920089722e-01,-1.006276383996009827e-01,-7.441276311874389648e-02,-4.215808957815170288e-02,1.973602361977100372e-02,-3.342523798346519470e-02,-7.054403424263000488e-02,5.982716009020805359e-02,5.042454600334167480e-02,4.807274788618087769e-02,4.267106205224990845e-02,-9.163081645965576172e-02,3.452052548527717590e-02,6.050717830657958984e-02,3.497324138879776001e-02,-7.897599041461944580e-02,5.951636657118797302e-02,-7.075187563896179199e-02,-6.257882714271545410e-02,1.972333155572414398e-02,-8.427545428276062012e-02,-3.100926987826824188e-02,6.271975487470626831e-02,-5.926723778247833252e-02,-2.542846649885177612e-02,-2.213115803897380829e-02,-1.132898032665252686e-01,-7.086475193500518799e-02,-5.357582122087478638e-02,-8.548956364393234253e-02,1.108626369386911392e-02,-1.723737083375453949e-02,-7.251998037099838257e-02,-3.629085049033164978e-02,6.183084845542907715e-02,3.986102994531393051e-03,-9.284292161464691162e-02,-7.707604765892028809e-02,3.947142511606216431e-02,-1.056063082069158554e-02
-4.414258152246475220e-02,-1.016825139522552490e-01,-1.907208412885665894e-01,-1.094037741422653198e-01,-1.215429231524467468e-01,-6.696736812591552734e-02,-1.647475957870483398e-01,-8.896751701831817627e-02,-1.427689939737319946e-01,-1.895109713077545166e-01,-1.902566999197006226e-01,-1.949480473995208740e-01,-1.400917172431945801e-01,-7.836776226758956909e-02,-1.325134187936782837e-01,-1.100698411464691162e-01,-1.954155862331390381e-01,-9.307045489549636841e-02,-2.061145156621932983e-01,-1.468386501073837280e-01,-2.078060358762741089e-01,-1.454793363809585571e-01,-9.525819867849349976e-02,-2.010371237993240356e-01,-1.537289172410964966e-01,-1.309744119644165039e-01,-1.367582231760025024e-01,-1.534995287656784058e-01,-1.283078193664550781e-01,-1.341884583234786987e-01,-1.319994330406188965e-01,-1.914411038160324097e-01,-1.220521926879882812e-01,-7.657105475664138794e-02,-2.272031158208847046e-01,-1.572908908128738403e-01,-1.974614858627319336e-01,-5.200187489390373230e-02,-4.194967448711395264e-02,-6.452651321887969971e-02,-1.244352310895919800e-01,-6.295493245124816895e-02,-1.037806198000907898e-01,-1.988912373781204224e-02,-6.506409496068954468e-02,-1.519968360662460327e-01,-1.056642383337020874e-01,-1.776674240827560425e-01,-1.681077182292938232e-01,-3.801126778125762939e-02,-2.012034207582473755e-01,-1.590773314237594604e-01,-5.692424252629280090e-02,-1.814779043197631836e-01,-2.123568803071975708e-01,-9.980484843254089355e-02,-1.812714338302612305e-01,-6.485930085182189941e-02,-1.237670257687568665e-01,-1.627816259860992432e-01,-1.236439719796180725e-01,-1.117076054215431213e-01,-1.174868270754814148e-01,-7.380055636167526245e-02,-3.962578997015953064e-02,-5.623201653361320496e-02,1.124101132154464722e-02,-3.852615132927894592e-02,-3.290048241615295410e-02,-7.755291648209095001e-03,-4.828475788235664368e-02,-7.897205650806427002e-02,-1.146719604730606079e-01,-1.431684195995330811e-01,-1.259280145168304443e-01,-1.173763573169708252e-01,-4.360882937908172607e-02,-8.695179224014282227e-02,-6.176130473613739014e-02,-7.338774204254150391e-02,-1.001864001154899597e-01,-1.020672023296356201e-01,-1.582579314708709717e-01,-1.640910208225250244e-01,-8.662884682416915894e-02,-7.780299335718154907e-02,-1.261505782604217529e-01,-2.024502754211425781e-01,-1.526477932929992676e-01,-1.079967841506004333e-01,-9.482750296592712402e-02,-9.056326001882553101e-02,-5.371485836803913116e-03,3.922353684902191162e-02,2.269291318953037262e-02,5.314733833074569702e-02,8.612210303544998169e-02,5.120971053838729858e-02,3.832489997148513794e-02,2.486660890281200409e-02,-4.138428252190351486e-03,-3.930114954710006714e-02,-1.170236319303512573e-01,-1.274948567152023315e-01,-1.351228505373001099e-01,-1.420839130878448486e-01,-7.363308966159820557e-02,-1.567927598953247070e-01,-5.218094214797019958e-02,-1.942878514528274536e-01,-6.254936009645462036e-02,-1.729223579168319702e-01,-1.018653959035873413e-01,-1.571374386548995972e-01,-1.868804544210433960e-01,-1.611158698797225952e-01,-6.360544264316558838e-02,-5.133959650993347168e-02,-1.692600697278976440e-01,-1.363311894237995148e-02,2.261494752019643784e-03,2.109475247561931610e-02,2.067273668944835663e-02,5.058116465806961060e-02,-1.684651360847055912e-04,1.956038177013397217e-02,1.268959790468215942e-02,4.138607531785964966e-02,4.895560070872306824e-02,6.270989775657653809e-02,2.717409282922744751e-02,-2.488325908780097961e-02,-6.324785202741622925e-02,-1.377055794000625610e-01,-1.339227706193923950e-01,-8.852422237396240234e-02,-6.610203534364700317e-02,-8.408467471599578857e-02,-4.172238707542419434e-02,-1.971758604049682617e-01,-1.967533677816390991e-01,-4.917570203542709351e-02,-8.830638974905014038e-02,-5.528417602181434631e-02,-1.025573834776878357e-01,-1.068821996450424194e-01,-5.055708065629005432e-02,-3.524592146277427673e-02,-8.315904065966606140e-03,-2.067743800580501556e-02,-2.959856064990162849e-03,1.454461365938186646e-02,-1.589643396437168121e-02,-6.243066117167472839e-02,-8.712359517812728882e-02,-5.666428804397583008e-02,4.185975529253482819e-03,9.433317184448242188e-02,1.068122610449790955e-01,4.838889092206954956e-02,-6.256489455699920654e-02,-1.498233824968338013e-01,-2.000861018896102905e-01,-1.429273933172225952e-01,-1.681991070508956909e-01,-6.758484244346618652e-02,-1.025814339518547058e-01,-9.515911340713500977e-02,-7.132803648710250854e-02,-1.675091683864593506e-01,-1.239449903368949890e-01,-1.291975677013397217e-01,-9.505734592676162720e-02,-2.985845133662223816e-02,2.138144895434379578e-02,7.879371754825115204e-03,1.586863957345485687e-02,5.330719798803329468e-02,6.848495453596115112e-02,4.794708639383316040e-02,-3.910117316991090775e-03,-8.565501123666763306e-02,-1.603878885507583618e-01,-1.486966162919998169e-01,-2.779204212129116058e-02,1.460078805685043335e-01,2.229528427124023438e-01,1.816937327384948730e-01,2.870457433164119720e-02,-8.273512870073318481e-02,-1.526947766542434692e-01,-1.546349525451660156e-01,-1.302995234727859497e-01,-1.223980933427810669e-01,-1.044461205601692200e-01,-6.886409223079681396e-02,-1.629747301340103149e-01,-8.939903229475021362e-02,-1.250415295362472534e-01,-1.506261974573135376e-01,-1.168264597654342651e-01,2.352179959416389465e-02,4.886309802532196045e-02,7.944279164075851440e-02,1.059162318706512451e-01,1.467435508966445923e-01,1.643301248550415039e-01,1.043719947338104248e-01,3.744918107986450195e-02,-5.329947173595428467e-02,-1.459051966667175293e-01,-1.283916532993316650e-01,3.285680711269378662e-02,2.629450857639312744e-01,3.881115317344665527e-01,3.461458683013916016e-01,1.896086335182189941e-01,5.532194301486015320e-02,-2.670318633317947388e-02,-7.448936253786087036e-02,-6.743132323026657104e-02,-7.936958223581314087e-02,-5.234937369823455811e-02,-1.012315228581428528e-01,-8.399143069982528687e-02,-1.168860644102096558e-01,-8.895674347877502441e-02,-9.670465439558029175e-02,-4.798520356416702271e-03,1.838239468634128571e-02,8.443239331245422363e-02,1.076230481266975403e-01,1.428850144147872925e-01,1.633199155330657959e-01,1.649705171585083008e-01,1.297894567251205444e-01,7.257859408855438232e-02,-2.148570492863655090e-02,-8.866764605045318604e-02,-1.506404671818017960e-02,1.892109662294387817e-01,4.161539971828460693e-01,5.148047208786010742e-01,4.561155438423156738e-01,3.245207369327545166e-01,1.945742517709732056e-01,7.788937538862228394e-02,5.977074801921844482e-02,-1.497230213135480881e-02,-8.388055488467216492e-03,-3.790993988513946533e-02,-1.464155912399291992e-01,-1.411762237548828125e-01,-3.023351542651653290e-02,-7.461699843406677246e-02,-4.755303636193275452e-02,9.438134729862213135e-03,3.470489755272865295e-02,9.481853991746902466e-02,1.017368882894515991e-01,1.122627258300781250e-01,8.546945452690124512e-02,6.510462611913681030e-02,4.380750656127929688e-02,-1.948458328843116760e-02,-8.577529340982437134e-02,-8.570965379476547241e-02,2.902398444712162018e-02,2.581298053264617920e-01,4.677471220493316650e-01,5.329699516296386719e-01,4.491392970085144043e-01,3.293364644050598145e-01,2.251450270414352417e-01,1.368367224931716919e-01,5.810777470469474792e-02,-2.978464588522911072e-03,-6.381154805421829224e-02,-5.118502303957939148e-02,-1.258256584405899048e-01,-1.596721559762954712e-01,-1.200920492410659790e-01,-4.617758467793464661e-02,-9.031679481267929077e-02,3.877278417348861694e-03,1.754466071724891663e-02,1.080924794077873230e-01,5.032042041420936584e-02,1.757436059415340424e-02,-2.652701176702976227e-02,-3.998581692576408386e-02,-7.106193900108337402e-02,-1.085855960845947266e-01,-1.473102122545242310e-01,-1.238510534167289734e-01,4.069564118981361389e-02,2.640399336814880371e-01,3.956783413887023926e-01,3.813465833663940430e-01,2.951626181602478027e-01,2.581684291362762451e-01,2.275220453739166260e-01,1.419143229722976685e-01,5.123110860586166382e-02,-1.808882318437099457e-02,-3.419790044426918030e-02,-1.699491590261459351e-01,-4.941657930612564087e-02,-1.094649583101272583e-01,-8.536828309297561646e-02,-6.006599590182304382e-02,1.526454347185790539e-03,-1.195032149553298950e-02,7.139059901237487793e-02,1.058505624532699585e-01,3.125865012407302856e-02,-3.885187208652496338e-02,-6.179211288690567017e-02,-8.598120510578155518e-02,-1.198311969637870789e-01,-1.867335140705108643e-01,-2.099021226167678833e-01,-1.499076932668685913e-01,3.219522070139646530e-03,1.513676792383193970e-01,1.925207525491714478e-01,1.351518034934997559e-01,1.212543398141860962e-01,1.761109381914138794e-01,1.955232173204421997e-01,1.230653077363967896e-01,3.200092539191246033e-02,-7.342071330640465021e-05,-6.730663031339645386e-02,-9.973685443401336670e-02,-1.588295400142669678e-01,-1.697880923748016357e-01,-1.084638237953186035e-01,-9.355804324150085449e-02,3.883260861039161682e-02,8.367140591144561768e-02,1.603792607784271240e-01,1.430596858263015747e-01,5.764596536755561829e-02,-4.039251804351806641e-02,-2.575911022722721100e-02,-3.702820092439651489e-02,-1.120901703834533691e-01,-1.710386127233505249e-01,-2.058695107698440552e-01,-1.632409542798995972e-01,-9.135701507329940796e-02,-5.283404141664505005e-02,-7.886496186256408691e-02,-1.182459443807601929e-01,-8.087255991995334625e-03,1.279881596565246582e-01,1.720257401466369629e-01,1.192139461636543274e-01,5.166802555322647095e-02,3.356687724590301514e-02,-1.513587404042482376e-02,-1.315544694662094116e-01,-1.872534751892089844e-01,-3.885285556316375732e-02,-6.786567717790603638e-02,-8.979362994432449341e-02,-1.908397488296031952e-02,6.123145669698715210e-02,1.958473622798919678e-01,1.548600494861602783e-01,1.078464612364768982e-01,5.616177991032600403e-02,7.053006440401077271e-02,9.066300094127655029e-02,5.273399129509925842e-02,1.623933902010321617e-03,-3.280654177069664001e-02,-5.544711649417877197e-02,-1.004688143730163574e-01,-1.756634414196014404e-01,-2.764999866485595703e-01,-2.714076340198516846e-01,-8.133258670568466187e-02,1.018844172358512878e-01,1.736579537391662598e-01,1.444088667631149292e-01,7.354607433080673218e-02,1.992328651249408722e-02,-7.538767904043197632e-02,-1.007844805717468262e-01,-1.910805553197860718e-01,-7.616639137268066406e-02,-1.614433526992797852e-01,-7.582896202802658081e-02,-6.372841447591781616e-02,1.222159042954444885e-01,2.214272767305374146e-01,2.370018512010574341e-01,1.767480373382568359e-01,1.531150937080383301e-01,2.009181678295135498e-01,2.627081573009490967e-01,2.971620857715606689e-01,3.056519031524658203e-01,2.525156438350677490e-01,1.406843513250350952e-01,3.935027122497558594e-02,-1.058155149221420288e-01,-2.270687520503997803e-01,-2.068693786859512329e-01,-4.406796768307685852e-02,1.068103462457656860e-01,1.644784957170486450e-01,1.460268348455429077e-01,1.124070063233375549e-01,4.604718089103698730e-02,-4.590903222560882568e-02,-1.136780530214309692e-01,-5.894588679075241089e-02,-1.009566038846969604e-01,-3.085611574351787567e-02,-8.207152038812637329e-02,8.151023648679256439e-03,1.189442798495292664e-01,2.695897519588470459e-01,2.841002047061920166e-01,2.457931339740753174e-01,1.971329301595687866e-01,2.405294030904769897e-01,3.183707296848297119e-01,4.018088281154632568e-01,4.416977167129516602e-01,3.913439810276031494e-01,2.932554483413696289e-01,1.794967502355575562e-01,5.387461557984352112e-02,-5.304332822561264038e-02,-1.489809527993202209e-02,7.343867421150207520e-02,1.164747253060340881e-01,1.323097795248031616e-01,1.024437025189399719e-01,7.215222716331481934e-02,9.748846292495727539e-03,-2.703548409044742584e-02,-6.324036419391632080e-02,-5.130283161997795105e-02,-1.478950530290603638e-01,-9.465228021144866943e-02,-1.208412945270538330e-01,-6.122285127639770508e-02,1.508300304412841797e-01,2.814152836799621582e-01,2.832885384559631348e-01,2.155175209045410156e-01,1.430548727512359619e-01,1.525699943304061890e-01,2.100780606269836426e-01,2.892862558364868164e-01,3.631188571453094482e-01,3.401540517807006836e-01,2.726390659809112549e-01,2.227377891540527344e-01,2.066240310668945312e-01,2.016941457986831665e-01,2.064664810895919800e-01,1.746119558811187744e-01,1.755140572786331177e-01,1.215172111988067627e-01,6.297244131565093994e-02,2.302804775536060333e-02,-3.355537541210651398e-03,-5.745536834001541138e-02,-1.674645841121673584e-01,-1.348483264446258545e-01,-4.388997331261634827e-02,-1.802142411470413208e-01,-7.693153619766235352e-02,2.692350000143051147e-02,1.887186169624328613e-01,2.526514828205108643e-01,2.526861727237701416e-01,1.244479417800903320e-01,-9.901064448058605194e-03,-5.484646931290626526e-02,-3.714109957218170166e-02,6.512077152729034424e-02,1.373573094606399536e-01,1.348330378532409668e-01,1.230029389262199402e-01,2.067574858665466309e-01,3.263285160064697266e-01,3.780150413513183594e-01,3.411805927753448486e-01,2.637176215648651123e-01,1.801751405000686646e-01,9.237398952245712280e-02,3.683418035507202148e-02,-9.086616337299346924e-03,-1.912111788988113403e-02,-3.779203817248344421e-02,-4.634540155529975891e-02,-1.734798550605773926e-01,-1.389265358448028564e-01,-1.934193223714828491e-01,-5.383824184536933899e-02,3.281140699982643127e-02,1.797865480184555054e-01,2.248832881450653076e-01,1.995823681354522705e-01,2.372387237846851349e-02,-1.443443745374679565e-01,-2.244900017976760864e-01,-1.425521075725555420e-01,-7.103526033461093903e-03,5.143628269433975220e-02,2.574899792671203613e-02,2.642886899411678314e-02,1.638909578323364258e-01,3.642041385173797607e-01,4.371458292007446289e-01,3.767784237861633301e-01,2.557810544967651367e-01,1.481847018003463745e-01,3.503251075744628906e-02,-1.830266788601875305e-02,-1.771699823439121246e-02,-2.537266584113240242e-03,-5.372491478919982910e-02,-6.106191873550415039e-02,-9.075845032930374146e-02,-1.341136097908020020e-01,-5.473159626126289368e-02,-1.282551735639572144e-01,8.320962637662887573e-02,1.524780690670013428e-01,2.048907577991485596e-01,1.526216417551040649e-01,-3.460335731506347656e-02,-2.223590165376663208e-01,-2.451022267341613770e-01,-1.283934265375137329e-01,3.690383955836296082e-02,7.733181864023208618e-02,2.721011824905872345e-02,5.195502936840057373e-02,1.798118650913238525e-01,3.218533992767333984e-01,3.838991820812225342e-01,3.287698328495025635e-01,1.862414628267288208e-01,7.610797882080078125e-02,-2.129762060940265656e-02,-4.354249313473701477e-02,-3.284016624093055725e-02,-4.945119842886924744e-02,-8.223058283329010010e-02,-1.688827127218246460e-01,-1.943821012973785400e-01,-1.431911140680313110e-01,-7.701940089464187622e-02,-6.934919208288192749e-02,2.190897427499294281e-02,1.473030000925064087e-01,1.968796700239181519e-01,1.319561600685119629e-01,-4.142404347658157349e-02,-2.110017389059066772e-01,-2.206907868385314941e-01,-8.083827048540115356e-02,7.687855511903762817e-02,1.187311112880706787e-01,7.944659888744354248e-02,8.045046776533126831e-02,1.724297255277633667e-01,2.626993358135223389e-01,2.867881059646606445e-01,1.968444287776947021e-01,6.423401832580566406e-02,-2.918361686170101166e-02,-1.004593744874000549e-01,-7.810745388269424438e-02,-9.568759240210056305e-03,-2.579654753208160400e-02,-1.694281101226806641e-01,-1.047804728150367737e-01,-1.960227489471435547e-01,-1.145852282643318176e-01,-1.424630731344223022e-01,-9.375320374965667725e-02,6.482627242803573608e-02,1.211797967553138733e-01,1.608940660953521729e-01,1.093595325946807861e-01,-3.245129482820630074e-03,-1.464109122753143311e-01,-1.616842299699783325e-01,-5.256692692637443542e-02,5.324186384677886963e-02,9.647684544324874878e-02,6.385476142168045044e-02,4.864019528031349182e-02,9.586808085441589355e-02,1.415536552667617798e-01,1.063805371522903442e-01,3.053008578717708588e-02,-6.063477322459220886e-02,-1.340911537408828735e-01,-1.216829046607017517e-01,-8.681030571460723877e-02,-1.276003196835517883e-02,-9.393971413373947144e-03,-1.673576980829238892e-01,-7.678566128015518188e-02,-1.854587942361831665e-01,-1.485068351030349731e-01,-1.958842426538467407e-01,-1.335493773221969604e-01,-5.345731601119041443e-02,7.045113295316696167e-02,1.029215455055236816e-01,1.244145631790161133e-01,5.639825016260147095e-02,-5.791507661342620850e-02,-9.847206622362136841e-02,-6.006024777889251709e-02,-2.554153092205524445e-02,-5.397031083703041077e-03,-1.267936546355485916e-02,-2.492067776620388031e-02,-4.363924637436866760e-02,-3.847540915012359619e-02,-3.807250782847404480e-02,-6.961334496736526489e-02,-1.126024723052978516e-01,-1.310724467039108276e-01,-6.893180310726165771e-02,-4.515559971332550049e-02,-3.205057606101036072e-02,-5.497795715928077698e-02,-3.792981430888175964e-02,-1.565886288881301880e-01,-8.649158477783203125e-02,-5.747499316930770874e-02,-2.063132673501968384e-01,-1.577734202146530151e-01,-2.606746181845664978e-02,4.933072999119758606e-02,8.562723547220230103e-02,7.762693613767623901e-02,7.385803014039993286e-02,3.756427764892578125e-02,-9.119498543441295624e-03,-3.464633971452713013e-02,-4.675820469856262207e-02,-6.162592768669128418e-02,-1.149555593729019165e-01,-1.286730170249938965e-01,-1.442082822322845459e-01,-1.310862451791763306e-01,-1.187970042228698730e-01,-1.034442707896232605e-01,-9.871696680784225464e-02,-6.299886852502822876e-02,-6.667714565992355347e-02,-1.491447538137435913e-02,3.301658201962709427e-03,-3.060511685907840729e-02,-7.310583442449569702e-02,-1.539156883955001831e-01,-5.519542843103408813e-02,-9.320858120918273926e-02,-1.295528560876846313e-01,-6.294288486242294312e-02,-8.516556769609451294e-02,-1.186032034456729889e-02,-5.982108414173126221e-02,2.792914211750030518e-02,6.965233385562896729e-02,6.059924885630607605e-02,5.818521976470947266e-02,4.436035081744194031e-02,-1.550161466002464294e-02,-5.216537043452262878e-02,-1.080422773957252502e-01,-1.408627182245254517e-01,-1.497898101806640625e-01,-1.247298568487167358e-01,-9.190019965171813965e-02,-3.663561120629310608e-02,-6.169381365180015564e-02,-6.364502757787704468e-02,-2.066113986074924469e-03,-1.345137041062116623e-02,-1.243762075901031494e-01,-1.061973497271537781e-01,-5.748258903622627258e-02,-7.594630867242813110e-02,-1.873977631330490112e-01,-1.014575511217117310e-01,-1.621815264225006104e-01,-1.351950466632843018e-01,-1.594205945730209351e-01,-2.726676501333713531e-02,-1.551410648971796036e-02,-9.537692368030548096e-02,-6.619673967361450195e-02,3.363002091646194458e-02,6.910916417837142944e-02,5.341348424553871155e-02,9.737037122249603271e-02,3.241887548938393593e-03,-1.050783786922693253e-02,-1.294035930186510086e-02,-4.017328470945358276e-02,-3.610099852085113525e-02,2.688319422304630280e-02,3.713299706578254700e-02,-1.386869605630636215e-02,2.475062385201454163e-02,2.189072966575622559e-02,-6.301524490118026733e-02,-1.127056851983070374e-01,-1.133155599236488342e-01,-1.813523322343826294e-01,-1.166949495673179626e-01,-8.920125663280487061e-02,-1.789903044700622559e-01,-1.600996106863021851e-01,-7.184668630361557007e-02,-1.668623387813568115e-01,-1.229375228285789490e-01,-8.303152024745941162e-02,-2.357271686196327209e-02,-1.514344476163387299e-02,1.042984076775610447e-03,-1.271623093634843826e-02,3.434460610151290894e-02,1.636920124292373657e-02,6.070752441883087158e-02,3.763785585761070251e-02,-1.719447970390319824e-02,-8.271439932286739349e-03,-3.551405295729637146e-02,6.062922067940235138e-03,4.272897168993949890e-02,3.479391103610396385e-03,-1.669673994183540344e-02,-9.087567776441574097e-02,-6.490333378314971924e-02,-1.289888620376586914e-01,-1.086402535438537598e-01,-1.320089697837829590e-01,-1.110969856381416321e-01,-1.288380920886993408e-01,-2.066693902015686035e-01,-1.766660958528518677e-01,-1.656583547592163086e-01,-1.451170593500137329e-01,-1.492574214935302734e-01,-1.439173370599746704e-01,-1.137900352478027344e-01,-1.513947844505310059e-01,-5.833048373460769653e-02,-7.731371372938156128e-02,-6.066173664294183254e-04,-1.060279533267021179e-01,-3.305636718869209290e-02,-8.804638683795928955e-02,-1.038379445672035217e-01,-1.046508178114891052e-01,-8.592782914638519287e-02,-8.034610748291015625e-02,-1.368547081947326660e-01,-6.063574925065040588e-02,-5.374418571591377258e-02,-9.830277413129806519e-02,-1.120124906301498413e-01,-5.485245585441589355e-02,-1.968514770269393921e-01,-1.907563805580139160e-01,-1.512742787599563599e-01,-1.419283002614974976e-01
-4.362473264336585999e-02,-3.496526926755905151e-02,-1.066384837031364441e-01,-3.926216065883636475e-02,5.640741065144538879e-02,-1.417758036404848099e-02,2.435781992971897125e-02,-9.961649775505065918e-02,3.800641512498259544e-03,-7.353307306766510010e-02,-2.045867964625358582e-02,-4.385795071721076965e-02,1.206277031451463699e-02,-7.328720390796661377e-02,3.053595684468746185e-02,8.527319878339767456e-03,-1.062876209616661072e-01,-1.040745601058006287e-01,4.585463181138038635e-02,-4.393457248806953430e-02,3.717706352472305298e-02,6.925469730049371719e-03,-4.409041628241539001e-02,-2.676076814532279968e-02,-2.769536897540092468e-02,-1.755094714462757111e-02,-5.830453336238861084e-02,-1.912079378962516785e-02,-6.446569412946701050e-02,-5.824084207415580750e-02,-7.994424551725387573e-02,6.308799237012863159e-02,-3.494644165039062500e-02,-9.554671496152877808e-02,-7.742458581924438477e-02,-8.663832396268844604e-02,-8.363890647888183594e-02,-1.014503538608551025e-01,-4.593507573008537292e-02,-9.084443747997283936e-02,-9.027343988418579102e-02,-6.682107597589492798e-02,-5.844583362340927124e-02,2.016474306583404541e-02,-5.576381832361221313e-02,-3.033340349793434143e-02,1.267116051167249680e-02,5.933807417750358582e-02,7.570508867502212524e-02,-2.169751562178134918e-02,4.074360057711601257e-02,5.300654098391532898e-02,-7.090165466070175171e-02,-7.121533155441284180e-02,-1.634130254387855530e-02,-1.033880636096000671e-01,-7.840204238891601562e-02,-8.141250349581241608e-03,-1.087365299463272095e-01,-9.749186784029006958e-02,-7.205633819103240967e-02,-4.372368007898330688e-02,4.476359859108924866e-02,3.988066315650939941e-02,-3.701212257146835327e-02,-7.349280267953872681e-02,-8.883164077997207642e-02,-6.762549281120300293e-02,-6.826128065586090088e-02,-2.768493071198463440e-02,1.711754687130451202e-02,3.371556103229522705e-02,1.730793267488479614e-01,1.826036274433135986e-01,2.480203956365585327e-01,2.782483994960784912e-01,1.809197664260864258e-01,1.594204753637313843e-01,1.563799828290939331e-01,5.998491868376731873e-02,-8.315655402839183807e-03,-6.500808894634246826e-02,-2.883828617632389069e-02,4.460770264267921448e-02,-2.396325953304767609e-02,-8.026745170354843140e-02,-7.019057124853134155e-02,-1.868889480829238892e-02,4.530522599816322327e-02,1.965202763676643372e-02,6.089485436677932739e-02,-3.237569332122802734e-02,6.606975197792053223e-02,1.184795983135700226e-02,-2.564899437129497528e-02,-3.549132123589515686e-02,-7.164870947599411011e-02,-3.576982766389846802e-02,1.412921468727290630e-03,6.161184236407279968e-02,1.565790772438049316e-01,2.705434262752532959e-01,3.061961233615875244e-01,2.771203219890594482e-01,2.350822091102600098e-01,2.036150842905044556e-01,1.506818383932113647e-01,9.829797595739364624e-02,-6.171995773911476135e-03,6.836254894733428955e-02,4.830468446016311646e-02,2.186287194490432739e-02,3.244479419663548470e-03,4.773670062422752380e-02,5.903858318924903870e-02,-5.609578639268875122e-02,-5.809093639254570007e-02,5.276481434702873230e-02,5.881341919302940369e-02,6.421867758035659790e-02,2.478725835680961609e-02,3.155572712421417236e-02,1.382143516093492508e-02,-4.307032749056816101e-02,-5.264669284224510193e-02,-5.514473840594291687e-02,-2.606168389320373535e-02,4.003171622753143311e-02,1.137991994619369507e-01,2.041871845722198486e-01,2.603868246078491211e-01,2.546634674072265625e-01,2.731496095657348633e-01,2.462255805730819702e-01,1.983494758605957031e-01,2.093850672245025635e-01,1.211614906787872314e-01,1.314796507358551025e-02,6.692697852849960327e-02,2.984746731817722321e-02,-7.229974120855331421e-02,-7.517056912183761597e-02,-8.204824477434158325e-02,4.479395970702171326e-02,-1.090055983513593674e-02,5.142685398459434509e-02,4.233624786138534546e-02,2.423304691910743713e-02,3.054113686084747314e-02,-3.489463776350021362e-02,-1.000797972083091736e-01,-1.354622691869735718e-01,-1.582083553075790405e-01,-1.211936399340629578e-01,-5.762724205851554871e-02,9.232992306351661682e-03,6.528934836387634277e-02,1.049923449754714966e-01,1.505565047264099121e-01,1.727378070354461670e-01,1.809151321649551392e-01,1.900389790534973145e-01,1.591575145721435547e-01,1.660310328006744385e-01,1.199280470609664917e-01,7.192537933588027954e-02,4.023599252104759216e-02,-2.796224504709243774e-02,-8.469465374946594238e-02,5.231403931975364685e-02,-8.589655160903930664e-02,3.570181503891944885e-02,-5.280202999711036682e-02,3.414045646786689758e-02,2.311345748603343964e-02,-1.370124518871307373e-02,-1.180405840277671814e-01,-2.241847962141036987e-01,-3.105484545230865479e-01,-3.183371722698211670e-01,-2.446679919958114624e-01,-1.109640970826148987e-01,-1.525316387414932251e-02,1.058232411742210388e-02,-1.574377529323101044e-02,-2.913639135658740997e-02,8.360432460904121399e-03,7.158217579126358032e-02,1.360406279563903809e-01,1.806838661432266235e-01,1.887425780296325684e-01,1.459676176309585571e-01,1.472079008817672729e-01,1.311089396476745605e-01,7.964378595352172852e-02,-2.675415575504302979e-02,-9.979316964745521545e-03,5.433319881558418274e-02,-8.079956285655498505e-03,-1.151626035571098328e-01,1.071215327829122543e-02,-3.320222347974777222e-02,-3.261527419090270996e-02,-1.417902559041976929e-01,-2.751125693321228027e-01,-3.896697759628295898e-01,-4.461462497711181641e-01,-3.574105501174926758e-01,-1.494985520839691162e-01,6.744488328695297241e-02,1.543908119201660156e-01,8.425561338663101196e-02,-4.904399812221527100e-02,-1.365237832069396973e-01,-1.149871796369552612e-01,-2.680092118680477142e-02,8.289669454097747803e-02,1.626981198787689209e-01,1.792599409818649292e-01,1.515391916036605835e-01,1.159067451953887939e-01,9.363687783479690552e-02,6.589944660663604736e-02,2.501001209020614624e-02,1.795474998652935028e-02,-4.483729228377342224e-02,-5.850465595722198486e-02,-1.088728904724121094e-01,-2.555978484451770782e-02,-3.254101797938346863e-02,-9.459418058395385742e-02,-2.025627195835113525e-01,-3.459480404853820801e-01,-4.611976444721221924e-01,-4.286165535449981689e-01,-2.003222405910491943e-01,1.110082864761352539e-01,3.220804035663604736e-01,3.066463768482208252e-01,1.195169314742088318e-01,-9.166566282510757446e-02,-2.032047212123870850e-01,-1.702313870191574097e-01,-5.729889124631881714e-02,7.038646936416625977e-02,1.448810547590255737e-01,1.279446184635162354e-01,9.436319768428802490e-02,7.824928313493728638e-02,4.447682574391365051e-02,2.339378464967012405e-03,6.963945925235748291e-02,-5.189944431185722351e-02,-2.152419276535511017e-02,-2.389443852007389069e-02,-1.131209954619407654e-01,-3.698003664612770081e-02,-4.873766377568244934e-02,-1.141234338283538818e-01,-2.694573700428009033e-01,-4.129354357719421387e-01,-4.553756117820739746e-01,-2.995064854621887207e-01,2.532309666275978088e-02,3.435021042823791504e-01,4.404500424861907959e-01,2.826777696609497070e-01,-3.136457176879048347e-03,-1.848472803831100464e-01,-2.164608538150787354e-01,-1.498816162347793579e-01,-2.850189991295337677e-02,1.007160842418670654e-01,1.321322768926620483e-01,9.927572309970855713e-02,6.981751322746276855e-02,7.060236483812332153e-02,7.032881677150726318e-02,5.383472517132759094e-02,3.919259086251258850e-02,-6.390789896249771118e-02,-8.429376035928726196e-02,-1.129006966948509216e-01,-1.159953176975250244e-01,-7.777518779039382935e-02,-8.825742453336715698e-02,-1.477384418249130249e-01,-3.003689348697662354e-01,-4.446244239807128906e-01,-3.920678496360778809e-01,-1.378321349620819092e-01,2.048990130424499512e-01,4.341358542442321777e-01,3.543069064617156982e-01,5.979355797171592712e-02,-1.998474299907684326e-01,-2.647376060485839844e-01,-1.920573711395263672e-01,-5.125866457819938660e-02,4.672368988394737244e-02,1.077538728713989258e-01,9.476564824581146240e-02,4.858804866671562195e-02,2.274767495691776276e-02,7.359154988080263138e-03,2.269553020596504211e-03,-5.317512899637222290e-03,-7.539617270231246948e-02,3.382631763815879822e-02,3.921702876687049866e-02,1.325687486678361893e-02,-8.081952482461929321e-02,-4.599479958415031433e-02,-7.922606915235519409e-02,-1.576647162437438965e-01,-3.048904836177825928e-01,-4.165498912334442139e-01,-2.862746119499206543e-01,1.406833995133638382e-02,2.944266796112060547e-01,3.218740224838256836e-01,1.071414500474929810e-01,-1.909272968769073486e-01,-3.319698274135589600e-01,-2.424736469984054565e-01,-5.141697824001312256e-02,6.267164647579193115e-02,9.309444576501846313e-02,8.172974735498428345e-02,3.714793547987937927e-02,-1.335370820015668869e-03,-1.116871181875467300e-02,2.462699776515364647e-04,-2.244886010885238647e-02,2.579289674758911133e-02,3.196191042661666870e-02,-4.220014438033103943e-02,-4.641836881637573242e-02,-8.903297781944274902e-02,-1.098826676607131958e-01,-7.398182898759841919e-02,-9.316221624612808228e-02,-1.501257270574569702e-01,-2.881529629230499268e-01,-3.251086175441741943e-01,-1.674679219722747803e-01,1.093349680304527283e-01,2.177362889051437378e-01,1.288536339998245239e-01,-9.972062706947326660e-02,-3.121052384376525879e-01,-2.893341481685638428e-01,-9.726846218109130859e-02,6.499709188938140869e-02,1.017451658844947815e-01,6.626907736063003540e-02,6.532201077789068222e-03,-3.912565857172012329e-02,-4.036058485507965088e-02,-3.579183295369148254e-02,9.850225411355495453e-03,3.886525332927703857e-02,2.162118256092071533e-02,-7.837722450494766235e-02,3.433561185374855995e-03,3.936752304434776306e-02,2.142340876162052155e-02,-2.629580348730087280e-02,-2.916668727993965149e-02,-7.716730982065200806e-02,-1.628473550081253052e-01,-2.301491349935531616e-01,-2.140898555517196655e-01,-5.881904810667037964e-02,1.240261867642402649e-01,1.490394473075866699e-01,2.742960490286350250e-02,-1.216570734977722168e-01,-1.647230237722396851e-01,-4.616538435220718384e-02,1.007952988147735596e-01,1.215731427073478699e-01,5.557379126548767090e-02,-1.462637260556221008e-02,-5.026133358478546143e-02,-7.576295733451843262e-02,-6.090527400374412537e-02,-1.999702677130699158e-02,-1.365946792066097260e-02,6.712329108268022537e-03,-5.394973978400230408e-02,-1.886870828457176685e-03,-7.175581902265548706e-02,-2.427520416676998138e-02,4.363154619932174683e-02,-5.467031151056289673e-02,-3.274362999945878983e-03,-6.267272680997848511e-02,-7.908452302217483521e-02,-1.279440820217132568e-01,-9.419404715299606323e-02,2.907238341867923737e-02,1.451840102672576904e-01,1.490395963191986084e-01,9.337340295314788818e-02,7.460495084524154663e-02,1.385889202356338501e-01,2.328441441059112549e-01,2.472069561481475830e-01,1.298440545797348022e-01,-2.458784962072968483e-03,-5.957993492484092712e-02,-6.965701282024383545e-02,-6.511803716421127319e-02,-7.584378123283386230e-02,-2.850165776908397675e-02,-1.124582532793283463e-02,-2.068813703954219818e-02,2.591702900826931000e-02,-3.967467322945594788e-02,-3.520176187157630920e-02,4.504722356796264648e-02,-1.766919344663619995e-02,-4.221938177943229675e-02,4.143797792494297028e-03,8.218500763177871704e-03,1.870741136372089386e-02,-4.882961045950651169e-03,1.208654232323169708e-02,9.000176191329956055e-02,1.528419405221939087e-01,1.702546030282974243e-01,1.819352805614471436e-01,2.302333712577819824e-01,3.034726679325103760e-01,3.289790153503417969e-01,2.460305541753768921e-01,7.589591294527053833e-02,-5.063749477267265320e-02,-9.284423291683197021e-02,-7.619770616292953491e-02,-6.156393885612487793e-02,-5.953703448176383972e-02,-2.917172759771347046e-02,-4.812290146946907043e-02,-8.740316331386566162e-02,5.134923011064529419e-02,-5.558978021144866943e-02,1.798899471759796143e-02,3.512237593531608582e-02,-3.553582727909088135e-02,7.705465704202651978e-02,4.668348655104637146e-02,7.674037665128707886e-02,7.208283990621566772e-02,8.634359389543533325e-02,9.264370799064636230e-02,1.005871370434761047e-01,9.626349061727523804e-02,1.153484061360359192e-01,1.513733863830566406e-01,2.069188654422760010e-01,2.446436583995819092e-01,2.103520631790161133e-01,1.196533143520355225e-01,-3.905682591721415520e-03,-8.511986583471298218e-02,-9.934575110673904419e-02,-6.210070103406906128e-02,-4.458744451403617859e-02,-4.471276700496673584e-02,-2.198293246328830719e-02,-1.682641170918941498e-02,-5.464357882738113403e-02,1.098785549402236938e-02,-7.168130576610565186e-02,1.019153930246829987e-02,6.916862726211547852e-02,5.611095950007438660e-02,1.408180147409439087e-01,1.254712343215942383e-01,1.156002804636955261e-01,1.411492228507995605e-01,1.568641215562820435e-01,1.120636239647865295e-01,6.009117513895034790e-02,6.575942505151033401e-03,-7.522736210376024246e-03,2.367398701608181000e-02,3.781840577721595764e-02,3.924401104450225830e-02,1.243370492011308670e-02,-1.700367778539657593e-02,-3.893359377980232239e-02,-6.369210779666900635e-02,-6.238516420125961304e-02,-4.267101362347602844e-02,-3.545663505792617798e-02,-2.689470723271369934e-02,-1.637457683682441711e-02,-5.278986319899559021e-02,-3.502799198031425476e-02,-7.646615803241729736e-02,-6.735309213399887085e-02,-4.850117489695549011e-02,1.959349215030670166e-02,6.624598521739244461e-03,1.179748252034187317e-01,1.606427580118179321e-01,1.995331197977066040e-01,2.281679064035415649e-01,1.933704763650894165e-01,1.256399303674697876e-01,2.048632316291332245e-02,-2.912611514329910278e-02,-6.474163383245468140e-02,-8.586064726114273071e-02,-9.986858814954757690e-02,-1.275576353073120117e-01,-1.034278571605682373e-01,-1.944693922996520996e-02,2.815471217036247253e-02,1.758595928549766541e-02,-1.077690813690423965e-02,-1.297350786626338959e-02,1.666001230478286743e-02,2.729189582169055939e-02,1.901580765843391418e-02,-2.778877317905426025e-02,-2.987763658165931702e-02,-7.620924711227416992e-02,-4.691462591290473938e-02,-4.722278192639350891e-02,-3.488044440746307373e-02,1.761438697576522827e-02,1.045458912849426270e-01,1.749041229486465454e-01,2.524875700473785400e-01,2.819600403308868408e-01,2.440334558486938477e-01,1.826242953538894653e-01,8.301787823438644409e-02,3.411536663770675659e-02,-1.750196330249309540e-02,-8.686062693595886230e-02,-1.581059247255325317e-01,-1.807686537504196167e-01,-7.218254357576370239e-02,6.079822406172752380e-02,1.274274140596389771e-01,9.848070889711380005e-02,5.055037885904312134e-02,5.437102168798446655e-02,6.979768723249435425e-02,6.799218058586120605e-02,2.699148841202259064e-02,-6.128501892089843750e-02,-4.371216520667076111e-02,-7.624109089374542236e-02,-5.511587951332330704e-03,-6.509796530008316040e-02,-1.431139372289180756e-02,6.412388384342193604e-02,1.501263380050659180e-01,1.632000058889389038e-01,2.712302207946777344e-01,3.109239041805267334e-01,3.005161583423614502e-01,2.576596140861511230e-01,1.777869164943695068e-01,1.378266662359237671e-01,7.023665308952331543e-02,-3.983350098133087158e-02,-1.410856395959854126e-01,-1.432543545961380005e-01,-1.058026496320962906e-02,1.312692761421203613e-01,1.730050891637802124e-01,1.254261285066604614e-01,6.720580160617828369e-02,1.004772633314132690e-01,9.952078759670257568e-02,7.679855823516845703e-02,6.185244768857955933e-02,-2.884395234286785126e-02,3.819478303194046021e-02,-7.399929314851760864e-02,-2.067934349179267883e-02,-1.039598435163497925e-01,-4.277623444795608521e-02,-2.946249209344387054e-02,1.259372383356094360e-01,1.750188022851943970e-01,2.545108795166015625e-01,2.953255772590637207e-01,3.366938829421997070e-01,3.125391900539398193e-01,2.743688523769378662e-01,2.143887430429458618e-01,1.219723597168922424e-01,-2.487248368561267853e-02,-1.241126805543899536e-01,-1.157384365797042847e-01,1.120263710618019104e-02,1.352681964635848999e-01,1.523785144090652466e-01,9.464520961046218872e-02,7.963239401578903198e-02,1.029252335429191589e-01,9.991282969713211060e-02,4.953053221106529236e-02,2.254104055464267731e-02,-1.915036886930465698e-02,5.261046811938285828e-03,7.052610069513320923e-02,-6.533573567867279053e-02,5.107619240880012512e-02,-4.710134491324424744e-02,8.465836942195892334e-02,1.127700135111808777e-01,9.406397491693496704e-02,1.851809620857238770e-01,2.188357114791870117e-01,2.377565503120422363e-01,2.865940630435943604e-01,2.737137377262115479e-01,2.068175226449966431e-01,6.096620857715606689e-02,-9.826742857694625854e-02,-2.021193206310272217e-01,-1.875428706407546997e-01,-5.953008681535720825e-02,5.709046125411987305e-02,9.460443258285522461e-02,6.225567311048507690e-02,4.045154899358749390e-02,3.787238523364067078e-02,2.233477868139743805e-02,4.986124113202095032e-02,3.975898027420043945e-03,4.533049464225769043e-02,-1.420286949723958969e-02,3.819119557738304138e-02,-7.605350017547607422e-02,-1.947738602757453918e-02,-5.510596092790365219e-03,-3.344314545392990112e-02,3.751010075211524963e-02,4.155691713094711304e-02,1.239437013864517212e-01,1.331007629632949829e-01,1.430492252111434937e-01,1.745744794607162476e-01,1.522003412246704102e-01,5.834117531776428223e-02,-1.150077357888221741e-01,-2.619326710700988770e-01,-3.449881672859191895e-01,-2.863742113113403320e-01,-1.472854018211364746e-01,-2.184688486158847809e-02,2.180562168359756470e-02,1.397550920955836773e-03,-1.492716558277606964e-02,-2.210729755461215973e-02,2.145731076598167419e-02,7.541035767644643784e-03,3.337748930789530277e-04,-3.498177602887153625e-02,-6.824715435504913330e-02,4.018050804734230042e-02,5.598434805870056152e-02,-2.372473105788230896e-02,-3.047079220414161682e-02,-2.023721113801002502e-02,-7.865714281797409058e-02,-1.168468035757541656e-02,3.164016082882881165e-02,7.517868280410766602e-02,7.158726453781127930e-02,6.286118179559707642e-02,-1.046865712851285934e-02,-1.289988309144973755e-01,-3.018084466457366943e-01,-3.966212868690490723e-01,-4.189437329769134521e-01,-3.632893264293670654e-01,-2.261696159839630127e-01,-1.088742017745971680e-01,-6.133883818984031677e-02,-1.183329969644546509e-01,-1.343333274126052856e-01,-1.560887545347213745e-01,-5.965090543031692505e-02,-2.277471497654914856e-02,-4.793393239378929138e-02,1.645390130579471588e-02,-8.476352691650390625e-02,-8.554030209779739380e-02,-8.038035593926906586e-03,5.464064702391624451e-02,2.620107866823673248e-02,-4.662717506289482117e-02,-1.183644589036703110e-02,-3.398155793547630310e-02,1.464727520942687988e-02,6.974430382251739502e-02,6.940846890211105347e-02,2.769020386040210724e-02,-9.405682981014251709e-02,-2.096270173788070679e-01,-3.165597915649414062e-01,-3.979987502098083496e-01,-3.789245784282684326e-01,-2.807271480560302734e-01,-1.853864043951034546e-01,-1.115857437252998352e-01,-1.075918897986412048e-01,-7.605135440826416016e-02,-1.209025457501411438e-01,-4.699781537055969238e-02,-1.204762235283851624e-01,-1.027171462774276733e-01,-1.322975847870111465e-02,-2.331149764358997345e-02,3.476833924651145935e-02,-8.754190057516098022e-03,5.230129882693290710e-02,-7.889537513256072998e-02,-6.985436379909515381e-02,-2.360433898866176605e-02,-3.212624415755271912e-02,6.869734078645706177e-02,-4.830658063292503357e-02,7.583737373352050781e-02,-1.249935012310743332e-02,-3.332379460334777832e-02,-9.008359909057617188e-02,-1.454740315675735474e-01,-2.649922370910644531e-01,-2.129563987255096436e-01,-2.071432173252105713e-01,-1.727031469345092773e-01,-8.431996405124664307e-02,-7.044406235218048096e-02,-2.089510113000869751e-02,-5.081898719072341919e-02,-1.115748360753059387e-01,-7.608074694871902466e-02,2.515178732573986053e-02,3.821633383631706238e-02,-6.321772001683712006e-03,-6.654646992683410645e-02,3.340852260589599609e-02,3.647731989622116089e-02,6.179840862751007080e-02,3.842775244265794754e-03,-6.434238515794277191e-03,-8.717106282711029053e-02,-7.851054519414901733e-02,5.059700459241867065e-02,5.792288109660148621e-02,-5.449799075722694397e-02,-1.906578801572322845e-02,-5.401119217276573181e-02,-8.697659522294998169e-02,-5.454058200120925903e-02,-9.513421915471553802e-03,-1.067718416452407837e-01,-1.288321018218994141e-01,-1.710865274071693420e-02,-7.006108760833740234e-02,-5.105652660131454468e-02,-5.138484761118888855e-02,4.064105823636054993e-02,-2.610507979989051819e-02,-5.124522000551223755e-02,2.437335997819900513e-02,-9.202100336551666260e-02,-7.100615650415420532e-02,-8.676630444824695587e-03,-8.771031163632869720e-03,4.827826470136642456e-02,-1.107985433191061020e-02
-1.290208101272583008e-01,-9.603142738342285156e-02,-3.232166171073913574e-02,-1.475373655557632446e-01,-1.148290336132049561e-01,-1.047651097178459167e-01,-3.706049546599388123e-02,-4.763512313365936279e-02,-6.517249345779418945e-02,-8.708389848470687866e-02,-4.213313758373260498e-02,-9.257148951292037964e-02,-1.117298975586891174e-01,-1.793240159749984741e-01,-1.647539734840393066e-01,-2.560697495937347412e-02,-8.191123604774475098e-02,-1.643165796995162964e-01,-1.453970670700073242e-01,-6.606208533048629761e-02,-6.221908703446388245e-02,-9.618044644594192505e-02,-2.502307482063770294e-02,2.458585659042000771e-04,-1.272755563259124756e-01,-8.616988360881805420e-02,-1.491841673851013184e-01,-5.877019837498664856e-02,-1.625836789608001709e-01,-4.928143694996833801e-02,-4.164107888936996460e-02,-1.085917949676513672e-01,-1.486920118331909180e-01,-2.406447194516658783e-02,-8.446916937828063965e-02,-7.851169258356094360e-02,-1.060886383056640625e-01,-1.209657564759254456e-01,1.710237562656402588e-02,-3.267920389771461487e-02,1.786385849118232727e-02,5.065028369426727295e-02,3.093666024506092072e-02,-6.693854928016662598e-02,-9.239719808101654053e-02,1.093099545687437057e-02,-1.175776589661836624e-02,-9.325202554464340210e-02,-7.153410464525222778e-02,-2.846396714448928833e-02,-2.076207473874092102e-02,-4.201695322990417480e-02,-5.122948437929153442e-02,-1.173226982355117798e-01,-1.454254835844039917e-01,-1.182627528905868530e-01,-4.333487898111343384e-02,-3.719556704163551331e-02,-9.705150127410888672e-02,-1.981949619948863983e-02,-1.293533444404602051e-01,-1.357920318841934204e-01,-1.341295391321182251e-01,7.328779436647891998e-03,-3.605691343545913696e-02,4.433672130107879639e-02,5.380843207240104675e-02,5.698468163609504700e-02,1.181372851133346558e-01,1.186427846550941467e-01,4.603604972362518311e-02,8.230530470609664917e-02,4.918521642684936523e-02,1.528322976082563400e-02,1.042389497160911560e-01,7.667044550180435181e-02,3.983224928379058838e-02,4.572775959968566895e-02,-4.862660542130470276e-03,2.501047030091285706e-02,-7.782139629125595093e-02,-1.313184946775436401e-01,-1.013081297278404236e-01,-1.175224184989929199e-01,-9.241457283496856689e-02,-9.064949303865432739e-02,-2.391297183930873871e-02,-1.396978199481964111e-01,-1.186886653304100037e-01,-1.557596214115619659e-02,1.564533077180385590e-02,-9.255538694560527802e-03,6.892061978578567505e-02,5.233713425695896149e-03,4.125204309821128845e-02,5.732433497905731201e-02,7.131959777325391769e-03,1.314138411544263363e-03,-3.397178277373313904e-02,-8.212871849536895752e-02,-1.238913536071777344e-01,-1.105834767222404480e-01,-7.418131083250045776e-02,-1.515048369765281677e-02,-5.192498676478862762e-03,-1.329328864812850952e-02,-6.523323804140090942e-02,-2.443211711943149567e-02,-4.127253219485282898e-02,-4.451346397399902344e-02,-1.565364301204681396e-01,-4.367885366082191467e-02,-6.063435599207878113e-02,-2.857213839888572693e-02,-3.642570227384567261e-02,-1.005749106407165527e-01,-1.009562015533447266e-01,-6.215084344148635864e-02,1.795917376875877380e-02,2.157093025743961334e-02,9.577647782862186432e-03,5.117912963032722473e-02,5.398224294185638428e-02,4.314876347780227661e-02,2.309130877256393433e-02,-2.490106038749217987e-02,-9.206871688365936279e-02,-1.543670147657394409e-01,-1.895732730627059937e-01,-1.929613351821899414e-01,-2.012764513492584229e-01,-1.881560534238815308e-01,-1.545089483261108398e-01,-1.202548593282699585e-01,-1.013107150793075562e-01,-4.261360317468643188e-02,-1.064098030328750610e-01,-1.224282681941986084e-01,-8.516359329223632812e-02,-7.866699993610382080e-02,-1.585921347141265869e-01,-3.873826935887336731e-02,-1.426955908536911011e-01,-1.049107238650321960e-01,-2.677718549966812134e-02,1.890722662210464478e-02,7.682405412197113037e-02,2.706252411007881165e-02,9.616378694772720337e-02,1.114858090877532959e-01,1.176362410187721252e-01,1.213202029466629028e-01,6.381545960903167725e-02,6.172868423163890839e-03,-6.491258740425109863e-02,-1.285398006439208984e-01,-1.906716227531433105e-01,-2.455328404903411865e-01,-2.988947927951812744e-01,-3.100431561470031738e-01,-2.687032222747802734e-01,-1.880633383989334106e-01,-8.424166589975357056e-02,3.168389201164245605e-02,4.243131726980209351e-02,-9.984617680311203003e-02,-1.294556111097335815e-01,-1.129318028688430786e-01,-5.151662975549697876e-02,-9.399237483739852905e-02,-7.557734847068786621e-02,1.969481632113456726e-02,4.077970236539840698e-02,2.663659676909446716e-02,6.165405735373497009e-02,1.149830371141433716e-01,1.387876719236373901e-01,1.825891435146331787e-01,1.941769719123840332e-01,1.655576378107070923e-01,1.294352859258651733e-01,5.711187049746513367e-02,2.027393877506256104e-02,-1.111989654600620270e-02,-7.270188629627227783e-02,-1.854920536279678345e-01,-3.031968176364898682e-01,-3.490687906742095947e-01,-3.110463619232177734e-01,-1.922302693128585815e-01,-2.631257660686969757e-02,6.272658705711364746e-02,8.733831346035003662e-02,9.337148629128932953e-03,-3.001866489648818970e-02,-1.128222197294235229e-01,-1.253451704978942871e-01,-6.940510869026184082e-02,-9.506691992282867432e-02,-2.294285409152507782e-02,-3.602887270972132683e-03,4.580668732523918152e-02,8.492370694875717163e-02,1.428288966417312622e-01,1.895165592432022095e-01,2.033993005752563477e-01,2.223000526428222656e-01,1.768173724412918091e-01,1.436155140399932861e-01,1.174304857850074768e-01,1.392576992511749268e-01,1.853857189416885376e-01,1.496880352497100830e-01,-1.972405426204204559e-02,-1.836853772401809692e-01,-2.908591628074645996e-01,-2.729047238826751709e-01,-1.543406993150711060e-01,1.239499449729919434e-02,1.239213049411773682e-01,1.276042610406875610e-01,3.387496620416641235e-02,-1.006053239107131958e-01,-1.887191832065582275e-02,-1.526000201702117920e-01,-1.263335794210433960e-01,-7.861182093620300293e-02,-2.601350471377372742e-02,7.025038357824087143e-03,4.202122613787651062e-02,6.551453471183776855e-02,1.503645181655883789e-01,1.806204020977020264e-01,1.858163177967071533e-01,1.767990440130233765e-01,1.231020912528038025e-01,7.275950908660888672e-02,1.132893711328506470e-01,2.112175822257995605e-01,3.002051413059234619e-01,2.674702405929565430e-01,7.293778657913208008e-02,-1.140130013227462769e-01,-2.298764586448669434e-01,-2.090061157941818237e-01,-8.343732357025146484e-02,3.689959272742271423e-02,1.222907602787017822e-01,1.315504759550094604e-01,7.863551378250122070e-02,-9.527724236249923706e-02,-9.612070024013519287e-02,-1.021979674696922302e-01,-1.158018261194229126e-01,-9.867381304502487183e-02,-6.602718681097030640e-02,-6.262314971536397934e-03,2.644743211567401886e-02,7.971218973398208618e-02,1.222632527351379395e-01,1.705990880727767944e-01,1.647469997406005859e-01,1.086940318346023560e-01,2.942962199449539185e-02,-1.347398851066827774e-03,5.502277612686157227e-02,1.812900751829147339e-01,2.609499394893646240e-01,1.960838586091995239e-01,-3.623238066211342812e-03,-1.712757796049118042e-01,-2.261935025453567505e-01,-1.530379801988601685e-01,-4.477897286415100098e-02,2.743211574852466583e-02,8.276762068271636963e-02,6.321706622838973999e-02,1.266012806445360184e-02,-5.113060027360916138e-02,1.367275137454271317e-02,-1.031808182597160339e-01,-9.026987105607986450e-02,-7.667101919651031494e-02,-8.154814690351486206e-02,9.404964745044708252e-03,8.205362595617771149e-03,6.984119862318038940e-02,1.298219710588455200e-01,1.847627311944961548e-01,1.851355135440826416e-01,1.035287529230117798e-01,1.035460457205772400e-02,-2.379233576357364655e-02,4.096029791980981827e-03,7.259701937437057495e-02,8.811880648136138916e-02,-8.405669592320919037e-03,-1.728020012378692627e-01,-2.336779981851577759e-01,-1.676052957773208618e-01,-8.035217970609664917e-02,-1.866562850773334503e-02,1.467879395931959152e-03,2.625082060694694519e-02,1.922483928501605988e-02,-5.960042774677276611e-02,-3.253978118300437927e-02,-5.301478505134582520e-02,-8.517603576183319092e-02,-3.151480108499526978e-02,-4.538490623235702515e-02,-7.715807855129241943e-02,-4.634651169180870056e-02,2.129680663347244263e-02,5.166606232523918152e-02,1.303009539842605591e-01,2.196809947490692139e-01,2.421999573707580566e-01,1.664864271879196167e-01,4.035009816288948059e-02,-4.312086850404739380e-02,-7.586120069026947021e-02,-8.117743581533432007e-02,-1.197710856795310974e-01,-2.026045620441436768e-01,-2.521346509456634521e-01,-1.833757907152175903e-01,-6.667744368314743042e-02,1.805592211894690990e-03,1.556846406310796738e-02,-2.299449965357780457e-02,-2.881380356848239899e-02,2.920893020927906036e-03,-7.250285148620605469e-02,-1.058706045150756836e-01,-8.035885542631149292e-02,-1.546497941017150879e-01,-1.373277604579925537e-01,-5.809380859136581421e-02,-1.043289452791213989e-01,-7.755754888057708740e-02,1.591878943145275116e-02,5.526451766490936279e-02,1.367847770452499390e-01,2.434768974781036377e-01,3.023667335510253906e-01,2.326715141534805298e-01,9.646467864513397217e-02,-3.137103095650672913e-02,-1.243232041597366333e-01,-1.739341020584106445e-01,-1.938633620738983154e-01,-2.075084894895553589e-01,-1.627152115106582642e-01,-6.305326521396636963e-02,1.380688045173883438e-02,3.995738551020622253e-02,-1.342442235909402370e-03,-4.291649535298347473e-02,-3.455754369497299194e-02,2.087841741740703583e-02,5.624605342745780945e-03,-9.010150283575057983e-02,-4.044554010033607483e-02,-1.454244852066040039e-01,-1.233602762222290039e-01,-5.704304203391075134e-02,-5.858981236815452576e-02,-4.302553832530975342e-02,-1.442658994346857071e-02,1.740750670433044434e-02,1.422779709100723267e-01,2.624904513359069824e-01,3.293322026729583740e-01,3.036807477474212646e-01,1.866479367017745972e-01,5.756275355815887451e-02,-3.711476549506187439e-02,-5.689373239874839783e-02,-4.603427276015281677e-02,-2.759588509798049927e-02,2.420379593968391418e-02,6.468746811151504517e-02,7.355975359678268433e-02,4.589209333062171936e-02,-1.774088304955512285e-04,-1.250563934445381165e-02,-6.927196518518030643e-04,1.088422536849975586e-02,7.233021408319473267e-02,-9.051282703876495361e-02,-7.782156765460968018e-02,-1.155519038438796997e-01,-8.378686010837554932e-02,-1.132262945175170898e-01,-5.152766406536102295e-02,-1.099490299820899963e-01,-5.639842897653579712e-02,-3.463547443971037865e-03,1.214142590761184692e-01,2.382495254278182983e-01,3.326451778411865234e-01,3.394762575626373291e-01,2.923514246940612793e-01,2.232217192649841309e-01,1.882462799549102783e-01,2.004259526729583740e-01,2.354061007499694824e-01,2.301403582096099854e-01,1.995699554681777954e-01,1.503480076789855957e-01,8.352933079004287720e-02,2.406390756368637085e-02,-3.298739437013864517e-03,1.037700334563851357e-03,3.524491935968399048e-02,9.875065833330154419e-02,9.235370904207229614e-03,-3.186919167637825012e-02,-1.746748983860015869e-01,-7.721760123968124390e-02,-1.055165976285934448e-01,-1.345965266227722168e-01,-4.307120293378829956e-02,-1.270238757133483887e-01,-9.084092825651168823e-02,-3.369618207216262817e-02,9.008570760488510132e-02,2.065454572439193726e-01,2.664236128330230713e-01,2.934773564338684082e-01,2.924887239933013916e-01,2.980208396911621094e-01,3.491612374782562256e-01,3.995224535465240479e-01,4.051470458507537842e-01,3.520396649837493896e-01,2.695613801479339600e-01,1.716481596231460571e-01,8.426252752542495728e-02,1.503848657011985779e-02,1.485930383205413818e-02,3.686544299125671387e-02,6.471427530050277710e-02,1.063592657446861267e-01,1.438470184803009033e-01,-2.867417596280574799e-02,-8.622600883245468140e-02,-4.396875202655792236e-02,-1.127100661396980286e-01,-9.228053689002990723e-02,-6.632359325885772705e-02,-1.621672511100769043e-01,-1.426383107900619507e-01,-7.432479411363601685e-02,5.010372027754783630e-02,1.584003567695617676e-01,1.834226697683334351e-01,1.884795427322387695e-01,1.810088306665420532e-01,2.542286515235900879e-01,3.322242796421051025e-01,3.557165563106536865e-01,3.111590147018432617e-01,2.639216184616088867e-01,2.115497142076492310e-01,1.359661072492599487e-01,5.335315316915512085e-02,3.515625745058059692e-02,4.496324434876441956e-02,5.591250211000442505e-02,1.114311441779136658e-01,1.299458593130111694e-01,9.185840189456939697e-02,-1.002354472875595093e-01,-1.648582285270094872e-03,-1.603648513555526733e-01,-1.107287779450416565e-01,-8.686921745538711548e-02,-1.411196887493133545e-01,-2.082613408565521240e-01,-1.809687614440917969e-01,-8.977089822292327881e-02,2.276558615267276764e-02,1.015800610184669495e-01,1.071855053305625916e-01,7.162202149629592896e-02,9.453632682561874390e-02,1.865840554237365723e-01,2.364514619112014771e-01,1.980056166648864746e-01,1.105880960822105408e-01,1.024277880787849426e-01,1.130861565470695496e-01,8.529157191514968872e-02,6.410831212997436523e-02,7.541714608669281006e-02,1.129474863409996033e-01,1.132390722632408142e-01,1.394097357988357544e-01,1.411361694335937500e-01,1.205632984638214111e-01,3.655709698796272278e-02,-1.043026000261306763e-01,-1.266475468873977661e-01,-6.721950322389602661e-02,-9.554804861545562744e-02,-2.286062687635421753e-01,-2.443321794271469116e-01,-1.960693299770355225e-01,-8.962566405534744263e-02,4.058990161865949631e-03,8.654997497797012329e-02,8.275932818651199341e-02,5.061541125178337097e-02,9.754659980535507202e-02,1.726460605859756470e-01,1.667554676532745361e-01,4.510451853275299072e-02,-7.162880897521972656e-02,-6.070083007216453552e-02,9.723802097141742706e-03,6.567827612161636353e-02,9.817507863044738770e-02,1.449285000562667847e-01,1.623643934726715088e-01,1.705167144536972046e-01,1.633292734622955322e-01,9.352155029773712158e-02,1.465811729431152344e-01,-6.442601233720779419e-02,-4.829263687133789062e-02,-5.185721814632415771e-02,-1.419670879840850830e-01,-1.046965122222900391e-01,-2.299453169107437134e-01,-2.709576487541198730e-01,-2.228117585182189941e-01,-1.147639080882072449e-01,-3.698118496686220169e-03,7.495906203985214233e-02,1.225181892514228821e-01,1.335159540176391602e-01,1.823023855686187744e-01,2.200444787740707397e-01,1.074894741177558899e-01,-6.921836733818054199e-02,-1.800676137208938599e-01,-1.521903723478317261e-01,-3.566572070121765137e-02,7.125512510538101196e-02,1.481148153543472290e-01,2.122139632701873779e-01,2.284497022628784180e-01,1.789118647575378418e-01,1.518107503652572632e-01,5.615666508674621582e-02,4.481710866093635559e-02,-1.194717958569526672e-01,-1.550583094358444214e-01,-1.537090241909027100e-01,-1.777717918157577515e-01,-2.168941795825958252e-01,-2.701932787895202637e-01,-3.221357762813568115e-01,-2.665632963180541992e-01,-1.718142181634902954e-01,-6.289092451333999634e-02,3.526216745376586914e-02,1.393461674451828003e-01,1.969593018293380737e-01,2.289395928382873535e-01,1.978971362113952637e-01,4.224815592169761658e-02,-1.503094136714935303e-01,-2.281598448753356934e-01,-1.599832028150558472e-01,-2.082895860075950623e-02,1.111958920955657959e-01,2.131966501474380493e-01,2.585158050060272217e-01,2.187827825546264648e-01,1.735051423311233521e-01,1.562496125698089600e-01,6.245374307036399841e-02,5.173928290605545044e-02,-4.380189627408981323e-02,-1.102335974574089050e-01,-1.626475900411605835e-01,-1.382495015859603882e-01,-2.084295898675918579e-01,-2.906469702720642090e-01,-2.979841232299804688e-01,-3.049166202545166016e-01,-2.684701383113861084e-01,-1.778886616230010986e-01,-6.773903965950012207e-02,5.059695988893508911e-02,1.260334104299545288e-01,1.555775403976440430e-01,8.465715497732162476e-02,-6.996265798807144165e-02,-2.000055313110351562e-01,-2.032886594533920288e-01,-8.999237418174743652e-02,6.430651992559432983e-02,1.955498307943344116e-01,2.702390849590301514e-01,2.624347209930419922e-01,2.270611375570297241e-01,1.542401760816574097e-01,1.101972013711929321e-01,3.282850235700607300e-02,3.321588411927223206e-02,1.150027848780155182e-02,-1.445563435554504395e-01,-4.860601574182510376e-02,-1.433025747537612915e-01,-9.778485447168350220e-02,-2.161161750555038452e-01,-2.848863601684570312e-01,-2.955315411090850830e-01,-2.989592552185058594e-01,-2.627975046634674072e-01,-2.094458490610122681e-01,-1.126096174120903015e-01,-3.356771916151046753e-02,-3.308482468128204346e-02,-7.344609498977661133e-02,-1.299881488084793091e-01,-1.597517132759094238e-01,-1.031551957130432129e-01,3.496178239583969116e-02,1.858397871255874634e-01,2.794778048992156982e-01,3.097267448902130127e-01,2.576131820678710938e-01,1.982265114784240723e-01,1.593829542398452759e-01,1.244912594556808472e-01,-4.959697369486093521e-03,-3.452270478010177612e-02,-5.805205181241035461e-02,-1.337620466947555542e-01,-1.330904290080070496e-02,-1.238456517457962036e-01,-2.393949031829833984e-02,-1.215812340378761292e-01,-2.443240880966186523e-01,-2.682764530181884766e-01,-2.676908373832702637e-01,-2.551802694797515869e-01,-2.320260256528854370e-01,-1.961716711521148682e-01,-1.625003069639205933e-01,-1.521167308092117310e-01,-1.373819857835769653e-01,-1.126259863376617432e-01,-3.177004680037498474e-02,6.049315631389617920e-02,1.712511777877807617e-01,2.570021748542785645e-01,3.177621662616729736e-01,3.167538642883300781e-01,2.625713944435119629e-01,1.853360533714294434e-01,8.228559046983718872e-02,1.559787523001432419e-02,-6.051574647426605225e-02,-3.724356740713119507e-02,-6.631258130073547363e-02,-1.167540401220321655e-01,-9.269518405199050903e-02,-1.646846346557140350e-02,-1.312761306762695312e-01,-1.631867140531539917e-01,-1.869707256555557251e-01,-1.794148832559585571e-01,-1.854853332042694092e-01,-1.615767180919647217e-01,-1.510611027479171753e-01,-1.408566534519195557e-01,-1.367587745189666748e-01,-1.198952496051788330e-01,-7.401669025421142578e-02,3.402677131816744804e-03,8.518227934837341309e-02,1.797724366188049316e-01,2.308554053306579590e-01,2.629760801792144775e-01,2.992818951606750488e-01,2.758325934410095215e-01,2.521207630634307861e-01,1.933685243129730225e-01,1.127891615033149719e-01,-1.574593363329768181e-03,-1.262194812297821045e-01,-1.088037267327308655e-01,-1.546441614627838135e-01,-3.824694082140922546e-02,-9.985644370317459106e-03,-4.473277553915977478e-02,-9.322615712881088257e-02,-8.792847394943237305e-02,-3.849167749285697937e-02,-6.630260497331619263e-02,-4.442254453897476196e-02,-6.175342574715614319e-02,-3.184611722826957703e-02,9.283351711928844452e-03,1.312363427132368088e-02,2.304126508533954620e-02,2.245444059371948242e-02,6.498033553361892700e-02,1.260663419961929321e-01,1.758624315261840820e-01,1.765328198671340942e-01,2.498109787702560425e-01,2.385720610618591309e-01,2.344151139259338379e-01,2.126367390155792236e-01,8.384782820940017700e-02,4.210453480482101440e-02,-1.662442833185195923e-02,-1.207219883799552917e-01,-8.827599696815013885e-03,-1.460060924291610718e-01,-1.572296321392059326e-01,-6.639997661113739014e-02,-1.959643326699733734e-02,-6.792622804641723633e-02,-5.666734185069799423e-03,-5.510103330016136169e-02,-1.380231976509094238e-01,-1.077966019511222839e-02,-5.959739536046981812e-02,-9.625473618507385254e-02,-1.005373969674110413e-01,-1.076253056526184082e-01,-8.405767381191253662e-02,-4.362111166119575500e-02,-9.495140984654426575e-03,7.548809051513671875e-03,2.420564182102680206e-02,4.648848250508308411e-02,1.140159443020820618e-01,7.035688310861587524e-02,6.705734133720397949e-02,4.439774155616760254e-02,-4.612687602639198303e-02,-9.151345491409301758e-02,-1.050148755311965942e-01,-5.717708542943000793e-02,-1.278327107429504395e-01,-1.231743097305297852e-01,-7.029442489147186279e-02,-1.520944237709045410e-01,-9.692467749118804932e-02,-2.952723018825054169e-02,-1.353359371423721313e-01,-3.641366213560104370e-02,-4.116989299654960632e-02,-4.352997615933418274e-02,-1.472782045602798462e-01,-4.163035377860069275e-02,-4.321771860122680664e-02,-1.074414923787117004e-01,-3.053261898458003998e-02,-2.544157020747661591e-02,-9.733191132545471191e-02,-9.106615185737609863e-02,-1.875916682183742523e-02,-9.702000766992568970e-02,-2.702276781201362610e-02,-1.031852513551712036e-01,1.172963622957468033e-02,-4.504751041531562805e-02,-7.043028622865676880e-02,-1.589190512895584106e-01,-1.389624625444412231e-01,-1.857382990419864655e-02,-1.580308973789215088e-01,-1.072692945599555969e-01,-1.243653595447540283e-01
